<?xml version="1.0"?>
<opencv_storage>
<cascade>
  <stageType>BOOST</stageType>
  <featureType>LBP</featureType>
  <height>50</height>
  <width>40</width>
  <stageParams>
    <boostType>GAB</boostType>
    <minHitRate>9.9900001287460327e-01</minHitRate>
    <maxFalseAlarm>5.0000000000000000e-01</maxFalseAlarm>
    <weightTrimRate>9.4999999999999996e-01</weightTrimRate>
    <maxDepth>1</maxDepth>
    <maxWeakCount>100</maxWeakCount></stageParams>
  <featureParams>
    <maxCatCount>256</maxCatCount>
    <featSize>1</featSize></featureParams>
  <stageNum>20</stageNum>
  <stages>
    <!-- stage 0 -->
    <_>
      <maxWeakCount>3</maxWeakCount>
      <stageThreshold>-9.3688607215881348e-01</stageThreshold>
      <weakClassifiers>
        <_>
          <internalNodes>
            0 -1 67 151652360 864092304 688368413 -1083502523 889854095
            -1123436125 1789439147 -2337</internalNodes>
          <leafValues>
            -8.6965376138687134e-01 7.4571686983108521e-01</leafValues></_>
        <_>
          <internalNodes>
            0 -1 25 1577043455 -593164223 201049 1473708435 139141787
            -1127579373 848003775 2147418363</internalNodes>
          <leafValues>
            -7.4211698770523071e-01 6.2369191646575928e-01</leafValues></_>
        <_>
          <internalNodes>
            0 -1 4 1307807899 2132640216 16797943 1574371328 25165903
            -1165221879 917194475 -15776998</internalNodes>
          <leafValues>
            -6.2073904275894165e-01 6.7488467693328857e-01</leafValues></_></weakClassifiers></_>
    <!-- stage 1 -->
    <_>
      <maxWeakCount>5</maxWeakCount>
      <stageThreshold>-8.5428315401077271e-01</stageThreshold>
      <weakClassifiers>
        <_>
          <internalNodes>
            0 -1 12 -740604945 -609157117 1379992591 1563236251
            157354639 729884800 1223363759 200081547</internalNodes>
          <leafValues>
            -8.2201403379440308e-01 6.4023870229721069e-01</leafValues></_>
        <_>
          <internalNodes>
            0 -1 32 -16201739 -11161328 -1760542512 -2784236 29591729
            -103708535 338362689 -544915200</internalNodes>
          <leafValues>
            -6.5421342849731445e-01 6.6203904151916504e-01</leafValues></_>
        <_>
          <internalNodes>
            0 -1 5 -798374955 1360114647 268689695 -170659557 549530607
            537395337 1366229179 1801448079</internalNodes>
          <leafValues>
            -5.9318244457244873e-01 6.0138672590255737e-01</leafValues></_>
        <_>
          <internalNodes>
            0 -1 137 -578760560 1409876160 1410602969 2144174649
            1292425912 -1743023480 439852443 -1658879429</internalNodes>
          <leafValues>
            -4.8413726687431335e-01 7.4745923280715942e-01</leafValues></_>
        <_>
          <internalNodes>
            0 -1 58 1415434495 564104842 1426231647 -713959395
            -2070671937 780413057 -987494209 1340131</internalNodes>
          <leafValues>
            -7.6673036813735962e-01 5.0469481945037842e-01</leafValues></_></weakClassifiers></_>
    <!-- stage 2 -->
    <_>
      <maxWeakCount>5</maxWeakCount>
      <stageThreshold>-9.1017252206802368e-01</stageThreshold>
      <weakClassifiers>
        <_>
          <internalNodes>
            0 -1 31 -2082011185 -969600051 1013255575 1593901203
            47287287 -4058318 797182947 535429551</internalNodes>
          <leafValues>
            -8.1453633308410645e-01 6.0366362333297729e-01</leafValues></_>
        <_>
          <internalNodes>
            0 -1 22 35033087 -191305386 -1047984681 -2931883 5967231
            -1836932516 94913369 -4237565</internalNodes>
          <leafValues>
            -6.2455660104751587e-01 5.5568152666091919e-01</leafValues></_>
        <_>
          <internalNodes>
            0 -1 6 1920460619 1630163396 -250541289 1505986050
            1620249454 8488643 1088159711 1537996991</internalNodes>
          <leafValues>
            -6.2484967708587646e-01 5.4391330480575562e-01</leafValues></_>
        <_>
          <internalNodes>
            0 -1 97 -918800545 621871445 -1723547241 937242641
            1343979909 1065701632 -381300513 273723199</internalNodes>
          <leafValues>
            -6.6094350814819336e-01 5.3669100999832153e-01</leafValues></_>
        <_>
          <internalNodes>
            0 -1 85 -216940336 1945980672 -1778168927 -1887986493
            -429870454 -1170219766 595713930 -546593092</internalNodes>
          <leafValues>
            -5.3344839811325073e-01 6.1707907915115356e-01</leafValues></_></weakClassifiers></_>
    <!-- stage 3 -->
    <_>
      <maxWeakCount>6</maxWeakCount>
      <stageThreshold>-1.1793529987335205e+00</stageThreshold>
      <weakClassifiers>
        <_>
          <internalNodes>
            0 -1 46 -1461050838 -1157628161 -1342186497 1006616575
            50266862 -67108993 1342117791 -3209441</internalNodes>
          <leafValues>
            -5.8349704742431641e-01 6.3886344432830811e-01</leafValues></_>
        <_>
          <internalNodes>
            0 -1 2 1396287295 -1887040717 1090541211 -271052077 46739407
            1792541398 1506362047 2061960703</internalNodes>
          <leafValues>
            -7.2539252042770386e-01 4.8030465841293335e-01</leafValues></_>
        <_>
          <internalNodes>
            0 -1 76 -662378276 1359070276 -2011168492 169050113
            1245907118 34095280 -1593433430 -812917845</internalNodes>
          <leafValues>
            -6.3339793682098389e-01 4.6870207786560059e-01</leafValues></_>
        <_>
          <internalNodes>
            0 -1 33 -205527243 -529288 -1073748495 -2174735 1744010988
            1340734960 1475822417 -4447933</internalNodes>
          <leafValues>
            -5.2941483259201050e-01 6.0965782403945923e-01</leafValues></_>
        <_>
          <internalNodes>
            0 -1 84 -243204400 -348572959 119359321 391584035
            -1324500694 -2004929332 -2129626469 -1884837205</internalNodes>
          <leafValues>
            -5.1655691862106323e-01 6.1281436681747437e-01</leafValues></_>
        <_>
          <internalNodes>
            0 -1 24 -881605053 1251178494 -1241678266 1023148031
            107302292 1081442174 -143004239 -60817539</internalNodes>
          <leafValues>
            -5.3586357831954956e-01 6.4007514715194702e-01</leafValues></_></weakClassifiers></_>
    <!-- stage 4 -->
    <_>
      <maxWeakCount>7</maxWeakCount>
      <stageThreshold>-8.7385332584381104e-01</stageThreshold>
      <weakClassifiers>
        <_>
          <internalNodes>
            0 -1 30 -1058284985 12582895 -273 -1073741825 569853463
            331317247 116866879 1939863551</internalNodes>
          <leafValues>
            -5.3386455774307251e-01 6.0837888717651367e-01</leafValues></_>
        <_>
          <internalNodes>
            0 -1 41 -1234976847 -1747242799 -1742659119 -76263408
            404450031 -1165866474 1663595860 -68939760</internalNodes>
          <leafValues>
            -5.7942509651184082e-01 5.4401570558547974e-01</leafValues></_>
        <_>
          <internalNodes>
            0 -1 106 808746975 973969805 -1870130437 -1651194531
            1212156383 -1426374385 -871337849 978353998</internalNodes>
          <leafValues>
            -7.2315615415573120e-01 3.7841001152992249e-01</leafValues></_>
        <_>
          <internalNodes>
            0 -1 69 1917509632 335786019 135274517 539025447 604137827
            677447044 -1014103934 -921757</internalNodes>
          <leafValues>
            -7.1568167209625244e-01 3.9878240227699280e-01</leafValues></_>
        <_>
          <internalNodes>
            0 -1 111 -114041392 470746113 -2070888229 -1106795198
            -1582624200 681083040 -2111822882 -1483751417</internalNodes>
          <leafValues>
            -5.2441000938415527e-01 5.6140679121017456e-01</leafValues></_>
        <_>
          <internalNodes>
            0 -1 140 -725243941 -1832711361 1342374095 -1722713783
            17043386 -1461432187 -1981952085 -1204801024</internalNodes>
          <leafValues>
            -5.8328276872634888e-01 5.1121354103088379e-01</leafValues></_>
        <_>
          <internalNodes>
            0 -1 42 -1476680001 -671091205 -10305 -536896004 -2097180673
            -1678249993 1442252684 -1616969574</internalNodes>
          <leafValues>
            -5.2009814977645874e-01 5.6993663311004639e-01</leafValues></_></weakClassifiers></_>
    <!-- stage 5 -->
    <_>
      <maxWeakCount>7</maxWeakCount>
      <stageThreshold>-7.1896636486053467e-01</stageThreshold>
      <weakClassifiers>
        <_>
          <internalNodes>
            0 -1 38 37923562 410096032 -1593795435 -138050558 546942697
            2074003864 151036251 -593710744</internalNodes>
          <leafValues>
            -6.3544303178787231e-01 5.4024899005889893e-01</leafValues></_>
        <_>
          <internalNodes>
            0 -1 35 -135137281 2147284186 2113884143 -554478127
            -2013414401 -134332968 1073192411 -8366648</internalNodes>
          <leafValues>
            -4.1651412844657898e-01 6.2384426593780518e-01</leafValues></_>
        <_>
          <internalNodes>
            0 -1 87 1565105370 -265548800 1615895677 292889203
            -152771104 -381341756 138714638 -57966193</internalNodes>
          <leafValues>
            -4.1373738646507263e-01 6.1746573448181152e-01</leafValues></_>
        <_>
          <internalNodes>
            0 -1 78 -740107558 -548175152 159650559 85084201 -1071056421
            -582153872 828653467 -1674609413</internalNodes>
          <leafValues>
            -4.6135762333869934e-01 5.6688749790191650e-01</leafValues></_>
        <_>
          <internalNodes>
            0 -1 139 1112865983 1762574732 10016204 1904469061
            -695795642 -1662484344 1824818653 722173407</internalNodes>
          <leafValues>
            -6.4403027296066284e-01 4.5880991220474243e-01</leafValues></_>
        <_>
          <internalNodes>
            0 -1 16 -687425867 -184544884 2030060161 -267812856 23824231
            889987460 847970747 -10329773</internalNodes>
          <leafValues>
            -5.9611928462982178e-01 4.8212298750877380e-01</leafValues></_>
        <_>
          <internalNodes>
            0 -1 36 1909574794 587761041 1254772885 135563793
            -2121694837 -1583838808 1625328798 394920108</internalNodes>
          <leafValues>
            -7.3285722732543945e-01 3.7667381763458252e-01</leafValues></_></weakClassifiers></_>
    <!-- stage 6 -->
    <_>
      <maxWeakCount>7</maxWeakCount>
      <stageThreshold>-7.8280133008956909e-01</stageThreshold>
      <weakClassifiers>
        <_>
          <internalNodes>
            0 -1 98 19665717 4202496 -1520959347 902164943 -658292527
            751460416 -926375795 466436169</internalNodes>
          <leafValues>
            -6.6459625959396362e-01 4.8043817281723022e-01</leafValues></_>
        <_>
          <internalNodes>
            0 -1 127 -646917904 -551730175 -2049861019 992316817
            478195354 -1293016052 1058647103 -1690365171</internalNodes>
          <leafValues>
            -4.2637935280799866e-01 5.3540748357772827e-01</leafValues></_>
        <_>
          <internalNodes>
            0 -1 113 -679440192 -635322182 340706799 -2019155218
            -1321198966 -1817801510 -919470593 521631103</internalNodes>
          <leafValues>
            -5.0297009944915771e-01 5.2132987976074219e-01</leafValues></_>
        <_>
          <internalNodes>
            0 -1 88 -76754768 -583063514 -1287122786 1965632746
            -1611727936 -15744804 765537247 -1576336819</internalNodes>
          <leafValues>
            -4.9148839712142944e-01 5.2851372957229614e-01</leafValues></_>
        <_>
          <internalNodes>
            0 -1 39 -250675362 -725296046 -1068462063 -775614440
            -2085647477 -528318408 1116330459 -444263040</internalNodes>
          <leafValues>
            -5.7419878244400024e-01 4.6221575140953064e-01</leafValues></_>
        <_>
          <internalNodes>
            0 -1 104 1556140248 -546731965 1964081368 320016984
            2021960336 -1165881085 1187036 455059887</internalNodes>
          <leafValues>
            -6.4406442642211914e-01 4.6205490827560425e-01</leafValues></_>
        <_>
          <internalNodes>
            0 -1 10 -211982814 -1571528445 -268098560 -1151655911
            1377894404 1377837393 -2138830695 -1602921</internalNodes>
          <leafValues>
            -5.9620147943496704e-01 4.5298978686332703e-01</leafValues></_></weakClassifiers></_>
    <!-- stage 7 -->
    <_>
      <maxWeakCount>7</maxWeakCount>
      <stageThreshold>-1.1726192235946655e+00</stageThreshold>
      <weakClassifiers>
        <_>
          <internalNodes>
            0 -1 3 1081685335 1692429205 1090593627 1507166909 42795423
            1744853512 46727675 2140013775</internalNodes>
          <leafValues>
            -6.8768769502639771e-01 4.9644830822944641e-01</leafValues></_>
        <_>
          <internalNodes>
            0 -1 131 56179967 940155863 -394193793 -66787183 38163421
            -80423039 -1727919141 997197633</internalNodes>
          <leafValues>
            -6.5303432941436768e-01 3.6709496378898621e-01</leafValues></_>
        <_>
          <internalNodes>
            0 -1 61 -494671220 1228094879 2 9242945 1392749350 4522368
            1493354915 -19937261</internalNodes>
          <leafValues>
            -6.1756843328475952e-01 4.3152242898941040e-01</leafValues></_>
        <_>
          <internalNodes>
            0 -1 100 1482539151 -2147431680 -2009030213 -519704178
            706433265 -1210005472 1879577271 -1582507366</internalNodes>
          <leafValues>
            -4.9656569957733154e-01 5.3277790546417236e-01</leafValues></_>
        <_>
          <internalNodes>
            0 -1 136 1276121336 289997856 1361585164 488180230
            -2012722758 -1207891550 138517023 1930101406</internalNodes>
          <leafValues>
            -6.7469322681427002e-01 3.8523295521736145e-01</leafValues></_>
        <_>
          <internalNodes>
            0 -1 66 -502223183 -149774336 1368940245 -148927087
            1698728626 -1703273920 726098321 -544524091</internalNodes>
          <leafValues>
            -5.9333550930023193e-01 4.5750325918197632e-01</leafValues></_>
        <_>
          <internalNodes>
            0 -1 144 270391316 675726348 1410519503 -2134588026 14022280
            -1115628543 -1604720500 673339799</internalNodes>
          <leafValues>
            -7.1392577886581421e-01 4.1126075387001038e-01</leafValues></_></weakClassifiers></_>
    <!-- stage 8 -->
    <_>
      <maxWeakCount>10</maxWeakCount>
      <stageThreshold>-9.6994656324386597e-01</stageThreshold>
      <weakClassifiers>
        <_>
          <internalNodes>
            0 -1 29 -1024807382 -1358956033 1341077503 -151035906
            1089669035 1677705215 1728005975 -512927933</internalNodes>
          <leafValues>
            -4.7461369633674622e-01 5.3618133068084717e-01</leafValues></_>
        <_>
          <internalNodes>
            0 -1 74 -779992440 -1713274805 142713791 251724009 176175906
            411615364 1216455355 -947910016</internalNodes>
          <leafValues>
            -5.5113959312438965e-01 4.0700796246528625e-01</leafValues></_>
        <_>
          <internalNodes>
            0 -1 19 -251473622 -787326190 -1073740784 -644235136
            -939197782 -976601052 1127090123 -346732894</internalNodes>
          <leafValues>
            -4.9374628067016602e-01 4.5701116323471069e-01</leafValues></_>
        <_>
          <internalNodes>
            0 -1 126 -941559568 188678212 -1052763117 2131053593
            -1860173686 310542472 403083498 -711523958</internalNodes>
          <leafValues>
            -5.2195709943771362e-01 4.7168698906898499e-01</leafValues></_>
        <_>
          <internalNodes>
            0 -1 118 -1013932912 -637690717 1643467131 396578493
            -1422667112 -762053670 -498803057 -1961993432</internalNodes>
          <leafValues>
            -4.7814676165580750e-01 5.1035314798355103e-01</leafValues></_>
        <_>
          <internalNodes>
            0 -1 59 1678109229 -805260770 -1019130279 -726629056
            -1414404469 -133353438 1895826071 -4258543</internalNodes>
          <leafValues>
            -5.0150698423385620e-01 5.1217192411422729e-01</leafValues></_>
        <_>
          <internalNodes>
            0 -1 135 -592163943 -286483171 -671422667 1000955902
            -143802404 -1176740373 -575478324 -1660417487</internalNodes>
          <leafValues>
            -4.2697322368621826e-01 6.2698674201965332e-01</leafValues></_>
        <_>
          <internalNodes>
            0 -1 105 -330960692 -740589504 193237023 -578609884
            -795836256 -93388639 19049725 -505012217</internalNodes>
          <leafValues>
            -5.1851487159729004e-01 5.1858788728713989e-01</leafValues></_>
        <_>
          <internalNodes>
            0 -1 102 1887029309 11418408 2146139899 -994181719 91975329
            -1111918604 -146834595 -276955143</internalNodes>
          <leafValues>
            -5.0114482641220093e-01 5.6175404787063599e-01</leafValues></_>
        <_>
          <internalNodes>
            0 -1 40 -1967476931 -1893421636 -166924 -1614834580
            -1765990412 -587735043 853964725 -277574640</internalNodes>
          <leafValues>
            -4.7107866406440735e-01 5.9299367666244507e-01</leafValues></_></weakClassifiers></_>
    <!-- stage 9 -->
    <_>
      <maxWeakCount>9</maxWeakCount>
      <stageThreshold>-6.6552388668060303e-01</stageThreshold>
      <weakClassifiers>
        <_>
          <internalNodes>
            0 -1 13 -788347937 1344836171 1342718409 -754969270 10519001
            -1743511480 1950417851 1314980426</internalNodes>
          <leafValues>
            -6.0422164201736450e-01 5.1515150070190430e-01</leafValues></_>
        <_>
          <internalNodes>
            0 -1 28 -533208883 -1727495160 1431425885 -106083703
            1193010165 -1162696552 1317732355 -301575935</internalNodes>
          <leafValues>
            -5.3053706884384155e-01 4.4733029603958130e-01</leafValues></_>
        <_>
          <internalNodes>
            0 -1 17 -413155250 872645120 100715008 -505396944 1534791693
            2013266176 1612927539 -248819435</internalNodes>
          <leafValues>
            -4.9042847752571106e-01 4.9255159497261047e-01</leafValues></_>
        <_>
          <internalNodes>
            0 -1 134 -212329256 -719814513 41948197 -1079180529
            -1438021494 -91422710 1076547639 -560187006</internalNodes>
          <leafValues>
            -4.7915449738502502e-01 4.8365122079849243e-01</leafValues></_>
        <_>
          <internalNodes>
            0 -1 54 -1476268836 -1325182843 1716662285 -652385451
            1728681363 -1090313565 1350653213 -655469564</internalNodes>
          <leafValues>
            -5.4041773080825806e-01 4.4834625720977783e-01</leafValues></_>
        <_>
          <internalNodes>
            0 -1 129 889253968 -571913530 -1766229033 -1653389801
            373012715 -98959158 312355007 -1458573589</internalNodes>
          <leafValues>
            -4.1814741492271423e-01 6.2303584814071655e-01</leafValues></_>
        <_>
          <internalNodes>
            0 -1 89 -1981744924 -144463441 988263513 536307407 -34036546
            -1612954151 1772104635 -811620689</internalNodes>
          <leafValues>
            -4.1757404804229736e-01 6.2357372045516968e-01</leafValues></_>
        <_>
          <internalNodes>
            0 -1 112 2125112067 1046413152 1073659860 -1086898308
            590171968 -1220825127 -2120646197 -1716408417</internalNodes>
          <leafValues>
            -5.0706022977828979e-01 5.3067171573638916e-01</leafValues></_>
        <_>
          <internalNodes>
            0 -1 27 -749274920 -355398370 537186572 -1249378240
            789818106 -1529248512 -641726231 805803157</internalNodes>
          <leafValues>
            -5.9039992094039917e-01 4.3330100178718567e-01</leafValues></_></weakClassifiers></_>
    <!-- stage 10 -->
    <_>
      <maxWeakCount>8</maxWeakCount>
      <stageThreshold>-6.9080764055252075e-01</stageThreshold>
      <weakClassifiers>
        <_>
          <internalNodes>
            0 -1 65 -1991867617 772505880 12648753 -1413165048 406995539
            625480001 -104848885 1880126208</internalNodes>
          <leafValues>
            -6.2229102849960327e-01 4.7063431143760681e-01</leafValues></_>
        <_>
          <internalNodes>
            0 -1 18 -759110923 1343553551 278585 886116876 851445581
            914425898 272804367 69272283</internalNodes>
          <leafValues>
            -7.0874118804931641e-01 3.2401198148727417e-01</leafValues></_>
        <_>
          <internalNodes>
            0 -1 123 1363892848 -1875804084 1426098203 499208202
            -1601518917 -50200448 2057308587 804204936</internalNodes>
          <leafValues>
            -5.9690004587173462e-01 3.7714904546737671e-01</leafValues></_>
        <_>
          <internalNodes>
            0 -1 49 1926951042 -41680552 201499779 159662305 2064748730
            805849088 1258855976 1602268355</internalNodes>
          <leafValues>
            -6.2719500064849854e-01 3.6786258220672607e-01</leafValues></_>
        <_>
          <internalNodes>
            0 -1 145 1599587405 4227081 537170459 273174604 -263094141
            696488040 -574385511 443867207</internalNodes>
          <leafValues>
            -5.7900732755661011e-01 4.3094468116760254e-01</leafValues></_>
        <_>
          <internalNodes>
            0 -1 63 -1022070050 -1337798384 352586115 286339473
            -2147366751 -1575354232 576228127 -2136473459</internalNodes>
          <leafValues>
            -4.9391278624534607e-01 5.0596171617507935e-01</leafValues></_>
        <_>
          <internalNodes>
            0 -1 37 -218968067 -1605893 -201353985 1337970932 1744209911
            -66052 1677262935 -1076804717</internalNodes>
          <leafValues>
            -4.9424943327903748e-01 5.7582408189773560e-01</leafValues></_>
        <_>
          <internalNodes>
            0 -1 51 -365561634 1381433348 -2146875896 246841609
            -2139851997 1644233344 160268927 -216558637</internalNodes>
          <leafValues>
            -5.7024520635604858e-01 4.7643089294433594e-01</leafValues></_></weakClassifiers></_>
    <!-- stage 11 -->
    <_>
      <maxWeakCount>9</maxWeakCount>
      <stageThreshold>-7.1640634536743164e-01</stageThreshold>
      <weakClassifiers>
        <_>
          <internalNodes>
            0 -1 79 -2128075671 779725837 556056841 422896704 1025510237
            961241633 -1601180167 946883910</internalNodes>
          <leafValues>
            -6.2500000000000000e-01 4.9679487943649292e-01</leafValues></_>
        <_>
          <internalNodes>
            0 -1 7 -1022107157 -243269607 -585886445 -1475051512
            1083463551 813697162 1944601175 -541572348</internalNodes>
          <leafValues>
            -5.1936823129653931e-01 4.0160220861434937e-01</leafValues></_>
        <_>
          <internalNodes>
            0 -1 75 -1064254001 134778928 -1695249703 -1648449415
            -302042011 -1117260450 1441354367 -589497126</internalNodes>
          <leafValues>
            -4.2506244778633118e-01 5.2755796909332275e-01</leafValues></_>
        <_>
          <internalNodes>
            0 -1 119 -1173290943 -1257207791 8737173 -1071529555
            -1710187318 453119960 -389404102 -2079061496</internalNodes>
          <leafValues>
            -5.0033956766128540e-01 4.7205063700675964e-01</leafValues></_>
        <_>
          <internalNodes>
            0 -1 110 295391572 -644767269 1342328897 -1694399167
            -1978920758 -908836736 -1702801767 -385587688</internalNodes>
          <leafValues>
            -5.0837695598602295e-01 4.5915609598159790e-01</leafValues></_>
        <_>
          <internalNodes>
            0 -1 26 323397122 -198572526 1099026434 -628665968
            -1475548834 -1887426035 1624557184 -1044135902</internalNodes>
          <leafValues>
            -5.5330950021743774e-01 4.5101678371429443e-01</leafValues></_>
        <_>
          <internalNodes>
            0 -1 141 -695496264 289802570 155275577 1333854213
            -918306360 67191187 1757512107 -1685599829</internalNodes>
          <leafValues>
            -5.0236737728118896e-01 4.9342775344848633e-01</leafValues></_>
        <_>
          <internalNodes>
            0 -1 143 423970335 408863452 1359106293 617156609 -515693707
            -1457277182 -1301513685 746327200</internalNodes>
          <leafValues>
            -6.6114997863769531e-01 3.7326195836067200e-01</leafValues></_>
        <_>
          <internalNodes>
            0 -1 125 -1055935791 -546090862 828188023 1440464858
            842273963 -81682160 -1554839969 -1142997077</internalNodes>
          <leafValues>
            -4.4091412425041199e-01 6.0294222831726074e-01</leafValues></_></weakClassifiers></_>
    <!-- stage 12 -->
    <_>
      <maxWeakCount>7</maxWeakCount>
      <stageThreshold>-1.3651101589202881e+00</stageThreshold>
      <weakClassifiers>
        <_>
          <internalNodes>
            0 -1 23 2010365771 1651699931 2145353517 -754974721
            1141266765 2951157 -409075841 2147475455</internalNodes>
          <leafValues>
            -3.5897436738014221e-01 5.6546491384506226e-01</leafValues></_>
        <_>
          <internalNodes>
            0 -1 132 -1258092028 -1286008916 -1543465577 -448397264
            -2113367109 -1003420528 -679438616 -842854391</internalNodes>
          <leafValues>
            -4.6350577473640442e-01 4.7012928128242493e-01</leafValues></_>
        <_>
          <internalNodes>
            0 -1 107 -266508387 1095032977 164247 -599932751 -1961717293
            -401931900 293679308 -277346120</internalNodes>
          <leafValues>
            -4.6551567316055298e-01 4.7393238544464111e-01</leafValues></_>
        <_>
          <internalNodes>
            0 -1 57 -356368320 -128454079 1258564202 1397998960
            -2136453921 539082827 -908550401 -769416566</internalNodes>
          <leafValues>
            -5.9587377309799194e-01 3.9682072401046753e-01</leafValues></_>
        <_>
          <internalNodes>
            0 -1 117 -766250448 -585587553 408734719 527137342 221043402
            1510673571 1772981227 -1614930113</internalNodes>
          <leafValues>
            -4.5146584510803223e-01 5.2666509151458740e-01</leafValues></_>
        <_>
          <internalNodes>
            0 -1 91 -616890927 -1159168040 -25198735 -813830315
            1207903203 -1073743363 2140538183 -405283339</internalNodes>
          <leafValues>
            -4.1059002280235291e-01 5.9955871105194092e-01</leafValues></_>
        <_>
          <internalNodes>
            0 -1 34 -1555826225 2067808704 1946219779 1812525056 805633
            -1239764934 42467503 1334445483</internalNodes>
          <leafValues>
            -6.5590971708297729e-01 3.8812077045440674e-01</leafValues></_></weakClassifiers></_>
    <!-- stage 13 -->
    <_>
      <maxWeakCount>9</maxWeakCount>
      <stageThreshold>-1.1049747467041016e+00</stageThreshold>
      <weakClassifiers>
        <_>
          <internalNodes>
            0 -1 45 239529071 671211571 -385744871 1344357376 1212266865
            1066453013 6309136 358678544</internalNodes>
          <leafValues>
            -5.9365081787109375e-01 4.5680934190750122e-01</leafValues></_>
        <_>
          <internalNodes>
            0 -1 1 2004314944 -788479999 -1039642599 2014249219
            1879392772 161552424 1900812462 1414523091</internalNodes>
          <leafValues>
            -5.6488817930221558e-01 3.5757127404212952e-01</leafValues></_>
        <_>
          <internalNodes>
            0 -1 101 -800435052 1984593946 -2128854604 -1316682558
            1610743979 -523729792 245299883 152010771</internalNodes>
          <leafValues>
            -5.1793456077575684e-01 4.4161486625671387e-01</leafValues></_>
        <_>
          <internalNodes>
            0 -1 130 -629084944 -786792128 -1744301201 2131593476
            -1600080928 -1760919390 -637481317 612565183</internalNodes>
          <leafValues>
            -5.1863330602645874e-01 4.1372811794281006e-01</leafValues></_>
        <_>
          <internalNodes>
            0 -1 114 -781921795 -25051109 352354559 493420756
            -1066911046 -1637149767 -1690977729 -273708610</internalNodes>
          <leafValues>
            -3.3392339944839478e-01 6.9792789220809937e-01</leafValues></_>
        <_>
          <internalNodes>
            0 -1 50 -113830556 807733716 -1073471215 440148035
            -335478507 -293174398 -502988661 -1040529391</internalNodes>
          <leafValues>
            -5.1683342456817627e-01 4.5932865142822266e-01</leafValues></_>
        <_>
          <internalNodes>
            0 -1 108 -1337695083 974492086 -2147366525 1102891450
            -1610610113 -1430779776 -800362066 769660240</internalNodes>
          <leafValues>
            -6.6454958915710449e-01 3.3877328038215637e-01</leafValues></_>
        <_>
          <internalNodes>
            0 -1 133 -518989816 1362597440 185671936 -645246324
            -1256083013 -153960008 1279875371 1338360425</internalNodes>
          <leafValues>
            -5.8356863260269165e-01 4.1633599996566772e-01</leafValues></_>
        <_>
          <internalNodes>
            0 -1 11 1891840227 1627404551 1888620099 1958771713
            143155758 1887447176 292719307 1887445167</internalNodes>
          <leafValues>
            -7.7531319856643677e-01 3.0641949176788330e-01</leafValues></_></weakClassifiers></_>
    <!-- stage 14 -->
    <_>
      <maxWeakCount>9</maxWeakCount>
      <stageThreshold>-7.5257241725921631e-01</stageThreshold>
      <weakClassifiers>
        <_>
          <internalNodes>
            0 -1 47 180988584 39297176 704733314 5620288 546974492
            939693440 1412448664 1034024963</internalNodes>
          <leafValues>
            -7.5806450843811035e-01 4.3491125106811523e-01</leafValues></_>
        <_>
          <internalNodes>
            0 -1 122 -261492272 -1181677674 -502922058 -10813410
            676602026 451471572 -1576472133 423823879</internalNodes>
          <leafValues>
            -4.6065723896026611e-01 4.1188797354698181e-01</leafValues></_>
        <_>
          <internalNodes>
            0 -1 148 1629542570 1064962 1140902093 79745990 67291333
            598017 -1040138229 777051499</internalNodes>
          <leafValues>
            -5.8583027124404907e-01 3.7914177775382996e-01</leafValues></_>
        <_>
          <internalNodes>
            0 -1 64 402743167 -1593748200 805419541 -481180591
            -1072920101 -263992176 -922509519 -1763175395</internalNodes>
          <leafValues>
            -4.9632528424263000e-01 4.2937451601028442e-01</leafValues></_>
        <_>
          <internalNodes>
            0 -1 116 -196552676 486621204 -1065236331 -1856956411
            -853892886 -1971249023 672206985 -606952445</internalNodes>
          <leafValues>
            -4.7584646940231323e-01 4.9268081784248352e-01</leafValues></_>
        <_>
          <internalNodes>
            0 -1 124 -804060348 -765869744 -1852597065 1409286216
            -1744829280 -1583314792 436437426 -75953641</internalNodes>
          <leafValues>
            -5.4086077213287354e-01 4.2970997095108032e-01</leafValues></_>
        <_>
          <internalNodes>
            0 -1 71 -724266800 -720764839 201889566 788563995 537006744
            1342406916 722098810 -111769439</internalNodes>
          <leafValues>
            -5.4076993465423584e-01 4.4777029752731323e-01</leafValues></_>
        <_>
          <internalNodes>
            0 -1 95 -104694790 993893549 1975952627 2067094459
            -1452184375 1499352404 -789131560 -561800193</internalNodes>
          <leafValues>
            -3.7882015109062195e-01 6.2215578556060791e-01</leafValues></_>
        <_>
          <internalNodes>
            0 -1 72 -1727847862 429025345 1209041004 1494968837
            -1995764432 -1593824350 -2046645104 -1327277563</internalNodes>
          <leafValues>
            -4.7159063816070557e-01 5.1717174053192139e-01</leafValues></_></weakClassifiers></_>
    <!-- stage 15 -->
    <_>
      <maxWeakCount>8</maxWeakCount>
      <stageThreshold>-5.2198100090026855e-01</stageThreshold>
      <weakClassifiers>
        <_>
          <internalNodes>
            0 -1 43 -363074962 36892415 -1427396486 941686783 1899263861
            1430093823 2013265535 -1073745921</internalNodes>
          <leafValues>
            -3.7698411941528320e-01 5.3832119703292847e-01</leafValues></_>
        <_>
          <internalNodes>
            0 -1 70 -497851768 1949506075 167807194 350346573
            -2139062117 1224935424 1360562809 -540235617</internalNodes>
          <leafValues>
            -5.2363598346710205e-01 3.8490322232246399e-01</leafValues></_>
        <_>
          <internalNodes>
            0 -1 93 -607931383 -1030968760 -1225728297 -1320698464
            2062940133 -42078467 661638655 -1206874822</internalNodes>
          <leafValues>
            -4.0241482853889465e-01 5.2091330289840698e-01</leafValues></_>
        <_>
          <internalNodes>
            0 -1 138 -803151668 -1870450620 270014770 1964180390
            -1450457665 -1199013760 488306922 1542655133</internalNodes>
          <leafValues>
            -5.0249665975570679e-01 4.1962718963623047e-01</leafValues></_>
        <_>
          <internalNodes>
            0 -1 128 1543920728 726729156 1023621429 1370837649
            -1811822391 436412490 411947743 1068443151</internalNodes>
          <leafValues>
            -6.1289685964584351e-01 3.5148161649703979e-01</leafValues></_>
        <_>
          <internalNodes>
            0 -1 14 -788418506 537432266 67240066 809669651 -1327261477
            570918299 -268402679 1755717657</internalNodes>
          <leafValues>
            -5.7746803760528564e-01 4.1300776600837708e-01</leafValues></_>
        <_>
          <internalNodes>
            0 -1 52 1997854116 -1068977613 1426092081 -1207692881
            -1581218805 -133119658 33571 543887395</internalNodes>
          <leafValues>
            -6.9786924123764038e-01 3.4652426838874817e-01</leafValues></_>
        <_>
          <internalNodes>
            0 -1 147 1385164375 1476711685 1879429381 1075618134 9805827
            -1685471231 -2147319807 231334219</internalNodes>
          <leafValues>
            -5.3856205940246582e-01 4.5827952027320862e-01</leafValues></_></weakClassifiers></_>
    <!-- stage 16 -->
    <_>
      <maxWeakCount>8</maxWeakCount>
      <stageThreshold>-1.0234671831130981e+00</stageThreshold>
      <weakClassifiers>
        <_>
          <internalNodes>
            0 -1 80 1366216912 2144604094 107810494 268175423 2064319760
            -1679385090 238216469 -1893949555</internalNodes>
          <leafValues>
            -2.7386540174484253e-01 5.9833508729934692e-01</leafValues></_>
        <_>
          <internalNodes>
            0 -1 20 1603337472 -1190622462 -1593067231 -711662542
            -1068489974 -931134720 1082283030 461590826</internalNodes>
          <leafValues>
            -6.0249227285385132e-01 3.3792936801910400e-01</leafValues></_>
        <_>
          <internalNodes>
            0 -1 62 10473546 8532258 -799397941 -1876615039 -1857412621
            1029195913 1879344562 -1370576728</internalNodes>
          <leafValues>
            -5.5195701122283936e-01 3.4656488895416260e-01</leafValues></_>
        <_>
          <internalNodes>
            0 -1 86 -70517540 -751106947 391018457 1562707829 -90507086
            -1652403176 -1625669637 -608492824</internalNodes>
          <leafValues>
            -3.1887835264205933e-01 6.7302733659744263e-01</leafValues></_>
        <_>
          <internalNodes>
            0 -1 56 -1828577113 -1877042671 -587103851 -1459381999
            1118544743 463970451 1242173985 -12320064</internalNodes>
          <leafValues>
            -5.9411340951919556e-01 4.1196796298027039e-01</leafValues></_>
        <_>
          <internalNodes>
            0 -1 92 -1784328110 -1459272695 311693659 453052108
            203492038 -1885831104 1115696703 256429577</internalNodes>
          <leafValues>
            -5.6495797634124756e-01 4.0491765737533569e-01</leafValues></_>
        <_>
          <internalNodes>
            0 -1 21 590273410 -177175738 277153136 -2127478768
            -1056308942 1157793794 1089799334 -1989205046</internalNodes>
          <leafValues>
            -5.2095967531204224e-01 4.6074977517127991e-01</leafValues></_>
        <_>
          <internalNodes>
            0 -1 96 420449435 -938982055 -1609202521 -117324505
            571847670 -402578431 -521633217 537704874</internalNodes>
          <leafValues>
            -4.8824980854988098e-01 4.9501475691795349e-01</leafValues></_></weakClassifiers></_>
    <!-- stage 17 -->
    <_>
      <maxWeakCount>9</maxWeakCount>
      <stageThreshold>-9.3373954296112061e-01</stageThreshold>
      <weakClassifiers>
        <_>
          <internalNodes>
            0 -1 44 -805264700 841056384 136853634 33590408 914401295
            281176072 151552145 79813376</internalNodes>
          <leafValues>
            -6.5567767620086670e-01 4.3632254004478455e-01</leafValues></_>
        <_>
          <internalNodes>
            0 -1 53 551470940 -1073564652 17740873 -109333360 612382627
            -1574817655 1487669207 -1008726012</internalNodes>
          <leafValues>
            -5.9268373250961304e-01 3.2531628012657166e-01</leafValues></_>
        <_>
          <internalNodes>
            0 -1 132 -961962981 -10093179 -8585243 -148471836
            -1895001702 -2072707076 -800451141 -234904262</internalNodes>
          <leafValues>
            -3.1562474370002747e-01 6.5573620796203613e-01</leafValues></_>
        <_>
          <internalNodes>
            0 -1 60 -134036946 -737898480 1225792537 -2119389179
            541069871 -1336368992 1284525604 -71196479</internalNodes>
          <leafValues>
            -4.6685701608657837e-01 4.4454255700111389e-01</leafValues></_>
        <_>
          <internalNodes>
            0 -1 83 -605355408 858947623 269901743 72419328 1677820034
            -129953784 21172523 -1416346904</internalNodes>
          <leafValues>
            -5.8784097433090210e-01 3.6404785513877869e-01</leafValues></_>
        <_>
          <internalNodes>
            0 -1 55 -2103139308 679591953 -1807706959 1346408512
            1103127805 22901009 -251616887 856701754</internalNodes>
          <leafValues>
            -7.8241825103759766e-01 3.0091673135757446e-01</leafValues></_>
        <_>
          <internalNodes>
            0 -1 8 1930934239 2042746659 -604033104 1668528125
            1148302823 -363331756 2113929215 -1108214275</internalNodes>
          <leafValues>
            -3.7526190280914307e-01 7.1322566270828247e-01</leafValues></_>
        <_>
          <internalNodes>
            0 -1 81 -250945408 22499357 545367706 159367702 1342210184
            1879147024 17999882 -35972911</internalNodes>
          <leafValues>
            -5.9757077693939209e-01 4.2996832728385925e-01</leafValues></_>
        <_>
          <internalNodes>
            0 -1 15 1079682006 -1054570414 671827767 -572041194
            -536854363 1353712139 -1029636032 1180647493</internalNodes>
          <leafValues>
            -5.6453925371170044e-01 4.4963610172271729e-01</leafValues></_></weakClassifiers></_>
    <!-- stage 18 -->
    <_>
      <maxWeakCount>8</maxWeakCount>
      <stageThreshold>-4.9345698952674866e-01</stageThreshold>
      <weakClassifiers>
        <_>
          <internalNodes>
            0 -1 121 289873967 420611105 -918470383 -971714231 898113603
            -1131769651 13898828 991981329</internalNodes>
          <leafValues>
            -5.7407408952713013e-01 4.5924764871597290e-01</leafValues></_>
        <_>
          <internalNodes>
            0 -1 9 1960667174 428542082 -766508014 -517487871 914753552
            575160320 1076132714 -489836573</internalNodes>
          <leafValues>
            -4.7723129391670227e-01 3.9307951927185059e-01</leafValues></_>
        <_>
          <internalNodes>
            0 -1 82 -729412408 -13352893 146867665 354222169 404769282
            -1474227710 289446203 1754486912</internalNodes>
          <leafValues>
            -5.9293586015701294e-01 3.9175572991371155e-01</leafValues></_>
        <_>
          <internalNodes>
            0 -1 77 566292481 679717026 1125229069 -2016558760
            -1441114813 -225959774 -1535082150 -862052149</internalNodes>
          <leafValues>
            -5.2817714214324951e-01 3.8739261031150818e-01</leafValues></_>
        <_>
          <internalNodes>
            0 -1 103 1602996440 1492713715 -1082426147 -1760508688
            -1063092024 -1778713430 1266602939 -1086595361</internalNodes>
          <leafValues>
            -4.3869510293006897e-01 5.2246993780136108e-01</leafValues></_>
        <_>
          <internalNodes>
            0 -1 115 1620373844 -518950319 411567352 134284955
            1321312394 2027044899 34535834 -1612728293</internalNodes>
          <leafValues>
            -5.4250162839889526e-01 4.3870601058006287e-01</leafValues></_>
        <_>
          <internalNodes>
            0 -1 68 -2146034265 -1073491657 -1879044013 1931665433
            -258880757 -888978684 160367360 -1599142631</internalNodes>
          <leafValues>
            -5.6931298971176147e-01 4.0616902709007263e-01</leafValues></_>
        <_>
          <internalNodes>
            0 -1 94 -1897155108 1099125289 1107313216 -1118467825
            7598508 -109264766 -506744634 -366623072</internalNodes>
          <leafValues>
            -4.9305650591850281e-01 5.0613880157470703e-01</leafValues></_></weakClassifiers></_>
    <!-- stage 19 -->
    <_>
      <maxWeakCount>9</maxWeakCount>
      <stageThreshold>-1.0806020498275757e+00</stageThreshold>
      <weakClassifiers>
        <_>
          <internalNodes>
            0 -1 73 6433569 -1718443328 -1879043865 -147209712 540804371
            1661848199 673203204 2138047744</internalNodes>
          <leafValues>
            -5.9501558542251587e-01 4.6207976341247559e-01</leafValues></_>
        <_>
          <internalNodes>
            0 -1 0 1348330967 -1034039039 1141502106 1027793624
            269535243 -2042290021 1981512331 1891764412</internalNodes>
          <leafValues>
            -5.5375576019287109e-01 3.5767203569412231e-01</leafValues></_>
        <_>
          <internalNodes>
            0 -1 142 -580940289 1284356597 -1124237527 532513748
            117306887 -1471613463 1752116943 -1064966213</internalNodes>
          <leafValues>
            -3.1149059534072876e-01 6.3299411535263062e-01</leafValues></_>
        <_>
          <internalNodes>
            0 -1 90 1862971411 2145103417 1595899315 -1355424480
            405182200 -290775578 -1888180554 -14693419</internalNodes>
          <leafValues>
            -3.1859499216079712e-01 6.1019986867904663e-01</leafValues></_>
        <_>
          <internalNodes>
            0 -1 109 -75715721 721222647 -16809985 -1174800387 -33706200
            1022853116 -1213014470 -1644866220</internalNodes>
          <leafValues>
            -4.1117042303085327e-01 4.9580776691436768e-01</leafValues></_>
        <_>
          <internalNodes>
            0 -1 99 -987213607 -641814627 -482556993 1520373439
            -903111223 1605524909 1648298409 -1958779857</internalNodes>
          <leafValues>
            -3.9303374290466309e-01 5.8054101467132568e-01</leafValues></_>
        <_>
          <internalNodes>
            0 -1 48 1836800108 135020608 -922515301 269877617 -913985048
            428769288 -727709692 -840707967</internalNodes>
          <leafValues>
            -5.5924230813980103e-01 4.3701270222663879e-01</leafValues></_>
        <_>
          <internalNodes>
            0 -1 120 -1240703691 -1073807771 2113754035 186834899
            -1951502532 -1460230279 -1090856993 -128811388</internalNodes>
          <leafValues>
            -4.0277335047721863e-01 5.9645903110504150e-01</leafValues></_>
        <_>
          <internalNodes>
            0 -1 146 2031015103 39765193 1452021837 520070187 276837189
            1343086724 1229752728 -2001811303</internalNodes>
          <leafValues>
            -4.7762310504913330e-01 5.2973181009292603e-01</leafValues></_></weakClassifiers></_></stages>
  <features>
    <_>
      <rect>
        0 2 9 14</rect></_>
    <_>
      <rect>
        0 5 7 14</rect></_>
    <_>
      <rect>
        0 8 10 8</rect></_>
    <_>
      <rect>
        0 9 9 9</rect></_>
    <_>
      <rect>
        0 10 9 6</rect></_>
    <_>
      <rect>
        0 12 8 9</rect></_>
    <_>
      <rect>
        0 14 7 7</rect></_>
    <_>
      <rect>
        0 16 9 3</rect></_>
    <_>
      <rect>
        0 20 12 8</rect></_>
    <_>
      <rect>
        0 23 4 5</rect></_>
    <_>
      <rect>
        0 24 7 6</rect></_>
    <_>
      <rect>
        1 0 9 14</rect></_>
    <_>
      <rect>
        1 0 11 13</rect></_>
    <_>
      <rect>
        1 2 10 10</rect></_>
    <_>
      <rect>
        1 4 13 15</rect></_>
    <_>
      <rect>
        1 7 3 3</rect></_>
    <_>
      <rect>
        1 11 9 5</rect></_>
    <_>
      <rect>
        1 18 4 6</rect></_>
    <_>
      <rect>
        2 0 8 16</rect></_>
    <_>
      <rect>
        2 3 6 7</rect></_>
    <_>
      <rect>
        2 7 5 7</rect></_>
    <_>
      <rect>
        2 11 4 2</rect></_>
    <_>
      <rect>
        2 12 9 5</rect></_>
    <_>
      <rect>
        2 20 6 5</rect></_>
    <_>
      <rect>
        2 21 5 6</rect></_>
    <_>
      <rect>
        3 4 8 10</rect></_>
    <_>
      <rect>
        3 6 5 7</rect></_>
    <_>
      <rect>
        4 0 12 4</rect></_>
    <_>
      <rect>
        4 13 8 4</rect></_>
    <_>
      <rect>
        4 16 8 3</rect></_>
    <_>
      <rect>
        4 18 5 5</rect></_>
    <_>
      <rect>
        5 4 8 10</rect></_>
    <_>
      <rect>
        5 10 7 5</rect></_>
    <_>
      <rect>
        5 11 7 4</rect></_>
    <_>
      <rect>
        5 13 6 5</rect></_>
    <_>
      <rect>
        6 2 7 8</rect></_>
    <_>
      <rect>
        6 3 10 14</rect></_>
    <_>
      <rect>
        6 8 6 5</rect></_>
    <_>
      <rect>
        6 15 7 7</rect></_>
    <_>
      <rect>
        7 2 6 8</rect></_>
    <_>
      <rect>
        7 6 1 1</rect></_>
    <_>
      <rect>
        7 9 7 4</rect></_>
    <_>
      <rect>
        7 11 6 5</rect></_>
    <_>
      <rect>
        7 21 5 5</rect></_>
    <_>
      <rect>
        7 23 6 2</rect></_>
    <_>
      <rect>
        8 15 3 4</rect></_>
    <_>
      <rect>
        8 15 7 4</rect></_>
    <_>
      <rect>
        8 19 5 4</rect></_>
    <_>
      <rect>
        8 20 3 8</rect></_>
    <_>
      <rect>
        8 22 7 2</rect></_>
    <_>
      <rect>
        8 23 4 7</rect></_>
    <_>
      <rect>
        8 26 6 3</rect></_>
    <_>
      <rect>
        9 0 4 11</rect></_>
    <_>
      <rect>
        9 7 6 5</rect></_>
    <_>
      <rect>
        9 9 4 5</rect></_>
    <_>
      <rect>
        9 12 10 5</rect></_>
    <_>
      <rect>
        9 14 6 3</rect></_>
    <_>
      <rect>
        9 25 8 5</rect></_>
    <_>
      <rect>
        10 4 10 7</rect></_>
    <_>
      <rect>
        10 12 5 4</rect></_>
    <_>
      <rect>
        10 19 5 2</rect></_>
    <_>
      <rect>
        10 23 5 4</rect></_>
    <_>
      <rect>
        10 24 10 5</rect></_>
    <_>
      <rect>
        10 27 10 2</rect></_>
    <_>
      <rect>
        11 6 4 7</rect></_>
    <_>
      <rect>
        11 11 9 4</rect></_>
    <_>
      <rect>
        11 12 3 2</rect></_>
    <_>
      <rect>
        11 17 7 6</rect></_>
    <_>
      <rect>
        12 8 3 6</rect></_>
    <_>
      <rect>
        12 21 4 6</rect></_>
    <_>
      <rect>
        12 23 4 5</rect></_>
    <_>
      <rect>
        12 25 6 2</rect></_>
    <_>
      <rect>
        12 32 2 2</rect></_>
    <_>
      <rect>
        13 10 5 4</rect></_>
    <_>
      <rect>
        13 22 5 2</rect></_>
    <_>
      <rect>
        13 22 9 5</rect></_>
    <_>
      <rect>
        13 23 3 3</rect></_>
    <_>
      <rect>
        13 23 9 4</rect></_>
    <_>
      <rect>
        13 26 5 2</rect></_>
    <_>
      <rect>
        14 9 8 5</rect></_>
    <_>
      <rect>
        14 21 5 2</rect></_>
    <_>
      <rect>
        14 22 3 3</rect></_>
    <_>
      <rect>
        14 24 5 2</rect></_>
    <_>
      <rect>
        14 25 3 3</rect></_>
    <_>
      <rect>
        14 26 6 2</rect></_>
    <_>
      <rect>
        14 26 6 3</rect></_>
    <_>
      <rect>
        14 28 4 2</rect></_>
    <_>
      <rect>
        14 29 6 2</rect></_>
    <_>
      <rect>
        14 30 5 2</rect></_>
    <_>
      <rect>
        14 31 5 2</rect></_>
    <_>
      <rect>
        15 11 3 1</rect></_>
    <_>
      <rect>
        15 14 4 2</rect></_>
    <_>
      <rect>
        15 22 6 2</rect></_>
    <_>
      <rect>
        15 23 8 7</rect></_>
    <_>
      <rect>
        15 25 8 7</rect></_>
    <_>
      <rect>
        15 26 3 1</rect></_>
    <_>
      <rect>
        15 29 8 7</rect></_>
    <_>
      <rect>
        16 11 8 5</rect></_>
    <_>
      <rect>
        16 12 8 7</rect></_>
    <_>
      <rect>
        16 21 3 2</rect></_>
    <_>
      <rect>
        16 21 8 7</rect></_>
    <_>
      <rect>
        16 22 2 2</rect></_>
    <_>
      <rect>
        16 22 8 4</rect></_>
    <_>
      <rect>
        16 24 2 2</rect></_>
    <_>
      <rect>
        16 26 2 2</rect></_>
    <_>
      <rect>
        16 30 3 2</rect></_>
    <_>
      <rect>
        17 3 7 8</rect></_>
    <_>
      <rect>
        17 4 2 5</rect></_>
    <_>
      <rect>
        17 8 4 4</rect></_>
    <_>
      <rect>
        17 11 5 3</rect></_>
    <_>
      <rect>
        17 17 4 3</rect></_>
    <_>
      <rect>
        17 23 2 2</rect></_>
    <_>
      <rect>
        17 24 2 1</rect></_>
    <_>
      <rect>
        17 24 3 2</rect></_>
    <_>
      <rect>
        17 25 4 2</rect></_>
    <_>
      <rect>
        17 26 2 2</rect></_>
    <_>
      <rect>
        17 27 2 2</rect></_>
    <_>
      <rect>
        17 27 3 2</rect></_>
    <_>
      <rect>
        17 28 5 2</rect></_>
    <_>
      <rect>
        18 1 7 4</rect></_>
    <_>
      <rect>
        18 2 5 3</rect></_>
    <_>
      <rect>
        18 12 5 5</rect></_>
    <_>
      <rect>
        18 22 2 2</rect></_>
    <_>
      <rect>
        18 23 2 2</rect></_>
    <_>
      <rect>
        18 24 2 1</rect></_>
    <_>
      <rect>
        18 24 3 3</rect></_>
    <_>
      <rect>
        18 26 2 2</rect></_>
    <_>
      <rect>
        18 26 4 2</rect></_>
    <_>
      <rect>
        18 27 2 2</rect></_>
    <_>
      <rect>
        18 28 3 2</rect></_>
    <_>
      <rect>
        18 32 3 2</rect></_>
    <_>
      <rect>
        19 8 4 5</rect></_>
    <_>
      <rect>
        19 24 1 1</rect></_>
    <_>
      <rect>
        19 24 4 3</rect></_>
    <_>
      <rect>
        19 25 4 2</rect></_>
    <_>
      <rect>
        20 1 2 2</rect></_>
    <_>
      <rect>
        20 24 3 2</rect></_>
    <_>
      <rect>
        20 25 3 2</rect></_>
    <_>
      <rect>
        20 26 2 2</rect></_>
    <_>
      <rect>
        21 1 6 12</rect></_>
    <_>
      <rect>
        21 5 3 5</rect></_>
    <_>
      <rect>
        22 24 2 3</rect></_>
    <_>
      <rect>
        22 26 6 5</rect></_>
    <_>
      <rect>
        23 9 4 4</rect></_>
    <_>
      <rect>
        25 5 5 8</rect></_>
    <_>
      <rect>
        25 9 5 5</rect></_>
    <_>
      <rect>
        25 15 5 3</rect></_>
    <_>
      <rect>
        28 9 4 8</rect></_>
    <_>
      <rect>
        31 11 3 10</rect></_></features></cascade>
</opencv_storage>
