<?xml version="1.0"?>
<opencv_storage>
<cascade>
  <stageType>BOOST</stageType>
  <featureType>LBP</featureType>
  <height>50</height>
  <width>40</width>
  <stageParams>
    <boostType>GAB</boostType>
    <minHitRate>9.9900001287460327e-01</minHitRate>
    <maxFalseAlarm>5.0000000000000000e-01</maxFalseAlarm>
    <weightTrimRate>9.4999999999999996e-01</weightTrimRate>
    <maxDepth>1</maxDepth>
    <maxWeakCount>100</maxWeakCount></stageParams>
  <featureParams>
    <maxCatCount>256</maxCatCount>
    <featSize>1</featSize></featureParams>
  <stageNum>30</stageNum>
  <stages>
    <!-- stage 0 -->
    <_>
      <maxWeakCount>3</maxWeakCount>
      <stageThreshold>-9.3688607215881348e-01</stageThreshold>
      <weakClassifiers>
        <_>
          <internalNodes>
            0 -1 106 151652360 864092304 688368413 -1083502523 889854095
            -1123436125 1789439147 -2337</internalNodes>
          <leafValues>
            -8.6965376138687134e-01 7.4571686983108521e-01</leafValues></_>
        <_>
          <internalNodes>
            0 -1 38 1577043455 -593164223 201049 1473708435 139141787
            -1127579373 848003775 2147418363</internalNodes>
          <leafValues>
            -7.4211698770523071e-01 6.2369191646575928e-01</leafValues></_>
        <_>
          <internalNodes>
            0 -1 6 1307807899 2132640216 16797943 1574371328 25165903
            -1165221879 917194475 -15776998</internalNodes>
          <leafValues>
            -6.2073904275894165e-01 6.7488467693328857e-01</leafValues></_></weakClassifiers></_>
    <!-- stage 1 -->
    <_>
      <maxWeakCount>5</maxWeakCount>
      <stageThreshold>-8.5428315401077271e-01</stageThreshold>
      <weakClassifiers>
        <_>
          <internalNodes>
            0 -1 22 -740604945 -609157117 1379992591 1563236251
            157354639 729884800 1223363759 200081547</internalNodes>
          <leafValues>
            -8.2201403379440308e-01 6.4023870229721069e-01</leafValues></_>
        <_>
          <internalNodes>
            0 -1 48 -16201739 -11161328 -1760542512 -2784236 29591729
            -103708535 338362689 -544915200</internalNodes>
          <leafValues>
            -6.5421342849731445e-01 6.6203904151916504e-01</leafValues></_>
        <_>
          <internalNodes>
            0 -1 11 -798374955 1360114647 268689695 -170659557 549530607
            537395337 1366229179 1801448079</internalNodes>
          <leafValues>
            -5.9318244457244873e-01 6.0138672590255737e-01</leafValues></_>
        <_>
          <internalNodes>
            0 -1 210 -578760560 1409876160 1410602969 2144174649
            1292425912 -1743023480 439852443 -1658879429</internalNodes>
          <leafValues>
            -4.8413726687431335e-01 7.4745923280715942e-01</leafValues></_>
        <_>
          <internalNodes>
            0 -1 92 1415434495 564104842 1426231647 -713959395
            -2070671937 780413057 -987494209 1340131</internalNodes>
          <leafValues>
            -7.6673036813735962e-01 5.0469481945037842e-01</leafValues></_></weakClassifiers></_>
    <!-- stage 2 -->
    <_>
      <maxWeakCount>5</maxWeakCount>
      <stageThreshold>-9.1017252206802368e-01</stageThreshold>
      <weakClassifiers>
        <_>
          <internalNodes>
            0 -1 47 -2082011185 -969600051 1013255575 1593901203
            47287287 -4058318 797182947 535429551</internalNodes>
          <leafValues>
            -8.1453633308410645e-01 6.0366362333297729e-01</leafValues></_>
        <_>
          <internalNodes>
            0 -1 33 35033087 -191305386 -1047984681 -2931883 5967231
            -1836932516 94913369 -4237565</internalNodes>
          <leafValues>
            -6.2455660104751587e-01 5.5568152666091919e-01</leafValues></_>
        <_>
          <internalNodes>
            0 -1 12 1920460619 1630163396 -250541289 1505986050
            1620249454 8488643 1088159711 1537996991</internalNodes>
          <leafValues>
            -6.2484967708587646e-01 5.4391330480575562e-01</leafValues></_>
        <_>
          <internalNodes>
            0 -1 152 -918800545 621871445 -1723547241 937242641
            1343979909 1065701632 -381300513 273723199</internalNodes>
          <leafValues>
            -6.6094350814819336e-01 5.3669100999832153e-01</leafValues></_>
        <_>
          <internalNodes>
            0 -1 134 -216940336 1945980672 -1778168927 -1887986493
            -429870454 -1170219766 595713930 -546593092</internalNodes>
          <leafValues>
            -5.3344839811325073e-01 6.1707907915115356e-01</leafValues></_></weakClassifiers></_>
    <!-- stage 3 -->
    <_>
      <maxWeakCount>6</maxWeakCount>
      <stageThreshold>-1.1793529987335205e+00</stageThreshold>
      <weakClassifiers>
        <_>
          <internalNodes>
            0 -1 73 -1461050838 -1157628161 -1342186497 1006616575
            50266862 -67108993 1342117791 -3209441</internalNodes>
          <leafValues>
            -5.8349704742431641e-01 6.3886344432830811e-01</leafValues></_>
        <_>
          <internalNodes>
            0 -1 4 1396287295 -1887040717 1090541211 -271052077 46739407
            1792541398 1506362047 2061960703</internalNodes>
          <leafValues>
            -7.2539252042770386e-01 4.8030465841293335e-01</leafValues></_>
        <_>
          <internalNodes>
            0 -1 121 -662378276 1359070276 -2011168492 169050113
            1245907118 34095280 -1593433430 -812917845</internalNodes>
          <leafValues>
            -6.3339793682098389e-01 4.6870207786560059e-01</leafValues></_>
        <_>
          <internalNodes>
            0 -1 49 -205527243 -529288 -1073748495 -2174735 1744010988
            1340734960 1475822417 -4447933</internalNodes>
          <leafValues>
            -5.2941483259201050e-01 6.0965782403945923e-01</leafValues></_>
        <_>
          <internalNodes>
            0 -1 133 -243204400 -348572959 119359321 391584035
            -1324500694 -2004929332 -2129626469 -1884837205</internalNodes>
          <leafValues>
            -5.1655691862106323e-01 6.1281436681747437e-01</leafValues></_>
        <_>
          <internalNodes>
            0 -1 35 -881605053 1251178494 -1241678266 1023148031
            107302292 1081442174 -143004239 -60817539</internalNodes>
          <leafValues>
            -5.3586357831954956e-01 6.4007514715194702e-01</leafValues></_></weakClassifiers></_>
    <!-- stage 4 -->
    <_>
      <maxWeakCount>7</maxWeakCount>
      <stageThreshold>-8.7385332584381104e-01</stageThreshold>
      <weakClassifiers>
        <_>
          <internalNodes>
            0 -1 45 -1058284985 12582895 -273 -1073741825 569853463
            331317247 116866879 1939863551</internalNodes>
          <leafValues>
            -5.3386455774307251e-01 6.0837888717651367e-01</leafValues></_>
        <_>
          <internalNodes>
            0 -1 63 -1234976847 -1747242799 -1742659119 -76263408
            404450031 -1165866474 1663595860 -68939760</internalNodes>
          <leafValues>
            -5.7942509651184082e-01 5.4401570558547974e-01</leafValues></_>
        <_>
          <internalNodes>
            0 -1 166 808746975 973969805 -1870130437 -1651194531
            1212156383 -1426374385 -871337849 978353998</internalNodes>
          <leafValues>
            -7.2315615415573120e-01 3.7841001152992249e-01</leafValues></_>
        <_>
          <internalNodes>
            0 -1 109 1917509632 335786019 135274517 539025447 604137827
            677447044 -1014103934 -921757</internalNodes>
          <leafValues>
            -7.1568167209625244e-01 3.9878240227699280e-01</leafValues></_>
        <_>
          <internalNodes>
            0 -1 171 -114041392 470746113 -2070888229 -1106795198
            -1582624200 681083040 -2111822882 -1483751417</internalNodes>
          <leafValues>
            -5.2441000938415527e-01 5.6140679121017456e-01</leafValues></_>
        <_>
          <internalNodes>
            0 -1 213 -725243941 -1832711361 1342374095 -1722713783
            17043386 -1461432187 -1981952085 -1204801024</internalNodes>
          <leafValues>
            -5.8328276872634888e-01 5.1121354103088379e-01</leafValues></_>
        <_>
          <internalNodes>
            0 -1 64 -1476680001 -671091205 -10305 -536896004 -2097180673
            -1678249993 1442252684 -1616969574</internalNodes>
          <leafValues>
            -5.2009814977645874e-01 5.6993663311004639e-01</leafValues></_></weakClassifiers></_>
    <!-- stage 5 -->
    <_>
      <maxWeakCount>7</maxWeakCount>
      <stageThreshold>-7.1896636486053467e-01</stageThreshold>
      <weakClassifiers>
        <_>
          <internalNodes>
            0 -1 58 37923562 410096032 -1593795435 -138050558 546942697
            2074003864 151036251 -593710744</internalNodes>
          <leafValues>
            -6.3544303178787231e-01 5.4024899005889893e-01</leafValues></_>
        <_>
          <internalNodes>
            0 -1 52 -135137281 2147284186 2113884143 -554478127
            -2013414401 -134332968 1073192411 -8366648</internalNodes>
          <leafValues>
            -4.1651412844657898e-01 6.2384426593780518e-01</leafValues></_>
        <_>
          <internalNodes>
            0 -1 136 1565105370 -265548800 1615895677 292889203
            -152771104 -381341756 138714638 -57966193</internalNodes>
          <leafValues>
            -4.1373738646507263e-01 6.1746573448181152e-01</leafValues></_>
        <_>
          <internalNodes>
            0 -1 124 -740107558 -548175152 159650559 85084201
            -1071056421 -582153872 828653467 -1674609413</internalNodes>
          <leafValues>
            -4.6135762333869934e-01 5.6688749790191650e-01</leafValues></_>
        <_>
          <internalNodes>
            0 -1 212 1112865983 1762574732 10016204 1904469061
            -695795642 -1662484344 1824818653 722173407</internalNodes>
          <leafValues>
            -6.4403027296066284e-01 4.5880991220474243e-01</leafValues></_>
        <_>
          <internalNodes>
            0 -1 26 -687425867 -184544884 2030060161 -267812856 23824231
            889987460 847970747 -10329773</internalNodes>
          <leafValues>
            -5.9611928462982178e-01 4.8212298750877380e-01</leafValues></_>
        <_>
          <internalNodes>
            0 -1 53 1909574794 587761041 1254772885 135563793
            -2121694837 -1583838808 1625328798 394920108</internalNodes>
          <leafValues>
            -7.3285722732543945e-01 3.7667381763458252e-01</leafValues></_></weakClassifiers></_>
    <!-- stage 6 -->
    <_>
      <maxWeakCount>7</maxWeakCount>
      <stageThreshold>-7.8280133008956909e-01</stageThreshold>
      <weakClassifiers>
        <_>
          <internalNodes>
            0 -1 153 19665717 4202496 -1520959347 902164943 -658292527
            751460416 -926375795 466436169</internalNodes>
          <leafValues>
            -6.6459625959396362e-01 4.8043817281723022e-01</leafValues></_>
        <_>
          <internalNodes>
            0 -1 197 -646917904 -551730175 -2049861019 992316817
            478195354 -1293016052 1058647103 -1690365171</internalNodes>
          <leafValues>
            -4.2637935280799866e-01 5.3540748357772827e-01</leafValues></_>
        <_>
          <internalNodes>
            0 -1 174 -679440192 -635322182 340706799 -2019155218
            -1321198966 -1817801510 -919470593 521631103</internalNodes>
          <leafValues>
            -5.0297009944915771e-01 5.2132987976074219e-01</leafValues></_>
        <_>
          <internalNodes>
            0 -1 137 -76754768 -583063514 -1287122786 1965632746
            -1611727936 -15744804 765537247 -1576336819</internalNodes>
          <leafValues>
            -4.9148839712142944e-01 5.2851372957229614e-01</leafValues></_>
        <_>
          <internalNodes>
            0 -1 61 -250675362 -725296046 -1068462063 -775614440
            -2085647477 -528318408 1116330459 -444263040</internalNodes>
          <leafValues>
            -5.7419878244400024e-01 4.6221575140953064e-01</leafValues></_>
        <_>
          <internalNodes>
            0 -1 162 1556140248 -546731965 1964081368 320016984
            2021960336 -1165881085 1187036 455059887</internalNodes>
          <leafValues>
            -6.4406442642211914e-01 4.6205490827560425e-01</leafValues></_>
        <_>
          <internalNodes>
            0 -1 18 -211982814 -1571528445 -268098560 -1151655911
            1377894404 1377837393 -2138830695 -1602921</internalNodes>
          <leafValues>
            -5.9620147943496704e-01 4.5298978686332703e-01</leafValues></_></weakClassifiers></_>
    <!-- stage 7 -->
    <_>
      <maxWeakCount>7</maxWeakCount>
      <stageThreshold>-1.1726192235946655e+00</stageThreshold>
      <weakClassifiers>
        <_>
          <internalNodes>
            0 -1 5 1081685335 1692429205 1090593627 1507166909 42795423
            1744853512 46727675 2140013775</internalNodes>
          <leafValues>
            -6.8768769502639771e-01 4.9644830822944641e-01</leafValues></_>
        <_>
          <internalNodes>
            0 -1 201 56179967 940155863 -394193793 -66787183 38163421
            -80423039 -1727919141 997197633</internalNodes>
          <leafValues>
            -6.5303432941436768e-01 3.6709496378898621e-01</leafValues></_>
        <_>
          <internalNodes>
            0 -1 97 -494671220 1228094879 2 9242945 1392749350 4522368
            1493354915 -19937261</internalNodes>
          <leafValues>
            -6.1756843328475952e-01 4.3152242898941040e-01</leafValues></_>
        <_>
          <internalNodes>
            0 -1 157 1482539151 -2147431680 -2009030213 -519704178
            706433265 -1210005472 1879577271 -1582507366</internalNodes>
          <leafValues>
            -4.9656569957733154e-01 5.3277790546417236e-01</leafValues></_>
        <_>
          <internalNodes>
            0 -1 209 1276121336 289997856 1361585164 488180230
            -2012722758 -1207891550 138517023 1930101406</internalNodes>
          <leafValues>
            -6.7469322681427002e-01 3.8523295521736145e-01</leafValues></_>
        <_>
          <internalNodes>
            0 -1 104 -502223183 -149774336 1368940245 -148927087
            1698728626 -1703273920 726098321 -544524091</internalNodes>
          <leafValues>
            -5.9333550930023193e-01 4.5750325918197632e-01</leafValues></_>
        <_>
          <internalNodes>
            0 -1 223 270391316 675726348 1410519503 -2134588026 14022280
            -1115628543 -1604720500 673339799</internalNodes>
          <leafValues>
            -7.1392577886581421e-01 4.1126075387001038e-01</leafValues></_></weakClassifiers></_>
    <!-- stage 8 -->
    <_>
      <maxWeakCount>10</maxWeakCount>
      <stageThreshold>-9.6994656324386597e-01</stageThreshold>
      <weakClassifiers>
        <_>
          <internalNodes>
            0 -1 44 -1024807382 -1358956033 1341077503 -151035906
            1089669035 1677705215 1728005975 -512927933</internalNodes>
          <leafValues>
            -4.7461369633674622e-01 5.3618133068084717e-01</leafValues></_>
        <_>
          <internalNodes>
            0 -1 119 -779992440 -1713274805 142713791 251724009
            176175906 411615364 1216455355 -947910016</internalNodes>
          <leafValues>
            -5.5113959312438965e-01 4.0700796246528625e-01</leafValues></_>
        <_>
          <internalNodes>
            0 -1 30 -251473622 -787326190 -1073740784 -644235136
            -939197782 -976601052 1127090123 -346732894</internalNodes>
          <leafValues>
            -4.9374628067016602e-01 4.5701116323471069e-01</leafValues></_>
        <_>
          <internalNodes>
            0 -1 196 -941559568 188678212 -1052763117 2131053593
            -1860173686 310542472 403083498 -711523958</internalNodes>
          <leafValues>
            -5.2195709943771362e-01 4.7168698906898499e-01</leafValues></_>
        <_>
          <internalNodes>
            0 -1 182 -1013932912 -637690717 1643467131 396578493
            -1422667112 -762053670 -498803057 -1961993432</internalNodes>
          <leafValues>
            -4.7814676165580750e-01 5.1035314798355103e-01</leafValues></_>
        <_>
          <internalNodes>
            0 -1 95 1678109229 -805260770 -1019130279 -726629056
            -1414404469 -133353438 1895826071 -4258543</internalNodes>
          <leafValues>
            -5.0150698423385620e-01 5.1217192411422729e-01</leafValues></_>
        <_>
          <internalNodes>
            0 -1 207 -592163943 -286483171 -671422667 1000955902
            -143802404 -1176740373 -575478324 -1660417487</internalNodes>
          <leafValues>
            -4.2697322368621826e-01 6.2698674201965332e-01</leafValues></_>
        <_>
          <internalNodes>
            0 -1 165 -330960692 -740589504 193237023 -578609884
            -795836256 -93388639 19049725 -505012217</internalNodes>
          <leafValues>
            -5.1851487159729004e-01 5.1858788728713989e-01</leafValues></_>
        <_>
          <internalNodes>
            0 -1 159 1887029309 11418408 2146139899 -994181719 91975329
            -1111918604 -146834595 -276955143</internalNodes>
          <leafValues>
            -5.0114482641220093e-01 5.6175404787063599e-01</leafValues></_>
        <_>
          <internalNodes>
            0 -1 62 -1967476931 -1893421636 -166924 -1614834580
            -1765990412 -587735043 853964725 -277574640</internalNodes>
          <leafValues>
            -4.7107866406440735e-01 5.9299367666244507e-01</leafValues></_></weakClassifiers></_>
    <!-- stage 9 -->
    <_>
      <maxWeakCount>9</maxWeakCount>
      <stageThreshold>-6.6552388668060303e-01</stageThreshold>
      <weakClassifiers>
        <_>
          <internalNodes>
            0 -1 23 -788347937 1344836171 1342718409 -754969270 10519001
            -1743511480 1950417851 1314980426</internalNodes>
          <leafValues>
            -6.0422164201736450e-01 5.1515150070190430e-01</leafValues></_>
        <_>
          <internalNodes>
            0 -1 43 -533208883 -1727495160 1431425885 -106083703
            1193010165 -1162696552 1317732355 -301575935</internalNodes>
          <leafValues>
            -5.3053706884384155e-01 4.4733029603958130e-01</leafValues></_>
        <_>
          <internalNodes>
            0 -1 27 -413155250 872645120 100715008 -505396944 1534791693
            2013266176 1612927539 -248819435</internalNodes>
          <leafValues>
            -4.9042847752571106e-01 4.9255159497261047e-01</leafValues></_>
        <_>
          <internalNodes>
            0 -1 204 -212329256 -719814513 41948197 -1079180529
            -1438021494 -91422710 1076547639 -560187006</internalNodes>
          <leafValues>
            -4.7915449738502502e-01 4.8365122079849243e-01</leafValues></_>
        <_>
          <internalNodes>
            0 -1 84 -1476268836 -1325182843 1716662285 -652385451
            1728681363 -1090313565 1350653213 -655469564</internalNodes>
          <leafValues>
            -5.4041773080825806e-01 4.4834625720977783e-01</leafValues></_>
        <_>
          <internalNodes>
            0 -1 199 889253968 -571913530 -1766229033 -1653389801
            373012715 -98959158 312355007 -1458573589</internalNodes>
          <leafValues>
            -4.1814741492271423e-01 6.2303584814071655e-01</leafValues></_>
        <_>
          <internalNodes>
            0 -1 138 -1981744924 -144463441 988263513 536307407
            -34036546 -1612954151 1772104635 -811620689</internalNodes>
          <leafValues>
            -4.1757404804229736e-01 6.2357372045516968e-01</leafValues></_>
        <_>
          <internalNodes>
            0 -1 173 2125112067 1046413152 1073659860 -1086898308
            590171968 -1220825127 -2120646197 -1716408417</internalNodes>
          <leafValues>
            -5.0706022977828979e-01 5.3067171573638916e-01</leafValues></_>
        <_>
          <internalNodes>
            0 -1 41 -749274920 -355398370 537186572 -1249378240
            789818106 -1529248512 -641726231 805803157</internalNodes>
          <leafValues>
            -5.9039992094039917e-01 4.3330100178718567e-01</leafValues></_></weakClassifiers></_>
    <!-- stage 10 -->
    <_>
      <maxWeakCount>8</maxWeakCount>
      <stageThreshold>-6.9080764055252075e-01</stageThreshold>
      <weakClassifiers>
        <_>
          <internalNodes>
            0 -1 103 -1991867617 772505880 12648753 -1413165048
            406995539 625480001 -104848885 1880126208</internalNodes>
          <leafValues>
            -6.2229102849960327e-01 4.7063431143760681e-01</leafValues></_>
        <_>
          <internalNodes>
            0 -1 29 -759110923 1343553551 278585 886116876 851445581
            914425898 272804367 69272283</internalNodes>
          <leafValues>
            -7.0874118804931641e-01 3.2401198148727417e-01</leafValues></_>
        <_>
          <internalNodes>
            0 -1 191 1363892848 -1875804084 1426098203 499208202
            -1601518917 -50200448 2057308587 804204936</internalNodes>
          <leafValues>
            -5.9690004587173462e-01 3.7714904546737671e-01</leafValues></_>
        <_>
          <internalNodes>
            0 -1 76 1926951042 -41680552 201499779 159662305 2064748730
            805849088 1258855976 1602268355</internalNodes>
          <leafValues>
            -6.2719500064849854e-01 3.6786258220672607e-01</leafValues></_>
        <_>
          <internalNodes>
            0 -1 224 1599587405 4227081 537170459 273174604 -263094141
            696488040 -574385511 443867207</internalNodes>
          <leafValues>
            -5.7900732755661011e-01 4.3094468116760254e-01</leafValues></_>
        <_>
          <internalNodes>
            0 -1 99 -1022070050 -1337798384 352586115 286339473
            -2147366751 -1575354232 576228127 -2136473459</internalNodes>
          <leafValues>
            -4.9391278624534607e-01 5.0596171617507935e-01</leafValues></_>
        <_>
          <internalNodes>
            0 -1 54 -218968067 -1605893 -201353985 1337970932 1744209911
            -66052 1677262935 -1076804717</internalNodes>
          <leafValues>
            -4.9424943327903748e-01 5.7582408189773560e-01</leafValues></_>
        <_>
          <internalNodes>
            0 -1 79 -365561634 1381433348 -2146875896 246841609
            -2139851997 1644233344 160268927 -216558637</internalNodes>
          <leafValues>
            -5.7024520635604858e-01 4.7643089294433594e-01</leafValues></_></weakClassifiers></_>
    <!-- stage 11 -->
    <_>
      <maxWeakCount>9</maxWeakCount>
      <stageThreshold>-7.1640634536743164e-01</stageThreshold>
      <weakClassifiers>
        <_>
          <internalNodes>
            0 -1 127 -2128075671 779725837 556056841 422896704
            1025510237 961241633 -1601180167 946883910</internalNodes>
          <leafValues>
            -6.2500000000000000e-01 4.9679487943649292e-01</leafValues></_>
        <_>
          <internalNodes>
            0 -1 14 -1022107157 -243269607 -585886445 -1475051512
            1083463551 813697162 1944601175 -541572348</internalNodes>
          <leafValues>
            -5.1936823129653931e-01 4.0160220861434937e-01</leafValues></_>
        <_>
          <internalNodes>
            0 -1 120 -1064254001 134778928 -1695249703 -1648449415
            -302042011 -1117260450 1441354367 -589497126</internalNodes>
          <leafValues>
            -4.2506244778633118e-01 5.2755796909332275e-01</leafValues></_>
        <_>
          <internalNodes>
            0 -1 185 -1173290943 -1257207791 8737173 -1071529555
            -1710187318 453119960 -389404102 -2079061496</internalNodes>
          <leafValues>
            -5.0033956766128540e-01 4.7205063700675964e-01</leafValues></_>
        <_>
          <internalNodes>
            0 -1 170 295391572 -644767269 1342328897 -1694399167
            -1978920758 -908836736 -1702801767 -385587688</internalNodes>
          <leafValues>
            -5.0837695598602295e-01 4.5915609598159790e-01</leafValues></_>
        <_>
          <internalNodes>
            0 -1 39 323397122 -198572526 1099026434 -628665968
            -1475548834 -1887426035 1624557184 -1044135902</internalNodes>
          <leafValues>
            -5.5330950021743774e-01 4.5101678371429443e-01</leafValues></_>
        <_>
          <internalNodes>
            0 -1 218 -695496264 289802570 155275577 1333854213
            -918306360 67191187 1757512107 -1685599829</internalNodes>
          <leafValues>
            -5.0236737728118896e-01 4.9342775344848633e-01</leafValues></_>
        <_>
          <internalNodes>
            0 -1 222 423970335 408863452 1359106293 617156609 -515693707
            -1457277182 -1301513685 746327200</internalNodes>
          <leafValues>
            -6.6114997863769531e-01 3.7326195836067200e-01</leafValues></_>
        <_>
          <internalNodes>
            0 -1 193 -1055935791 -546090862 828188023 1440464858
            842273963 -81682160 -1554839969 -1142997077</internalNodes>
          <leafValues>
            -4.4091412425041199e-01 6.0294222831726074e-01</leafValues></_></weakClassifiers></_>
    <!-- stage 12 -->
    <_>
      <maxWeakCount>7</maxWeakCount>
      <stageThreshold>-1.3651101589202881e+00</stageThreshold>
      <weakClassifiers>
        <_>
          <internalNodes>
            0 -1 34 2010365771 1651699931 2145353517 -754974721
            1141266765 2951157 -409075841 2147475455</internalNodes>
          <leafValues>
            -3.5897436738014221e-01 5.6546491384506226e-01</leafValues></_>
        <_>
          <internalNodes>
            0 -1 202 -1258092028 -1286008916 -1543465577 -448397264
            -2113367109 -1003420528 -679438616 -842854391</internalNodes>
          <leafValues>
            -4.6350577473640442e-01 4.7012928128242493e-01</leafValues></_>
        <_>
          <internalNodes>
            0 -1 167 -266508387 1095032977 164247 -599932751 -1961717293
            -401931900 293679308 -277346120</internalNodes>
          <leafValues>
            -4.6551567316055298e-01 4.7393238544464111e-01</leafValues></_>
        <_>
          <internalNodes>
            0 -1 91 -356368320 -128454079 1258564202 1397998960
            -2136453921 539082827 -908550401 -769416566</internalNodes>
          <leafValues>
            -5.9587377309799194e-01 3.9682072401046753e-01</leafValues></_>
        <_>
          <internalNodes>
            0 -1 179 -766250448 -585587553 408734719 527137342 221043402
            1510673571 1772981227 -1614930113</internalNodes>
          <leafValues>
            -4.5146584510803223e-01 5.2666509151458740e-01</leafValues></_>
        <_>
          <internalNodes>
            0 -1 140 -616890927 -1159168040 -25198735 -813830315
            1207903203 -1073743363 2140538183 -405283339</internalNodes>
          <leafValues>
            -4.1059002280235291e-01 5.9955871105194092e-01</leafValues></_>
        <_>
          <internalNodes>
            0 -1 50 -1555826225 2067808704 1946219779 1812525056 805633
            -1239764934 42467503 1334445483</internalNodes>
          <leafValues>
            -6.5590971708297729e-01 3.8812077045440674e-01</leafValues></_></weakClassifiers></_>
    <!-- stage 13 -->
    <_>
      <maxWeakCount>9</maxWeakCount>
      <stageThreshold>-1.1049747467041016e+00</stageThreshold>
      <weakClassifiers>
        <_>
          <internalNodes>
            0 -1 72 239529071 671211571 -385744871 1344357376 1212266865
            1066453013 6309136 358678544</internalNodes>
          <leafValues>
            -5.9365081787109375e-01 4.5680934190750122e-01</leafValues></_>
        <_>
          <internalNodes>
            0 -1 2 2004314944 -788479999 -1039642599 2014249219
            1879392772 161552424 1900812462 1414523091</internalNodes>
          <leafValues>
            -5.6488817930221558e-01 3.5757127404212952e-01</leafValues></_>
        <_>
          <internalNodes>
            0 -1 158 -800435052 1984593946 -2128854604 -1316682558
            1610743979 -523729792 245299883 152010771</internalNodes>
          <leafValues>
            -5.1793456077575684e-01 4.4161486625671387e-01</leafValues></_>
        <_>
          <internalNodes>
            0 -1 200 -629084944 -786792128 -1744301201 2131593476
            -1600080928 -1760919390 -637481317 612565183</internalNodes>
          <leafValues>
            -5.1863330602645874e-01 4.1372811794281006e-01</leafValues></_>
        <_>
          <internalNodes>
            0 -1 176 -781921795 -25051109 352354559 493420756
            -1066911046 -1637149767 -1690977729 -273708610</internalNodes>
          <leafValues>
            -3.3392339944839478e-01 6.9792789220809937e-01</leafValues></_>
        <_>
          <internalNodes>
            0 -1 77 -113830556 807733716 -1073471215 440148035
            -335478507 -293174398 -502988661 -1040529391</internalNodes>
          <leafValues>
            -5.1683342456817627e-01 4.5932865142822266e-01</leafValues></_>
        <_>
          <internalNodes>
            0 -1 168 -1337695083 974492086 -2147366525 1102891450
            -1610610113 -1430779776 -800362066 769660240</internalNodes>
          <leafValues>
            -6.6454958915710449e-01 3.3877328038215637e-01</leafValues></_>
        <_>
          <internalNodes>
            0 -1 203 -518989816 1362597440 185671936 -645246324
            -1256083013 -153960008 1279875371 1338360425</internalNodes>
          <leafValues>
            -5.8356863260269165e-01 4.1633599996566772e-01</leafValues></_>
        <_>
          <internalNodes>
            0 -1 21 1891840227 1627404551 1888620099 1958771713
            143155758 1887447176 292719307 1887445167</internalNodes>
          <leafValues>
            -7.7531319856643677e-01 3.0641949176788330e-01</leafValues></_></weakClassifiers></_>
    <!-- stage 14 -->
    <_>
      <maxWeakCount>9</maxWeakCount>
      <stageThreshold>-7.5257241725921631e-01</stageThreshold>
      <weakClassifiers>
        <_>
          <internalNodes>
            0 -1 74 180988584 39297176 704733314 5620288 546974492
            939693440 1412448664 1034024963</internalNodes>
          <leafValues>
            -7.5806450843811035e-01 4.3491125106811523e-01</leafValues></_>
        <_>
          <internalNodes>
            0 -1 190 -261492272 -1181677674 -502922058 -10813410
            676602026 451471572 -1576472133 423823879</internalNodes>
          <leafValues>
            -4.6065723896026611e-01 4.1188797354698181e-01</leafValues></_>
        <_>
          <internalNodes>
            0 -1 235 1629542570 1064962 1140902093 79745990 67291333
            598017 -1040138229 777051499</internalNodes>
          <leafValues>
            -5.8583027124404907e-01 3.7914177775382996e-01</leafValues></_>
        <_>
          <internalNodes>
            0 -1 102 402743167 -1593748200 805419541 -481180591
            -1072920101 -263992176 -922509519 -1763175395</internalNodes>
          <leafValues>
            -4.9632528424263000e-01 4.2937451601028442e-01</leafValues></_>
        <_>
          <internalNodes>
            0 -1 178 -196552676 486621204 -1065236331 -1856956411
            -853892886 -1971249023 672206985 -606952445</internalNodes>
          <leafValues>
            -4.7584646940231323e-01 4.9268081784248352e-01</leafValues></_>
        <_>
          <internalNodes>
            0 -1 192 -804060348 -765869744 -1852597065 1409286216
            -1744829280 -1583314792 436437426 -75953641</internalNodes>
          <leafValues>
            -5.4086077213287354e-01 4.2970997095108032e-01</leafValues></_>
        <_>
          <internalNodes>
            0 -1 112 -724266800 -720764839 201889566 788563995 537006744
            1342406916 722098810 -111769439</internalNodes>
          <leafValues>
            -5.4076993465423584e-01 4.4777029752731323e-01</leafValues></_>
        <_>
          <internalNodes>
            0 -1 146 -104694790 993893549 1975952627 2067094459
            -1452184375 1499352404 -789131560 -561800193</internalNodes>
          <leafValues>
            -3.7882015109062195e-01 6.2215578556060791e-01</leafValues></_>
        <_>
          <internalNodes>
            0 -1 113 -1727847862 429025345 1209041004 1494968837
            -1995764432 -1593824350 -2046645104 -1327277563</internalNodes>
          <leafValues>
            -4.7159063816070557e-01 5.1717174053192139e-01</leafValues></_></weakClassifiers></_>
    <!-- stage 15 -->
    <_>
      <maxWeakCount>8</maxWeakCount>
      <stageThreshold>-5.2198100090026855e-01</stageThreshold>
      <weakClassifiers>
        <_>
          <internalNodes>
            0 -1 68 -363074962 36892415 -1427396486 941686783 1899263861
            1430093823 2013265535 -1073745921</internalNodes>
          <leafValues>
            -3.7698411941528320e-01 5.3832119703292847e-01</leafValues></_>
        <_>
          <internalNodes>
            0 -1 111 -497851768 1949506075 167807194 350346573
            -2139062117 1224935424 1360562809 -540235617</internalNodes>
          <leafValues>
            -5.2363598346710205e-01 3.8490322232246399e-01</leafValues></_>
        <_>
          <internalNodes>
            0 -1 143 -607931383 -1030968760 -1225728297 -1320698464
            2062940133 -42078467 661638655 -1206874822</internalNodes>
          <leafValues>
            -4.0241482853889465e-01 5.2091330289840698e-01</leafValues></_>
        <_>
          <internalNodes>
            0 -1 211 -803151668 -1870450620 270014770 1964180390
            -1450457665 -1199013760 488306922 1542655133</internalNodes>
          <leafValues>
            -5.0249665975570679e-01 4.1962718963623047e-01</leafValues></_>
        <_>
          <internalNodes>
            0 -1 198 1543920728 726729156 1023621429 1370837649
            -1811822391 436412490 411947743 1068443151</internalNodes>
          <leafValues>
            -6.1289685964584351e-01 3.5148161649703979e-01</leafValues></_>
        <_>
          <internalNodes>
            0 -1 24 -788418506 537432266 67240066 809669651 -1327261477
            570918299 -268402679 1755717657</internalNodes>
          <leafValues>
            -5.7746803760528564e-01 4.1300776600837708e-01</leafValues></_>
        <_>
          <internalNodes>
            0 -1 82 1997854116 -1068977613 1426092081 -1207692881
            -1581218805 -133119658 33571 543887395</internalNodes>
          <leafValues>
            -6.9786924123764038e-01 3.4652426838874817e-01</leafValues></_>
        <_>
          <internalNodes>
            0 -1 231 1385164375 1476711685 1879429381 1075618134 9805827
            -1685471231 -2147319807 231334219</internalNodes>
          <leafValues>
            -5.3856205940246582e-01 4.5827952027320862e-01</leafValues></_></weakClassifiers></_>
    <!-- stage 16 -->
    <_>
      <maxWeakCount>8</maxWeakCount>
      <stageThreshold>-1.0234671831130981e+00</stageThreshold>
      <weakClassifiers>
        <_>
          <internalNodes>
            0 -1 128 1366216912 2144604094 107810494 268175423
            2064319760 -1679385090 238216469 -1893949555</internalNodes>
          <leafValues>
            -2.7386540174484253e-01 5.9833508729934692e-01</leafValues></_>
        <_>
          <internalNodes>
            0 -1 31 1603337472 -1190622462 -1593067231 -711662542
            -1068489974 -931134720 1082283030 461590826</internalNodes>
          <leafValues>
            -6.0249227285385132e-01 3.3792936801910400e-01</leafValues></_>
        <_>
          <internalNodes>
            0 -1 98 10473546 8532258 -799397941 -1876615039 -1857412621
            1029195913 1879344562 -1370576728</internalNodes>
          <leafValues>
            -5.5195701122283936e-01 3.4656488895416260e-01</leafValues></_>
        <_>
          <internalNodes>
            0 -1 135 -70517540 -751106947 391018457 1562707829 -90507086
            -1652403176 -1625669637 -608492824</internalNodes>
          <leafValues>
            -3.1887835264205933e-01 6.7302733659744263e-01</leafValues></_>
        <_>
          <internalNodes>
            0 -1 87 -1828577113 -1877042671 -587103851 -1459381999
            1118544743 463970451 1242173985 -12320064</internalNodes>
          <leafValues>
            -5.9411340951919556e-01 4.1196796298027039e-01</leafValues></_>
        <_>
          <internalNodes>
            0 -1 142 -1784328110 -1459272695 311693659 453052108
            203492038 -1885831104 1115696703 256429577</internalNodes>
          <leafValues>
            -5.6495797634124756e-01 4.0491765737533569e-01</leafValues></_>
        <_>
          <internalNodes>
            0 -1 32 590273410 -177175738 277153136 -2127478768
            -1056308942 1157793794 1089799334 -1989205046</internalNodes>
          <leafValues>
            -5.2095967531204224e-01 4.6074977517127991e-01</leafValues></_>
        <_>
          <internalNodes>
            0 -1 151 420449435 -938982055 -1609202521 -117324505
            571847670 -402578431 -521633217 537704874</internalNodes>
          <leafValues>
            -4.8824980854988098e-01 4.9501475691795349e-01</leafValues></_></weakClassifiers></_>
    <!-- stage 17 -->
    <_>
      <maxWeakCount>9</maxWeakCount>
      <stageThreshold>-9.3373954296112061e-01</stageThreshold>
      <weakClassifiers>
        <_>
          <internalNodes>
            0 -1 70 -805264700 841056384 136853634 33590408 914401295
            281176072 151552145 79813376</internalNodes>
          <leafValues>
            -6.5567767620086670e-01 4.3632254004478455e-01</leafValues></_>
        <_>
          <internalNodes>
            0 -1 83 551470940 -1073564652 17740873 -109333360 612382627
            -1574817655 1487669207 -1008726012</internalNodes>
          <leafValues>
            -5.9268373250961304e-01 3.2531628012657166e-01</leafValues></_>
        <_>
          <internalNodes>
            0 -1 202 -961962981 -10093179 -8585243 -148471836
            -1895001702 -2072707076 -800451141 -234904262</internalNodes>
          <leafValues>
            -3.1562474370002747e-01 6.5573620796203613e-01</leafValues></_>
        <_>
          <internalNodes>
            0 -1 96 -134036946 -737898480 1225792537 -2119389179
            541069871 -1336368992 1284525604 -71196479</internalNodes>
          <leafValues>
            -4.6685701608657837e-01 4.4454255700111389e-01</leafValues></_>
        <_>
          <internalNodes>
            0 -1 131 -605355408 858947623 269901743 72419328 1677820034
            -129953784 21172523 -1416346904</internalNodes>
          <leafValues>
            -5.8784097433090210e-01 3.6404785513877869e-01</leafValues></_>
        <_>
          <internalNodes>
            0 -1 85 -2103139308 679591953 -1807706959 1346408512
            1103127805 22901009 -251616887 856701754</internalNodes>
          <leafValues>
            -7.8241825103759766e-01 3.0091673135757446e-01</leafValues></_>
        <_>
          <internalNodes>
            0 -1 15 1930934239 2042746659 -604033104 1668528125
            1148302823 -363331756 2113929215 -1108214275</internalNodes>
          <leafValues>
            -3.7526190280914307e-01 7.1322566270828247e-01</leafValues></_>
        <_>
          <internalNodes>
            0 -1 129 -250945408 22499357 545367706 159367702 1342210184
            1879147024 17999882 -35972911</internalNodes>
          <leafValues>
            -5.9757077693939209e-01 4.2996832728385925e-01</leafValues></_>
        <_>
          <internalNodes>
            0 -1 25 1079682006 -1054570414 671827767 -572041194
            -536854363 1353712139 -1029636032 1180647493</internalNodes>
          <leafValues>
            -5.6453925371170044e-01 4.4963610172271729e-01</leafValues></_></weakClassifiers></_>
    <!-- stage 18 -->
    <_>
      <maxWeakCount>8</maxWeakCount>
      <stageThreshold>-4.9345698952674866e-01</stageThreshold>
      <weakClassifiers>
        <_>
          <internalNodes>
            0 -1 187 289873967 420611105 -918470383 -971714231 898113603
            -1131769651 13898828 991981329</internalNodes>
          <leafValues>
            -5.7407408952713013e-01 4.5924764871597290e-01</leafValues></_>
        <_>
          <internalNodes>
            0 -1 16 1960667174 428542082 -766508014 -517487871 914753552
            575160320 1076132714 -489836573</internalNodes>
          <leafValues>
            -4.7723129391670227e-01 3.9307951927185059e-01</leafValues></_>
        <_>
          <internalNodes>
            0 -1 130 -729412408 -13352893 146867665 354222169 404769282
            -1474227710 289446203 1754486912</internalNodes>
          <leafValues>
            -5.9293586015701294e-01 3.9175572991371155e-01</leafValues></_>
        <_>
          <internalNodes>
            0 -1 123 566292481 679717026 1125229069 -2016558760
            -1441114813 -225959774 -1535082150 -862052149</internalNodes>
          <leafValues>
            -5.2817714214324951e-01 3.8739261031150818e-01</leafValues></_>
        <_>
          <internalNodes>
            0 -1 160 1602996440 1492713715 -1082426147 -1760508688
            -1063092024 -1778713430 1266602939 -1086595361</internalNodes>
          <leafValues>
            -4.3869510293006897e-01 5.2246993780136108e-01</leafValues></_>
        <_>
          <internalNodes>
            0 -1 177 1620373844 -518950319 411567352 134284955
            1321312394 2027044899 34535834 -1612728293</internalNodes>
          <leafValues>
            -5.4250162839889526e-01 4.3870601058006287e-01</leafValues></_>
        <_>
          <internalNodes>
            0 -1 107 -2146034265 -1073491657 -1879044013 1931665433
            -258880757 -888978684 160367360 -1599142631</internalNodes>
          <leafValues>
            -5.6931298971176147e-01 4.0616902709007263e-01</leafValues></_>
        <_>
          <internalNodes>
            0 -1 145 -1897155108 1099125289 1107313216 -1118467825
            7598508 -109264766 -506744634 -366623072</internalNodes>
          <leafValues>
            -4.9305650591850281e-01 5.0613880157470703e-01</leafValues></_></weakClassifiers></_>
    <!-- stage 19 -->
    <_>
      <maxWeakCount>9</maxWeakCount>
      <stageThreshold>-1.0806020498275757e+00</stageThreshold>
      <weakClassifiers>
        <_>
          <internalNodes>
            0 -1 116 6433569 -1718443328 -1879043865 -147209712
            540804371 1661848199 673203204 2138047744</internalNodes>
          <leafValues>
            -5.9501558542251587e-01 4.6207976341247559e-01</leafValues></_>
        <_>
          <internalNodes>
            0 -1 1 1348330967 -1034039039 1141502106 1027793624
            269535243 -2042290021 1981512331 1891764412</internalNodes>
          <leafValues>
            -5.5375576019287109e-01 3.5767203569412231e-01</leafValues></_>
        <_>
          <internalNodes>
            0 -1 220 -580940289 1284356597 -1124237527 532513748
            117306887 -1471613463 1752116943 -1064966213</internalNodes>
          <leafValues>
            -3.1149059534072876e-01 6.3299411535263062e-01</leafValues></_>
        <_>
          <internalNodes>
            0 -1 139 1862971411 2145103417 1595899315 -1355424480
            405182200 -290775578 -1888180554 -14693419</internalNodes>
          <leafValues>
            -3.1859499216079712e-01 6.1019986867904663e-01</leafValues></_>
        <_>
          <internalNodes>
            0 -1 169 -75715721 721222647 -16809985 -1174800387 -33706200
            1022853116 -1213014470 -1644866220</internalNodes>
          <leafValues>
            -4.1117042303085327e-01 4.9580776691436768e-01</leafValues></_>
        <_>
          <internalNodes>
            0 -1 156 -987213607 -641814627 -482556993 1520373439
            -903111223 1605524909 1648298409 -1958779857</internalNodes>
          <leafValues>
            -3.9303374290466309e-01 5.8054101467132568e-01</leafValues></_>
        <_>
          <internalNodes>
            0 -1 75 1836800108 135020608 -922515301 269877617 -913985048
            428769288 -727709692 -840707967</internalNodes>
          <leafValues>
            -5.5924230813980103e-01 4.3701270222663879e-01</leafValues></_>
        <_>
          <internalNodes>
            0 -1 186 -1240703691 -1073807771 2113754035 186834899
            -1951502532 -1460230279 -1090856993 -128811388</internalNodes>
          <leafValues>
            -4.0277335047721863e-01 5.9645903110504150e-01</leafValues></_>
        <_>
          <internalNodes>
            0 -1 225 2031015103 39765193 1452021837 520070187 276837189
            1343086724 1229752728 -2001811303</internalNodes>
          <leafValues>
            -4.7762310504913330e-01 5.2973181009292603e-01</leafValues></_></weakClassifiers></_>
    <!-- stage 20 -->
    <_>
      <maxWeakCount>9</maxWeakCount>
      <stageThreshold>-7.1075612306594849e-01</stageThreshold>
      <weakClassifiers>
        <_>
          <internalNodes>
            0 -1 59 -1596100028 436281600 -922582714 -1006091904
            1636828419 287834880 1138062705 1157783584</internalNodes>
          <leafValues>
            -6.8181818723678589e-01 4.3413174152374268e-01</leafValues></_>
        <_>
          <internalNodes>
            0 -1 118 -1928700720 -1349943868 21824533 219218261
            -1868501894 -356413407 -394165944 -1920694179</internalNodes>
          <leafValues>
            -4.3418225646018982e-01 4.1964364051818848e-01</leafValues></_>
        <_>
          <internalNodes>
            0 -1 60 -362327531 -1319129199 -1493276837 475692667
            -1686272435 2041910652 1647738828 -218736779</internalNodes>
          <leafValues>
            -3.2966127991676331e-01 5.5853372812271118e-01</leafValues></_>
        <_>
          <internalNodes>
            0 -1 208 5148720 -145162032 -1987998505 324395265
            -1704950127 -1734748024 -805250928 193414528</internalNodes>
          <leafValues>
            -5.2168077230453491e-01 3.9075896143913269e-01</leafValues></_>
        <_>
          <internalNodes>
            0 -1 144 -20181857 2144591947 1205659415 328667759 151796392
            -139227586 -1985759819 -1919184971</internalNodes>
          <leafValues>
            -4.2291483283042908e-01 5.3877961635589600e-01</leafValues></_>
        <_>
          <internalNodes>
            0 -1 155 1427703672 -740982777 -662614887 -1118628478
            1897599416 -795862591 1124598153 -1665531768</internalNodes>
          <leafValues>
            -4.6429491043090820e-01 4.9571418762207031e-01</leafValues></_>
        <_>
          <internalNodes>
            0 -1 173 1342865580 -1270685109 -1803102347 2063728656
            -503262835 101752960 17607115 -887567347</internalNodes>
          <leafValues>
            -5.1695060729980469e-01 4.4359779357910156e-01</leafValues></_>
        <_>
          <internalNodes>
            0 -1 164 -2146417600 -742379246 1665223961 358688917
            -925857560 -117366736 842560008 104988687</internalNodes>
          <leafValues>
            -6.5877622365951538e-01 3.6304441094398499e-01</leafValues></_>
        <_>
          <internalNodes>
            0 -1 46 -1447913078 1899168339 457351426 847479631
            -671070080 -662650734 -1996127991 -752243814</internalNodes>
          <leafValues>
            -4.9845695495605469e-01 4.8152694106101990e-01</leafValues></_></weakClassifiers></_>
    <!-- stage 21 -->
    <_>
      <maxWeakCount>9</maxWeakCount>
      <stageThreshold>-6.5831893682479858e-01</stageThreshold>
      <weakClassifiers>
        <_>
          <internalNodes>
            0 -1 94 583215626 554737769 285262229 -1845460968 135299603
            -1375481696 200179 297993589</internalNodes>
          <leafValues>
            -7.4887889623641968e-01 4.1176471114158630e-01</leafValues></_>
        <_>
          <internalNodes>
            0 -1 184 -1866284324 2046642355 248085739 -597958941
            1065581706 931114220 -1912960354 -1667948985</internalNodes>
          <leafValues>
            -3.6894902586936951e-01 4.4501262903213501e-01</leafValues></_>
        <_>
          <internalNodes>
            0 -1 93 -1964072560 -180240076 -2092579564 -1718934608
            1007731633 -494395192 881365923 157894980</internalNodes>
          <leafValues>
            -4.6867984533309937e-01 4.1561317443847656e-01</leafValues></_>
        <_>
          <internalNodes>
            0 -1 226 1108071271 209977609 -1500565157 -597648505
            538004746 319324195 144900483 -984331320</internalNodes>
          <leafValues>
            -4.5456665754318237e-01 4.3336033821105957e-01</leafValues></_>
        <_>
          <internalNodes>
            0 -1 150 -310325546 -651723049 1493700694 588269699
            -1768925967 -804716404 950573817 -1978857334</internalNodes>
          <leafValues>
            -4.4639447331428528e-01 4.2416548728942871e-01</leafValues></_>
        <_>
          <internalNodes>
            0 -1 228 -1880624917 -1967391043 131028860 -707406895
            503164418 240835924 211965258 -574501881</internalNodes>
          <leafValues>
            -3.8462090492248535e-01 5.4867279529571533e-01</leafValues></_>
        <_>
          <internalNodes>
            0 -1 37 -945106200 1609697608 19138012 -412516337 1753858106
            1892780500 1123307781 581108577</internalNodes>
          <leafValues>
            -5.9445017576217651e-01 3.5366079211235046e-01</leafValues></_>
        <_>
          <internalNodes>
            0 -1 236 983749339 350263935 1996387198 79275536 -345014323
            -1720320004 1802827735 -2116696189</internalNodes>
          <leafValues>
            -4.3339720368385315e-01 5.1360708475112915e-01</leafValues></_>
        <_>
          <internalNodes>
            0 -1 19 -564404214 688025974 637542408 1111523847 540971556
            -1203124207 1129427099 1853375113</internalNodes>
          <leafValues>
            -5.5420768260955811e-01 4.2023235559463501e-01</leafValues></_></weakClassifiers></_>
    <!-- stage 22 -->
    <_>
      <maxWeakCount>8</maxWeakCount>
      <stageThreshold>-5.4347693920135498e-01</stageThreshold>
      <weakClassifiers>
        <_>
          <internalNodes>
            0 -1 214 35457929 -1342177081 1812074581 -1517813246
            1933922881 226580192 -1685570429 475268144</internalNodes>
          <leafValues>
            -5.3890490531921387e-01 4.6847566962242126e-01</leafValues></_>
        <_>
          <internalNodes>
            0 -1 69 -1029802162 9324614 1082261264 684050191 1342329191
            270352385 -494468854 892043920</internalNodes>
          <leafValues>
            -7.1578383445739746e-01 2.7299275994300842e-01</leafValues></_>
        <_>
          <internalNodes>
            0 -1 10 1359780722 1376290832 486560145 302042267 1183475642
            -904915836 1665286925 -269117526</internalNodes>
          <leafValues>
            -4.2787569761276245e-01 4.8223957419395447e-01</leafValues></_>
        <_>
          <internalNodes>
            0 -1 42 -119328534 273219723 1342194193 808489224 20620025
            698994177 2091092131 61932163</internalNodes>
          <leafValues>
            -7.0474255084991455e-01 2.8534060716629028e-01</leafValues></_>
        <_>
          <internalNodes>
            0 -1 163 -858792207 -1058148460 804388623 -1075611668
            1106826854 -120832092 1725749194 -1443830078</internalNodes>
          <leafValues>
            -4.0575855970382690e-01 5.1926577091217041e-01</leafValues></_>
        <_>
          <internalNodes>
            0 -1 56 293974791 403282144 268439987 1208529361 1619526395
            -930452927 847250450 -668182766</internalNodes>
          <leafValues>
            -5.3299081325531006e-01 3.9448904991149902e-01</leafValues></_>
        <_>
          <internalNodes>
            0 -1 180 -868198152 2097689513 -2147482575 365232144
            -2085566244 -1165458792 382535935 977803556</internalNodes>
          <leafValues>
            -6.1063754558563232e-01 3.7738659977912903e-01</leafValues></_>
        <_>
          <internalNodes>
            0 -1 154 -749252079 -775050753 -1134875861 -1431353649
            -1158258647 -138448898 63644471 -909723901</internalNodes>
          <leafValues>
            -4.2323800921440125e-01 5.6445705890655518e-01</leafValues></_></weakClassifiers></_>
    <!-- stage 23 -->
    <_>
      <maxWeakCount>10</maxWeakCount>
      <stageThreshold>-9.2621701955795288e-01</stageThreshold>
      <weakClassifiers>
        <_>
          <internalNodes>
            0 -1 67 -2012566774 10539279 1090583564 -1593833728
            1217482583 1988204032 414995 1426343179</internalNodes>
          <leafValues>
            -5.9863942861557007e-01 4.4104135036468506e-01</leafValues></_>
        <_>
          <internalNodes>
            0 -1 219 -728900830 2027133980 358412316 32866630 -595873114
            -1658977280 492344084 -385104145</internalNodes>
          <leafValues>
            -3.9719977974891663e-01 4.5295664668083191e-01</leafValues></_>
        <_>
          <internalNodes>
            0 -1 66 -606683201 -286326847 -269516815 -109057103
            -537509973 1022132084 2002679664 -4595881</internalNodes>
          <leafValues>
            -3.5941481590270996e-01 5.3940796852111816e-01</leafValues></_>
        <_>
          <internalNodes>
            0 -1 13 1612964451 -1073428702 1124139349 -499691294
            -535796480 -2003925689 1720272816 -686302865</internalNodes>
          <leafValues>
            -4.3343025445938110e-01 4.7038301825523376e-01</leafValues></_>
        <_>
          <internalNodes>
            0 -1 3 -163053814 -1048206317 696849052 -639346240
            -1197440631 1027703079 713178521 1239648673</internalNodes>
          <leafValues>
            -4.9322408437728882e-01 4.3455341458320618e-01</leafValues></_>
        <_>
          <internalNodes>
            0 -1 229 227196551 -1912285562 134432450 -2038177159
            143753266 18891075 706126475 -1601147005</internalNodes>
          <leafValues>
            -4.6110427379608154e-01 4.8604273796081543e-01</leafValues></_>
        <_>
          <internalNodes>
            0 -1 126 -1996701958 -1253327260 -1209614689 2111981159
            1303238580 2088596599 342164686 -1435873394</internalNodes>
          <leafValues>
            -4.2661693692207336e-01 5.1943689584732056e-01</leafValues></_>
        <_>
          <internalNodes>
            0 -1 125 -185640751 -1981858435 2126128482 -1620074635
            1855937457 -373858466 -1155015297 -297811373</internalNodes>
          <leafValues>
            -2.7404886484146118e-01 7.3615586757659912e-01</leafValues></_>
        <_>
          <internalNodes>
            0 -1 115 -250455558 -1937029111 16990259 -1373372024
            814905521 -1996928896 -90168841 -1179615200</internalNodes>
          <leafValues>
            -4.8181036114692688e-01 4.6197664737701416e-01</leafValues></_>
        <_>
          <internalNodes>
            0 -1 78 -535027642 269599785 -938835950 2093006885
            1636274729 806543361 -1987048444 -401880413</internalNodes>
          <leafValues>
            -5.9730768203735352e-01 3.9675691723823547e-01</leafValues></_></weakClassifiers></_>
    <!-- stage 24 -->
    <_>
      <maxWeakCount>9</maxWeakCount>
      <stageThreshold>-5.5206722021102905e-01</stageThreshold>
      <weakClassifiers>
        <_>
          <internalNodes>
            0 -1 89 -2111527226 940180502 209853446 33787536 -1523856798
            1342773900 1124180375 654346684</internalNodes>
          <leafValues>
            -6.1130744218826294e-01 4.3507972359657288e-01</leafValues></_>
        <_>
          <internalNodes>
            0 -1 110 -543173921 2146666235 722657949 -2029025985
            1072050968 -805323330 -844785701 -912056417</internalNodes>
          <leafValues>
            -2.6875174045562744e-01 6.3128006458282471e-01</leafValues></_>
        <_>
          <internalNodes>
            0 -1 230 47840363 174546062 -167897553 -1225973781 534338613
            1779624059 263747879 -195701604</internalNodes>
          <leafValues>
            -3.6730512976646423e-01 4.6609789133071899e-01</leafValues></_>
        <_>
          <internalNodes>
            0 -1 188 1700515220 -166784965 1497405711 -1856932174
            1209935501 -1328960268 806026401 142149049</internalNodes>
          <leafValues>
            -4.9181410670280457e-01 3.7959656119346619e-01</leafValues></_>
        <_>
          <internalNodes>
            0 -1 122 -945762660 -107195120 -1730805411 -1467144696
            1183496203 1208361083 1310764267 -1529757408</internalNodes>
          <leafValues>
            -4.7786417603492737e-01 4.2521208524703979e-01</leafValues></_>
        <_>
          <internalNodes>
            0 -1 149 -2083279373 6877109 1845443477 2037601054
            -192973647 -302189615 -1426090289 -1396397089</internalNodes>
          <leafValues>
            -3.4553259611129761e-01 6.1366575956344604e-01</leafValues></_>
        <_>
          <internalNodes>
            0 -1 90 2003763524 1041320384 -1133236197 1369276488
            -603781117 -930895646 1078133378 1629661323</internalNodes>
          <leafValues>
            -4.8552408814430237e-01 4.3738564848899841e-01</leafValues></_>
        <_>
          <internalNodes>
            0 -1 237 529121297 277905408 -650065900 -960100718
            -1978417098 494993729 537886740 1688204388</internalNodes>
          <leafValues>
            -5.0275903940200806e-01 4.4791597127914429e-01</leafValues></_>
        <_>
          <internalNodes>
            0 -1 183 1465775808 -1055833727 286411550 740557074
            1359479992 323682696 1271014559 -1068031089</internalNodes>
          <leafValues>
            -5.6829726696014404e-01 4.1308867931365967e-01</leafValues></_></weakClassifiers></_>
    <!-- stage 25 -->
    <_>
      <maxWeakCount>9</maxWeakCount>
      <stageThreshold>-5.2635276317596436e-01</stageThreshold>
      <weakClassifiers>
        <_>
          <internalNodes>
            0 -1 65 888120869 1065254746 1879025663 -134236688
            1090488311 -659719 1996375361 -719501680</internalNodes>
          <leafValues>
            -3.2812500000000000e-01 5.2205884456634521e-01</leafValues></_>
        <_>
          <internalNodes>
            0 -1 9 1749502020 -662650488 1417675180 548941 1879124237
            69503106 1346527869 2085570988</internalNodes>
          <leafValues>
            -6.3716369867324829e-01 2.8633269667625427e-01</leafValues></_>
        <_>
          <internalNodes>
            0 -1 161 1885858884 831662526 2084304891 -1289605985
            -960759912 -1528805258 1207717886 -103883010</internalNodes>
          <leafValues>
            -3.3362805843353271e-01 5.7260447740554810e-01</leafValues></_>
        <_>
          <internalNodes>
            0 -1 7 -799899188 1463844872 -400485247 -1040187262 4255980
            -1325029376 2084824206 -1426062127</internalNodes>
          <leafValues>
            -5.7235068082809448e-01 3.4222257137298584e-01</leafValues></_>
        <_>
          <internalNodes>
            0 -1 217 810227551 604244322 -1660911486 -1832364839
            1145110977 -1132378111 -1878504447 1041829476</internalNodes>
          <leafValues>
            -7.2497045993804932e-01 2.5961458683013916e-01</leafValues></_>
        <_>
          <internalNodes>
            0 -1 81 1438330563 -1175753642 2119548830 -245072030
            2138937101 1727678545 -1419901480 -60293886</internalNodes>
          <leafValues>
            -4.6017932891845703e-01 4.9804317951202393e-01</leafValues></_>
        <_>
          <internalNodes>
            0 -1 233 -1301286853 70642301 784330657 1512381471 -8594637
            -1242122380 1434312268 -1812023429</internalNodes>
          <leafValues>
            -2.9255640506744385e-01 6.7355841398239136e-01</leafValues></_>
        <_>
          <internalNodes>
            0 -1 8 1231944415 -1561658645 2013253349 -303040012
            -983665500 1346797159 1623094838 1456697847</internalNodes>
          <leafValues>
            -4.2230522632598877e-01 5.0309693813323975e-01</leafValues></_>
        <_>
          <internalNodes>
            0 -1 194 1442506861 347847799 -1174414569 -382898851
            1466855003 -1727007280 -161593154 -1051240230</internalNodes>
          <leafValues>
            -3.4955996274948120e-01 6.1079484224319458e-01</leafValues></_></weakClassifiers></_>
    <!-- stage 26 -->
    <_>
      <maxWeakCount>10</maxWeakCount>
      <stageThreshold>-9.2776131629943848e-01</stageThreshold>
      <weakClassifiers>
        <_>
          <internalNodes>
            0 -1 55 -434991066 1761656912 16785457 -1597992095 46793483
            715323428 1511528242 1883534864</internalNodes>
          <leafValues>
            -5.8139532804489136e-01 4.4264820218086243e-01</leafValues></_>
        <_>
          <internalNodes>
            0 -1 189 -644542026 486896831 -1719132769 2098811921
            -343369088 -1744739924 -1197009094 253429833</internalNodes>
          <leafValues>
            -3.9617919921875000e-01 4.2292109131813049e-01</leafValues></_>
        <_>
          <internalNodes>
            0 -1 175 1482473944 -1659849209 18875608 193113097
            -264173488 -133287808 1292122121 1007664259</internalNodes>
          <leafValues>
            -5.0777208805084229e-01 3.9102482795715332e-01</leafValues></_>
        <_>
          <internalNodes>
            0 -1 0 -1494700618 837811955 -1325405315 -1256129063
            -84085252 -1972043785 -1623568901 -2147361349</internalNodes>
          <leafValues>
            -4.4058454036712646e-01 4.7093322873115540e-01</leafValues></_>
        <_>
          <internalNodes>
            0 -1 148 487160282 -919212816 1192780777 523754103
            -1083655304 -1881567771 -1825935441 -1777111879</internalNodes>
          <leafValues>
            -4.1151693463325500e-01 5.0050508975982666e-01</leafValues></_>
        <_>
          <internalNodes>
            0 -1 86 -1903625424 395681874 8917051 -110717632 294601008
            -1727528934 -2081570363 -976772992</internalNodes>
          <leafValues>
            -4.7603893280029297e-01 4.2934983968734741e-01</leafValues></_>
        <_>
          <internalNodes>
            0 -1 232 985594879 2120753083 -1343275523 -59754852
            -277070074 -939651329 -623018866 -255060018</internalNodes>
          <leafValues>
            -3.7669047713279724e-01 5.7381600141525269e-01</leafValues></_>
        <_>
          <internalNodes>
            0 -1 88 -1367415473 996342616 -1073875017 -5177384
            1849441777 -540803286 -443357327 -719531632</internalNodes>
          <leafValues>
            -4.5100554823875427e-01 4.9960637092590332e-01</leafValues></_>
        <_>
          <internalNodes>
            0 -1 101 -8428885 2134836976 1315602175 -1335906512
            880619134 -1095471108 234268117 -1535673365</internalNodes>
          <leafValues>
            -3.7994569540023804e-01 5.8977353572845459e-01</leafValues></_>
        <_>
          <internalNodes>
            0 -1 147 -436174522 -1203690326 -1073329070 -676085549
            1610614787 623650976 2005176607 1996500559</internalNodes>
          <leafValues>
            -5.5396211147308350e-01 4.1097655892372131e-01</leafValues></_></weakClassifiers></_>
    <!-- stage 27 -->
    <_>
      <maxWeakCount>9</maxWeakCount>
      <stageThreshold>-1.0633859634399414e+00</stageThreshold>
      <weakClassifiers>
        <_>
          <internalNodes>
            0 -1 202 -1499266038 -1507479132 -294289415 -1486454944
            -1886616909 -463161346 -1865801864 -1447155920</internalNodes>
          <leafValues>
            -3.6152219772338867e-01 5.0665485858917236e-01</leafValues></_>
        <_>
          <internalNodes>
            0 -1 215 1607430495 749153905 -1677803537 -1082589185
            2113232885 1047714610 -34145281 -332092045</internalNodes>
          <leafValues>
            -2.9423090815544128e-01 5.5026626586914063e-01</leafValues></_>
        <_>
          <internalNodes>
            0 -1 108 1610662897 1367574678 232339 998613684 537562050
            -16457055 59368897 523965618</internalNodes>
          <leafValues>
            -4.3384271860122681e-01 4.3424496054649353e-01</leafValues></_>
        <_>
          <internalNodes>
            0 -1 195 1910758938 -1866202226 -151003559 1366818295
            1196918719 -536881441 -939586438 -1871856995</internalNodes>
          <leafValues>
            -3.4884607791900635e-01 5.3424364328384399e-01</leafValues></_>
        <_>
          <internalNodes>
            0 -1 234 -1068019553 1091895561 -1068482303 -2146152063
            -2146266109 -715030256 -746393045 676481207</internalNodes>
          <leafValues>
            -5.1405537128448486e-01 4.2689746618270874e-01</leafValues></_>
        <_>
          <internalNodes>
            0 -1 40 2144814335 -403071385 -672946588 -539269509
            1190990602 -8450084 -572786791 -302580161</internalNodes>
          <leafValues>
            -3.4384116530418396e-01 6.4819484949111938e-01</leafValues></_>
        <_>
          <internalNodes>
            0 -1 71 -1609426776 -249780985 935496266 304128102
            -1006492653 198913 -1920966210 300188293</internalNodes>
          <leafValues>
            -7.2840237617492676e-01 3.1992459297180176e-01</leafValues></_>
        <_>
          <internalNodes>
            0 -1 206 -1039610608 1093927553 84001063 897908754
            -1048532776 -1699109712 47098809 -1995710395</internalNodes>
          <leafValues>
            -4.6201840043067932e-01 4.8236396908760071e-01</leafValues></_>
        <_>
          <internalNodes>
            0 -1 80 -139239686 -646486042 196556539 2033771075
            -714643588 -167430602 -1074790501 -1857116930</internalNodes>
          <leafValues>
            -4.3408355116844177e-01 5.3522902727127075e-01</leafValues></_></weakClassifiers></_>
    <!-- stage 28 -->
    <_>
      <maxWeakCount>9</maxWeakCount>
      <stageThreshold>-6.5755563974380493e-01</stageThreshold>
      <weakClassifiers>
        <_>
          <internalNodes>
            0 -1 57 553723946 558039559 1359106049 -1874853823 730402239
            697862235 -389012479 -872349375</internalNodes>
          <leafValues>
            -6.5079367160797119e-01 4.1839763522148132e-01</leafValues></_>
        <_>
          <internalNodes>
            0 -1 105 -611321537 -604030340 -352323597 -436343015
            744204394 -29393423 -606758924 -708262536</internalNodes>
          <leafValues>
            -2.9549753665924072e-01 5.9170389175415039e-01</leafValues></_>
        <_>
          <internalNodes>
            0 -1 172 -1039731496 -1785571376 12228759 893469563 139992
            -930213494 1099099323 1023763610</internalNodes>
          <leafValues>
            -4.7547245025634766e-01 3.8545298576354980e-01</leafValues></_>
        <_>
          <internalNodes>
            0 -1 205 1753927161 1481277832 -956227556 285302786 67905788
            -1825813882 219902374 1350380266</internalNodes>
          <leafValues>
            -4.2857897281646729e-01 4.4195631146430969e-01</leafValues></_>
        <_>
          <internalNodes>
            0 -1 114 -1461113001 -39899404 -1443923351 -114236295
            -558153766 -1464183042 1761098392 687013654</internalNodes>
          <leafValues>
            -4.1043558716773987e-01 5.1379770040512085e-01</leafValues></_>
        <_>
          <internalNodes>
            0 -1 132 -755971878 -1961848432 55104587 1204133968
            269349273 1243615880 -1585373477 470093921</internalNodes>
          <leafValues>
            -5.8381438255310059e-01 3.9683055877685547e-01</leafValues></_>
        <_>
          <internalNodes>
            0 -1 227 -201076032 1275220118 1091629212 -861977949
            1512612240 1719718016 742394730 1345980939</internalNodes>
          <leafValues>
            -5.9954690933227539e-01 3.6428284645080566e-01</leafValues></_>
        <_>
          <internalNodes>
            0 -1 28 406270543 2098222741 -1655758744 833702966 52625659
            -928839640 -1700084997 849830275</internalNodes>
          <leafValues>
            -4.6941661834716797e-01 4.7203433513641357e-01</leafValues></_>
        <_>
          <internalNodes>
            0 -1 141 1407450256 1809008936 -1073729327 965099716
            1908834984 139011073 1478527265 555852359</internalNodes>
          <leafValues>
            -5.2514743804931641e-01 4.4763049483299255e-01</leafValues></_></weakClassifiers></_>
    <!-- stage 29 -->
    <_>
      <maxWeakCount>9</maxWeakCount>
      <stageThreshold>-5.4755163192749023e-01</stageThreshold>
      <weakClassifiers>
        <_>
          <internalNodes>
            0 -1 17 1101361830 -2122255295 2130585294 32209248
            1616229883 860348276 -722149393 -657982083</internalNodes>
          <leafValues>
            -2.9622980952262878e-01 5.4170662164688110e-01</leafValues></_>
        <_>
          <internalNodes>
            0 -1 51 1475167279 -700590378 -1375883600 1677403621
            1784568072 971849583 -94937537 -97282075</internalNodes>
          <leafValues>
            -3.4197697043418884e-01 5.1258391141891479e-01</leafValues></_>
        <_>
          <internalNodes>
            0 -1 117 11545929 541636545 -1736375931 -846686206
            1216389738 -757071863 1111677136 -393703100</internalNodes>
          <leafValues>
            -4.7718548774719238e-01 4.2277416586875916e-01</leafValues></_>
        <_>
          <internalNodes>
            0 -1 216 -550447051 -805308879 2071769651 1599503193
            -1123829559 -1708499760 431009495 -561413888</internalNodes>
          <leafValues>
            -3.0198913812637329e-01 6.6011619567871094e-01</leafValues></_>
        <_>
          <internalNodes>
            0 -1 20 -394364323 1311133861 -1099120912 706248682
            339154500 -251826764 -151652263 -8917391</internalNodes>
          <leafValues>
            -3.7338897585868835e-01 5.7577776908874512e-01</leafValues></_>
        <_>
          <internalNodes>
            0 -1 36 721772588 1624578460 -2004876212 -1165426551
            -149912272 1645758465 -1970589514 -1219803956</internalNodes>
          <leafValues>
            -5.6556993722915649e-01 3.8451334834098816e-01</leafValues></_>
        <_>
          <internalNodes>
            0 -1 221 -1063872574 605652237 1493262990 -1445503996
            -1994239070 497537430 420025474 70474635</internalNodes>
          <leafValues>
            -6.0956341028213501e-01 3.4532010555267334e-01</leafValues></_>
        <_>
          <internalNodes>
            0 -1 181 -1474069392 -677967760 341709279 221562077
            -1718615902 188846105 18942110 45357157</internalNodes>
          <leafValues>
            -6.2908208370208740e-01 4.0441969037055969e-01</leafValues></_>
        <_>
          <internalNodes>
            0 -1 100 -905555793 1360004181 306217055 329000012
            1082350420 179325970 -1060919845 -510152573</internalNodes>
          <leafValues>
            -4.9418953061103821e-01 5.1443791389465332e-01</leafValues></_></weakClassifiers></_></stages>
  <features>
    <_>
      <rect>
        0 1 13 4</rect></_>
    <_>
      <rect>
        0 2 9 14</rect></_>
    <_>
      <rect>
        0 5 7 14</rect></_>
    <_>
      <rect>
        0 6 5 4</rect></_>
    <_>
      <rect>
        0 8 10 8</rect></_>
    <_>
      <rect>
        0 9 9 9</rect></_>
    <_>
      <rect>
        0 10 9 6</rect></_>
    <_>
      <rect>
        0 10 10 12</rect></_>
    <_>
      <rect>
        0 11 3 2</rect></_>
    <_>
      <rect>
        0 11 6 10</rect></_>
    <_>
      <rect>
        0 11 8 4</rect></_>
    <_>
      <rect>
        0 12 8 9</rect></_>
    <_>
      <rect>
        0 14 7 7</rect></_>
    <_>
      <rect>
        0 15 2 2</rect></_>
    <_>
      <rect>
        0 16 9 3</rect></_>
    <_>
      <rect>
        0 20 12 8</rect></_>
    <_>
      <rect>
        0 23 4 5</rect></_>
    <_>
      <rect>
        0 23 13 6</rect></_>
    <_>
      <rect>
        0 24 7 6</rect></_>
    <_>
      <rect>
        0 27 3 4</rect></_>
    <_>
      <rect>
        0 32 2 3</rect></_>
    <_>
      <rect>
        1 0 9 14</rect></_>
    <_>
      <rect>
        1 0 11 13</rect></_>
    <_>
      <rect>
        1 2 10 10</rect></_>
    <_>
      <rect>
        1 4 13 15</rect></_>
    <_>
      <rect>
        1 7 3 3</rect></_>
    <_>
      <rect>
        1 11 9 5</rect></_>
    <_>
      <rect>
        1 18 4 6</rect></_>
    <_>
      <rect>
        1 31 13 6</rect></_>
    <_>
      <rect>
        2 0 8 16</rect></_>
    <_>
      <rect>
        2 3 6 7</rect></_>
    <_>
      <rect>
        2 7 5 7</rect></_>
    <_>
      <rect>
        2 11 4 2</rect></_>
    <_>
      <rect>
        2 12 9 5</rect></_>
    <_>
      <rect>
        2 20 6 5</rect></_>
    <_>
      <rect>
        2 21 5 6</rect></_>
    <_>
      <rect>
        2 28 5 4</rect></_>
    <_>
      <rect>
        3 0 4 5</rect></_>
    <_>
      <rect>
        3 4 8 10</rect></_>
    <_>
      <rect>
        3 6 5 7</rect></_>
    <_>
      <rect>
        3 19 2 5</rect></_>
    <_>
      <rect>
        4 0 12 4</rect></_>
    <_>
      <rect>
        4 1 11 15</rect></_>
    <_>
      <rect>
        4 13 8 4</rect></_>
    <_>
      <rect>
        4 16 8 3</rect></_>
    <_>
      <rect>
        4 18 5 5</rect></_>
    <_>
      <rect>
        4 23 8 8</rect></_>
    <_>
      <rect>
        5 4 8 10</rect></_>
    <_>
      <rect>
        5 10 7 5</rect></_>
    <_>
      <rect>
        5 11 7 4</rect></_>
    <_>
      <rect>
        5 13 6 5</rect></_>
    <_>
      <rect>
        5 24 2 2</rect></_>
    <_>
      <rect>
        6 2 7 8</rect></_>
    <_>
      <rect>
        6 3 10 14</rect></_>
    <_>
      <rect>
        6 8 6 5</rect></_>
    <_>
      <rect>
        6 10 9 4</rect></_>
    <_>
      <rect>
        6 11 8 4</rect></_>
    <_>
      <rect>
        6 14 10 7</rect></_>
    <_>
      <rect>
        6 15 7 7</rect></_>
    <_>
      <rect>
        6 17 3 4</rect></_>
    <_>
      <rect>
        6 28 2 2</rect></_>
    <_>
      <rect>
        7 2 6 8</rect></_>
    <_>
      <rect>
        7 6 1 1</rect></_>
    <_>
      <rect>
        7 9 7 4</rect></_>
    <_>
      <rect>
        7 11 6 5</rect></_>
    <_>
      <rect>
        7 12 6 4</rect></_>
    <_>
      <rect>
        7 14 7 2</rect></_>
    <_>
      <rect>
        7 15 4 5</rect></_>
    <_>
      <rect>
        7 21 5 5</rect></_>
    <_>
      <rect>
        7 22 4 3</rect></_>
    <_>
      <rect>
        7 23 6 2</rect></_>
    <_>
      <rect>
        7 24 9 8</rect></_>
    <_>
      <rect>
        8 15 3 4</rect></_>
    <_>
      <rect>
        8 15 7 4</rect></_>
    <_>
      <rect>
        8 19 5 4</rect></_>
    <_>
      <rect>
        8 20 3 8</rect></_>
    <_>
      <rect>
        8 22 7 2</rect></_>
    <_>
      <rect>
        8 23 4 7</rect></_>
    <_>
      <rect>
        8 25 5 4</rect></_>
    <_>
      <rect>
        8 26 6 3</rect></_>
    <_>
      <rect>
        8 29 7 4</rect></_>
    <_>
      <rect>
        8 37 3 2</rect></_>
    <_>
      <rect>
        9 0 4 11</rect></_>
    <_>
      <rect>
        9 7 6 5</rect></_>
    <_>
      <rect>
        9 9 4 5</rect></_>
    <_>
      <rect>
        9 12 10 5</rect></_>
    <_>
      <rect>
        9 14 1 1</rect></_>
    <_>
      <rect>
        9 14 6 3</rect></_>
    <_>
      <rect>
        9 16 2 2</rect></_>
    <_>
      <rect>
        9 21 5 2</rect></_>
    <_>
      <rect>
        9 23 4 6</rect></_>
    <_>
      <rect>
        9 25 8 5</rect></_>
    <_>
      <rect>
        10 4 10 7</rect></_>
    <_>
      <rect>
        10 6 3 2</rect></_>
    <_>
      <rect>
        10 11 3 6</rect></_>
    <_>
      <rect>
        10 12 5 4</rect></_>
    <_>
      <rect>
        10 19 5 2</rect></_>
    <_>
      <rect>
        10 23 5 4</rect></_>
    <_>
      <rect>
        10 24 10 5</rect></_>
    <_>
      <rect>
        10 27 10 2</rect></_>
    <_>
      <rect>
        10 28 2 2</rect></_>
    <_>
      <rect>
        10 31 3 3</rect></_>
    <_>
      <rect>
        11 6 4 7</rect></_>
    <_>
      <rect>
        11 11 9 4</rect></_>
    <_>
      <rect>
        11 12 3 2</rect></_>
    <_>
      <rect>
        11 15 2 3</rect></_>
    <_>
      <rect>
        11 17 7 6</rect></_>
    <_>
      <rect>
        12 8 3 6</rect></_>
    <_>
      <rect>
        12 11 2 2</rect></_>
    <_>
      <rect>
        12 21 4 6</rect></_>
    <_>
      <rect>
        12 22 6 2</rect></_>
    <_>
      <rect>
        12 23 4 5</rect></_>
    <_>
      <rect>
        12 25 6 2</rect></_>
    <_>
      <rect>
        12 32 2 2</rect></_>
    <_>
      <rect>
        13 0 9 4</rect></_>
    <_>
      <rect>
        13 1 4 4</rect></_>
    <_>
      <rect>
        13 10 5 4</rect></_>
    <_>
      <rect>
        13 20 8 5</rect></_>
    <_>
      <rect>
        13 21 7 3</rect></_>
    <_>
      <rect>
        13 22 5 2</rect></_>
    <_>
      <rect>
        13 22 9 5</rect></_>
    <_>
      <rect>
        13 23 3 3</rect></_>
    <_>
      <rect>
        13 23 4 2</rect></_>
    <_>
      <rect>
        13 23 9 4</rect></_>
    <_>
      <rect>
        13 26 5 2</rect></_>
    <_>
      <rect>
        13 31 2 3</rect></_>
    <_>
      <rect>
        13 32 7 3</rect></_>
    <_>
      <rect>
        14 9 8 5</rect></_>
    <_>
      <rect>
        14 21 5 2</rect></_>
    <_>
      <rect>
        14 22 3 3</rect></_>
    <_>
      <rect>
        14 24 5 2</rect></_>
    <_>
      <rect>
        14 25 3 3</rect></_>
    <_>
      <rect>
        14 26 5 2</rect></_>
    <_>
      <rect>
        14 26 6 2</rect></_>
    <_>
      <rect>
        14 26 6 3</rect></_>
    <_>
      <rect>
        14 28 4 2</rect></_>
    <_>
      <rect>
        14 29 6 2</rect></_>
    <_>
      <rect>
        14 30 5 2</rect></_>
    <_>
      <rect>
        14 31 5 2</rect></_>
    <_>
      <rect>
        15 11 3 1</rect></_>
    <_>
      <rect>
        15 14 4 2</rect></_>
    <_>
      <rect>
        15 22 2 3</rect></_>
    <_>
      <rect>
        15 22 6 2</rect></_>
    <_>
      <rect>
        15 23 8 7</rect></_>
    <_>
      <rect>
        15 24 5 2</rect></_>
    <_>
      <rect>
        15 25 8 7</rect></_>
    <_>
      <rect>
        15 26 3 1</rect></_>
    <_>
      <rect>
        15 26 4 5</rect></_>
    <_>
      <rect>
        15 27 4 2</rect></_>
    <_>
      <rect>
        15 27 8 4</rect></_>
    <_>
      <rect>
        15 29 4 2</rect></_>
    <_>
      <rect>
        15 29 8 7</rect></_>
    <_>
      <rect>
        16 11 8 5</rect></_>
    <_>
      <rect>
        16 12 8 7</rect></_>
    <_>
      <rect>
        16 20 3 3</rect></_>
    <_>
      <rect>
        16 20 4 2</rect></_>
    <_>
      <rect>
        16 21 3 2</rect></_>
    <_>
      <rect>
        16 21 8 7</rect></_>
    <_>
      <rect>
        16 22 2 2</rect></_>
    <_>
      <rect>
        16 22 8 4</rect></_>
    <_>
      <rect>
        16 24 2 2</rect></_>
    <_>
      <rect>
        16 26 2 1</rect></_>
    <_>
      <rect>
        16 26 2 2</rect></_>
    <_>
      <rect>
        16 26 8 5</rect></_>
    <_>
      <rect>
        16 29 5 2</rect></_>
    <_>
      <rect>
        16 30 3 2</rect></_>
    <_>
      <rect>
        17 3 7 8</rect></_>
    <_>
      <rect>
        17 4 2 5</rect></_>
    <_>
      <rect>
        17 8 4 4</rect></_>
    <_>
      <rect>
        17 11 5 3</rect></_>
    <_>
      <rect>
        17 17 4 3</rect></_>
    <_>
      <rect>
        17 23 2 2</rect></_>
    <_>
      <rect>
        17 23 3 2</rect></_>
    <_>
      <rect>
        17 24 2 1</rect></_>
    <_>
      <rect>
        17 24 3 2</rect></_>
    <_>
      <rect>
        17 25 2 2</rect></_>
    <_>
      <rect>
        17 25 4 2</rect></_>
    <_>
      <rect>
        17 26 2 2</rect></_>
    <_>
      <rect>
        17 27 2 2</rect></_>
    <_>
      <rect>
        17 27 3 2</rect></_>
    <_>
      <rect>
        17 27 4 2</rect></_>
    <_>
      <rect>
        17 28 3 2</rect></_>
    <_>
      <rect>
        17 28 5 2</rect></_>
    <_>
      <rect>
        17 29 3 3</rect></_>
    <_>
      <rect>
        17 30 2 2</rect></_>
    <_>
      <rect>
        18 1 7 4</rect></_>
    <_>
      <rect>
        18 2 5 3</rect></_>
    <_>
      <rect>
        18 12 5 5</rect></_>
    <_>
      <rect>
        18 21 2 2</rect></_>
    <_>
      <rect>
        18 21 5 2</rect></_>
    <_>
      <rect>
        18 22 2 2</rect></_>
    <_>
      <rect>
        18 23 2 2</rect></_>
    <_>
      <rect>
        18 24 2 1</rect></_>
    <_>
      <rect>
        18 24 3 3</rect></_>
    <_>
      <rect>
        18 24 7 4</rect></_>
    <_>
      <rect>
        18 25 7 8</rect></_>
    <_>
      <rect>
        18 26 2 2</rect></_>
    <_>
      <rect>
        18 26 4 2</rect></_>
    <_>
      <rect>
        18 27 2 2</rect></_>
    <_>
      <rect>
        18 28 3 2</rect></_>
    <_>
      <rect>
        18 32 3 2</rect></_>
    <_>
      <rect>
        19 8 4 5</rect></_>
    <_>
      <rect>
        19 24 1 1</rect></_>
    <_>
      <rect>
        19 24 4 3</rect></_>
    <_>
      <rect>
        19 25 4 2</rect></_>
    <_>
      <rect>
        19 29 5 7</rect></_>
    <_>
      <rect>
        19 31 5 2</rect></_>
    <_>
      <rect>
        20 1 2 2</rect></_>
    <_>
      <rect>
        20 14 2 1</rect></_>
    <_>
      <rect>
        20 24 3 2</rect></_>
    <_>
      <rect>
        20 25 3 2</rect></_>
    <_>
      <rect>
        20 26 2 2</rect></_>
    <_>
      <rect>
        21 1 6 12</rect></_>
    <_>
      <rect>
        21 5 3 5</rect></_>
    <_>
      <rect>
        21 6 3 5</rect></_>
    <_>
      <rect>
        21 13 6 3</rect></_>
    <_>
      <rect>
        21 14 3 1</rect></_>
    <_>
      <rect>
        22 8 5 8</rect></_>
    <_>
      <rect>
        22 24 2 3</rect></_>
    <_>
      <rect>
        22 26 3 3</rect></_>
    <_>
      <rect>
        22 26 6 5</rect></_>
    <_>
      <rect>
        22 34 6 5</rect></_>
    <_>
      <rect>
        23 9 4 4</rect></_>
    <_>
      <rect>
        25 5 5 8</rect></_>
    <_>
      <rect>
        25 9 5 5</rect></_>
    <_>
      <rect>
        25 15 5 3</rect></_>
    <_>
      <rect>
        25 19 5 6</rect></_>
    <_>
      <rect>
        25 27 3 3</rect></_>
    <_>
      <rect>
        26 25 3 6</rect></_>
    <_>
      <rect>
        27 21 4 8</rect></_>
    <_>
      <rect>
        27 22 4 5</rect></_>
    <_>
      <rect>
        28 9 4 8</rect></_>
    <_>
      <rect>
        29 1 3 4</rect></_>
    <_>
      <rect>
        29 23 2 6</rect></_>
    <_>
      <rect>
        30 2 3 10</rect></_>
    <_>
      <rect>
        31 11 3 10</rect></_>
    <_>
      <rect>
        33 16 2 3</rect></_>
    <_>
      <rect>
        34 26 2 4</rect></_></features></cascade>
</opencv_storage>
