<?xml version="1.0"?>
<opencv_storage>
<cascade>
  <stageType>BOOST</stageType>
  <featureType>LBP</featureType>
  <height>24</height>
  <width>24</width>
  <stageParams>
    <boostType>GAB</boostType>
    <minHitRate>9.9900001287460327e-01</minHitRate>
    <maxFalseAlarm>5.0000000000000000e-01</maxFalseAlarm>
    <weightTrimRate>9.4999999999999996e-01</weightTrimRate>
    <maxDepth>1</maxDepth>
    <maxWeakCount>100</maxWeakCount></stageParams>
  <featureParams>
    <maxCatCount>256</maxCatCount>
    <featSize>1</featSize></featureParams>
  <stageNum>20</stageNum>
  <stages>
    <!-- stage 0 -->
    <_>
      <maxWeakCount>5</maxWeakCount>
      <stageThreshold>-4.0920302271842957e-01</stageThreshold>
      <weakClassifiers>
        <_>
          <internalNodes>
            0 -1 141 -939469824 -721288192 1083312128 285278226
            -1338998648 67898664 36930187 320798922</internalNodes>
          <leafValues>
            -5.2747255563735962e-01 6.6404199600219727e-01</leafValues></_>
        <_>
          <internalNodes>
            0 -1 137 -222244832 -653129472 372806330 1903248677
            -2144173944 -770431160 -1609510406 -1291122533</internalNodes>
          <leafValues>
            -4.6044588088989258e-01 7.2696262598037720e-01</leafValues></_>
        <_>
          <internalNodes>
            0 -1 133 -436174720 -114529112 930525193 -1187836404
            -1573148510 28065594 -2093337170 -1279589222</internalNodes>
          <leafValues>
            -5.2630287408828735e-01 6.5765458345413208e-01</leafValues></_>
        <_>
          <internalNodes>
            0 -1 98 -128925696 -780140416 72 1359151110 33605824
            268959872 32904 -1852894562</internalNodes>
          <leafValues>
            -5.8532357215881348e-01 6.2202662229537964e-01</leafValues></_>
        <_>
          <internalNodes>
            0 -1 53 -616310774 621608962 -787398656 -1849344000
            -536117238 131082 1744994983 1367801867</internalNodes>
          <leafValues>
            -6.8102413415908813e-01 5.9216785430908203e-01</leafValues></_></weakClassifiers></_>
    <!-- stage 1 -->
    <_>
      <maxWeakCount>6</maxWeakCount>
      <stageThreshold>-4.4115912914276123e-01</stageThreshold>
      <weakClassifiers>
        <_>
          <internalNodes>
            0 -1 112 1514717320 1360873572 975896608 291441863
            -1256545664 268714088 623904415 -1826946629</internalNodes>
          <leafValues>
            -3.0987820029258728e-01 7.3684209585189819e-01</leafValues></_>
        <_>
          <internalNodes>
            0 -1 123 -1846376256 -672086964 -1145317316 1362433703
            -2145249090 -2141085928 -1407507269 -1824816497</internalNodes>
          <leafValues>
            -4.3056917190551758e-01 6.8434745073318481e-01</leafValues></_>
        <_>
          <internalNodes>
            0 -1 140 -803700528 -136773446 391124232 287906480 637579434
            1017287824 1379108218 -751070565</internalNodes>
          <leafValues>
            -4.3561661243438721e-01 6.6753774881362915e-01</leafValues></_>
        <_>
          <internalNodes>
            0 -1 114 -779554680 -709636511 528120528 1406103539
            -1806594152 -633899541 1067576731 -1753004837</internalNodes>
          <leafValues>
            -4.5788931846618652e-01 6.8710327148437500e-01</leafValues></_>
        <_>
          <internalNodes>
            0 -1 124 -2098937704 -1816690595 197835803 1428884585
            -2143170118 -837505863 -891277170 -1885626722</internalNodes>
          <leafValues>
            -4.6271067857742310e-01 6.7016154527664185e-01</leafValues></_>
        <_>
          <internalNodes>
            0 -1 72 1446240448 352326753 2079600290 420998636 1081972155
            797409271 970525166 -446964018</internalNodes>
          <leafValues>
            -4.9436983466148376e-01 6.2575697898864746e-01</leafValues></_></weakClassifiers></_>
    <!-- stage 2 -->
    <_>
      <maxWeakCount>7</maxWeakCount>
      <stageThreshold>-1.3082137107849121e+00</stageThreshold>
      <weakClassifiers>
        <_>
          <internalNodes>
            0 -1 149 -222261120 -717649696 41689166 1364657817 386500760
            240236040 1040520074 286208522</internalNodes>
          <leafValues>
            -3.5264053940773010e-01 6.1524498462677002e-01</leafValues></_>
        <_>
          <internalNodes>
            0 -1 143 -727660336 -710049599 1022927207 1564019155
            -2102856568 -813890736 273716475 990053407</internalNodes>
          <leafValues>
            -4.2962771654129028e-01 5.4927605390548706e-01</leafValues></_>
        <_>
          <internalNodes>
            0 -1 48 -1030034449 891248147 1348602404 1141047424
            2013547050 539173643 1179708041 8078883</internalNodes>
          <leafValues>
            -4.9541956186294556e-01 4.7054561972618103e-01</leafValues></_>
        <_>
          <internalNodes>
            0 -1 127 -662584672 -786872190 1107837202 289472578
            1628996234 -2120712064 -1996315974 1594478923</internalNodes>
          <leafValues>
            -4.8581326007843018e-01 5.1994115114212036e-01</leafValues></_>
        <_>
          <internalNodes>
            0 -1 154 -32580442 -1822666032 -1341898686 18448394
            -293386101 1086363649 732285003 1087108826</internalNodes>
          <leafValues>
            -5.0849586725234985e-01 4.8752379417419434e-01</leafValues></_>
        <_>
          <internalNodes>
            0 -1 136 -780077072 -121649651 1318608111 1598360987
            -1095719253 659827108 1410044603 55282698</internalNodes>
          <leafValues>
            -4.9513947963714600e-01 5.3680706024169922e-01</leafValues></_>
        <_>
          <internalNodes>
            0 -1 115 -754670904 -748486508 1393566567 1561412689
            -1558150784 -1962276864 730333803 707723513</internalNodes>
          <leafValues>
            -5.7877820730209351e-01 4.6011415123939514e-01</leafValues></_></weakClassifiers></_>
    <!-- stage 3 -->
    <_>
      <maxWeakCount>7</maxWeakCount>
      <stageThreshold>-4.3139851093292236e-01</stageThreshold>
      <weakClassifiers>
        <_>
          <internalNodes>
            0 -1 150 -710872448 2046071808 345076265 389763305
            -2052414326 2019036560 103515547 319750154</internalNodes>
          <leafValues>
            -2.8852459788322449e-01 5.9962928295135498e-01</leafValues></_>
        <_>
          <internalNodes>
            0 -1 18 1373493999 332423616 1208483955 558694543 377823688
            1690828933 620841742 75711360</internalNodes>
          <leafValues>
            -5.0006216764450073e-01 4.2577013373374939e-01</leafValues></_>
        <_>
          <internalNodes>
            0 -1 114 -754265382 -579746068 247101644 2072841078
            -2079289704 -1161857310 -1892482406 261738635</internalNodes>
          <leafValues>
            -4.6017709374427795e-01 4.8618683218955994e-01</leafValues></_>
        <_>
          <internalNodes>
            0 -1 121 -787443504 -104148827 404251806 -149086077
            579610810 -1736408996 185637771 453251072</internalNodes>
          <leafValues>
            -4.7736263275146484e-01 4.6679669618606567e-01</leafValues></_>
        <_>
          <internalNodes>
            0 -1 152 -626285099 -5698424 353320683 1466000854
            -1218922566 -1655922792 681477519 -1084815729</internalNodes>
          <leafValues>
            -3.4771499037742615e-01 7.0117616653442383e-01</leafValues></_>
        <_>
          <internalNodes>
            0 -1 110 1343261148 1596821632 1628459064 -1089142680
            -1832345472 293601312 -1067433558 319621643</internalNodes>
          <leafValues>
            -5.1061427593231201e-01 4.5495161414146423e-01</leafValues></_>
        <_>
          <internalNodes>
            0 -1 89 1547752702 483444866 1229623386 364433782 1755976381
            906002593 718850347 271209387</internalNodes>
          <leafValues>
            -6.0508829355239868e-01 3.7872707843780518e-01</leafValues></_></weakClassifiers></_>
    <!-- stage 4 -->
    <_>
      <maxWeakCount>10</maxWeakCount>
      <stageThreshold>-1.1552555561065674e+00</stageThreshold>
      <weakClassifiers>
        <_>
          <internalNodes>
            0 -1 69 -947911781 424837882 1876771737 928002856 -865549318
            -1427584807 217877983 169935104</internalNodes>
          <leafValues>
            -2.7022376656532288e-01 5.6678700447082520e-01</leafValues></_>
        <_>
          <internalNodes>
            0 -1 103 -1684789071 934288894 -1351014755 -1650680344
            -575648883 -289562898 -1678426136 -1553447728</internalNodes>
          <leafValues>
            -3.1810179352760315e-01 5.6519395112991333e-01</leafValues></_>
        <_>
          <internalNodes>
            0 -1 131 1415896600 -1716144607 34872375 1636573709
            -1722688275 1823181866 1890110622 678343262</internalNodes>
          <leafValues>
            -4.5100569725036621e-01 4.2286375164985657e-01</leafValues></_>
        <_>
          <internalNodes>
            0 -1 92 78679829 -1099125002 -1107299011 -4764107 183873269
            -1082837111 762230207 -1111397984</internalNodes>
          <leafValues>
            -3.4551396965980530e-01 6.1117821931838989e-01</leafValues></_>
        <_>
          <internalNodes>
            0 -1 66 -250609424 -799966953 -1264429644 1762731746
            202977557 -425121148 -2146940258 -1417577712</internalNodes>
          <leafValues>
            -4.9086198210716248e-01 4.3856769800186157e-01</leafValues></_>
        <_>
          <internalNodes>
            0 -1 158 -117569097 -784560325 -227733793 -139707790
            1266316505 -186866855 751234015 -1973256008</internalNodes>
          <leafValues>
            -3.3729064464569092e-01 6.3400733470916748e-01</leafValues></_>
        <_>
          <internalNodes>
            0 -1 31 -1710045291 -1289612718 17454165 2074938436
            1175768130 1096862210 192939260 471490816</internalNodes>
          <leafValues>
            -5.4695636034011841e-01 4.1724681854248047e-01</leafValues></_>
        <_>
          <internalNodes>
            0 -1 99 -1744821803 -172520296 1810224509 -540570233
            1824544308 -1667660040 1299343787 533601852</internalNodes>
          <leafValues>
            -3.7680754065513611e-01 5.8494621515274048e-01</leafValues></_>
        <_>
          <internalNodes>
            0 -1 130 896566685 -1212307235 1815875501 -1078937123
            905540237 1053114356 274472380 -1642737230</internalNodes>
          <leafValues>
            -4.1501599550247192e-01 5.5116766691207886e-01</leafValues></_>
        <_>
          <internalNodes>
            0 -1 153 837418702 -644992603 -1081088322 -451550234
            1727336587 -520202244 -830299986 -1206882881</internalNodes>
          <leafValues>
            -3.7098005414009094e-01 5.9383946657180786e-01</leafValues></_></weakClassifiers></_>
    <!-- stage 5 -->
    <_>
      <maxWeakCount>9</maxWeakCount>
      <stageThreshold>-5.4100507497787476e-01</stageThreshold>
      <weakClassifiers>
        <_>
          <internalNodes>
            0 -1 63 1605391353 1059260220 1407370237 2000180132
            249302492 -1100335373 1313475070 218693908</internalNodes>
          <leafValues>
            -2.2756409645080566e-01 5.7558685541152954e-01</leafValues></_>
        <_>
          <internalNodes>
            0 -1 161 -1037047061 1516929202 -1527202206 -1388974950
            -1059738582 -1796278738 -17416245 -668488830</internalNodes>
          <leafValues>
            -2.5063514709472656e-01 6.3645535707473755e-01</leafValues></_>
        <_>
          <internalNodes>
            0 -1 65 -2113869424 1908942952 1790877695 -1107613104
            1601340566 1050846821 750381867 -1483160511</internalNodes>
          <leafValues>
            -3.8037517666816711e-01 4.9456521868705750e-01</leafValues></_>
        <_>
          <internalNodes>
            0 -1 17 1998087161 -751630944 -276967555 926553386
            -671648268 -1101610148 -1380117006 -363216256</internalNodes>
          <leafValues>
            -3.5982358455657959e-01 5.6388801336288452e-01</leafValues></_>
        <_>
          <internalNodes>
            0 -1 52 -285031627 993221284 -153275469 1633905762
            -1687038213 -1916582043 -1800090453 -1004075387</internalNodes>
          <leafValues>
            -3.8164952397346497e-01 5.3285509347915649e-01</leafValues></_>
        <_>
          <internalNodes>
            0 -1 137 -1197975115 -109565587 -751264851 -1082896988
            1404082637 -543856676 -1139650056 -1289534965</internalNodes>
          <leafValues>
            -3.6233490705490112e-01 5.8502006530761719e-01</leafValues></_>
        <_>
          <internalNodes>
            0 -1 74 578592529 1404864437 -763514883 1939406256 234268589
            -1472938245 -898197073 -1438710768</internalNodes>
          <leafValues>
            -3.4358084201812744e-01 6.1946356296539307e-01</leafValues></_>
        <_>
          <internalNodes>
            0 -1 79 -1607693167 934113020 -1208239179 -142747339
            1862184822 -319423016 767238109 -2002778956</internalNodes>
          <leafValues>
            -4.3850004673004150e-01 5.2015388011932373e-01</leafValues></_>
        <_>
          <internalNodes>
            0 -1 39 2068125399 2099269968 1026985789 2145596963
            282644571 873807152 1491381754 -290421022</internalNodes>
          <leafValues>
            -3.6172357201576233e-01 6.4160031080245972e-01</leafValues></_></weakClassifiers></_>
    <!-- stage 6 -->
    <_>
      <maxWeakCount>8</maxWeakCount>
      <stageThreshold>-1.3290952444076538e+00</stageThreshold>
      <weakClassifiers>
        <_>
          <internalNodes>
            0 -1 64 -538391304 -552713624 2074480849 -1890250560
            35947692 -2009832330 104857785 124190810</internalNodes>
          <leafValues>
            -3.2859680056571960e-01 5.8259326219558716e-01</leafValues></_>
        <_>
          <internalNodes>
            0 -1 152 -1066736424 -333429752 336375640 -605482928
            -1521962822 -1735483608 136185530 -1688533957</internalNodes>
          <leafValues>
            -3.8859659433364868e-01 5.9123295545578003e-01</leafValues></_>
        <_>
          <internalNodes>
            0 -1 146 -788474136 -736061544 -1102541999 -753898715
            -1339636072 2048597073 -2122014306 -1290052161</internalNodes>
          <leafValues>
            -3.6379781365394592e-01 6.3977694511413574e-01</leafValues></_>
        <_>
          <internalNodes>
            0 -1 96 -1253248 -761091992 -1963367644 -103461472
            -1230200399 1719483644 -1078091112 -292823402</internalNodes>
          <leafValues>
            -4.2320168018341064e-01 6.1802560091018677e-01</leafValues></_>
        <_>
          <internalNodes>
            0 -1 10 -1023149850 1409319107 51380224 431816718
            -1610559572 2022965522 269748171 598427919</internalNodes>
          <leafValues>
            -5.1140427589416504e-01 4.9071851372718811e-01</leafValues></_>
        <_>
          <internalNodes>
            0 -1 43 -691879384 1091019014 -2147479552 285671560
            709005956 -2004271104 721959096 1348928091</internalNodes>
          <leafValues>
            -5.6472247838973999e-01 4.7734493017196655e-01</leafValues></_>
        <_>
          <internalNodes>
            0 -1 55 -71117658 -234423390 1735290512 1465361420
            2113848449 -1754800323 1995816106 -1141140325</internalNodes>
          <leafValues>
            -4.1098818182945251e-01 6.9087111949920654e-01</leafValues></_>
        <_>
          <internalNodes>
            0 -1 85 -258413368 -238663308 -1564565308 -785710540
            209493177 -1739498406 -1040318836 -686045206</internalNodes>
          <leafValues>
            -3.8113743066787720e-01 6.6890686750411987e-01</leafValues></_></weakClassifiers></_>
    <!-- stage 7 -->
    <_>
      <maxWeakCount>9</maxWeakCount>
      <stageThreshold>-8.2764673233032227e-01</stageThreshold>
      <weakClassifiers>
        <_>
          <internalNodes>
            0 -1 135 -905919336 -537854832 474490833 2100629403
            -1528657701 -568707061 421610924 1125320871</internalNodes>
          <leafValues>
            -2.5000000000000000e-01 5.5256062746047974e-01</leafValues></_>
        <_>
          <internalNodes>
            0 -1 82 470092356 -787726179 84938875 -1890713567 2013266608
            -616537926 -1559490392 -1182199656</internalNodes>
          <leafValues>
            -3.7533742189407349e-01 4.3267279863357544e-01</leafValues></_>
        <_>
          <internalNodes>
            0 -1 24 -681065396 1890831841 1391659412 -578937266
            2098330663 981399188 -809865505 2026100571</internalNodes>
          <leafValues>
            -3.9062884449958801e-01 4.5102965831756592e-01</leafValues></_>
        <_>
          <internalNodes>
            0 -1 168 -710675325 1642555258 2046513920 86490940
            1689965993 -1969803448 1165340097 -1082796057</internalNodes>
          <leafValues>
            -3.1891441345214844e-01 5.2672296762466431e-01</leafValues></_>
        <_>
          <internalNodes>
            0 -1 38 -859582281 1082183828 286558547 361480641 -519428477
            1348509831 823431191 1344766994</internalNodes>
          <leafValues>
            -4.1711613535881042e-01 4.4245895743370056e-01</leafValues></_>
        <_>
          <internalNodes>
            0 -1 58 -527758581 -81296341 1795006191 1090107957
            1074626392 1199398246 -1550404161 -195110482</internalNodes>
          <leafValues>
            -3.7426045536994934e-01 5.2498507499694824e-01</leafValues></_>
        <_>
          <internalNodes>
            0 -1 77 -410645865 -601055048 2147458034 1534340881
            -1413575217 -493229323 1593730895 -1379554402</internalNodes>
          <leafValues>
            -3.2145911455154419e-01 5.9504759311676025e-01</leafValues></_>
        <_>
          <internalNodes>
            0 -1 144 -2126343024 1967677640 1442906389 2032450319
            403538048 -1803509116 281267006 17019039</internalNodes>
          <leafValues>
            -5.2616703510284424e-01 3.8483333587646484e-01</leafValues></_>
        <_>
          <internalNodes>
            0 -1 137 -116342672 1358983328 139642647 1343438869
            805438910 -1682374416 -1575597909 295142088</internalNodes>
          <leafValues>
            -5.5853444337844849e-01 3.9357781410217285e-01</leafValues></_></weakClassifiers></_>
    <!-- stage 8 -->
    <_>
      <maxWeakCount>9</maxWeakCount>
      <stageThreshold>-6.2181365489959717e-01</stageThreshold>
      <weakClassifiers>
        <_>
          <internalNodes>
            0 -1 57 239500810 -1220788478 720679782 -2007704963 70481523
            890787655 998078455 1214054196</internalNodes>
          <leafValues>
            -2.9892474412918091e-01 4.9836599826812744e-01</leafValues></_>
        <_>
          <internalNodes>
            0 -1 119 336321431 1897739831 1962810229 1815411019
            1992259573 -5256266 -497167262 -1597341662</internalNodes>
          <leafValues>
            -2.8768190741539001e-01 5.0342357158660889e-01</leafValues></_>
        <_>
          <internalNodes>
            0 -1 16 346687143 207862150 2050124511 1035928491
            -2007994495 -1118026187 -322494157 -1537013496</internalNodes>
          <leafValues>
            -3.6086663603782654e-01 4.4373634457588196e-01</leafValues></_>
        <_>
          <internalNodes>
            0 -1 111 -2121221801 -16967529 1264323997 2102240810
            -2100219208 -101184402 8559242 -540291398</internalNodes>
          <leafValues>
            -2.6767006516456604e-01 6.2721234560012817e-01</leafValues></_>
        <_>
          <internalNodes>
            0 -1 4 1696673695 1493558539 96822983 -331232816 -770841734
            1343275466 -1358917344 -330553676</internalNodes>
          <leafValues>
            -3.7232899665832520e-01 5.0899875164031982e-01</leafValues></_>
        <_>
          <internalNodes>
            0 -1 29 -67690229 757537206 1610544166 -835772649 -6662365
            -1896415418 -793027714 -663312474</internalNodes>
          <leafValues>
            -3.1536516547203064e-01 5.9538251161575317e-01</leafValues></_>
        <_>
          <internalNodes>
            0 -1 87 2092729545 -541066890 985283577 -1926255183
            -16926857 -805328209 -345604116 -1965879568</internalNodes>
          <leafValues>
            -2.8589832782745361e-01 6.1858069896697998e-01</leafValues></_>
        <_>
          <internalNodes>
            0 -1 107 1511647573 -839399340 393617315 -714737357
            -1434461218 511070169 -119155943 -859900419</internalNodes>
          <leafValues>
            -3.1814029812812805e-01 6.1533766984939575e-01</leafValues></_>
        <_>
          <internalNodes>
            0 -1 128 1712356414 886575364 307436499 -2070937367
            -870571807 -238167445 34774664 942189170</internalNodes>
          <leafValues>
            -5.8466148376464844e-01 3.7005811929702759e-01</leafValues></_></weakClassifiers></_>
    <!-- stage 9 -->
    <_>
      <maxWeakCount>9</maxWeakCount>
      <stageThreshold>-9.6825635433197021e-01</stageThreshold>
      <weakClassifiers>
        <_>
          <internalNodes>
            0 -1 45 2046344434 -253501732 985342628 -2073446853
            -2075829184 611611992 899036411 1346502431</internalNodes>
          <leafValues>
            -2.4955752491950989e-01 5.4448395967483521e-01</leafValues></_>
        <_>
          <internalNodes>
            0 -1 8 -987236413 -574628120 612091917 -680031857 1952577521
            1783495255 896964495 -786463195</internalNodes>
          <leafValues>
            -2.5991651415824890e-01 5.9860086441040039e-01</leafValues></_>
        <_>
          <internalNodes>
            0 -1 160 -941633398 1379511616 -1879014876 -468786851
            -267587110 134399238 1627473983 1073793155</internalNodes>
          <leafValues>
            -4.5710396766662598e-01 3.8083150982856750e-01</leafValues></_>
        <_>
          <internalNodes>
            0 -1 162 -789665142 -183315678 218034058 -798052831
            1191122913 1692854029 -1461582630 -995374598</internalNodes>
          <leafValues>
            -3.9825034141540527e-01 4.3241825699806213e-01</leafValues></_>
        <_>
          <internalNodes>
            0 -1 15 -704925157 108334365 -402718083 1453828933
            -1629520382 -985777863 -788712078 -673221887</internalNodes>
          <leafValues>
            -3.5258275270462036e-01 5.6704688072204590e-01</leafValues></_>
        <_>
          <internalNodes>
            0 -1 40 1124439982 1602814997 1476640860 37318736 50583653
            1343094848 472580277 152703498</internalNodes>
          <leafValues>
            -5.6869965791702271e-01 3.5297513008117676e-01</leafValues></_>
        <_>
          <internalNodes>
            0 -1 0 -777851310 1514501154 -158637383 -209515102
            -2134592983 -1021304750 -2138537832 -505200376</internalNodes>
          <leafValues>
            -4.9479889869689941e-01 4.1702979803085327e-01</leafValues></_>
        <_>
          <internalNodes>
            0 -1 54 1653752622 -1571413998 354521286 -766766000
            158400948 -486537184 1299074703 1435697852</internalNodes>
          <leafValues>
            -5.4080384969711304e-01 3.9361873269081116e-01</leafValues></_>
        <_>
          <internalNodes>
            0 -1 134 -570498600 -268313865 -402658751 -650119788
            -127293741 -1698366941 299348895 -1313239874</internalNodes>
          <leafValues>
            -3.8484719395637512e-01 5.9589195251464844e-01</leafValues></_></weakClassifiers></_>
    <!-- stage 10 -->
    <_>
      <maxWeakCount>10</maxWeakCount>
      <stageThreshold>-7.0150363445281982e-01</stageThreshold>
      <weakClassifiers>
        <_>
          <internalNodes>
            0 -1 170 -1023943269 1186515504 573422949 -2142962429
            2127026014 539358535 1115049666 1889792726</internalNodes>
          <leafValues>
            -1.2075983732938766e-01 5.8823531866073608e-01</leafValues></_>
        <_>
          <internalNodes>
            0 -1 124 -1048542808 1437731936 -888953829 117539912
            974164208 977340440 189935755 419834923</internalNodes>
          <leafValues>
            -5.0751715898513794e-01 3.1422480940818787e-01</leafValues></_>
        <_>
          <internalNodes>
            0 -1 67 1971246083 -109371651 1010724462 850558959
            2082319429 -715489531 1860934312 -1189961473</internalNodes>
          <leafValues>
            -3.2843917608261108e-01 5.3832411766052246e-01</leafValues></_>
        <_>
          <internalNodes>
            0 -1 2 -2128469764 -1390081855 1158742399 -1884992100
            547467908 2030451233 -670986565 53675841</internalNodes>
          <leafValues>
            -4.2887121438980103e-01 3.8406249880790710e-01</leafValues></_>
        <_>
          <internalNodes>
            0 -1 88 -871357936 -1392145815 -183391337 1976303712
            -728855901 1897676813 291130090 -969931640</internalNodes>
          <leafValues>
            -4.9551406502723694e-01 3.5352739691734314e-01</leafValues></_>
        <_>
          <internalNodes>
            0 -1 41 -1203975089 -799203478 -615223707 -625367105
            1208054665 -791276571 -122317825 -54543394</internalNodes>
          <leafValues>
            -3.4012147784233093e-01 5.6153529882431030e-01</leafValues></_>
        <_>
          <internalNodes>
            0 -1 113 1343347678 -606431284 1829000211 -2017855955
            1851000122 1391779752 1600806043 -25850690</internalNodes>
          <leafValues>
            -3.4131142497062683e-01 5.2121001482009888e-01</leafValues></_>
        <_>
          <internalNodes>
            0 -1 125 -2012682686 -910581118 296272671 1599084106
            1342181562 155844649 705317018 1258898248</internalNodes>
          <leafValues>
            -5.2396935224533081e-01 3.8662940263748169e-01</leafValues></_>
        <_>
          <internalNodes>
            0 -1 9 -689446301 -783548918 -810749841 -1783108157
            -1705718922 -1226851483 401628429 -362940142</internalNodes>
          <leafValues>
            -3.7111422419548035e-01 5.9532916545867920e-01</leafValues></_>
        <_>
          <internalNodes>
            0 -1 120 -499003397 -607243148 -369475622 -1552273474
            34299532 536231919 -1774366836 60362126</internalNodes>
          <leafValues>
            -4.3659794330596924e-01 4.7021159529685974e-01</leafValues></_></weakClassifiers></_>
    <!-- stage 11 -->
    <_>
      <maxWeakCount>10</maxWeakCount>
      <stageThreshold>-6.8437421321868896e-01</stageThreshold>
      <weakClassifiers>
        <_>
          <internalNodes>
            0 -1 23 -359684414 564276346 246828130 840276088 -143366650
            -1387149716 1198827351 1953581391</internalNodes>
          <leafValues>
            -2.1061359345912933e-01 5.5064457654953003e-01</leafValues></_>
        <_>
          <internalNodes>
            0 -1 101 -207103864 -724474744 889360653 526731357
            -896935515 -1182256479 151531733 755227210</internalNodes>
          <leafValues>
            -4.0125212073326111e-01 4.1440030932426453e-01</leafValues></_>
        <_>
          <internalNodes>
            0 -1 163 -238816630 -1402220797 -1466814428 483676750
            1074836080 -2009059584 -1070485009 1417661083</internalNodes>
          <leafValues>
            -4.1450750827789307e-01 4.0038844943046570e-01</leafValues></_>
        <_>
          <internalNodes>
            0 -1 30 -728051529 -538266630 1227974456 -1760221499
            735356598 -1095158407 -282942857 1239664503</internalNodes>
          <leafValues>
            -3.5644209384918213e-01 4.9227917194366455e-01</leafValues></_>
        <_>
          <internalNodes>
            0 -1 76 -503087446 19038824 -286003407 1539038641 372103023
            284449270 -571056325 -311559549</internalNodes>
          <leafValues>
            -3.8274735212326050e-01 4.7417819499969482e-01</leafValues></_>
        <_>
          <internalNodes>
            0 -1 75 -1794583551 554610766 -402042660 875616419 87425982
            21102752 -1429944824 978115</internalNodes>
          <leafValues>
            -5.5186378955841064e-01 3.7060603499412537e-01</leafValues></_>
        <_>
          <internalNodes>
            0 -1 126 -772545419 -774377860 366450507 896266111
            -2009300806 1249283712 1612265297 -656215797</internalNodes>
          <leafValues>
            -3.5695216059684753e-01 5.6961059570312500e-01</leafValues></_>
        <_>
          <internalNodes>
            0 -1 50 -443896846 1130516864 151085441 -2087646976
            -1849647965 428025865 2789507 1636353483</internalNodes>
          <leafValues>
            -4.4746869802474976e-01 4.5820397138595581e-01</leafValues></_>
        <_>
          <internalNodes>
            0 -1 12 -1025020309 -2048688708 2147302365 897063803
            1159556922 -610508857 -160018602 -396256621</internalNodes>
          <leafValues>
            -3.9421242475509644e-01 5.4275840520858765e-01</leafValues></_>
        <_>
          <internalNodes>
            0 -1 47 -1671780554 -1006055336 1141112857 1767982674
            268521866 512352256 1694992515 1080264842</internalNodes>
          <leafValues>
            -5.0782328844070435e-01 4.2023271322250366e-01</leafValues></_></weakClassifiers></_>
    <!-- stage 12 -->
    <_>
      <maxWeakCount>10</maxWeakCount>
      <stageThreshold>-4.7712326049804688e-01</stageThreshold>
      <weakClassifiers>
        <_>
          <internalNodes>
            0 -1 164 -1037915518 -2140735709 -324673504 359705190
            -528497070 -1017944203 724708395 6813251</internalNodes>
          <leafValues>
            -3.2727271318435669e-01 4.9239391088485718e-01</leafValues></_>
        <_>
          <internalNodes>
            0 -1 3 -1460934089 -1453734971 -420266523 -2014328846
            1098748507 1082129913 -2047744347 -1016604233</internalNodes>
          <leafValues>
            -2.4213474988937378e-01 6.0823905467987061e-01</leafValues></_>
        <_>
          <internalNodes>
            0 -1 28 -385514806 1082790226 -805109722 1434561026
            327476609 -1947041788 -598822911 621003095</internalNodes>
          <leafValues>
            -4.5261681079864502e-01 3.6860311031341553e-01</leafValues></_>
        <_>
          <internalNodes>
            0 -1 123 -750823216 1597031494 -105128387 414655030
            -1037913423 -1595891944 1838782423 -174911737</internalNodes>
          <leafValues>
            -3.8958117365837097e-01 4.3142351508140564e-01</leafValues></_>
        <_>
          <internalNodes>
            0 -1 70 1490079569 526986469 -674245951 1029527796
            -1351586049 1239858683 511398935 1334170923</internalNodes>
          <leafValues>
            -3.7535610795021057e-01 4.9219828844070435e-01</leafValues></_>
        <_>
          <internalNodes>
            0 -1 83 1386981130 1460251503 -838383616 733096111
            1517411627 -752834832 1867130258 -369626501</internalNodes>
          <leafValues>
            -3.9311736822128296e-01 4.9857315421104431e-01</leafValues></_>
        <_>
          <internalNodes>
            0 -1 156 -1853361510 1489654045 553898173 295141400
            -855070520 1073743394 1478744731 1212099467</internalNodes>
          <leafValues>
            -4.3016007542610168e-01 4.4207018613815308e-01</leafValues></_>
        <_>
          <internalNodes>
            0 -1 133 -968832352 2043791808 53253 -1612709720 8459434
            142917644 100794524 -1953881332</internalNodes>
          <leafValues>
            -4.8502442240715027e-01 4.1377991437911987e-01</leafValues></_>
        <_>
          <internalNodes>
            0 -1 94 -979372017 -1327393274 248434814 -1949489828
            1065237585 -1019046442 485883499 -722484145</internalNodes>
          <leafValues>
            -3.8743737339973450e-01 5.5033534765243530e-01</leafValues></_>
        <_>
          <internalNodes>
            0 -1 71 -218193149 -1946361648 2050471799 1766658642
            687205965 1134277430 -1224767787 -1456218393</internalNodes>
          <leafValues>
            -3.5511803627014160e-01 5.7312488555908203e-01</leafValues></_></weakClassifiers></_>
    <!-- stage 13 -->
    <_>
      <maxWeakCount>10</maxWeakCount>
      <stageThreshold>-3.5870090126991272e-01</stageThreshold>
      <weakClassifiers>
        <_>
          <internalNodes>
            0 -1 13 -1457060601 1790630155 -246976721 947892014
            1379881283 1910466357 -1883943631 -503595781</internalNodes>
          <leafValues>
            -9.9639855325222015e-02 6.4719623327255249e-01</leafValues></_>
        <_>
          <internalNodes>
            0 -1 6 -25202865 2113592879 23410327 237734462 -1222803483
            -340556227 1165294670 -775948665</internalNodes>
          <leafValues>
            -2.4664606153964996e-01 6.0180497169494629e-01</leafValues></_>
        <_>
          <internalNodes>
            0 -1 46 -63468861 -262220209 -814783606 -1662585161
            2004856385 -175739226 -55113132 -1065359617</internalNodes>
          <leafValues>
            -3.1208151578903198e-01 5.1667475700378418e-01</leafValues></_>
        <_>
          <internalNodes>
            0 -1 148 75333667 136490397 1078121862 1812631074 387809637
            785293953 1495941696 417588839</internalNodes>
          <leafValues>
            -5.1921874284744263e-01 3.4789484739303589e-01</leafValues></_>
        <_>
          <internalNodes>
            0 -1 151 -469125644 1694705141 562256209 227283980
            -661255501 -1164893358 672701403 -1903488481</internalNodes>
          <leafValues>
            -4.1023200750350952e-01 4.7184664011001587e-01</leafValues></_>
        <_>
          <internalNodes>
            0 -1 26 -448146369 -767261180 1191553654 -627049941
            276641789 1149042035 -155602082 -62432286</internalNodes>
          <leafValues>
            -3.6447963118553162e-01 5.4838734865188599e-01</leafValues></_>
        <_>
          <internalNodes>
            0 -1 22 816781219 1830032647 1076974934 -841677688
            1095192342 1753793569 1552122113 542635520</internalNodes>
          <leafValues>
            -4.5939961075782776e-01 4.4795581698417664e-01</leafValues></_>
        <_>
          <internalNodes>
            0 -1 109 -1732874431 -964185938 -2060472739 1941916845
            -163686543 1625961134 -354602173 -475597697</internalNodes>
          <leafValues>
            -3.9900705218315125e-01 5.1914983987808228e-01</leafValues></_>
        <_>
          <internalNodes>
            0 -1 62 675149495 1075601065 -1505816718 65421260 -948033690
            1151440244 -50343316 -603859780</internalNodes>
          <leafValues>
            -4.1071867942810059e-01 4.8441809415817261e-01</leafValues></_>
        <_>
          <internalNodes>
            0 -1 19 -1915397307 -2147314446 -1781492329 1783664789
            2090394935 -1392220414 2058642945 1287913876</internalNodes>
          <leafValues>
            -4.9481523036956787e-01 4.4233497977256775e-01</leafValues></_></weakClassifiers></_>
    <!-- stage 14 -->
    <_>
      <maxWeakCount>9</maxWeakCount>
      <stageThreshold>-6.0722231864929199e-01</stageThreshold>
      <weakClassifiers>
        <_>
          <internalNodes>
            0 -1 27 -497096841 582795067 444563104 16465470 -773343247
            1077772208 1920816912 -252241946</internalNodes>
          <leafValues>
            -8.7116561830043793e-02 6.2013727426528931e-01</leafValues></_>
        <_>
          <internalNodes>
            0 -1 1 1895693187 1839032091 -1427214817 1590161151
            -61472982 -964762204 -774636557 -333662149</internalNodes>
          <leafValues>
            -2.1028840541839600e-01 6.5221881866455078e-01</leafValues></_>
        <_>
          <internalNodes>
            0 -1 34 -1075478257 -1943363780 -83941334 -67847642
            1568478919 884284691 -1968366511 -822870474</internalNodes>
          <leafValues>
            -2.9735252261161804e-01 5.0628221035003662e-01</leafValues></_>
        <_>
          <internalNodes>
            0 -1 60 1456848895 2035049954 -1128485186 -407290241
            1162195967 286588900 -269109253 -973486735</internalNodes>
          <leafValues>
            -3.3605113625526428e-01 5.6027489900588989e-01</leafValues></_>
        <_>
          <internalNodes>
            0 -1 49 1698026275 -758892046 -1874705279 913246720
            2003323936 675547179 -2091367038 1085759628</internalNodes>
          <leafValues>
            -5.0157248973846436e-01 3.8384425640106201e-01</leafValues></_>
        <_>
          <internalNodes>
            0 -1 105 82993445 -101371949 670937871 -1086807708
            -176892411 -272642586 1473535992 -1196432064</internalNodes>
          <leafValues>
            -3.5819584131240845e-01 5.0668883323669434e-01</leafValues></_>
        <_>
          <internalNodes>
            0 -1 165 -1598030395 1556401131 -470931806 -1963995137
            2013092065 952303189 -1362043633 -1596216897</internalNodes>
          <leafValues>
            -2.8503879904747009e-01 6.4715200662612915e-01</leafValues></_>
        <_>
          <internalNodes>
            0 -1 166 -2057176297 -1938100112 1056865860 -1980780627
            461241977 1749842805 1962139319 1088284179</internalNodes>
          <leafValues>
            -4.2141556739807129e-01 4.6993893384933472e-01</leafValues></_>
        <_>
          <internalNodes>
            0 -1 35 416001324 475609283 -1416001017 1771390978
            -1576565994 2009107624 229212373 -1486857206</internalNodes>
          <leafValues>
            -5.0649636983871460e-01 4.3324732780456543e-01</leafValues></_></weakClassifiers></_>
    <!-- stage 15 -->
    <_>
      <maxWeakCount>9</maxWeakCount>
      <stageThreshold>-5.3097736835479736e-01</stageThreshold>
      <weakClassifiers>
        <_>
          <internalNodes>
            0 -1 93 1146359464 1415098920 -11224092 1424346192
            1722289815 737605007 663113453 180814419</internalNodes>
          <leafValues>
            -3.0969268083572388e-01 4.7551342844963074e-01</leafValues></_>
        <_>
          <internalNodes>
            0 -1 142 -242573936 -10793639 2111096727 2144562083
            -1327259478 -1276575674 798132938 -559217893</internalNodes>
          <leafValues>
            -2.6992687582969666e-01 5.0012397766113281e-01</leafValues></_>
        <_>
          <internalNodes>
            0 -1 106 -786379880 -64686548 -268632611 -1793323548
            -284116584 -797993145 -1196294520 -987823609</internalNodes>
          <leafValues>
            -3.5513046383857727e-01 4.1767707467079163e-01</leafValues></_>
        <_>
          <internalNodes>
            0 -1 36 437584050 534779681 -846607299 -477843282 -437219093
            1907687611 1225302729 184549440</internalNodes>
          <leafValues>
            -4.4121661782264709e-01 3.4029406309127808e-01</leafValues></_>
        <_>
          <internalNodes>
            0 -1 32 -1008607441 -1141901690 1811223047 162207167
            -798970459 -2073756065 -263371798 -1041596970</internalNodes>
          <leafValues>
            -3.3490216732025146e-01 5.3857725858688354e-01</leafValues></_>
        <_>
          <internalNodes>
            0 -1 81 1502626304 1426686416 -2091855992 331367937
            1484884472 -1348960143 170265322 1287322</internalNodes>
          <leafValues>
            -5.7976633310317993e-01 3.0609339475631714e-01</leafValues></_>
        <_>
          <internalNodes>
            0 -1 139 -750427049 1807348196 360179306 -382993925
            -1344804941 -1640499285 -65154054 -568120938</internalNodes>
          <leafValues>
            -3.0913290381431580e-01 5.8819478750228882e-01</leafValues></_>
        <_>
          <internalNodes>
            0 -1 111 -1065277358 1534101524 1091901614 529812635 97770
            -1262452672 2046820556 1566851681</internalNodes>
          <leafValues>
            -4.9918624758720398e-01 4.0330260992050171e-01</leafValues></_>
        <_>
          <internalNodes>
            0 -1 33 1808087760 2051178503 -494695271 -1614503584
            -1262195466 -1860173686 1522794867 705986507</internalNodes>
          <leafValues>
            -5.4159826040267944e-01 3.4168034791946411e-01</leafValues></_></weakClassifiers></_>
    <!-- stage 16 -->
    <_>
      <maxWeakCount>10</maxWeakCount>
      <stageThreshold>-8.6430835723876953e-01</stageThreshold>
      <weakClassifiers>
        <_>
          <internalNodes>
            0 -1 14 2121179255 184544623 -153375214 1762540283
            -1259375500 896990901 -1823133680 -998963015</internalNodes>
          <leafValues>
            -1.0443864017724991e-01 5.9696638584136963e-01</leafValues></_>
        <_>
          <internalNodes>
            0 -1 78 -634513868 -245602862 1745699988 1372500642
            1163618452 -1962933749 1759486554 1778972823</internalNodes>
          <leafValues>
            -3.8726937770843506e-01 3.8214355707168579e-01</leafValues></_>
        <_>
          <internalNodes>
            0 -1 167 -769684861 246260515 -1128385001 -1614823448
            -704675929 -1926496719 -168460596 -77204516</internalNodes>
          <leafValues>
            -2.4165476858615875e-01 6.1464977264404297e-01</leafValues></_>
        <_>
          <internalNodes>
            0 -1 122 1432012755 -583961243 -10266695 -554354506
            828710373 -1612724361 1064079994 -895500501</internalNodes>
          <leafValues>
            -2.5973516702651978e-01 6.4257293939590454e-01</leafValues></_>
        <_>
          <internalNodes>
            0 -1 102 1870602685 -1821475241 -1367152967 -1881852163
            1478182013 -152961260 419313396 -1167344942</internalNodes>
          <leafValues>
            -2.9247128963470459e-01 5.6977325677871704e-01</leafValues></_>
        <_>
          <internalNodes>
            0 -1 129 1420461968 -1131310459 -592723182 546889088
            -972750420 464060642 -190148402 740577548</internalNodes>
          <leafValues>
            -5.3201407194137573e-01 3.3751165866851807e-01</leafValues></_>
        <_>
          <internalNodes>
            0 -1 145 1418076797 442951300 998230005 795817561 1358935273
            144434445 1814958300 -479794057</internalNodes>
          <leafValues>
            -3.8248226046562195e-01 4.7365483641624451e-01</leafValues></_>
        <_>
          <internalNodes>
            0 -1 51 -45079408 1021649604 -1868200460 -1844899448
            -1722740822 2076852363 746940314 80568738</internalNodes>
          <leafValues>
            -5.7393705844879150e-01 3.2397106289863586e-01</leafValues></_>
        <_>
          <internalNodes>
            0 -1 157 687144577 1027139237 1573682772 -303638594
            343883464 -1893572771 1765744282 -2055784907</internalNodes>
          <leafValues>
            -3.9500641822814941e-01 4.8395541310310364e-01</leafValues></_>
        <_>
          <internalNodes>
            0 -1 80 1564723591 -1330159340 1040170026 -1536771953
            -1986676477 -379339850 1061377535 -503286961</internalNodes>
          <leafValues>
            -3.9091911911964417e-01 5.3286695480346680e-01</leafValues></_></weakClassifiers></_>
    <!-- stage 17 -->
    <_>
      <maxWeakCount>11</maxWeakCount>
      <stageThreshold>-6.8892276287078857e-01</stageThreshold>
      <weakClassifiers>
        <_>
          <internalNodes>
            0 -1 42 125199110 -738476238 1732232011 -872652175
            1041182372 804747120 1330980092 -1946562826</internalNodes>
          <leafValues>
            -1.2534819543361664e-01 5.7775491476058960e-01</leafValues></_>
        <_>
          <internalNodes>
            0 -1 7 1720678659 -41762550 973432509 755698385 1520462596
            705800481 365434621 331503621</internalNodes>
          <leafValues>
            -4.4619295001029968e-01 3.3588260412216187e-01</leafValues></_>
        <_>
          <internalNodes>
            0 -1 108 -448018684 1493260087 -1785724579 -2054684542
            1902186888 -1685553023 -1719139594 558445306</internalNodes>
          <leafValues>
            -4.3752959370613098e-01 3.4412285685539246e-01</leafValues></_>
        <_>
          <internalNodes>
            0 -1 132 -736577255 485416600 -1384870801 -1611158001
            1039378349 -1638145026 -1495439975 -1882849034</internalNodes>
          <leafValues>
            -3.1521207094192505e-01 4.8690074682235718e-01</leafValues></_>
        <_>
          <internalNodes>
            0 -1 25 2145909127 -1140934485 459217435 1676508855
            -1252557332 -1228046553 586923179 -1141966307</internalNodes>
          <leafValues>
            -2.5509729981422424e-01 6.5897637605667114e-01</leafValues></_>
        <_>
          <internalNodes>
            0 -1 37 1126476266 -275517572 -84987108 740490400 1930918069
            -504107275 -177393424 -1477870260</internalNodes>
          <leafValues>
            -4.1486948728561401e-01 4.2786166071891785e-01</leafValues></_>
        <_>
          <internalNodes>
            0 -1 116 1347852288 1528299776 33883103 -1323511638
            -287210782 -1199548360 -794121971 -1738693983</internalNodes>
          <leafValues>
            -4.3235158920288086e-01 4.0662568807601929e-01</leafValues></_>
        <_>
          <internalNodes>
            0 -1 84 -340539342 374281504 -1612334357 1410440737
            -489650575 595183485 1585238811 -222325245</internalNodes>
          <leafValues>
            -3.9396429061889648e-01 4.6732494235038757e-01</leafValues></_>
        <_>
          <internalNodes>
            0 -1 159 -713240122 -1066959475 819861470 -1200704278
            -900055904 -728631298 1202424714 -1301545445</internalNodes>
          <leafValues>
            -4.0718209743499756e-01 4.5193743705749512e-01</leafValues></_>
        <_>
          <internalNodes>
            0 -1 91 -1873807493 1128552213 -662712483 -720834211
            1976935793 -1873289746 -1400902870 -1618233873</internalNodes>
          <leafValues>
            -3.1336298584938049e-01 6.2220132350921631e-01</leafValues></_>
        <_>
          <internalNodes>
            0 -1 147 260713873 -1711797634 1052131004 434942772
            -1779128364 -1417805958 -956538472 -1076085836</internalNodes>
          <leafValues>
            -4.1180673241615295e-01 4.5590823888778687e-01</leafValues></_></weakClassifiers></_>
    <!-- stage 18 -->
    <_>
      <maxWeakCount>10</maxWeakCount>
      <stageThreshold>-5.2899485826492310e-01</stageThreshold>
      <weakClassifiers>
        <_>
          <internalNodes>
            0 -1 90 241737012 -25761863 -268607623 -1649019552
            -1824772355 -1359250247 1320886204 138412064</internalNodes>
          <leafValues>
            -3.7336814403533936e-01 4.7013783454895020e-01</leafValues></_>
        <_>
          <internalNodes>
            0 -1 44 -792724082 810894477 540033370 1657438997
            -1873637307 822648991 -263363560 -220267257</internalNodes>
          <leafValues>
            -3.6765214800834656e-01 3.9035218954086304e-01</leafValues></_>
        <_>
          <internalNodes>
            0 -1 171 -1174426273 62847597 -303829165 -1530463298
            -1889052003 85915134 507325938 -531376138</internalNodes>
          <leafValues>
            -2.8695550560951233e-01 4.9552848935127258e-01</leafValues></_>
        <_>
          <internalNodes>
            0 -1 21 2004778920 913623939 -689231841 1952690963
            1223960068 -1361441392 1756715695 -316554849</internalNodes>
          <leafValues>
            -3.2249051332473755e-01 4.7738477587699890e-01</leafValues></_>
        <_>
          <internalNodes>
            0 -1 169 1622914851 822005727 -378651221 1122496356
            828094213 611368942 1297687681 -948441601</internalNodes>
          <leafValues>
            -3.3234107494354248e-01 5.3088194131851196e-01</leafValues></_>
        <_>
          <internalNodes>
            0 -1 61 1916391005 -1878748900 -798946301 1988267049
            283844100 567293445 -2002334322 1093286826</internalNodes>
          <leafValues>
            -4.7344392538070679e-01 3.7262287735939026e-01</leafValues></_>
        <_>
          <internalNodes>
            0 -1 5 -843947401 1258718218 1653634297 211908054 1347981520
            864129056 1079425284 867717</internalNodes>
          <leafValues>
            -5.2742475271224976e-01 3.5155835747718811e-01</leafValues></_>
        <_>
          <internalNodes>
            0 -1 118 416794619 1381548058 -1035761560 1078342341
            -1806954275 -985509558 1917029799 791095946</internalNodes>
          <leafValues>
            -4.4082739949226379e-01 4.4918724894523621e-01</leafValues></_>
        <_>
          <internalNodes>
            0 -1 100 -345757253 -717937991 -1300448859 -172389405
            -1615407974 -287722550 -564937530 -295250162</internalNodes>
          <leafValues>
            -2.9940223693847656e-01 6.3915598392486572e-01</leafValues></_>
        <_>
          <internalNodes>
            0 -1 68 -1514393321 -586760751 -1947456984 -1175339360
            -592972525 -1250033963 -1107831990 -986229634</internalNodes>
          <leafValues>
            -3.3546742796897888e-01 5.6291109323501587e-01</leafValues></_></weakClassifiers></_>
    <!-- stage 19 -->
    <_>
      <maxWeakCount>12</maxWeakCount>
      <stageThreshold>-1.0311946868896484e+00</stageThreshold>
      <weakClassifiers>
        <_>
          <internalNodes>
            0 -1 104 1889542444 460854420 -1077982285 -1208203119
            1053371038 972897456 2133432803 529019984</internalNodes>
          <leafValues>
            -2.2834645211696625e-01 4.9703639745712280e-01</leafValues></_>
        <_>
          <internalNodes>
            0 -1 86 -989482089 1725840375 603361141 472724668
            -2107314302 -332120262 -360772264 -1348420322</internalNodes>
          <leafValues>
            -2.3900945484638214e-01 5.3554302453994751e-01</leafValues></_>
        <_>
          <internalNodes>
            0 -1 117 -439604400 868630534 -263760379 -574357242
            201404648 2044957085 898112995 135340255</internalNodes>
          <leafValues>
            -4.5332974195480347e-01 3.2303225994110107e-01</leafValues></_>
        <_>
          <internalNodes>
            0 -1 59 -169110521 1514321012 -1667261522 -1137786038
            653534477 1699561335 -55306 -61145565</internalNodes>
          <leafValues>
            -3.4796169400215149e-01 4.3960919976234436e-01</leafValues></_>
        <_>
          <internalNodes>
            0 -1 155 -1014367253 237633058 -1538738486 -1432110403
            1996783495 -541831191 -327912104 835288545</internalNodes>
          <leafValues>
            -3.8281968235969543e-01 4.5765352249145508e-01</leafValues></_>
        <_>
          <internalNodes>
            0 -1 73 1628642607 1056065598 1996054522 -177394129
            -1224967105 -1435790408 2102910713 -17249713</internalNodes>
          <leafValues>
            -3.0127379298210144e-01 6.2500834465026855e-01</leafValues></_>
        <_>
          <internalNodes>
            0 -1 20 2047209964 126715153 -2131524732 -581597897
            2144166002 90888777 1214515552 363946549</internalNodes>
          <leafValues>
            -5.1615405082702637e-01 3.6009699106216431e-01</leafValues></_>
        <_>
          <internalNodes>
            0 -1 95 594412467 1803709158 489564611 694282079 1848750041
            -914585721 -1983982411 -139145573</internalNodes>
          <leafValues>
            -3.0777809023857117e-01 5.9608173370361328e-01</leafValues></_>
        <_>
          <internalNodes>
            0 -1 138 1481024628 1900998206 1263016773 881664704
            319133197 2095710760 -809355480 276660742</internalNodes>
          <leafValues>
            -5.5817711353302002e-01 3.5637715458869934e-01</leafValues></_>
        <_>
          <internalNodes>
            0 -1 56 -91317539 1863522810 981057389 1480081387
            -1869336399 830189402 -98587211 -1562065666</internalNodes>
          <leafValues>
            -3.5816100239753723e-01 5.7840317487716675e-01</leafValues></_>
        <_>
          <internalNodes>
            0 -1 11 1983373637 -217882598 1343246348 -1694088704
            1887633481 421671084 -1112924054 2031506624</internalNodes>
          <leafValues>
            -4.5759645104408264e-01 4.3868723511695862e-01</leafValues></_>
        <_>
          <internalNodes>
            0 -1 97 -238057441 1532307792 -946148327 -623997969
            -1310510418 -272221352 -1079136446 -1960793136</internalNodes>
          <leafValues>
            -3.4403815865516663e-01 5.6372165679931641e-01</leafValues></_></weakClassifiers></_></stages>
  <features>
    <_>
      <rect>
        0 0 5 4</rect></_>
    <_>
      <rect>
        0 0 5 7</rect></_>
    <_>
      <rect>
        0 1 5 2</rect></_>
    <_>
      <rect>
        0 2 2 5</rect></_>
    <_>
      <rect>
        0 3 7 7</rect></_>
    <_>
      <rect>
        0 4 2 3</rect></_>
    <_>
      <rect>
        0 4 4 4</rect></_>
    <_>
      <rect>
        0 5 5 4</rect></_>
    <_>
      <rect>
        0 6 4 3</rect></_>
    <_>
      <rect>
        0 7 1 1</rect></_>
    <_>
      <rect>
        0 7 4 2</rect></_>
    <_>
      <rect>
        0 8 1 1</rect></_>
    <_>
      <rect>
        0 8 2 5</rect></_>
    <_>
      <rect>
        0 9 5 3</rect></_>
    <_>
      <rect>
        0 10 2 2</rect></_>
    <_>
      <rect>
        0 11 1 2</rect></_>
    <_>
      <rect>
        1 0 4 5</rect></_>
    <_>
      <rect>
        1 0 5 5</rect></_>
    <_>
      <rect>
        1 0 7 6</rect></_>
    <_>
      <rect>
        1 1 3 1</rect></_>
    <_>
      <rect>
        1 2 2 2</rect></_>
    <_>
      <rect>
        1 3 3 4</rect></_>
    <_>
      <rect>
        1 4 2 3</rect></_>
    <_>
      <rect>
        1 5 2 5</rect></_>
    <_>
      <rect>
        1 6 3 4</rect></_>
    <_>
      <rect>
        1 9 3 2</rect></_>
    <_>
      <rect>
        1 10 7 4</rect></_>
    <_>
      <rect>
        1 11 1 1</rect></_>
    <_>
      <rect>
        2 4 2 3</rect></_>
    <_>
      <rect>
        2 4 2 4</rect></_>
    <_>
      <rect>
        2 4 5 2</rect></_>
    <_>
      <rect>
        2 4 5 4</rect></_>
    <_>
      <rect>
        2 5 3 3</rect></_>
    <_>
      <rect>
        2 6 3 6</rect></_>
    <_>
      <rect>
        2 7 2 2</rect></_>
    <_>
      <rect>
        2 15 3 1</rect></_>
    <_>
      <rect>
        3 0 5 2</rect></_>
    <_>
      <rect>
        3 2 2 2</rect></_>
    <_>
      <rect>
        3 3 1 1</rect></_>
    <_>
      <rect>
        3 3 5 7</rect></_>
    <_>
      <rect>
        3 4 6 6</rect></_>
    <_>
      <rect>
        3 7 4 4</rect></_>
    <_>
      <rect>
        3 7 5 3</rect></_>
    <_>
      <rect>
        3 10 2 4</rect></_>
    <_>
      <rect>
        3 10 4 3</rect></_>
    <_>
      <rect>
        3 11 6 4</rect></_>
    <_>
      <rect>
        3 14 2 1</rect></_>
    <_>
      <rect>
        4 1 2 4</rect></_>
    <_>
      <rect>
        4 1 3 6</rect></_>
    <_>
      <rect>
        4 2 2 4</rect></_>
    <_>
      <rect>
        4 2 3 2</rect></_>
    <_>
      <rect>
        4 2 3 3</rect></_>
    <_>
      <rect>
        4 3 2 3</rect></_>
    <_>
      <rect>
        4 4 2 3</rect></_>
    <_>
      <rect>
        4 4 4 4</rect></_>
    <_>
      <rect>
        4 5 1 1</rect></_>
    <_>
      <rect>
        4 5 4 6</rect></_>
    <_>
      <rect>
        4 6 3 4</rect></_>
    <_>
      <rect>
        4 6 3 5</rect></_>
    <_>
      <rect>
        4 11 2 2</rect></_>
    <_>
      <rect>
        4 11 6 4</rect></_>
    <_>
      <rect>
        4 12 2 2</rect></_>
    <_>
      <rect>
        4 17 6 2</rect></_>
    <_>
      <rect>
        5 2 4 4</rect></_>
    <_>
      <rect>
        5 5 3 2</rect></_>
    <_>
      <rect>
        5 7 4 2</rect></_>
    <_>
      <rect>
        5 10 4 4</rect></_>
    <_>
      <rect>
        5 13 2 2</rect></_>
    <_>
      <rect>
        5 14 5 3</rect></_>
    <_>
      <rect>
        6 0 3 5</rect></_>
    <_>
      <rect>
        6 3 4 2</rect></_>
    <_>
      <rect>
        6 7 3 3</rect></_>
    <_>
      <rect>
        6 9 5 4</rect></_>
    <_>
      <rect>
        6 13 2 1</rect></_>
    <_>
      <rect>
        7 3 1 1</rect></_>
    <_>
      <rect>
        7 4 5 5</rect></_>
    <_>
      <rect>
        7 7 2 4</rect></_>
    <_>
      <rect>
        7 7 3 2</rect></_>
    <_>
      <rect>
        7 12 1 3</rect></_>
    <_>
      <rect>
        8 3 1 1</rect></_>
    <_>
      <rect>
        8 3 5 6</rect></_>
    <_>
      <rect>
        8 11 2 1</rect></_>
    <_>
      <rect>
        8 11 3 1</rect></_>
    <_>
      <rect>
        8 12 2 2</rect></_>
    <_>
      <rect>
        8 12 3 2</rect></_>
    <_>
      <rect>
        8 13 1 1</rect></_>
    <_>
      <rect>
        8 17 3 2</rect></_>
    <_>
      <rect>
        9 0 2 2</rect></_>
    <_>
      <rect>
        9 0 2 3</rect></_>
    <_>
      <rect>
        9 1 5 4</rect></_>
    <_>
      <rect>
        9 3 1 2</rect></_>
    <_>
      <rect>
        9 3 5 6</rect></_>
    <_>
      <rect>
        9 4 1 1</rect></_>
    <_>
      <rect>
        9 4 2 4</rect></_>
    <_>
      <rect>
        9 7 5 4</rect></_>
    <_>
      <rect>
        9 9 3 2</rect></_>
    <_>
      <rect>
        9 10 1 1</rect></_>
    <_>
      <rect>
        9 10 3 2</rect></_>
    <_>
      <rect>
        9 11 1 1</rect></_>
    <_>
      <rect>
        9 11 3 1</rect></_>
    <_>
      <rect>
        9 11 3 3</rect></_>
    <_>
      <rect>
        9 12 2 1</rect></_>
    <_>
      <rect>
        9 14 3 2</rect></_>
    <_>
      <rect>
        10 1 1 1</rect></_>
    <_>
      <rect>
        10 6 2 2</rect></_>
    <_>
      <rect>
        10 8 2 2</rect></_>
    <_>
      <rect>
        10 9 1 1</rect></_>
    <_>
      <rect>
        10 9 3 3</rect></_>
    <_>
      <rect>
        10 10 1 1</rect></_>
    <_>
      <rect>
        10 10 4 2</rect></_>
    <_>
      <rect>
        10 11 1 1</rect></_>
    <_>
      <rect>
        10 11 2 1</rect></_>
    <_>
      <rect>
        10 12 1 1</rect></_>
    <_>
      <rect>
        10 12 2 2</rect></_>
    <_>
      <rect>
        10 13 1 1</rect></_>
    <_>
      <rect>
        10 13 2 1</rect></_>
    <_>
      <rect>
        10 14 2 2</rect></_>
    <_>
      <rect>
        11 0 3 3</rect></_>
    <_>
      <rect>
        11 2 4 6</rect></_>
    <_>
      <rect>
        11 6 4 4</rect></_>
    <_>
      <rect>
        11 10 1 1</rect></_>
    <_>
      <rect>
        11 10 2 1</rect></_>
    <_>
      <rect>
        11 10 2 3</rect></_>
    <_>
      <rect>
        11 11 1 1</rect></_>
    <_>
      <rect>
        11 12 1 1</rect></_>
    <_>
      <rect>
        11 14 1 1</rect></_>
    <_>
      <rect>
        11 14 3 1</rect></_>
    <_>
      <rect>
        11 15 1 1</rect></_>
    <_>
      <rect>
        12 1 3 4</rect></_>
    <_>
      <rect>
        12 2 3 4</rect></_>
    <_>
      <rect>
        12 3 1 1</rect></_>
    <_>
      <rect>
        12 4 3 3</rect></_>
    <_>
      <rect>
        12 9 1 1</rect></_>
    <_>
      <rect>
        12 10 1 1</rect></_>
    <_>
      <rect>
        12 12 3 1</rect></_>
    <_>
      <rect>
        12 13 1 1</rect></_>
    <_>
      <rect>
        12 14 1 1</rect></_>
    <_>
      <rect>
        12 15 1 1</rect></_>
    <_>
      <rect>
        12 17 1 1</rect></_>
    <_>
      <rect>
        13 9 2 3</rect></_>
    <_>
      <rect>
        13 12 1 1</rect></_>
    <_>
      <rect>
        13 13 1 1</rect></_>
    <_>
      <rect>
        13 14 1 1</rect></_>
    <_>
      <rect>
        13 15 1 1</rect></_>
    <_>
      <rect>
        13 16 2 1</rect></_>
    <_>
      <rect>
        13 16 2 2</rect></_>
    <_>
      <rect>
        13 17 1 1</rect></_>
    <_>
      <rect>
        14 6 1 1</rect></_>
    <_>
      <rect>
        14 11 2 2</rect></_>
    <_>
      <rect>
        14 12 1 1</rect></_>
    <_>
      <rect>
        14 13 1 1</rect></_>
    <_>
      <rect>
        14 15 1 1</rect></_>
    <_>
      <rect>
        14 18 1 1</rect></_>
    <_>
      <rect>
        15 3 3 4</rect></_>
    <_>
      <rect>
        15 3 3 7</rect></_>
    <_>
      <rect>
        15 10 2 3</rect></_>
    <_>
      <rect>
        15 12 1 1</rect></_>
    <_>
      <rect>
        15 15 2 3</rect></_>
    <_>
      <rect>
        16 3 1 1</rect></_>
    <_>
      <rect>
        17 4 2 2</rect></_>
    <_>
      <rect>
        17 4 2 4</rect></_>
    <_>
      <rect>
        17 7 2 4</rect></_>
    <_>
      <rect>
        17 8 2 4</rect></_>
    <_>
      <rect>
        17 10 2 3</rect></_>
    <_>
      <rect>
        17 12 2 2</rect></_>
    <_>
      <rect>
        18 11 1 1</rect></_>
    <_>
      <rect>
        18 12 2 3</rect></_>
    <_>
      <rect>
        19 10 1 2</rect></_>
    <_>
      <rect>
        19 13 1 1</rect></_>
    <_>
      <rect>
        20 13 1 2</rect></_>
    <_>
      <rect>
        21 10 1 1</rect></_>
    <_>
      <rect>
        21 12 1 1</rect></_></features></cascade>
</opencv_storage>
