<?xml version="1.0"?>
<opencv_storage>
<cascade>
  <stageType>BOOST</stageType>
  <featureType>LBP</featureType>
  <height>30</height>
  <width>20</width>
  <stageParams>
    <boostType>GAB</boostType>
    <minHitRate>9.9900001287460327e-01</minHitRate>
    <maxFalseAlarm>5.0000000000000000e-01</maxFalseAlarm>
    <weightTrimRate>9.4999999999999996e-01</weightTrimRate>
    <maxDepth>1</maxDepth>
    <maxWeakCount>100</maxWeakCount></stageParams>
  <featureParams>
    <maxCatCount>256</maxCatCount>
    <featSize>1</featSize></featureParams>
  <stageNum>30</stageNum>
  <stages>
    <!-- stage 0 -->
    <_>
      <maxWeakCount>6</maxWeakCount>
      <stageThreshold>-9.6102803945541382e-01</stageThreshold>
      <weakClassifiers>
        <_>
          <internalNodes>
            0 -1 136 -784285496 -679477198 546369668 1360076920
            -2042585976 -771420160 17207946 -1827732981</internalNodes>
          <leafValues>
            -4.1560283303260803e-01 7.7430164813995361e-01</leafValues></_>
        <_>
          <internalNodes>
            0 -1 107 -721367824 1359495184 336068633 822280279 45192
            1883242496 33418 319496695</internalNodes>
          <leafValues>
            -6.6934484243392944e-01 5.9826278686523438e-01</leafValues></_>
        <_>
          <internalNodes>
            0 -1 173 -779558752 -74625024 551607908 -114609983 698592
            27329984 70824846 -1692458773</internalNodes>
          <leafValues>
            -5.3083425760269165e-01 7.3340952396392822e-01</leafValues></_>
        <_>
          <internalNodes>
            0 -1 131 -727655808 -149831680 201347107 1363738805
            959489170 270532896 1074852506 -878769969</internalNodes>
          <leafValues>
            -5.1573348045349121e-01 7.6829653978347778e-01</leafValues></_>
        <_>
          <internalNodes>
            0 -1 102 -234306992 -788000632 16384 -107396416 -1602224000
            622721 17367194 -81854325</internalNodes>
          <leafValues>
            -5.6770247220993042e-01 7.0255231857299805e-01</leafValues></_>
        <_>
          <internalNodes>
            0 -1 31 -804285806 298483718 16785424 16810114 1401456840 10
            1744896130 1359995155</internalNodes>
          <leafValues>
            -7.1595841646194458e-01 6.0101485252380371e-01</leafValues></_></weakClassifiers></_>
    <!-- stage 1 -->
    <_>
      <maxWeakCount>10</maxWeakCount>
      <stageThreshold>-1.4085001945495605e+00</stageThreshold>
      <weakClassifiers>
        <_>
          <internalNodes>
            0 -1 39 -45090157 1929599058 -1208320464 -1309397597
            862343744 -1537253886 524375572 -536914425</internalNodes>
          <leafValues>
            -2.0154044032096863e-01 6.7844092845916748e-01</leafValues></_>
        <_>
          <internalNodes>
            0 -1 192 -675747656 -88218464 -1561792271 -168255311
            -1224179064 -928996168 940180266 -1961555809</internalNodes>
          <leafValues>
            -4.4071403145790100e-01 5.2791571617126465e-01</leafValues></_>
        <_>
          <internalNodes>
            0 -1 208 -148651553 2142760 1049701392 -500621637 580860094
            1286348905 -723661257 -861506593</internalNodes>
          <leafValues>
            -3.8891592621803284e-01 5.8057540655136108e-01</leafValues></_>
        <_>
          <internalNodes>
            0 -1 134 -207956784 -788168692 687882439 1494548501
            436830347 688403072 387063306 688464515</internalNodes>
          <leafValues>
            -6.0955440998077393e-01 3.9182704687118530e-01</leafValues></_>
        <_>
          <internalNodes>
            0 -1 160 1495462648 1416910027 1791409908 138717379
            1869051532 -1389461522 -218574874 -2009072641</internalNodes>
          <leafValues>
            -4.7960150241851807e-01 5.3645187616348267e-01</leafValues></_>
        <_>
          <internalNodes>
            0 -1 230 -694435196 5358744 -1195274044 193532714 1384202286
            2013864451 -1844843544 -1164203061</internalNodes>
          <leafValues>
            -4.8767668008804321e-01 5.2932256460189819e-01</leafValues></_>
        <_>
          <internalNodes>
            0 -1 172 -1878994536 684245136 -2086600351 502735253
            404616586 -671079934 169503675 -1188493176</internalNodes>
          <leafValues>
            -5.2371698617935181e-01 4.9718192219734192e-01</leafValues></_>
        <_>
          <internalNodes>
            0 -1 34 1924170987 -115088044 996010728 1963327469 347230418
            -1334718379 1153294046 2138000607</internalNodes>
          <leafValues>
            -4.9684631824493408e-01 5.7842558622360229e-01</leafValues></_>
        <_>
          <internalNodes>
            0 -1 169 2037174524 -596597342 558009651 -43200642 -82816326
            -1432772680 287154575 -351855825</internalNodes>
          <leafValues>
            -4.4672197103500366e-01 6.5533727407455444e-01</leafValues></_>
        <_>
          <internalNodes>
            0 -1 85 -222399920 433551398 -1162084527 -40120702
            -1793721181 -794011997 -1084907537 -888439237</internalNodes>
          <leafValues>
            -4.2479982972145081e-01 6.3586544990539551e-01</leafValues></_></weakClassifiers></_>
    <!-- stage 2 -->
    <_>
      <maxWeakCount>8</maxWeakCount>
      <stageThreshold>-6.6127371788024902e-01</stageThreshold>
      <weakClassifiers>
        <_>
          <internalNodes>
            0 -1 6 1349759231 356562192 -698371112 354712575 619005176
            3447749 -858235139 1145108095</internalNodes>
          <leafValues>
            -3.6880734562873840e-01 5.6966823339462280e-01</leafValues></_>
        <_>
          <internalNodes>
            0 -1 147 -1835216684 -45997864 1346409889 -778104691
            -1291413080 -1134425946 354820267 1262371679</internalNodes>
          <leafValues>
            -4.2751944065093994e-01 4.5994508266448975e-01</leafValues></_>
        <_>
          <internalNodes>
            0 -1 165 -787689014 -728136007 -1944870756 144545039
            709906617 -1147662174 1518371787 697265099</internalNodes>
          <leafValues>
            -4.8849964141845703e-01 4.2125302553176880e-01</leafValues></_>
        <_>
          <internalNodes>
            0 -1 159 -124010121 -735921554 1055190242 -884891749
            1156786623 -1356596582 -1720085250 -841363521</internalNodes>
          <leafValues>
            -2.9143777489662170e-01 7.2357732057571411e-01</leafValues></_>
        <_>
          <internalNodes>
            0 -1 89 -587209010 575574400 -804192217 838975509 -805175223
            1124859916 704643999 1288174272</internalNodes>
          <leafValues>
            -5.8495569229125977e-01 4.0115559101104736e-01</leafValues></_>
        <_>
          <internalNodes>
            0 -1 21 -659563853 -175586992 -1756355070 31020471 144924736
            -930002527 -130914491 2096096839</internalNodes>
          <leafValues>
            -4.8936742544174194e-01 4.7376000881195068e-01</leafValues></_>
        <_>
          <internalNodes>
            0 -1 92 1461778641 -612908811 -1889998597 1397562550
            -1037917203 -577399278 303049151 -100577605</internalNodes>
          <leafValues>
            -3.5362914204597473e-01 6.4727985858917236e-01</leafValues></_>
        <_>
          <internalNodes>
            0 -1 247 2077803675 472434932 1679542856 275508467
            2088801926 362029907 1497795902 1795827355</internalNodes>
          <leafValues>
            -4.4038566946983337e-01 5.6188249588012695e-01</leafValues></_></weakClassifiers></_>
    <!-- stage 3 -->
    <_>
      <maxWeakCount>6</maxWeakCount>
      <stageThreshold>-6.8044751882553101e-01</stageThreshold>
      <weakClassifiers>
        <_>
          <internalNodes>
            0 -1 91 1970599952 1534126144 -2144860031 -713210332
            -2138570616 -61856016 286442170 454033480</internalNodes>
          <leafValues>
            -4.2662116885185242e-01 6.4102566242218018e-01</leafValues></_>
        <_>
          <internalNodes>
            0 -1 143 -391462768 -39477144 117486569 1364551031
            1915784346 -1207421711 1479604447 -1962209110</internalNodes>
          <leafValues>
            -4.2182579636573792e-01 6.9310927391052246e-01</leafValues></_>
        <_>
          <internalNodes>
            0 -1 80 -314265384 -37271424 17043520 -547945623 -1895133014
            826316034 16858506 -610590225</internalNodes>
          <leafValues>
            -4.1097858548164368e-01 7.6140779256820679e-01</leafValues></_>
        <_>
          <internalNodes>
            0 -1 106 -670547728 -804759328 490793151 -787253532
            -388839992 -1400859056 454569723 -1624567061</internalNodes>
          <leafValues>
            -4.9989560246467590e-01 6.4960408210754395e-01</leafValues></_>
        <_>
          <internalNodes>
            0 -1 101 -787166776 1882218728 1354630425 1567303908
            1963903162 -1659623780 1280389103 957023627</internalNodes>
          <leafValues>
            -5.2182644605636597e-01 6.2469947338104248e-01</leafValues></_>
        <_>
          <internalNodes>
            0 -1 206 291300318 419611090 4407616 424673317 960684266
            -1610350586 1481255882 674471614</internalNodes>
          <leafValues>
            -5.8188182115554810e-01 5.9962379932403564e-01</leafValues></_></weakClassifiers></_>
    <!-- stage 4 -->
    <_>
      <maxWeakCount>6</maxWeakCount>
      <stageThreshold>-1.4789524078369141e+00</stageThreshold>
      <weakClassifiers>
        <_>
          <internalNodes>
            0 -1 170 -85404472 -132180344 -262512767 270733349
            -2096455544 -1106887536 592977147 -1824816197</internalNodes>
          <leafValues>
            -2.7129751443862915e-01 7.2520905733108521e-01</leafValues></_>
        <_>
          <internalNodes>
            0 -1 218 -678695736 -682295168 -1602958830 1426165165
            -837893206 -721125509 -1660485413 -751058289</internalNodes>
          <leafValues>
            -3.3064562082290649e-01 7.3301434516906738e-01</leafValues></_>
        <_>
          <internalNodes>
            0 -1 64 1511102716 -753708972 335620375 322371841
            -1593667432 -1870657536 1342476699 438960135</internalNodes>
          <leafValues>
            -5.5339032411575317e-01 5.0568979978561401e-01</leafValues></_>
        <_>
          <internalNodes>
            0 -1 63 -105915712 -776209266 1706577804 1896312455
            -1527345269 1176246594 1612678287 -749477285</internalNodes>
          <leafValues>
            -4.7933495044708252e-01 6.5064924955368042e-01</leafValues></_>
        <_>
          <internalNodes>
            0 -1 23 308528891 -586006015 437043231 2106674184 1208680585
            1476710545 537008559 1279648907</internalNodes>
          <leafValues>
            -5.5761969089508057e-01 5.5733782052993774e-01</leafValues></_>
        <_>
          <internalNodes>
            0 -1 174 -100089640 -216717752 59840553 -548316067
            -2049116758 1362638844 -2093901381 -282089269</internalNodes>
          <leafValues>
            -4.1664856672286987e-01 7.3752540349960327e-01</leafValues></_></weakClassifiers></_>
    <!-- stage 5 -->
    <_>
      <maxWeakCount>8</maxWeakCount>
      <stageThreshold>-4.2649936676025391e-01</stageThreshold>
      <weakClassifiers>
        <_>
          <internalNodes>
            0 -1 86 -498417152 1684649544 1277700352 1095021884
            1358987400 297010256 2843546 1427353819</internalNodes>
          <leafValues>
            -4.6215140819549561e-01 5.7559198141098022e-01</leafValues></_>
        <_>
          <internalNodes>
            0 -1 100 -741832574 -105868752 1130503028 -781899935
            -276643638 -1316986796 55741594 -610299685</internalNodes>
          <leafValues>
            -3.7231734395027161e-01 7.1632266044616699e-01</leafValues></_>
        <_>
          <internalNodes>
            0 -1 200 -267876216 -1862189040 16472 1405304856 -2013223720
            155746310 427950315 320048795</internalNodes>
          <leafValues>
            -6.4170420169830322e-01 4.3959751725196838e-01</leafValues></_>
        <_>
          <internalNodes>
            0 -1 127 -766969128 -617045856 1345911312 -613608779
            608223912 1107449228 272666842 -620013349</internalNodes>
          <leafValues>
            -4.5692428946495056e-01 6.2823283672332764e-01</leafValues></_>
        <_>
          <internalNodes>
            0 -1 68 -690316856 -236041595 755402649 -783046643
            -1758285368 -2123074231 -1855392369 -580180753</internalNodes>
          <leafValues>
            -4.0295743942260742e-01 7.3775857686996460e-01</leafValues></_>
        <_>
          <internalNodes>
            0 -1 203 -704605736 1432955042 -32231384 1361402730
            -1288923968 757605216 338236558 -1657862917</internalNodes>
          <leafValues>
            -3.9592948555946350e-01 7.0589220523834229e-01</leafValues></_>
        <_>
          <internalNodes>
            0 -1 24 -246690094 -673452494 923369320 2071424590
            -162080336 -63482432 325521371 -1082173665</internalNodes>
          <leafValues>
            -4.1268843412399292e-01 7.1356040239334106e-01</leafValues></_>
        <_>
          <internalNodes>
            0 -1 132 -244977216 1228337308 -1813462614 286995323
            2115097240 634925059 -717939718 -616315681</internalNodes>
          <leafValues>
            -4.8602899909019470e-01 6.2902414798736572e-01</leafValues></_></weakClassifiers></_>
    <!-- stage 6 -->
    <_>
      <maxWeakCount>7</maxWeakCount>
      <stageThreshold>-6.1995828151702881e-01</stageThreshold>
      <weakClassifiers>
        <_>
          <internalNodes>
            0 -1 182 -693698864 -266048960 -2030543120 1344667720
            -903221542 302288546 36082314 1091266959</internalNodes>
          <leafValues>
            -4.2125985026359558e-01 5.6227105855941772e-01</leafValues></_>
        <_>
          <internalNodes>
            0 -1 29 -1052720976 2013266176 268964349 386404352 318931088
            546439329 1358955151 288047123</internalNodes>
          <leafValues>
            -6.2683856487274170e-01 3.8495162129402161e-01</leafValues></_>
        <_>
          <internalNodes>
            0 -1 189 -39288704 -794005484 1291703773 1429833165
            -1669332830 -785853125 -1618155601 -1857319285</internalNodes>
          <leafValues>
            -4.8048868775367737e-01 5.1328891515731812e-01</leafValues></_>
        <_>
          <internalNodes>
            0 -1 184 -670584658 -805238784 289571538 360779776
            1377941752 -2012732927 572692730 428057771</internalNodes>
          <leafValues>
            -5.0388962030410767e-01 5.1053017377853394e-01</leafValues></_>
        <_>
          <internalNodes>
            0 -1 145 -305086460 -67682688 461135837 -686547715
            -1333221222 1001042604 -2028229206 -1691435814</internalNodes>
          <leafValues>
            -4.8859119415283203e-01 5.8381628990173340e-01</leafValues></_>
        <_>
          <internalNodes>
            0 -1 118 -787417728 -1860665344 -2130585311 419889297
            -197097277 268443945 429433774 988742214</internalNodes>
          <leafValues>
            -5.7501387596130371e-01 4.8297193646430969e-01</leafValues></_>
        <_>
          <internalNodes>
            0 -1 41 -907160457 2111910636 146432523 1572207425 206406860
            68460740 459243465 253212535</internalNodes>
          <leafValues>
            -5.1560479402542114e-01 5.5697685480117798e-01</leafValues></_></weakClassifiers></_>
    <!-- stage 7 -->
    <_>
      <maxWeakCount>10</maxWeakCount>
      <stageThreshold>-8.4357261657714844e-01</stageThreshold>
      <weakClassifiers>
        <_>
          <internalNodes>
            0 -1 11 -1009609777 -684492841 1170093750 555988666
            1155740123 513133 333676533 39255543</internalNodes>
          <leafValues>
            -3.2081910967826843e-01 5.7988166809082031e-01</leafValues></_>
        <_>
          <internalNodes>
            0 -1 163 -595017592 -782737400 402653418 1493778440
            -534728550 1630601226 16888474 196587531</internalNodes>
          <leafValues>
            -5.4422253370285034e-01 4.3483269214630127e-01</leafValues></_>
        <_>
          <internalNodes>
            0 -1 194 -209698368 -753126184 1358566888 1896551495
            -201790210 -235960262 1696711358 -685039365</internalNodes>
          <leafValues>
            -4.3254467844963074e-01 5.2152734994888306e-01</leafValues></_>
        <_>
          <internalNodes>
            0 -1 209 -511192881 15392234 -321017342 -1937018652
            1820190587 -1326163079 952144458 -708184017</internalNodes>
          <leafValues>
            -4.0554633736610413e-01 5.6341171264648438e-01</leafValues></_>
        <_>
          <internalNodes>
            0 -1 169 -248325920 -259358718 69417170 1393299668
            -1048540966 -1976958816 1074533547 462231691</internalNodes>
          <leafValues>
            -6.1915630102157593e-01 3.8071748614311218e-01</leafValues></_>
        <_>
          <internalNodes>
            0 -1 214 -163714848 -124082704 -1424075777 1403977838
            -1883101554 -1492896383 -1657163528 -1415872325</internalNodes>
          <leafValues>
            -4.3129891157150269e-01 5.6130510568618774e-01</leafValues></_>
        <_>
          <internalNodes>
            0 -1 105 -546512386 1987294262 -846338334 2111964551
            -894332309 2109902898 1803030550 -731918773</internalNodes>
          <leafValues>
            -4.3619403243064880e-01 5.7847726345062256e-01</leafValues></_>
        <_>
          <internalNodes>
            0 -1 123 -562102856 1457830384 -38871117 952983025
            -1479175504 169825629 1011888345 927925258</internalNodes>
          <leafValues>
            -4.8133271932601929e-01 5.4715108871459961e-01</leafValues></_>
        <_>
          <internalNodes>
            0 -1 49 -409236502 1939931649 -1861902265 1358067986
            34071444 33945859 1708198017 -1030794529</internalNodes>
          <leafValues>
            -5.1374435424804688e-01 5.1218056678771973e-01</leafValues></_>
        <_>
          <internalNodes>
            0 -1 17 -41755406 -778501616 1115720765 331444802 555751656
            1073897508 1084457474 936336083</internalNodes>
          <leafValues>
            -5.9996318817138672e-01 4.2604053020477295e-01</leafValues></_></weakClassifiers></_>
    <!-- stage 8 -->
    <_>
      <maxWeakCount>8</maxWeakCount>
      <stageThreshold>-6.9812750816345215e-01</stageThreshold>
      <weakClassifiers>
        <_>
          <internalNodes>
            0 -1 149 1253612760 1425566376 1017690087 501007373
            -1164281688 -1204214530 -1380172325 152170664</internalNodes>
          <leafValues>
            -2.6429674029350281e-01 5.9916055202484131e-01</leafValues></_>
        <_>
          <internalNodes>
            0 -1 199 1360154784 1481672856 -2129373875 357105917
            776186623 -1733820247 857836730 252696843</internalNodes>
          <leafValues>
            -4.6254211664199829e-01 4.6828657388687134e-01</leafValues></_>
        <_>
          <internalNodes>
            0 -1 237 -769014785 -152267230 1591062213 -842770405
            -2062310165 647993074 -450035483 -1033373133</internalNodes>
          <leafValues>
            -3.0516287684440613e-01 6.8242973089218140e-01</leafValues></_>
        <_>
          <internalNodes>
            0 -1 158 1494000497 1901609657 1347457041 1563629570
            -1878986275 470057092 134317458 160236227</internalNodes>
          <leafValues>
            -4.8964694142341614e-01 4.1379764676094055e-01</leafValues></_>
        <_>
          <internalNodes>
            0 -1 76 -1731143272 -641593342 9470161 -1782243167
            -2075619664 1694500905 1645552335 454492975</internalNodes>
          <leafValues>
            -4.6473127603530884e-01 4.8153805732727051e-01</leafValues></_>
        <_>
          <internalNodes>
            0 -1 166 1405604324 33982665 1489256433 160149954 2002005755
            2040608940 -2016371781 -999321875</internalNodes>
          <leafValues>
            -4.5496529340744019e-01 5.0728374719619751e-01</leafValues></_>
        <_>
          <internalNodes>
            0 -1 92 -515319696 1414594564 504365563 1401205023
            -100617548 -611745659 805329051 952320138</internalNodes>
          <leafValues>
            -5.2979677915573120e-01 4.3327406048774719e-01</leafValues></_>
        <_>
          <internalNodes>
            0 -1 8 1511769666 556554144 267987520 -931935566 2116467100
            -289409052 -990437370 -1141115919</internalNodes>
          <leafValues>
            -4.2471599578857422e-01 5.6443381309509277e-01</leafValues></_></weakClassifiers></_>
    <!-- stage 9 -->
    <_>
      <maxWeakCount>8</maxWeakCount>
      <stageThreshold>-1.1956169605255127e+00</stageThreshold>
      <weakClassifiers>
        <_>
          <internalNodes>
            0 -1 231 -62471026 1678068368 1725492132 1093478240
            -861904718 407924586 1616421574 1359713687</internalNodes>
          <leafValues>
            -2.7184465527534485e-01 5.7841140031814575e-01</leafValues></_>
        <_>
          <internalNodes>
            0 -1 45 -83824540 -105155074 -1789525836 929542505
            -619334014 -625838992 641028283 -1155833573</internalNodes>
          <leafValues>
            -3.7149769067764282e-01 5.0937539339065552e-01</leafValues></_>
        <_>
          <internalNodes>
            0 -1 110 -602881856 -669939120 134254602 -16301997
            -1274510920 -131021662 137413790 -686351669</internalNodes>
          <leafValues>
            -4.2895919084548950e-01 5.0788146257400513e-01</leafValues></_>
        <_>
          <internalNodes>
            0 -1 58 -254030902 1393418370 -1887520143 -800341333
            316204225 104206595 56295824 -213673814</internalNodes>
          <leafValues>
            -3.7226250767707825e-01 5.8045464754104614e-01</leafValues></_>
        <_>
          <internalNodes>
            0 -1 177 -1017981718 1411678724 -804027931 361873604
            1132489100 1436582020 168082329 855851906</internalNodes>
          <leafValues>
            -5.1502507925033569e-01 4.3938168883323669e-01</leafValues></_>
        <_>
          <internalNodes>
            0 -1 248 -19230229 -1582945174 987712193 -2134245849
            -696334783 1349459461 -1258790317 -890249257</internalNodes>
          <leafValues>
            -4.3079662322998047e-01 5.7298576831817627e-01</leafValues></_>
        <_>
          <internalNodes>
            0 -1 217 -795223926 -779418596 -1474611907 -1085861003
            851176445 -1932173635 -1894121573 -1147455494</internalNodes>
          <leafValues>
            -3.7821540236473083e-01 6.4845073223114014e-01</leafValues></_>
        <_>
          <internalNodes>
            0 -1 167 -217712390 1356326470 2143502571 -721085637
            -191574287 -958983847 530415529 -1409314963</internalNodes>
          <leafValues>
            -3.8351535797119141e-01 6.6042453050613403e-01</leafValues></_></weakClassifiers></_>
    <!-- stage 10 -->
    <_>
      <maxWeakCount>10</maxWeakCount>
      <stageThreshold>-9.5318603515625000e-01</stageThreshold>
      <weakClassifiers>
        <_>
          <internalNodes>
            0 -1 44 1158345392 272357357 -608979489 362524638 1953682160
            1884693088 779968507 172840003</internalNodes>
          <leafValues>
            -3.7684211134910583e-01 5.1466667652130127e-01</leafValues></_>
        <_>
          <internalNodes>
            0 -1 94 1343541488 812745788 -1549867429 -1190182613
            -1850385703 -1337585008 1580452847 798951642</internalNodes>
          <leafValues>
            -4.0338784456253052e-01 4.4551643729209900e-01</leafValues></_>
        <_>
          <internalNodes>
            0 -1 223 1308093646 -608584472 117222970 745475208
            -1753420138 425194999 1119548394 -993526093</internalNodes>
          <leafValues>
            -3.7193667888641357e-01 5.0379687547683716e-01</leafValues></_>
        <_>
          <internalNodes>
            0 -1 55 -50204602 1636831454 303862975 1943863369 1669612242
            -1543437162 637549183 1074070027</internalNodes>
          <leafValues>
            -5.2940535545349121e-01 3.6303779482841492e-01</leafValues></_>
        <_>
          <internalNodes>
            0 -1 188 -573054005 311792130 -1878584598 -2135854454
            -645563992 -129998445 -332029697 1619901263</internalNodes>
          <leafValues>
            -4.8177510499954224e-01 4.3816435337066650e-01</leafValues></_>
        <_>
          <internalNodes>
            0 -1 148 -767368639 1427507297 -783234757 891407436
            -1052189112 -1323950974 1917118635 491238027</internalNodes>
          <leafValues>
            -4.7815746068954468e-01 4.8338118195533752e-01</leafValues></_>
        <_>
          <internalNodes>
            0 -1 133 2079901938 -112682018 -140257297 88524263
            -1295990085 -1159852306 -60699377 260936203</internalNodes>
          <leafValues>
            -4.3355622887611389e-01 5.1599138975143433e-01</leafValues></_>
        <_>
          <internalNodes>
            0 -1 115 -710870909 -144985994 -1192236737 1599953629
            -1213158226 -669619166 1181522139 2012021326</internalNodes>
          <leafValues>
            -3.5976135730743408e-01 6.0355919599533081e-01</leafValues></_>
        <_>
          <internalNodes>
            0 -1 52 -75302984 1905642512 419431539 189288513 -100267904
            -629125115 50459591 1227316127</internalNodes>
          <leafValues>
            -5.6867480278015137e-01 4.4419237971305847e-01</leafValues></_>
        <_>
          <internalNodes>
            0 -1 74 2017564850 -1664151340 -801049293 277209639
            1084754141 572167105 1229611145 1345147343</internalNodes>
          <leafValues>
            -7.0671147108078003e-01 3.9062538743019104e-01</leafValues></_></weakClassifiers></_>
    <!-- stage 11 -->
    <_>
      <maxWeakCount>10</maxWeakCount>
      <stageThreshold>-9.0559136867523193e-01</stageThreshold>
      <weakClassifiers>
        <_>
          <internalNodes>
            0 -1 198 -718274352 1970905233 234784642 1062030464
            1364725400 195234262 702165851 151661103</internalNodes>
          <leafValues>
            -3.6480686068534851e-01 5.0264549255371094e-01</leafValues></_>
        <_>
          <internalNodes>
            0 -1 40 -9047685 -4727876 -38071486 1776888275 -445533440
            2132755558 -749533429 -705440261</internalNodes>
          <leafValues>
            -2.9564759135246277e-01 5.9861087799072266e-01</leafValues></_>
        <_>
          <internalNodes>
            0 -1 154 422959856 1887603893 -1679070231 488325943
            -50416512 -1191553557 -243331174 235642637</internalNodes>
          <leafValues>
            -3.7659412622451782e-01 4.8597013950347900e-01</leafValues></_>
        <_>
          <internalNodes>
            0 -1 143 889312504 -108703354 486584828 -678870579 322118552
            950034987 -788153825 103874734</internalNodes>
          <leafValues>
            -5.7292997837066650e-01 3.5801112651824951e-01</leafValues></_>
        <_>
          <internalNodes>
            0 -1 150 -1525602496 -732952047 1409356105 29692985
            -1599292756 -1424391040 -1358427493 170602444</internalNodes>
          <leafValues>
            -4.7613248229026794e-01 4.5640864968299866e-01</leafValues></_>
        <_>
          <internalNodes>
            0 -1 157 -452670242 1288257796 -1503657824 25532239
            1399235402 503520519 -263233388 -1062475955</internalNodes>
          <leafValues>
            -5.3746378421783447e-01 4.2396637797355652e-01</leafValues></_>
        <_>
          <internalNodes>
            0 -1 130 -843062366 419535110 39976984 642028160 -267182008
            813703443 831103224 1387756422</internalNodes>
          <leafValues>
            -5.5674588680267334e-01 4.1489651799201965e-01</leafValues></_>
        <_>
          <internalNodes>
            0 -1 179 -997801788 -183186346 16969748 1169775956 36608074
            -1593439967 1209008585 252127258</internalNodes>
          <leafValues>
            -5.5496823787689209e-01 4.1776758432388306e-01</leafValues></_>
        <_>
          <internalNodes>
            0 -1 96 -1665648872 -1326416301 1815075755 358420131
            -1251388425 -1712392658 796753771 694879304</internalNodes>
          <leafValues>
            -4.6673369407653809e-01 4.9258285760879517e-01</leafValues></_>
        <_>
          <internalNodes>
            0 -1 97 -2099789793 -729658198 1591327430 147155044
            -848777501 -89129045 -424165389 -810631189</internalNodes>
          <leafValues>
            -3.5436278581619263e-01 6.7776614427566528e-01</leafValues></_></weakClassifiers></_>
    <!-- stage 12 -->
    <_>
      <maxWeakCount>10</maxWeakCount>
      <stageThreshold>-9.7621804475784302e-01</stageThreshold>
      <weakClassifiers>
        <_>
          <internalNodes>
            0 -1 104 -181349248 -615016416 186916976 1342902234
            -1862233862 676765232 1285614287 252909427</internalNodes>
          <leafValues>
            -3.3898305892944336e-01 4.9645391106605530e-01</leafValues></_>
        <_>
          <internalNodes>
            0 -1 22 -52430101 1556069843 -429490687 828270549
            -1646235392 -2057875891 -187177714 -721420429</internalNodes>
          <leafValues>
            -2.9374590516090393e-01 5.7515007257461548e-01</leafValues></_>
        <_>
          <internalNodes>
            0 -1 114 -686794200 2034303104 604209793 -246984690
            1930986142 271237249 100698314 185016986</internalNodes>
          <leafValues>
            -4.9397754669189453e-01 3.7433907389640808e-01</leafValues></_>
        <_>
          <internalNodes>
            0 -1 226 -752112653 1443738130 1421788686 410511311
            -783443512 1412697582 -467728853 -1000689478</internalNodes>
          <leafValues>
            -3.3823418617248535e-01 5.5282539129257202e-01</leafValues></_>
        <_>
          <internalNodes>
            0 -1 186 -619066556 1369105976 -428770574 -1749613834
            277711066 1914232025 -1772942628 -210635797</internalNodes>
          <leafValues>
            -3.9986225962638855e-01 5.1669412851333618e-01</leafValues></_>
        <_>
          <internalNodes>
            0 -1 175 -1839607656 -775356208 201607871 -113016448
            -1707038536 -1493069621 295994266 1867651466</internalNodes>
          <leafValues>
            -4.9203413724899292e-01 4.4843223690986633e-01</leafValues></_>
        <_>
          <internalNodes>
            0 -1 3 -2103089137 537986571 1624416262 -761493489
            -1055586052 1135624648 1838043659 1954677697</internalNodes>
          <leafValues>
            -6.4293557405471802e-01 3.5452958941459656e-01</leafValues></_>
        <_>
          <internalNodes>
            0 -1 238 -1566552619 -942653108 -2146369498 17630627
            -1677651828 1789079680 403393035 17794651</internalNodes>
          <leafValues>
            -5.6053221225738525e-01 4.1106885671615601e-01</leafValues></_>
        <_>
          <internalNodes>
            0 -1 225 -713435669 1505246776 1739990867 1607295071
            1039586545 -542383693 1731650187 1266396286</internalNodes>
          <leafValues>
            -4.0468186140060425e-01 5.9122812747955322e-01</leafValues></_>
        <_>
          <internalNodes>
            0 -1 147 350503122 282118288 335560091 1904804277
            -1174363653 1890652396 302088387 772747022</internalNodes>
          <leafValues>
            -6.0699290037155151e-01 4.1611909866333008e-01</leafValues></_></weakClassifiers></_>
    <!-- stage 13 -->
    <_>
      <maxWeakCount>9</maxWeakCount>
      <stageThreshold>-7.1414470672607422e-01</stageThreshold>
      <weakClassifiers>
        <_>
          <internalNodes>
            0 -1 214 -435894224 298505376 -1742765477 1399521386
            -981465204 120850185 489329011 -1952767837</internalNodes>
          <leafValues>
            -2.1929824352264404e-01 6.0043668746948242e-01</leafValues></_>
        <_>
          <internalNodes>
            0 -1 253 -590614518 -575962476 1327143428 1360822822
            1018339496 25677328 1447072266 -1549011253</internalNodes>
          <leafValues>
            -3.2229375839233398e-01 5.6768608093261719e-01</leafValues></_>
        <_>
          <internalNodes>
            0 -1 95 -571351468 -586030767 -1537693658 -804432757
            -936991616 9579620 -2141738425 -206834369</internalNodes>
          <leafValues>
            -3.3392083644866943e-01 5.7120621204376221e-01</leafValues></_>
        <_>
          <internalNodes>
            0 -1 51 -148833584 2100996358 1816815842 1515054246
            -853355294 1128756938 1579633795 -35931106</internalNodes>
          <leafValues>
            -4.3343299627304077e-01 5.0971513986587524e-01</leafValues></_>
        <_>
          <internalNodes>
            0 -1 117 -71243576 -407010268 -1858824041 1497657189
            -677080424 -821643262 719357252 -475325765</internalNodes>
          <leafValues>
            -3.7337779998779297e-01 5.7083481550216675e-01</leafValues></_>
        <_>
          <internalNodes>
            0 -1 43 -201407093 1459448556 1731079042 -618985728
            -573929046 843010567 403957115 -45368613</internalNodes>
          <leafValues>
            -3.3842271566390991e-01 6.5241551399230957e-01</leafValues></_>
        <_>
          <internalNodes>
            0 -1 56 -1986034650 476055809 67817752 1112179859 1350798211
            -1992703934 277186952 1629721422</internalNodes>
          <leafValues>
            -5.4072356224060059e-01 4.3526408076286316e-01</leafValues></_>
        <_>
          <internalNodes>
            0 -1 185 -628583718 -243284296 1512186777 1431767539
            -678707702 1486634378 966135531 -920681537</internalNodes>
          <leafValues>
            -4.2042234539985657e-01 5.8469545841217041e-01</leafValues></_>
        <_>
          <internalNodes>
            0 -1 239 -627704170 284612328 -353801366 1907967653
            2029893578 48266167 -1510070567 -1611441333</internalNodes>
          <leafValues>
            -3.8511532545089722e-01 6.0959714651107788e-01</leafValues></_></weakClassifiers></_>
    <!-- stage 14 -->
    <_>
      <maxWeakCount>9</maxWeakCount>
      <stageThreshold>-8.9831906557083130e-01</stageThreshold>
      <weakClassifiers>
        <_>
          <internalNodes>
            0 -1 27 1892977378 1946445952 646981141 1200638216 101175616
            1090548232 1323907290 68531104</internalNodes>
          <leafValues>
            -5.5944055318832397e-01 4.2617961764335632e-01</leafValues></_>
        <_>
          <internalNodes>
            0 -1 9 -123474962 -1628903703 1165455424 654366697
            -1173301904 125128268 1475797079 -370293009</internalNodes>
          <leafValues>
            -3.7247809767723083e-01 4.4446954131126404e-01</leafValues></_>
        <_>
          <internalNodes>
            0 -1 219 1914292929 1414289548 1073706551 1098614887
            -982993160 -619040582 314099883 -671401957</internalNodes>
          <leafValues>
            -2.7661395072937012e-01 5.9442359209060669e-01</leafValues></_>
        <_>
          <internalNodes>
            0 -1 224 -1235750809 -1436685824 -287518038 -968135341
            293139660 -590490287 399504546 -437060385</internalNodes>
          <leafValues>
            -3.6112317442893982e-01 4.9958077073097229e-01</leafValues></_>
        <_>
          <internalNodes>
            0 -1 137 -1305177122 -612451144 1146916671 -1789457201
            -932738861 -934755101 -1624146385 -1688530055</internalNodes>
          <leafValues>
            -3.7461727857589722e-01 5.3299939632415771e-01</leafValues></_>
        <_>
          <internalNodes>
            0 -1 142 -209288022 675545345 1090671168 -989326300
            1006817442 -1671315807 1127785435 1582216350</internalNodes>
          <leafValues>
            -5.2527761459350586e-01 3.9599937200546265e-01</leafValues></_>
        <_>
          <internalNodes>
            0 -1 247 -1278488423 -283268117 1824246600 1097576367
            -1123290520 -20108941 642172575 -622854501</internalNodes>
          <leafValues>
            -3.1772401928901672e-01 6.7134487628936768e-01</leafValues></_>
        <_>
          <internalNodes>
            0 -1 81 -1120763240 -1657634559 -994011665 453476875
            -1526681382 -1138565108 570428087 407371785</internalNodes>
          <leafValues>
            -5.1195973157882690e-01 4.3909227848052979e-01</leafValues></_>
        <_>
          <internalNodes>
            0 -1 191 -25849869 1491983726 -1761624594 -542413149
            -713758102 -499778695 2139058037 -923799637</internalNodes>
          <leafValues>
            -3.6335903406143188e-01 6.1643594503402710e-01</leafValues></_></weakClassifiers></_>
    <!-- stage 15 -->
    <_>
      <maxWeakCount>9</maxWeakCount>
      <stageThreshold>-9.9884778261184692e-01</stageThreshold>
      <weakClassifiers>
        <_>
          <internalNodes>
            0 -1 141 -732167912 1373705568 -282518224 1564816982
            512005553 1417496500 84279578 460948271</internalNodes>
          <leafValues>
            -3.2499998807907104e-01 4.9642857909202576e-01</leafValues></_>
        <_>
          <internalNodes>
            0 -1 54 -42993145 -96436816 2113818367 -707939034
            -2015299681 1177326346 -272900209 -405801141</internalNodes>
          <leafValues>
            -2.5037190318107605e-01 6.0267442464828491e-01</leafValues></_>
        <_>
          <internalNodes>
            0 -1 181 1075430867 1497681158 505658094 -1670466521
            -1049276946 753095066 -1674664705 -330973537</internalNodes>
          <leafValues>
            -3.4031182527542114e-01 4.9563321471214294e-01</leafValues></_>
        <_>
          <internalNodes>
            0 -1 210 -126450598 -781155335 1744831609 -509304549
            -2019770130 1308896280 -624899448 1716351738</internalNodes>
          <leafValues>
            -4.9064540863037109e-01 3.7834748625755310e-01</leafValues></_>
        <_>
          <internalNodes>
            0 -1 197 2106587135 -525636137 -33593149 -607260919
            -67195510 -693728721 -690535188 -1773021241</internalNodes>
          <leafValues>
            -2.6090627908706665e-01 7.0626473426818848e-01</leafValues></_>
        <_>
          <internalNodes>
            0 -1 215 -1514617705 59867302 -1896167401 -1351545263
            1394060028 -293699702 -1096008818 1608239322</internalNodes>
          <leafValues>
            -4.3890830874443054e-01 4.8606562614440918e-01</leafValues></_>
        <_>
          <internalNodes>
            0 -1 69 610083044 1615263120 289768739 -121140216 1443604382
            872653955 1552392868 356529262</internalNodes>
          <leafValues>
            -5.8987855911254883e-01 3.4972056746482849e-01</leafValues></_>
        <_>
          <internalNodes>
            0 -1 185 -47642419 -1728642765 1347422364 349448208
            -1061152071 948052153 683936155 137972258</internalNodes>
          <leafValues>
            -4.9764287471771240e-01 4.1899380087852478e-01</leafValues></_>
        <_>
          <internalNodes>
            0 -1 147 1491900816 235968944 -2021635781 424096964 30806419
            -1875852100 187173352 789456131</internalNodes>
          <leafValues>
            -6.0600066184997559e-01 3.3024427294731140e-01</leafValues></_></weakClassifiers></_>
    <!-- stage 16 -->
    <_>
      <maxWeakCount>12</maxWeakCount>
      <stageThreshold>-9.5784252882003784e-01</stageThreshold>
      <weakClassifiers>
        <_>
          <internalNodes>
            0 -1 145 -1126432624 1928801474 1048342360 1610284148
            -1310031718 686433188 -1760334421 -79780656</internalNodes>
          <leafValues>
            -1.3910761475563049e-01 6.0381859540939331e-01</leafValues></_>
        <_>
          <internalNodes>
            0 -1 192 -147277688 -256645392 582546544 1433501976
            -2028416168 -1968462663 -645213280 -610858838</internalNodes>
          <leafValues>
            -3.5800209641456604e-01 4.5031976699829102e-01</leafValues></_>
        <_>
          <internalNodes>
            0 -1 38 -2016293633 1548552194 304722153 -1821306309
            60022015 269488641 889193627 1143326254</internalNodes>
          <leafValues>
            -4.9843311309814453e-01 3.7438765168190002e-01</leafValues></_>
        <_>
          <internalNodes>
            0 -1 65 -425149998 -1034919646 -493869102 -500329617
            -271326606 -1440815742 -954801697 -202987841</internalNodes>
          <leafValues>
            -3.3374434709548950e-01 5.3408819437026978e-01</leafValues></_>
        <_>
          <internalNodes>
            0 -1 168 -282339463 1186921060 -1088504597 2074446011
            -1686962216 -1885804552 334544476 -341900142</internalNodes>
          <leafValues>
            -3.2051107287406921e-01 6.1588609218597412e-01</leafValues></_>
        <_>
          <internalNodes>
            0 -1 119 1573619507 -1612055400 -92684586 -1612726292
            -880830403 -1162470786 -1169425168 -1200291678</internalNodes>
          <leafValues>
            -3.3910986781120300e-01 5.7026481628417969e-01</leafValues></_>
        <_>
          <internalNodes>
            0 -1 84 -307631639 1976362274 585427592 46267054 215969695
            1545469513 1358953102 -593559603</internalNodes>
          <leafValues>
            -4.1608536243438721e-01 4.9344187974929810e-01</leafValues></_>
        <_>
          <internalNodes>
            0 -1 234 2029239264 -780360076 -100480 -1176650758
            1407476614 725434188 -1552627042 -70915906</internalNodes>
          <leafValues>
            -3.8946878910064697e-01 5.3823977708816528e-01</leafValues></_>
        <_>
          <internalNodes>
            0 -1 176 -1295204152 -686765512 51381167 -1726579039
            -2022874205 -1374460443 595494447 -807433170</internalNodes>
          <leafValues>
            -3.3733800053596497e-01 6.0671585798263550e-01</leafValues></_>
        <_>
          <internalNodes>
            0 -1 129 -45492775 1457941128 984124073 -753080662
            -1128532056 1748973191 -1186688521 -555809395</internalNodes>
          <leafValues>
            -3.0125871300697327e-01 7.1602320671081543e-01</leafValues></_>
        <_>
          <internalNodes>
            0 -1 82 -555915370 2062914977 -23667921 868176447 778859872
            536065837 -445292922 -941459234</internalNodes>
          <leafValues>
            -4.1235128045082092e-01 5.2755802869796753e-01</leafValues></_>
        <_>
          <internalNodes>
            0 -1 47 -515730989 2080780620 -1824036321 -745254509
            252361825 411058211 -1472163606 657888879</internalNodes>
          <leafValues>
            -4.8055499792098999e-01 4.7282019257545471e-01</leafValues></_></weakClassifiers></_>
    <!-- stage 17 -->
    <_>
      <maxWeakCount>10</maxWeakCount>
      <stageThreshold>-6.6337406635284424e-01</stageThreshold>
      <weakClassifiers>
        <_>
          <internalNodes>
            0 -1 228 -294776686 136965686 1590885672 1215989314
            -2044211062 1660255624 -729579297 1368667726</internalNodes>
          <leafValues>
            -3.0737704038619995e-01 4.9460431933403015e-01</leafValues></_>
        <_>
          <internalNodes>
            0 -1 53 -174328441 2062781715 650297372 1969029876
            -1623238005 1099040452 1563701774 -144704369</internalNodes>
          <leafValues>
            -2.3503032326698303e-01 6.4127260446548462e-01</leafValues></_>
        <_>
          <internalNodes>
            0 -1 131 -688337700 -250298142 218461217 1431041188
            -1154250818 -1188460192 1125145503 -1692685890</internalNodes>
          <leafValues>
            -3.2570022344589233e-01 5.0629138946533203e-01</leafValues></_>
        <_>
          <internalNodes>
            0 -1 10 -125960705 -1358500181 307624700 -1041801489
            -1198664187 1946749038 985487341 -410323781</internalNodes>
          <leafValues>
            -3.2105278968811035e-01 5.8996737003326416e-01</leafValues></_>
        <_>
          <internalNodes>
            0 -1 139 -39071058 -944904229 270654583 1695673599
            1433898578 1732639164 -830701 -1184907505</internalNodes>
          <leafValues>
            -3.2347193360328674e-01 5.6095308065414429e-01</leafValues></_>
        <_>
          <internalNodes>
            0 -1 212 710232554 -1700421360 1569190784 -1061695157
            487837059 -2041380496 -466958838 150677211</internalNodes>
          <leafValues>
            -5.4420572519302368e-01 3.6442038416862488e-01</leafValues></_>
        <_>
          <internalNodes>
            0 -1 112 -942739206 1250092897 1141447480 -1717321586
            1614029859 -784211783 857244986 2032741980</internalNodes>
          <leafValues>
            -4.9605363607406616e-01 3.9293387532234192e-01</leafValues></_>
        <_>
          <internalNodes>
            0 -1 233 1306481962 1451933721 -2147479038 361009200
            -200064492 -364896117 289718254 1330272035</internalNodes>
          <leafValues>
            -5.3190016746520996e-01 3.6248457431793213e-01</leafValues></_>
        <_>
          <internalNodes>
            0 -1 72 -1873444538 1947836722 -735969142 1123025411
            -2070901607 -938475129 -2071215655 1373700159</internalNodes>
          <leafValues>
            -5.6015241146087646e-01 3.6196896433830261e-01</leafValues></_>
        <_>
          <internalNodes>
            0 -1 229 -213437897 1795110076 128718436 -697829401
            1219133480 1516904104 1018489162 1902240490</internalNodes>
          <leafValues>
            -4.2581534385681152e-01 4.9229782819747925e-01</leafValues></_></weakClassifiers></_>
    <!-- stage 18 -->
    <_>
      <maxWeakCount>11</maxWeakCount>
      <stageThreshold>-6.0379493236541748e-01</stageThreshold>
      <weakClassifiers>
        <_>
          <internalNodes>
            0 -1 67 -970931056 2038409814 2134135549 2006902766
            -1573862472 -1388358140 17918109 224080370</internalNodes>
          <leafValues>
            -2.0198675990104675e-01 5.2409636974334717e-01</leafValues></_>
        <_>
          <internalNodes>
            0 -1 61 -436798332 1846781875 -1647145671 -1822232609
            -495758590 -4379372 311448895 -1001926023</internalNodes>
          <leafValues>
            -3.3729881048202515e-01 4.3270584940910339e-01</leafValues></_>
        <_>
          <internalNodes>
            0 -1 75 -582957838 -20806528 286310402 1998587921 1577333962
            -2106945462 139182749 376394012</internalNodes>
          <leafValues>
            -4.8248904943466187e-01 3.2214465737342834e-01</leafValues></_>
        <_>
          <internalNodes>
            0 -1 108 -484563442 1414885277 -996146812 -1339798741
            -1314886994 -1537970568 1916961515 1946053752</internalNodes>
          <leafValues>
            -4.2104670405387878e-01 3.9438009262084961e-01</leafValues></_>
        <_>
          <internalNodes>
            0 -1 227 1593965213 -1004917214 1226380302 -1914710647
            738898070 -1121910646 -852946214 255402766</internalNodes>
          <leafValues>
            -4.4818714261054993e-01 4.0591388940811157e-01</leafValues></_>
        <_>
          <internalNodes>
            0 -1 90 -152842677 -1221373071 -143773227 -219347859
            2110961317 -19565928 310224079 1155263311</internalNodes>
          <leafValues>
            -3.4200423955917358e-01 5.4439532756805420e-01</leafValues></_>
        <_>
          <internalNodes>
            0 -1 93 -918777579 -575808517 1495263232 1671675959
            623407240 1743506652 902045153 -1688662782</internalNodes>
          <leafValues>
            -3.8645747303962708e-01 5.0948929786682129e-01</leafValues></_>
        <_>
          <internalNodes>
            0 -1 115 -794571775 -136331198 -328827035 -540254795
            -1179863822 1592192313 -949708145 -1857042776</internalNodes>
          <leafValues>
            -3.2378533482551575e-01 6.0907769203186035e-01</leafValues></_>
        <_>
          <internalNodes>
            0 -1 196 -40648702 563627122 553701390 56877130 293556
            1025507521 1092714650 1325888555</internalNodes>
          <leafValues>
            -5.2266716957092285e-01 4.2413622140884399e-01</leafValues></_>
        <_>
          <internalNodes>
            0 -1 78 -628960120 1417767941 -1878632392 1311813664
            -2147319090 1781178370 -1068497908 2002222498</internalNodes>
          <leafValues>
            -5.7867413759231567e-01 3.6752068996429443e-01</leafValues></_>
        <_>
          <internalNodes>
            0 -1 125 -646482054 1357130118 -1054464934 596445715
            1092186527 1445004520 -2122112342 1480469898</internalNodes>
          <leafValues>
            -5.2944743633270264e-01 3.9534404873847961e-01</leafValues></_></weakClassifiers></_>
    <!-- stage 19 -->
    <_>
      <maxWeakCount>10</maxWeakCount>
      <stageThreshold>-7.2168147563934326e-01</stageThreshold>
      <weakClassifiers>
        <_>
          <internalNodes>
            0 -1 221 69215746 149574 -1826568698 14718250 695414115
            1655135266 713578821 4638314</internalNodes>
          <leafValues>
            -5.5862069129943848e-01 4.2900761961936951e-01</leafValues></_>
        <_>
          <internalNodes>
            0 -1 235 1792773087 -1033633974 544153180 -670838358
            -1494250090 -648016487 2094750277 -120651785</internalNodes>
          <leafValues>
            -2.6588532328605652e-01 6.4082139730453491e-01</leafValues></_>
        <_>
          <internalNodes>
            0 -1 16 -450494897 1987141942 -295244283 1617082239
            2004444245 1596488505 -165303711 -666567638</internalNodes>
          <leafValues>
            -3.4171262383460999e-01 4.7750943899154663e-01</leafValues></_>
        <_>
          <internalNodes>
            0 -1 7 1087950030 1158349123 -2092420304 -330645427
            558994501 728850507 1448444622 -303064862</internalNodes>
          <leafValues>
            -4.3400061130523682e-01 4.3680626153945923e-01</leafValues></_>
        <_>
          <internalNodes>
            0 -1 62 -2093393398 1288572428 -1559641974 289767723
            1115867935 1083050752 218645000 630091791</internalNodes>
          <leafValues>
            -6.4127570390701294e-01 3.4839880466461182e-01</leafValues></_>
        <_>
          <internalNodes>
            0 -1 50 -731811219 -1177329705 -1191707983 -681723055
            5434847 -714781343 -565263407 -344486282</internalNodes>
          <leafValues>
            -3.3738932013511658e-01 6.3174420595169067e-01</leafValues></_>
        <_>
          <internalNodes>
            0 -1 190 1471184349 1258945272 1689691168 1213132206
            1853320910 1751280682 -436924522 -1787627921</internalNodes>
          <leafValues>
            -3.6780712008476257e-01 5.4033017158508301e-01</leafValues></_>
        <_>
          <internalNodes>
            0 -1 100 1111616147 -1180634192 -2023583939 -168319392
            2012662834 -748001451 1532101784 1905758171</internalNodes>
          <leafValues>
            -4.1941264271736145e-01 4.9688041210174561e-01</leafValues></_>
        <_>
          <internalNodes>
            0 -1 178 2131252299 269552213 1157705746 604096847
            -2002202267 -911449037 6478850 1253079973</internalNodes>
          <leafValues>
            -4.9501213431358337e-01 4.3434894084930420e-01</leafValues></_>
        <_>
          <internalNodes>
            0 -1 250 -1460676412 -2038378833 -860396092 1638312501
            1731721601 1422479178 -1128823008 -1468567693</internalNodes>
          <leafValues>
            -4.4635987281799316e-01 4.9456739425659180e-01</leafValues></_></weakClassifiers></_>
    <!-- stage 20 -->
    <_>
      <maxWeakCount>11</maxWeakCount>
      <stageThreshold>-8.2677811384201050e-01</stageThreshold>
      <weakClassifiers>
        <_>
          <internalNodes>
            0 -1 4 -257150275 -1314744150 1623070388 -118261833
            1199440701 69229096 402346799 812590124</internalNodes>
          <leafValues>
            -2.8000000119209290e-01 4.9090909957885742e-01</leafValues></_>
        <_>
          <internalNodes>
            0 -1 170 2145942612 -111180103 828247949 305463419 705601676
            1601076369 861469929 -885933509</internalNodes>
          <leafValues>
            -3.7240874767303467e-01 4.1799855232238770e-01</leafValues></_>
        <_>
          <internalNodes>
            0 -1 87 -349581920 1734967298 -762165735 -510047815
            2091388379 867048811 1505106105 1272314004</internalNodes>
          <leafValues>
            -4.5900329947471619e-01 3.5095694661140442e-01</leafValues></_>
        <_>
          <internalNodes>
            0 -1 232 -84559619 -805153557 -284283636 422167489 342640436
            -358756503 1003801583 -904996941</internalNodes>
          <leafValues>
            -2.9582631587982178e-01 5.6247252225875854e-01</leafValues></_>
        <_>
          <internalNodes>
            0 -1 2 -1056212067 -108337868 1886121209 -891297579
            -1823025934 -229180547 -437276228 -537939329</internalNodes>
          <leafValues>
            -2.5244367122650146e-01 7.1010202169418335e-01</leafValues></_>
        <_>
          <internalNodes>
            0 -1 171 -810311589 -739515202 -1770447812 1032171246
            450218674 -1748525454 -690666347 -36205794</internalNodes>
          <leafValues>
            -2.7081894874572754e-01 6.5265566110610962e-01</leafValues></_>
        <_>
          <internalNodes>
            0 -1 46 -233383644 -1094547258 1127351540 814485895
            -1727565694 558110822 740827242 755753100</internalNodes>
          <leafValues>
            -5.6199359893798828e-01 3.4338760375976563e-01</leafValues></_>
        <_>
          <internalNodes>
            0 -1 143 -1037908752 2114150466 -1748897377 1413546993
            303333762 2115510315 -478049649 185929863</internalNodes>
          <leafValues>
            -5.8588856458663940e-01 3.2996138930320740e-01</leafValues></_>
        <_>
          <internalNodes>
            0 -1 13 -309133933 372699048 -832966914 1168637887
            -793289382 208492070 -2088775773 -372553738</internalNodes>
          <leafValues>
            -3.8918209075927734e-01 5.2206295728683472e-01</leafValues></_>
        <_>
          <internalNodes>
            0 -1 99 -1481402799 1087886820 -1818296514 1426800047
            1308562711 -1673527321 1593655151 -681067777</internalNodes>
          <leafValues>
            -3.3775278925895691e-01 5.9430980682373047e-01</leafValues></_>
        <_>
          <internalNodes>
            0 -1 162 -152190728 -532283806 -151978019 -375644941
            634955642 144567802 830143935 -360510599</internalNodes>
          <leafValues>
            -4.2356052994728088e-01 4.8869413137435913e-01</leafValues></_></weakClassifiers></_>
    <!-- stage 21 -->
    <_>
      <maxWeakCount>10</maxWeakCount>
      <stageThreshold>-7.3508262634277344e-01</stageThreshold>
      <weakClassifiers>
        <_>
          <internalNodes>
            0 -1 164 -1475489636 -501015040 -1825008495 1261597500
            -371525506 -1978766608 1662463346 918386668</internalNodes>
          <leafValues>
            -2.6254826784133911e-01 4.9537894129753113e-01</leafValues></_>
        <_>
          <internalNodes>
            0 -1 53 -157559349 -25981323 1955840415 1373610929
            -820126726 84018884 971207503 -730598393</internalNodes>
          <leafValues>
            -2.4139726161956787e-01 6.1887258291244507e-01</leafValues></_>
        <_>
          <internalNodes>
            0 -1 252 1505206619 1498016427 -321966429 -491846847
            -630328782 1904008700 144367179 -1047997995</internalNodes>
          <leafValues>
            -2.5768780708312988e-01 5.8108574151992798e-01</leafValues></_>
        <_>
          <internalNodes>
            0 -1 60 -1285592477 285862493 -1880338763 -1673803143
            1679533072 -1639499940 -736102329 -360587821</internalNodes>
          <leafValues>
            -3.7529078125953674e-01 4.7898215055465698e-01</leafValues></_>
        <_>
          <internalNodes>
            0 -1 1 -230361630 -2142319934 134234978 1394172427
            1073979642 -448264063 406088609 1364685313</internalNodes>
          <leafValues>
            -5.3793025016784668e-01 3.4794867038726807e-01</leafValues></_>
        <_>
          <internalNodes>
            0 -1 120 907400263 1439514104 1973137388 -100321370
            1823461052 -1932829145 1425771854 1506344871</internalNodes>
          <leafValues>
            -3.9565253257751465e-01 4.6590626239776611e-01</leafValues></_>
        <_>
          <internalNodes>
            0 -1 35 1140959410 -1795030924 4277532 1191328336 774029844
            503514208 1134076092 978859</internalNodes>
          <leafValues>
            -6.0444712638854980e-01 3.1197339296340942e-01</leafValues></_>
        <_>
          <internalNodes>
            0 -1 246 1639622163 1885581102 -279056734 -98013233
            -1854955249 -326216341 -407454862 -1166082089</internalNodes>
          <leafValues>
            -3.4795573353767395e-01 5.8200305700302124e-01</leafValues></_>
        <_>
          <internalNodes>
            0 -1 0 -1506544409 1009240932 -285442170 -1394718741
            -539083006 611810928 -767625946 -590653884</internalNodes>
          <leafValues>
            -4.1081580519676208e-01 5.4226744174957275e-01</leafValues></_>
        <_>
          <internalNodes>
            0 -1 146 -459635712 -1313422394 -1043493203 26459072
            1620738958 1344922244 1090687370 740294835</internalNodes>
          <leafValues>
            -6.9153648614883423e-01 3.0759325623512268e-01</leafValues></_></weakClassifiers></_>
    <!-- stage 22 -->
    <_>
      <maxWeakCount>12</maxWeakCount>
      <stageThreshold>-5.8347779512405396e-01</stageThreshold>
      <weakClassifiers>
        <_>
          <internalNodes>
            0 -1 48 92424345 -613260511 -813696013 1382044659
            -2073693880 -101249673 1441065192 1998791650</internalNodes>
          <leafValues>
            -2.3208190500736237e-01 5.2859961986541748e-01</leafValues></_>
        <_>
          <internalNodes>
            0 -1 205 1113846547 -1471077634 2097015036 369150369
            -496009380 -370262787 1862121128 -130154545</internalNodes>
          <leafValues>
            -2.5872272253036499e-01 5.3350543975830078e-01</leafValues></_>
        <_>
          <internalNodes>
            0 -1 113 -540811521 -1878004268 -235061318 -421274372
            1455218282 97435138 -934053013 -1460939803</internalNodes>
          <leafValues>
            -2.6139619946479797e-01 5.6969195604324341e-01</leafValues></_>
        <_>
          <internalNodes>
            0 -1 242 1371106848 -790696385 -210564341 1372569151
            179344765 -1452807531 -671624369 -1510067235</internalNodes>
          <leafValues>
            -3.7904354929924011e-01 4.4940623641014099e-01</leafValues></_>
        <_>
          <internalNodes>
            0 -1 122 1783967871 -674789198 -1069416428 -293547488
            -1458604408 -930586590 -57779934 1823455152</internalNodes>
          <leafValues>
            -4.1247233748435974e-01 4.4029480218887329e-01</leafValues></_>
        <_>
          <internalNodes>
            0 -1 204 -1807406028 1812419477 -2095039404 160605537
            -481655368 -1904012157 612436398 1779974973</internalNodes>
          <leafValues>
            -5.0545376539230347e-01 3.7444946169853210e-01</leafValues></_>
        <_>
          <internalNodes>
            0 -1 135 -1036720080 370967235 547623948 -1053556544
            -390504044 1489020345 1623200701 1741359956</internalNodes>
          <leafValues>
            -5.8614790439605713e-01 3.2513326406478882e-01</leafValues></_>
        <_>
          <internalNodes>
            0 -1 192 -562233997 -541789128 803861233 -181428206
            -1622635975 -1092506371 -1727839928 -1986581574</internalNodes>
          <leafValues>
            -3.4799587726593018e-01 5.7389783859252930e-01</leafValues></_>
        <_>
          <internalNodes>
            0 -1 15 -209815718 -810041670 1322650331 129322017 929375690
            -1468991698 1524500310 -901780236</internalNodes>
          <leafValues>
            -4.1389346122741699e-01 5.2778589725494385e-01</leafValues></_>
        <_>
          <internalNodes>
            0 -1 18 -390660244 -1936637009 1073741976 47876121 167850774
            -1868884573 734602227 874668976</internalNodes>
          <leafValues>
            -6.0798299312591553e-01 3.6140292882919312e-01</leafValues></_>
        <_>
          <internalNodes>
            0 -1 25 84278215 1225020565 8458658 1562644633 553648466
            -796258830 -980350180 -253361813</internalNodes>
          <leafValues>
            -4.5798227190971375e-01 4.9455857276916504e-01</leafValues></_>
        <_>
          <internalNodes>
            0 -1 180 -581460921 1740190922 264093438 -740462386
            301822492 -329048135 -1098945815 -1609575105</internalNodes>
          <leafValues>
            -3.6400017142295837e-01 6.1965757608413696e-01</leafValues></_></weakClassifiers></_>
    <!-- stage 23 -->
    <_>
      <maxWeakCount>12</maxWeakCount>
      <stageThreshold>-8.7556916475296021e-01</stageThreshold>
      <weakClassifiers>
        <_>
          <internalNodes>
            0 -1 19 1783290118 48260102 335210408 -772114897 74594198
            950234675 1463260415 1861317970</internalNodes>
          <leafValues>
            -2.5800377130508423e-01 5.0233864784240723e-01</leafValues></_>
        <_>
          <internalNodes>
            0 -1 222 -747580993 1499015236 2011799115 1127582581
            -6542614 -350972042 -903684769 455325977</internalNodes>
          <leafValues>
            -3.0964127182960510e-01 4.6572762727737427e-01</leafValues></_>
        <_>
          <internalNodes>
            0 -1 116 1896143640 -416201271 1149366783 1903674181
            -717203969 2125276946 2076221387 -1089495816</internalNodes>
          <leafValues>
            -2.8445637226104736e-01 5.5364793539047241e-01</leafValues></_>
        <_>
          <internalNodes>
            0 -1 82 -619137466 1393494048 143775558 -1022090741
            271106082 -290234311 -2121182476 2114207052</internalNodes>
          <leafValues>
            -5.3161478042602539e-01 3.1375440955162048e-01</leafValues></_>
        <_>
          <internalNodes>
            0 -1 207 -616331013 -644017903 1438543867 -1050070407
            -1314786613 -1732309528 -1572840981 -745579525</internalNodes>
          <leafValues>
            -2.4316215515136719e-01 7.6178598403930664e-01</leafValues></_>
        <_>
          <internalNodes>
            0 -1 251 912516189 468438674 -403087404 -577436142
            -1495013665 1828529147 405544122 -3323129</internalNodes>
          <leafValues>
            -2.8226792812347412e-01 6.5337246656417847e-01</leafValues></_>
        <_>
          <internalNodes>
            0 -1 136 -711538195 -596425550 1056830941 -648454023
            -421348190 -626716543 319599565 -32274022</internalNodes>
          <leafValues>
            -3.0887654423713684e-01 6.1385554075241089e-01</leafValues></_>
        <_>
          <internalNodes>
            0 -1 202 -1860783948 1529098968 81652396 393009548
            -1228768010 -1042139400 802324397 -1955340816</internalNodes>
          <leafValues>
            -3.9961430430412292e-01 4.6967449784278870e-01</leafValues></_>
        <_>
          <internalNodes>
            0 -1 20 -1856283509 -22071478 -285530802 1677032842
            1826074180 771496450 1329930726 -1625432580</internalNodes>
          <leafValues>
            -3.5463175177574158e-01 5.6528824567794800e-01</leafValues></_>
        <_>
          <internalNodes>
            0 -1 129 1470296266 -249173342 -1298115945 1229553690
            1611172030 2025425026 -937944135 940262367</internalNodes>
          <leafValues>
            -5.3018933534622192e-01 3.9384809136390686e-01</leafValues></_>
        <_>
          <internalNodes>
            0 -1 127 -213140431 -542625631 1882847929 -776275210
            -1497108565 -390079080 2118218490 -539276225</internalNodes>
          <leafValues>
            -2.8810781240463257e-01 7.3249137401580811e-01</leafValues></_>
        <_>
          <internalNodes>
            0 -1 245 26279147 2026899482 1635594287 8700076 -1773633334
            -1265089118 1481669131 5522750</internalNodes>
          <leafValues>
            -5.7441401481628418e-01 3.8936522603034973e-01</leafValues></_></weakClassifiers></_>
    <!-- stage 24 -->
    <_>
      <maxWeakCount>11</maxWeakCount>
      <stageThreshold>-6.6883760690689087e-01</stageThreshold>
      <weakClassifiers>
        <_>
          <internalNodes>
            0 -1 109 -403291568 36041216 1723321748 1816946845 324357612
            622230258 618095603 337277692</internalNodes>
          <leafValues>
            -3.6458334326744080e-01 4.4407895207405090e-01</leafValues></_>
        <_>
          <internalNodes>
            0 -1 255 1980493747 361295085 -1213614467 -1726073987
            -1392194905 931067605 -1653704945 -70312872</internalNodes>
          <leafValues>
            -2.0819564163684845e-01 6.5424555540084839e-01</leafValues></_>
        <_>
          <internalNodes>
            0 -1 186 -1944534528 1913540656 1162117506 -531463330
            711229602 1922796233 -2147414828 357612386</internalNodes>
          <leafValues>
            -5.9449952840805054e-01 2.6091241836547852e-01</leafValues></_>
        <_>
          <internalNodes>
            0 -1 243 -336115107 902280670 -1591284574 -1652425221
            -736940695 -607233333 -1196354517 -58145399</internalNodes>
          <leafValues>
            -2.6446416974067688e-01 6.1883294582366943e-01</leafValues></_>
        <_>
          <internalNodes>
            0 -1 121 150508183 1898535074 -268596743 1509798766
            374206688 2062974936 -647516450 -324778288</internalNodes>
          <leafValues>
            -3.0656385421752930e-01 5.6709700822830200e-01</leafValues></_>
        <_>
          <internalNodes>
            0 -1 36 -474190417 -387520566 -73254325 -2115716508
            752075257 634713751 2088725099 -381865165</internalNodes>
          <leafValues>
            -3.5685211420059204e-01 4.8812690377235413e-01</leafValues></_>
        <_>
          <internalNodes>
            0 -1 211 -201378914 933149911 -1615802436 -164984785
            -141320020 -1155801286 1838478751 -168821862</internalNodes>
          <leafValues>
            -2.8925570845603943e-01 6.1812686920166016e-01</leafValues></_>
        <_>
          <internalNodes>
            0 -1 213 1495025180 -683587256 1995783934 -1582182884
            1607224923 -953172228 -172328456 -999848273</internalNodes>
          <leafValues>
            -4.1723421216011047e-01 4.4284254312515259e-01</leafValues></_>
        <_>
          <internalNodes>
            0 -1 193 -1379158625 -1153340087 1324343238 -910184504
            887484344 217941465 1987795018 -594616449</internalNodes>
          <leafValues>
            -3.0624300241470337e-01 6.2841683626174927e-01</leafValues></_>
        <_>
          <internalNodes>
            0 -1 32 -280501813 741047799 -59274006 -646910281 962016651
            1834238961 -420145633 -1510603966</internalNodes>
          <leafValues>
            -3.4036138653755188e-01 5.8990031480789185e-01</leafValues></_>
        <_>
          <internalNodes>
            0 -1 155 -797179828 -2143172472 1147208000 933843288
            1276346509 -2090826983 1282488786 412956682</internalNodes>
          <leafValues>
            -5.8971464633941650e-01 3.6557301878929138e-01</leafValues></_></weakClassifiers></_>
    <!-- stage 25 -->
    <_>
      <maxWeakCount>11</maxWeakCount>
      <stageThreshold>-7.2259724140167236e-01</stageThreshold>
      <weakClassifiers>
        <_>
          <internalNodes>
            0 -1 83 -340827990 -1196700500 389723810 285208122 884389109
            585689781 -304682251 586789735</internalNodes>
          <leafValues>
            -3.0701753497123718e-01 4.7202795743942261e-01</leafValues></_>
        <_>
          <internalNodes>
            0 -1 156 2010889694 1028024500 121637108 71679121 -662453704
            -1800417246 -617413925 808706959</internalNodes>
          <leafValues>
            -3.7420907616615295e-01 3.9484670758247375e-01</leafValues></_>
        <_>
          <internalNodes>
            0 -1 64 -1831149827 987470709 -586423817 1438351108
            -1321905777 -1660740489 -15299667 1260278035</internalNodes>
          <leafValues>
            -3.5564109683036804e-01 4.5372971892356873e-01</leafValues></_>
        <_>
          <internalNodes>
            0 -1 124 -1792755723 874207306 -1219649157 -1551972039
            -243864899 -353809569 -1861757019 -271243991</internalNodes>
          <leafValues>
            -2.3398692905902863e-01 6.6265374422073364e-01</leafValues></_>
        <_>
          <internalNodes>
            0 -1 183 -730349951 -738080896 866388788 239425670 823239841
            -1369439695 -1601301316 1069982598</internalNodes>
          <leafValues>
            -4.0994656085968018e-01 4.2117410898208618e-01</leafValues></_>
        <_>
          <internalNodes>
            0 -1 73 -1032896241 1876360520 1467839312 -1513912791
            475351215 -1409430919 1466741385 -721588055</internalNodes>
          <leafValues>
            -3.6256846785545349e-01 5.2247571945190430e-01</leafValues></_>
        <_>
          <internalNodes>
            0 -1 12 -40579717 -852870024 1573715631 1885469995
            1997929549 92165124 -1124214204 -837214731</internalNodes>
          <leafValues>
            -3.7216088175773621e-01 4.9416890740394592e-01</leafValues></_>
        <_>
          <internalNodes>
            0 -1 236 1102236510 -972613565 -1298538419 1954747681
            941310213 1822580808 2030203622 -258361693</internalNodes>
          <leafValues>
            -4.0403112769126892e-01 4.7212922573089600e-01</leafValues></_>
        <_>
          <internalNodes>
            0 -1 140 2077599787 6660714 2128471732 1401071233
            -1000828677 1848867454 740047254 -554985251</internalNodes>
          <leafValues>
            -3.2790899276733398e-01 5.8127200603485107e-01</leafValues></_>
        <_>
          <internalNodes>
            0 -1 66 -490122222 -1810714486 -268323327 -738057870
            -861265687 714656768 134910363 2031563397</internalNodes>
          <leafValues>
            -4.9841678142547607e-01 4.3405896425247192e-01</leafValues></_>
        <_>
          <internalNodes>
            0 -1 42 -349506705 2024629779 2146103188 -590743769
            -67390057 670545081 -965520033 -932418288</internalNodes>
          <leafValues>
            -3.8840749859809875e-01 5.5046272277832031e-01</leafValues></_></weakClassifiers></_>
    <!-- stage 26 -->
    <_>
      <maxWeakCount>12</maxWeakCount>
      <stageThreshold>-8.5110044479370117e-01</stageThreshold>
      <weakClassifiers>
        <_>
          <internalNodes>
            0 -1 71 1080894520 302667488 1691647866 1633742762
            1155914516 -858884291 1870636706 740081343</internalNodes>
          <leafValues>
            -2.8602150082588196e-01 4.6960353851318359e-01</leafValues></_>
        <_>
          <internalNodes>
            0 -1 107 -255722511 -1730329736 -1000130679 994959207
            280163726 -41312004 103086715 -651216261</internalNodes>
          <leafValues>
            -2.4854631721973419e-01 5.6133776903152466e-01</leafValues></_>
        <_>
          <internalNodes>
            0 -1 220 615774146 1493731930 -208134053 1943880816
            -389411620 1774163536 1229540386 -398212050</internalNodes>
          <leafValues>
            -3.5774347186088562e-01 4.2372170090675354e-01</leafValues></_>
        <_>
          <internalNodes>
            0 -1 187 -1796482599 1358092873 -1113621099 209514459
            -1311492279 -1460406253 -740057213 -1348472570</internalNodes>
          <leafValues>
            -3.2969972491264343e-01 5.2381211519241333e-01</leafValues></_>
        <_>
          <internalNodes>
            0 -1 45 277918256 -666857198 -2050586478 -1861140480
            436390336 1079707658 1441963 991060792</internalNodes>
          <leafValues>
            -4.9865770339965820e-01 3.8118493556976318e-01</leafValues></_>
        <_>
          <internalNodes>
            0 -1 241 -395062530 -648660664 1870176191 818097720
            511262359 -1422995505 -986727463 -41944564</internalNodes>
          <leafValues>
            -3.8237917423248291e-01 4.9806976318359375e-01</leafValues></_>
        <_>
          <internalNodes>
            0 -1 138 -1358577134 -494918784 -522450887 -811564417
            -1472197492 -2000276952 -1068872474 1038694104</internalNodes>
          <leafValues>
            -4.9120959639549255e-01 3.7925803661346436e-01</leafValues></_>
        <_>
          <internalNodes>
            0 -1 111 -1353482112 2020770053 -301989494 428458382
            742578228 1993419400 128748734 -1422389190</internalNodes>
          <leafValues>
            -5.1125657558441162e-01 3.8028293848037720e-01</leafValues></_>
        <_>
          <internalNodes>
            0 -1 240 -844372387 1538385534 1788604063 17001525
            1858014797 1743188281 937193903 -1748500609</internalNodes>
          <leafValues>
            -3.6222785711288452e-01 5.5594116449356079e-01</leafValues></_>
        <_>
          <internalNodes>
            0 -1 30 22833210 -1164230260 314638726 -112633526 722090419
            -2039414 -2130666702 171971137</internalNodes>
          <leafValues>
            -5.2223002910614014e-01 4.0736481547355652e-01</leafValues></_>
        <_>
          <internalNodes>
            0 -1 5 -1990462856 -1223110543 -935755347 241021102
            -922642222 -1710030718 361009545 1201252975</internalNodes>
          <leafValues>
            -5.1913481950759888e-01 4.1546770930290222e-01</leafValues></_>
        <_>
          <internalNodes>
            0 -1 198 -652735284 2049609897 152733186 2030125953
            391712984 -1435302566 336875554 1430790859</internalNodes>
          <leafValues>
            -6.8477457761764526e-01 3.0386060476303101e-01</leafValues></_></weakClassifiers></_>
    <!-- stage 27 -->
    <_>
      <maxWeakCount>11</maxWeakCount>
      <stageThreshold>-7.7609181404113770e-01</stageThreshold>
      <weakClassifiers>
        <_>
          <internalNodes>
            0 -1 77 1073760384 621445250 268440772 360782321 1082261570
            1121616160 -824082202 1078346592</internalNodes>
          <leafValues>
            -5.0537633895874023e-01 4.0953823924064636e-01</leafValues></_>
        <_>
          <internalNodes>
            0 -1 58 -614743957 1535754377 -84017443 -1981030601
            -744966741 -960599053 -1287352183 -93742446</internalNodes>
          <leafValues>
            -2.3042239248752594e-01 5.9344834089279175e-01</leafValues></_>
        <_>
          <internalNodes>
            0 -1 208 -1944589 -1725592825 2089815478 -1296622917
            731374130 1320078331 -149239500 -428664869</internalNodes>
          <leafValues>
            -2.9135796427726746e-01 5.3383260965347290e-01</leafValues></_>
        <_>
          <internalNodes>
            0 -1 28 -364754622 -1063093631 1103304949 1561629057
            1342299304 -1492792959 1091740345 -219027263</internalNodes>
          <leafValues>
            -3.8732939958572388e-01 4.2180159687995911e-01</leafValues></_>
        <_>
          <internalNodes>
            0 -1 79 2083049712 -1777282280 -2080207493 1708500992
            1854059528 -1118796991 -801077028 2120942898</internalNodes>
          <leafValues>
            -4.3707060813903809e-01 3.8882568478584290e-01</leafValues></_>
        <_>
          <internalNodes>
            0 -1 144 -708706598 -1337487589 192511645 1311146397
            -1138655745 -84299273 75486967 -1098143787</internalNodes>
          <leafValues>
            -3.5446226596832275e-01 6.0078918933868408e-01</leafValues></_>
        <_>
          <internalNodes>
            0 -1 106 -847003397 1514765046 2101405439 -569090457
            -490531694 -89547656 827911933 -1086256386</internalNodes>
          <leafValues>
            -2.6138851046562195e-01 6.5749698877334595e-01</leafValues></_>
        <_>
          <internalNodes>
            0 -1 14 2143940839 -873075673 -671099814 -1518795284
            -306858688 -143169555 -982153366 -2013884685</internalNodes>
          <leafValues>
            -3.9856523275375366e-01 5.0096118450164795e-01</leafValues></_>
        <_>
          <internalNodes>
            0 -1 173 -634874911 -1077981107 -1595744387 -210813245
            -1257527117 1306888129 -730059777 -78990294</internalNodes>
          <leafValues>
            -2.7976250648498535e-01 6.3417947292327881e-01</leafValues></_>
        <_>
          <internalNodes>
            0 -1 161 1450449034 -413057012 135316909 -403385872 67339898
            1426078594 -657089968 1380842873</internalNodes>
          <leafValues>
            -5.3196835517883301e-01 3.8454440236091614e-01</leafValues></_>
        <_>
          <internalNodes>
            0 -1 86 -2100578800 749718902 12315056 1459904853 1614956746
            -878698477 306952346 365260424</internalNodes>
          <leafValues>
            -5.4785650968551636e-01 3.7792801856994629e-01</leafValues></_></weakClassifiers></_>
    <!-- stage 28 -->
    <_>
      <maxWeakCount>11</maxWeakCount>
      <stageThreshold>-6.4192628860473633e-01</stageThreshold>
      <weakClassifiers>
        <_>
          <internalNodes>
            0 -1 59 -647355254 82324362 -2114968518 -1314254982
            1166863836 1208811742 1979515865 271413038</internalNodes>
          <leafValues>
            -3.5638296604156494e-01 4.3627449870109558e-01</leafValues></_>
        <_>
          <internalNodes>
            0 -1 237 -169350433 1604564966 -354574625 -16527078
            -543783734 -274852750 -160617874 -335938817</internalNodes>
          <leafValues>
            -1.6691149771213531e-01 7.8769910335540771e-01</leafValues></_>
        <_>
          <internalNodes>
            0 -1 249 -733422447 529030938 1757944127 285381746
            1354363768 1818379648 1085297647 1242493623</internalNodes>
          <leafValues>
            -3.6001390218734741e-01 3.9777836203575134e-01</leafValues></_>
        <_>
          <internalNodes>
            0 -1 57 -74977921 -378486416 2141694323 1838068874 -15614791
            -1719149086 2145852314 -550562014</internalNodes>
          <leafValues>
            -2.7296718955039978e-01 6.0788285732269287e-01</leafValues></_>
        <_>
          <internalNodes>
            0 -1 98 -185604343 406047417 -469105143 277513673 1745654792
            -1718794102 2093843329 -2019884084</internalNodes>
          <leafValues>
            -3.7999603152275085e-01 4.3900099396705627e-01</leafValues></_>
        <_>
          <internalNodes>
            0 -1 195 -1013462495 -718303611 -1297431298 -60101619
            -614688854 1736138676 1488594868 -337601702</internalNodes>
          <leafValues>
            -2.8915473818778992e-01 5.7194924354553223e-01</leafValues></_>
        <_>
          <internalNodes>
            0 -1 33 1518677647 -1350304913 -298846458 1860644211
            -1484796178 -1451886729 2061850313 1218724019</internalNodes>
          <leafValues>
            -4.0621876716613770e-01 4.4952279329299927e-01</leafValues></_>
        <_>
          <internalNodes>
            0 -1 216 614429466 1426627806 1594178 -1790852147
            -1538432872 -2096618363 -284700495 524961283</internalNodes>
          <leafValues>
            -4.7534838318824768e-01 3.8579377532005310e-01</leafValues></_>
        <_>
          <internalNodes>
            0 -1 152 -790826752 978391435 1208166522 1641304509
            -503282557 -1440603514 861281417 1245531203</internalNodes>
          <leafValues>
            -4.6753439307212830e-01 4.0120935440063477e-01</leafValues></_>
        <_>
          <internalNodes>
            0 -1 153 1563931112 -1662858442 1844235605 -1472217369
            1366306114 -69397001 1153145801 -47465377</internalNodes>
          <leafValues>
            -3.8164916634559631e-01 4.9754676222801208e-01</leafValues></_>
        <_>
          <internalNodes>
            0 -1 244 1495787067 -878616802 586040933 -1913753879
            -1761704844 1874831197 -176400639 -120193534</internalNodes>
          <leafValues>
            -3.1093764305114746e-01 5.8216965198516846e-01</leafValues></_></weakClassifiers></_>
    <!-- stage 29 -->
    <_>
      <maxWeakCount>11</maxWeakCount>
      <stageThreshold>-6.8325072526931763e-01</stageThreshold>
      <weakClassifiers>
        <_>
          <internalNodes>
            0 -1 70 -1661085176 142388602 737606414 711581374
            -1072881462 564790440 -1842086386 1079283711</internalNodes>
          <leafValues>
            -3.5937500000000000e-01 4.4243422150611877e-01</leafValues></_>
        <_>
          <internalNodes>
            0 -1 126 -1290957609 -58863120 -1670878490 1602935392
            -409587815 -1329825257 1023393534 -1160842114</internalNodes>
          <leafValues>
            -2.6762601733207703e-01 5.0944900512695313e-01</leafValues></_>
        <_>
          <internalNodes>
            0 -1 88 -2080060400 -234513258 201859325 1369398512
            -964556670 -1194557300 -2130621435 165403938</internalNodes>
          <leafValues>
            -4.4352325797080994e-01 3.3903121948242188e-01</leafValues></_>
        <_>
          <internalNodes>
            0 -1 114 1733578295 2036858596 959267709 1975884793
            2002131610 -89706325 -1759343669 -178263070</internalNodes>
          <leafValues>
            -2.4625791609287262e-01 6.3179260492324829e-01</leafValues></_>
        <_>
          <internalNodes>
            0 -1 37 1368823159 -93066071 754873607 236145143 410645200
            -1915628715 127751159 -20187437</internalNodes>
          <leafValues>
            -2.8333735466003418e-01 6.0819774866104126e-01</leafValues></_>
        <_>
          <internalNodes>
            0 -1 201 -1244015001 386180722 -891543568 -122721983
            -154129205 -856941185 -1205121289 -1668607097</internalNodes>
          <leafValues>
            -3.4297460317611694e-01 5.4572963714599609e-01</leafValues></_>
        <_>
          <internalNodes>
            0 -1 103 1586725011 2012073555 1261075980 -1011046794
            -1634201718 -1146356928 -204960833 -1183349065</internalNodes>
          <leafValues>
            -2.9997467994689941e-01 6.0952639579772949e-01</leafValues></_>
        <_>
          <internalNodes>
            0 -1 151 2080439296 26568370 861081947 1230574620 1317046985
            839917632 941663786 1392718355</internalNodes>
          <leafValues>
            -5.8757787942886353e-01 3.2628482580184937e-01</leafValues></_>
        <_>
          <internalNodes>
            0 -1 254 -210900065 1475105523 1715431072 84410104
            1450634757 -798885003 -2092957719 -860197753</internalNodes>
          <leafValues>
            -3.3443209528923035e-01 5.6583631038665771e-01</leafValues></_>
        <_>
          <internalNodes>
            0 -1 26 -359334681 -302258113 1013989221 -546196556
            -831452936 782025607 -2067949587 -338722202</internalNodes>
          <leafValues>
            -3.1072849035263062e-01 6.1982834339141846e-01</leafValues></_>
        <_>
          <internalNodes>
            0 -1 128 73261174 1343292448 159925638 1230722692
            -2004677152 85012996 -510096181 1489820306</internalNodes>
          <leafValues>
            -4.5758640766143799e-01 4.3788748979568481e-01</leafValues></_></weakClassifiers></_></stages>
  <features>
    <_>
      <rect>
        0 0 2 3</rect></_>
    <_>
      <rect>
        0 1 4 5</rect></_>
    <_>
      <rect>
        0 1 5 8</rect></_>
    <_>
      <rect>
        0 1 6 5</rect></_>
    <_>
      <rect>
        0 1 6 6</rect></_>
    <_>
      <rect>
        0 3 5 8</rect></_>
    <_>
      <rect>
        0 3 6 9</rect></_>
    <_>
      <rect>
        0 4 3 4</rect></_>
    <_>
      <rect>
        0 6 2 6</rect></_>
    <_>
      <rect>
        0 7 4 6</rect></_>
    <_>
      <rect>
        0 8 5 7</rect></_>
    <_>
      <rect>
        0 8 6 4</rect></_>
    <_>
      <rect>
        0 9 5 6</rect></_>
    <_>
      <rect>
        0 9 5 7</rect></_>
    <_>
      <rect>
        0 11 4 4</rect></_>
    <_>
      <rect>
        0 12 2 4</rect></_>
    <_>
      <rect>
        0 12 3 3</rect></_>
    <_>
      <rect>
        0 12 5 4</rect></_>
    <_>
      <rect>
        1 3 4 4</rect></_>
    <_>
      <rect>
        1 4 3 3</rect></_>
    <_>
      <rect>
        1 5 4 8</rect></_>
    <_>
      <rect>
        1 6 3 5</rect></_>
    <_>
      <rect>
        1 7 3 5</rect></_>
    <_>
      <rect>
        1 8 6 7</rect></_>
    <_>
      <rect>
        1 11 3 1</rect></_>
    <_>
      <rect>
        1 11 3 3</rect></_>
    <_>
      <rect>
        1 11 5 6</rect></_>
    <_>
      <rect>
        1 11 6 5</rect></_>
    <_>
      <rect>
        1 15 1 1</rect></_>
    <_>
      <rect>
        1 17 5 1</rect></_>
    <_>
      <rect>
        2 0 5 4</rect></_>
    <_>
      <rect>
        2 1 6 7</rect></_>
    <_>
      <rect>
        2 2 2 3</rect></_>
    <_>
      <rect>
        2 2 3 3</rect></_>
    <_>
      <rect>
        2 3 5 8</rect></_>
    <_>
      <rect>
        2 4 4 7</rect></_>
    <_>
      <rect>
        2 5 3 1</rect></_>
    <_>
      <rect>
        2 6 3 4</rect></_>
    <_>
      <rect>
        2 8 6 6</rect></_>
    <_>
      <rect>
        2 9 3 4</rect></_>
    <_>
      <rect>
        2 9 3 5</rect></_>
    <_>
      <rect>
        2 9 6 7</rect></_>
    <_>
      <rect>
        2 11 3 2</rect></_>
    <_>
      <rect>
        2 13 1 1</rect></_>
    <_>
      <rect>
        2 14 5 1</rect></_>
    <_>
      <rect>
        2 15 3 1</rect></_>
    <_>
      <rect>
        2 18 4 2</rect></_>
    <_>
      <rect>
        3 1 3 8</rect></_>
    <_>
      <rect>
        3 5 4 6</rect></_>
    <_>
      <rect>
        3 6 4 4</rect></_>
    <_>
      <rect>
        3 6 4 8</rect></_>
    <_>
      <rect>
        3 9 1 1</rect></_>
    <_>
      <rect>
        3 11 2 1</rect></_>
    <_>
      <rect>
        3 12 1 2</rect></_>
    <_>
      <rect>
        3 13 5 4</rect></_>
    <_>
      <rect>
        3 17 3 1</rect></_>
    <_>
      <rect>
        4 3 4 6</rect></_>
    <_>
      <rect>
        4 6 1 1</rect></_>
    <_>
      <rect>
        4 9 1 3</rect></_>
    <_>
      <rect>
        4 9 5 4</rect></_>
    <_>
      <rect>
        4 10 2 2</rect></_>
    <_>
      <rect>
        4 10 2 4</rect></_>
    <_>
      <rect>
        4 11 5 3</rect></_>
    <_>
      <rect>
        4 12 1 2</rect></_>
    <_>
      <rect>
        4 13 3 1</rect></_>
    <_>
      <rect>
        4 14 1 1</rect></_>
    <_>
      <rect>
        4 15 1 3</rect></_>
    <_>
      <rect>
        4 16 3 1</rect></_>
    <_>
      <rect>
        4 20 2 1</rect></_>
    <_>
      <rect>
        5 2 3 4</rect></_>
    <_>
      <rect>
        5 4 5 2</rect></_>
    <_>
      <rect>
        5 4 5 6</rect></_>
    <_>
      <rect>
        5 5 4 5</rect></_>
    <_>
      <rect>
        5 6 1 2</rect></_>
    <_>
      <rect>
        5 7 4 7</rect></_>
    <_>
      <rect>
        5 9 1 1</rect></_>
    <_>
      <rect>
        5 9 2 1</rect></_>
    <_>
      <rect>
        5 9 3 5</rect></_>
    <_>
      <rect>
        5 10 1 3</rect></_>
    <_>
      <rect>
        5 10 2 1</rect></_>
    <_>
      <rect>
        5 11 1 1</rect></_>
    <_>
      <rect>
        5 11 2 1</rect></_>
    <_>
      <rect>
        5 11 2 3</rect></_>
    <_>
      <rect>
        5 11 4 2</rect></_>
    <_>
      <rect>
        5 11 5 4</rect></_>
    <_>
      <rect>
        5 12 3 1</rect></_>
    <_>
      <rect>
        5 13 1 2</rect></_>
    <_>
      <rect>
        5 13 3 3</rect></_>
    <_>
      <rect>
        5 13 4 1</rect></_>
    <_>
      <rect>
        5 13 4 3</rect></_>
    <_>
      <rect>
        5 14 1 2</rect></_>
    <_>
      <rect>
        5 15 2 1</rect></_>
    <_>
      <rect>
        5 16 2 1</rect></_>
    <_>
      <rect>
        5 17 1 1</rect></_>
    <_>
      <rect>
        5 18 3 1</rect></_>
    <_>
      <rect>
        5 19 1 1</rect></_>
    <_>
      <rect>
        5 21 4 1</rect></_>
    <_>
      <rect>
        6 2 4 9</rect></_>
    <_>
      <rect>
        6 6 3 3</rect></_>
    <_>
      <rect>
        6 7 4 3</rect></_>
    <_>
      <rect>
        6 9 1 1</rect></_>
    <_>
      <rect>
        6 10 2 1</rect></_>
    <_>
      <rect>
        6 11 1 1</rect></_>
    <_>
      <rect>
        6 11 1 2</rect></_>
    <_>
      <rect>
        6 12 1 1</rect></_>
    <_>
      <rect>
        6 12 1 2</rect></_>
    <_>
      <rect>
        6 12 2 1</rect></_>
    <_>
      <rect>
        6 13 2 1</rect></_>
    <_>
      <rect>
        6 13 2 2</rect></_>
    <_>
      <rect>
        6 13 3 3</rect></_>
    <_>
      <rect>
        6 14 1 1</rect></_>
    <_>
      <rect>
        6 14 2 1</rect></_>
    <_>
      <rect>
        6 14 2 2</rect></_>
    <_>
      <rect>
        6 14 3 4</rect></_>
    <_>
      <rect>
        6 16 1 1</rect></_>
    <_>
      <rect>
        6 17 1 1</rect></_>
    <_>
      <rect>
        6 17 2 1</rect></_>
    <_>
      <rect>
        6 18 1 1</rect></_>
    <_>
      <rect>
        6 21 2 1</rect></_>
    <_>
      <rect>
        7 2 1 2</rect></_>
    <_>
      <rect>
        7 4 4 8</rect></_>
    <_>
      <rect>
        7 5 2 2</rect></_>
    <_>
      <rect>
        7 5 4 7</rect></_>
    <_>
      <rect>
        7 6 1 1</rect></_>
    <_>
      <rect>
        7 6 2 1</rect></_>
    <_>
      <rect>
        7 7 4 5</rect></_>
    <_>
      <rect>
        7 7 4 7</rect></_>
    <_>
      <rect>
        7 8 1 1</rect></_>
    <_>
      <rect>
        7 8 1 6</rect></_>
    <_>
      <rect>
        7 9 1 1</rect></_>
    <_>
      <rect>
        7 9 1 3</rect></_>
    <_>
      <rect>
        7 10 1 1</rect></_>
    <_>
      <rect>
        7 10 1 2</rect></_>
    <_>
      <rect>
        7 10 2 1</rect></_>
    <_>
      <rect>
        7 11 1 1</rect></_>
    <_>
      <rect>
        7 11 2 3</rect></_>
    <_>
      <rect>
        7 12 1 1</rect></_>
    <_>
      <rect>
        7 12 2 1</rect></_>
    <_>
      <rect>
        7 12 2 2</rect></_>
    <_>
      <rect>
        7 12 3 3</rect></_>
    <_>
      <rect>
        7 13 2 4</rect></_>
    <_>
      <rect>
        7 14 1 1</rect></_>
    <_>
      <rect>
        7 14 1 2</rect></_>
    <_>
      <rect>
        7 14 2 1</rect></_>
    <_>
      <rect>
        7 14 3 1</rect></_>
    <_>
      <rect>
        7 15 1 1</rect></_>
    <_>
      <rect>
        7 15 1 2</rect></_>
    <_>
      <rect>
        7 15 2 1</rect></_>
    <_>
      <rect>
        7 16 1 1</rect></_>
    <_>
      <rect>
        7 16 3 1</rect></_>
    <_>
      <rect>
        7 17 4 1</rect></_>
    <_>
      <rect>
        7 19 1 1</rect></_>
    <_>
      <rect>
        7 19 2 2</rect></_>
    <_>
      <rect>
        7 21 2 2</rect></_>
    <_>
      <rect>
        7 23 4 1</rect></_>
    <_>
      <rect>
        8 2 3 4</rect></_>
    <_>
      <rect>
        8 3 4 6</rect></_>
    <_>
      <rect>
        8 5 4 7</rect></_>
    <_>
      <rect>
        8 6 1 1</rect></_>
    <_>
      <rect>
        8 6 3 6</rect></_>
    <_>
      <rect>
        8 7 4 4</rect></_>
    <_>
      <rect>
        8 9 2 3</rect></_>
    <_>
      <rect>
        8 9 2 5</rect></_>
    <_>
      <rect>
        8 11 1 1</rect></_>
    <_>
      <rect>
        8 11 1 2</rect></_>
    <_>
      <rect>
        8 11 2 1</rect></_>
    <_>
      <rect>
        8 11 2 5</rect></_>
    <_>
      <rect>
        8 12 2 1</rect></_>
    <_>
      <rect>
        8 13 1 1</rect></_>
    <_>
      <rect>
        8 13 2 1</rect></_>
    <_>
      <rect>
        8 14 1 1</rect></_>
    <_>
      <rect>
        8 14 1 2</rect></_>
    <_>
      <rect>
        8 15 2 1</rect></_>
    <_>
      <rect>
        8 16 1 1</rect></_>
    <_>
      <rect>
        8 17 1 1</rect></_>
    <_>
      <rect>
        8 17 2 1</rect></_>
    <_>
      <rect>
        8 20 1 1</rect></_>
    <_>
      <rect>
        8 22 2 2</rect></_>
    <_>
      <rect>
        9 4 2 1</rect></_>
    <_>
      <rect>
        9 7 1 1</rect></_>
    <_>
      <rect>
        9 7 1 5</rect></_>
    <_>
      <rect>
        9 9 3 4</rect></_>
    <_>
      <rect>
        9 10 1 1</rect></_>
    <_>
      <rect>
        9 10 2 3</rect></_>
    <_>
      <rect>
        9 10 3 2</rect></_>
    <_>
      <rect>
        9 11 1 1</rect></_>
    <_>
      <rect>
        9 11 1 2</rect></_>
    <_>
      <rect>
        9 11 2 1</rect></_>
    <_>
      <rect>
        9 11 3 3</rect></_>
    <_>
      <rect>
        9 12 1 1</rect></_>
    <_>
      <rect>
        9 12 2 4</rect></_>
    <_>
      <rect>
        9 12 3 3</rect></_>
    <_>
      <rect>
        9 13 1 1</rect></_>
    <_>
      <rect>
        9 13 3 3</rect></_>
    <_>
      <rect>
        9 14 1 1</rect></_>
    <_>
      <rect>
        9 14 1 2</rect></_>
    <_>
      <rect>
        9 14 1 4</rect></_>
    <_>
      <rect>
        9 14 3 3</rect></_>
    <_>
      <rect>
        9 15 1 1</rect></_>
    <_>
      <rect>
        9 15 2 1</rect></_>
    <_>
      <rect>
        9 16 1 1</rect></_>
    <_>
      <rect>
        9 17 2 2</rect></_>
    <_>
      <rect>
        9 20 2 1</rect></_>
    <_>
      <rect>
        9 23 1 1</rect></_>
    <_>
      <rect>
        9 23 2 2</rect></_>
    <_>
      <rect>
        10 4 2 5</rect></_>
    <_>
      <rect>
        10 5 3 7</rect></_>
    <_>
      <rect>
        10 9 1 1</rect></_>
    <_>
      <rect>
        10 10 2 3</rect></_>
    <_>
      <rect>
        10 10 3 6</rect></_>
    <_>
      <rect>
        10 11 1 2</rect></_>
    <_>
      <rect>
        10 12 1 3</rect></_>
    <_>
      <rect>
        10 12 3 3</rect></_>
    <_>
      <rect>
        10 13 1 4</rect></_>
    <_>
      <rect>
        10 14 1 1</rect></_>
    <_>
      <rect>
        10 14 1 2</rect></_>
    <_>
      <rect>
        10 14 2 3</rect></_>
    <_>
      <rect>
        10 15 1 1</rect></_>
    <_>
      <rect>
        10 15 1 2</rect></_>
    <_>
      <rect>
        10 16 1 1</rect></_>
    <_>
      <rect>
        10 17 2 3</rect></_>
    <_>
      <rect>
        11 5 3 3</rect></_>
    <_>
      <rect>
        11 8 1 1</rect></_>
    <_>
      <rect>
        11 8 2 6</rect></_>
    <_>
      <rect>
        11 8 3 6</rect></_>
    <_>
      <rect>
        11 9 1 1</rect></_>
    <_>
      <rect>
        11 9 1 2</rect></_>
    <_>
      <rect>
        11 10 1 1</rect></_>
    <_>
      <rect>
        11 10 1 2</rect></_>
    <_>
      <rect>
        11 10 1 3</rect></_>
    <_>
      <rect>
        11 10 3 4</rect></_>
    <_>
      <rect>
        11 16 1 3</rect></_>
    <_>
      <rect>
        11 16 2 1</rect></_>
    <_>
      <rect>
        11 21 1 2</rect></_>
    <_>
      <rect>
        11 21 2 1</rect></_>
    <_>
      <rect>
        12 9 1 3</rect></_>
    <_>
      <rect>
        12 10 1 3</rect></_>
    <_>
      <rect>
        12 11 1 3</rect></_>
    <_>
      <rect>
        12 12 1 1</rect></_>
    <_>
      <rect>
        12 14 2 2</rect></_>
    <_>
      <rect>
        12 15 1 2</rect></_>
    <_>
      <rect>
        12 15 1 3</rect></_>
    <_>
      <rect>
        12 15 2 1</rect></_>
    <_>
      <rect>
        12 19 2 3</rect></_>
    <_>
      <rect>
        13 2 2 3</rect></_>
    <_>
      <rect>
        13 5 1 1</rect></_>
    <_>
      <rect>
        13 7 2 4</rect></_>
    <_>
      <rect>
        13 9 1 1</rect></_>
    <_>
      <rect>
        13 9 2 3</rect></_>
    <_>
      <rect>
        13 12 1 1</rect></_>
    <_>
      <rect>
        13 18 2 2</rect></_>
    <_>
      <rect>
        14 12 1 2</rect></_>
    <_>
      <rect>
        14 12 1 3</rect></_>
    <_>
      <rect>
        14 18 1 2</rect></_>
    <_>
      <rect>
        14 18 2 1</rect></_>
    <_>
      <rect>
        14 26 2 1</rect></_></features></cascade>
</opencv_storage>
