<?xml version="1.0"?>
<opencv_storage>
<cascade>
  <stageType>BOOST</stageType>
  <featureType>LBP</featureType>
  <height>48</height>
  <width>27</width>
  <stageParams>
    <boostType>GAB</boostType>
    <minHitRate>9.9900001287460327e-01</minHitRate>
    <maxFalseAlarm>5.0000000000000000e-01</maxFalseAlarm>
    <weightTrimRate>9.4999999999999996e-01</weightTrimRate>
    <maxDepth>1</maxDepth>
    <maxWeakCount>100</maxWeakCount></stageParams>
  <featureParams>
    <maxCatCount>256</maxCatCount>
    <featSize>1</featSize></featureParams>
  <stageNum>20</stageNum>
  <stages>
    <!-- stage 0 -->
    <_>
      <maxWeakCount>3</maxWeakCount>
      <stageThreshold>-7.9549539089202881e-01</stageThreshold>
      <weakClassifiers>
        <_>
          <internalNodes>
            0 -1 28 -47722292 -138379132 1610621088 -184253760
            -1727350534 -1487759102 -342820678 -429395029</internalNodes>
          <leafValues>
            -7.8625953197479248e-01 7.5464683771133423e-01</leafValues></_>
        <_>
          <internalNodes>
            0 -1 102 -72754494 -742435758 -1208091338 -773850558
            -1271083450 -2061500632 881921559 -547415141</internalNodes>
          <leafValues>
            -6.1099427938461304e-01 7.3370271921157837e-01</leafValues></_>
        <_>
          <internalNodes>
            0 -1 1 1409480922 -149946174 -1878771238 1560612890
            -98486118 1904246978 -264008962 -49284374</internalNodes>
          <leafValues>
            -7.3226714134216309e-01 6.0175848007202148e-01</leafValues></_></weakClassifiers></_>
    <!-- stage 1 -->
    <_>
      <maxWeakCount>5</maxWeakCount>
      <stageThreshold>-7.5738161802291870e-01</stageThreshold>
      <weakClassifiers>
        <_>
          <internalNodes>
            0 -1 18 -540799988 -587165696 859984988 -184254208
            -1739543924 -1109208896 -475423089 -895431158</internalNodes>
          <leafValues>
            -8.8705879449844360e-01 6.6127657890319824e-01</leafValues></_>
        <_>
          <internalNodes>
            0 -1 78 -269553922 -10246004 -1602158908 -615674730 -67910
            -686583650 -1433685349 -142631201</internalNodes>
          <leafValues>
            -6.2385112047195435e-01 7.0191782712936401e-01</leafValues></_>
        <_>
          <internalNodes>
            0 -1 106 -129084260 -146688890 1610744514 -57585240
            1178615838 -394229630 -499064690 -243146081</internalNodes>
          <leafValues>
            -7.1595561504364014e-01 5.9490269422531128e-01</leafValues></_>
        <_>
          <internalNodes>
            0 -1 45 -34078737 -502338321 -658457682 -874949897 -50967314
            -1233740324 -1101736194 -330542070</internalNodes>
          <leafValues>
            -5.9098452329635620e-01 6.9147151708602905e-01</leafValues></_>
        <_>
          <internalNodes>
            0 -1 98 -973225769 1475236243 1438496679 333641115
            -176826871 1947705163 1967108906 -749495397</internalNodes>
          <leafValues>
            -5.3284579515457153e-01 7.7362966537475586e-01</leafValues></_></weakClassifiers></_>
    <!-- stage 2 -->
    <_>
      <maxWeakCount>4</maxWeakCount>
      <stageThreshold>-4.6313753724098206e-01</stageThreshold>
      <weakClassifiers>
        <_>
          <internalNodes>
            0 -1 62 -222411062 -800931700 1346408640 1377505282
            -523730790 268566528 -1576365430 1360990363</internalNodes>
          <leafValues>
            -8.4536081552505493e-01 6.0066008567810059e-01</leafValues></_>
        <_>
          <internalNodes>
            0 -1 43 -640688948 -251608128 16781445 -14368316 -259267586
            -39628642 823824541 -280569920</internalNodes>
          <leafValues>
            -7.7905225753784180e-01 4.6909269690513611e-01</leafValues></_>
        <_>
          <internalNodes>
            0 -1 67 -1056717686 -749499898 8650818 1360167175
            -1593523832 -2113927038 3375562 -744003869</internalNodes>
          <leafValues>
            -6.3825684785842896e-01 6.2242990732192993e-01</leafValues></_>
        <_>
          <internalNodes>
            0 -1 49 -753679806 1359122437 20738 2064318743 -2013117824
            1090715778 -1811705718 59195419</internalNodes>
          <leafValues>
            -7.0929932594299316e-01 5.5300706624984741e-01</leafValues></_></weakClassifiers></_>
    <!-- stage 3 -->
    <_>
      <maxWeakCount>6</maxWeakCount>
      <stageThreshold>-3.5156011581420898e-01</stageThreshold>
      <weakClassifiers>
        <_>
          <internalNodes>
            0 -1 76 -196106004 -251506360 85000620 1426522178
            -1214876992 9044064 311016184 822596270</internalNodes>
          <leafValues>
            -7.3365616798400879e-01 5.9224939346313477e-01</leafValues></_>
        <_>
          <internalNodes>
            0 -1 111 -648818301 -754253693 641294 -1056145142 -213743478
            -1903357695 -922111250 55246923</internalNodes>
          <leafValues>
            -5.7447344064712524e-01 5.9626621007919312e-01</leafValues></_>
        <_>
          <internalNodes>
            0 -1 112 -652095168 -247135742 291537152 -610106994
            -1065164566 -1039630200 1073992330 -74486870</internalNodes>
          <leafValues>
            -6.0616713762283325e-01 5.5628311634063721e-01</leafValues></_>
        <_>
          <internalNodes>
            0 -1 116 -779095914 -788152254 65554 1090797706 411672785
            -1610022912 1174702728 1095698520</internalNodes>
          <leafValues>
            -6.5862852334976196e-01 5.5246585607528687e-01</leafValues></_>
        <_>
          <internalNodes>
            0 -1 41 2032194727 2068250688 738403336 2144960585
            -1845378902 10092808 167903402 1059027659</internalNodes>
          <leafValues>
            -6.2684130668640137e-01 5.6042242050170898e-01</leafValues></_>
        <_>
          <internalNodes>
            0 -1 10 -18688005 -1858020962 306204880 -301964471
            -1941712149 -626030422 -1602015221 -2008985045</internalNodes>
          <leafValues>
            -6.7224711179733276e-01 5.6509804725646973e-01</leafValues></_></weakClassifiers></_>
    <!-- stage 4 -->
    <_>
      <maxWeakCount>6</maxWeakCount>
      <stageThreshold>-1.4549746513366699e+00</stageThreshold>
      <weakClassifiers>
        <_>
          <internalNodes>
            0 -1 74 -178287614 -2088101973 1755859166 -2113173035
            -1736003446 -205483904 -368379170 1129436043</internalNodes>
          <leafValues>
            -6.4625853300094604e-01 5.9102672338485718e-01</leafValues></_>
        <_>
          <internalNodes>
            0 -1 63 -255143173 -590102395 -994230078 1701414020
            -2012561252 723714220 -620560165 1528274843</internalNodes>
          <leafValues>
            -5.9090971946716309e-01 5.5335086584091187e-01</leafValues></_>
        <_>
          <internalNodes>
            0 -1 50 -29467578 -703306547 -2130687522 -1320856715
            -1038187361 -2132803153 2076560335 -867347451</internalNodes>
          <leafValues>
            -6.6370451450347900e-01 5.1083320379257202e-01</leafValues></_>
        <_>
          <internalNodes>
            0 -1 102 -754927934 -77922175 134240263 1564573704 304666624
            331778 1376305202 1497612511</internalNodes>
          <leafValues>
            -7.6699411869049072e-01 4.7246614098548889e-01</leafValues></_>
        <_>
          <internalNodes>
            0 -1 9 -153905698 -709850734 1075646712 -1961947112
            -788015970 424391686 -119141189 -985376549</internalNodes>
          <leafValues>
            -7.3464882373809814e-01 4.4089117646217346e-01</leafValues></_>
        <_>
          <internalNodes>
            0 -1 99 -3154193 -948976614 1182063463 1293931602 -17000438
            903300891 1421723394 -673196049</internalNodes>
          <leafValues>
            -4.6645689010620117e-01 7.8351616859436035e-01</leafValues></_></weakClassifiers></_>
    <!-- stage 5 -->
    <_>
      <maxWeakCount>7</maxWeakCount>
      <stageThreshold>-7.8426635265350342e-01</stageThreshold>
      <weakClassifiers>
        <_>
          <internalNodes>
            0 -1 51 -33727348 -174844524 -2097201 2118147541 -16777238
            -1174438279 146735093 -91858473</internalNodes>
          <leafValues>
            -5.6947159767150879e-01 6.3452708721160889e-01</leafValues></_>
        <_>
          <internalNodes>
            0 -1 40 1230033759 1779234046 -1304017308 1383956885
            830742663 -101187126 456309386 -16471100</internalNodes>
          <leafValues>
            -5.8607536554336548e-01 5.4165661334991455e-01</leafValues></_>
        <_>
          <internalNodes>
            0 -1 17 -266493218 -721026223 -1741444387 318783875
            -872176992 -74111866 1210252187 -2140700433</internalNodes>
          <leafValues>
            -5.9266978502273560e-01 5.3414475917816162e-01</leafValues></_>
        <_>
          <internalNodes>
            0 -1 7 -732703910 -645907946 16781896 -1054326768 690061456
            -1338438718 -1331625061 -2075838942</internalNodes>
          <leafValues>
            -6.4362460374832153e-01 5.2331018447875977e-01</leafValues></_>
        <_>
          <internalNodes>
            0 -1 89 -18350361 1575281661 1987964915 857363411 -341144186
            -829765054 -19798145 -143400101</internalNodes>
          <leafValues>
            -5.3904688358306885e-01 6.1649632453918457e-01</leafValues></_>
        <_>
          <internalNodes>
            0 -1 108 1436521296 -708753405 -1040121746 -553592697
            2039604986 -1710686200 50372751 -651358165</internalNodes>
          <leafValues>
            -6.4799338579177856e-01 5.4211658239364624e-01</leafValues></_>
        <_>
          <internalNodes>
            0 -1 21 -585838369 -208604794 -1660627617 -1777692032
            1099530252 -324239228 -1735393144 -861224609</internalNodes>
          <leafValues>
            -6.2686604261398315e-01 5.8015215396881104e-01</leafValues></_></weakClassifiers></_>
    <!-- stage 6 -->
    <_>
      <maxWeakCount>7</maxWeakCount>
      <stageThreshold>-9.9219799041748047e-01</stageThreshold>
      <weakClassifiers>
        <_>
          <internalNodes>
            0 -1 52 -799090676 566808960 -2135910398 -1069493695
            906253312 -1901010622 -74262005 -1497204142</internalNodes>
          <leafValues>
            -7.9472142457962036e-01 5.3296267986297607e-01</leafValues></_>
        <_>
          <internalNodes>
            0 -1 98 1173209547 -152055021 364754739 1538471195
            -168463103 873668427 -1793776665 -15486053</internalNodes>
          <leafValues>
            -4.7949138283729553e-01 6.0257524251937866e-01</leafValues></_>
        <_>
          <internalNodes>
            0 -1 39 1447548180 -1858076510 -2112995186 -424746287
            1502278534 -1820111854 -657829718 1718836038</internalNodes>
          <leafValues>
            -8.8101130723953247e-01 3.6001819372177124e-01</leafValues></_>
        <_>
          <internalNodes>
            0 -1 68 -465580022 1500102664 -1460788252 55034031
            -1057766796 1241728080 -257198346 -687365582</internalNodes>
          <leafValues>
            -5.3776705265045166e-01 6.0254365205764771e-01</leafValues></_>
        <_>
          <internalNodes>
            0 -1 90 323208149 1581994634 -2126429675 -314313662
            -1056911166 136353794 -1509528829 1359730287</internalNodes>
          <leafValues>
            -5.9113872051239014e-01 5.5484062433242798e-01</leafValues></_>
        <_>
          <internalNodes>
            0 -1 11 -121313586 2046845110 2031159553 -687767038
            -863030382 -494141263 -917636465 -1073489393</internalNodes>
          <leafValues>
            -6.6827493906021118e-01 5.5861526727676392e-01</leafValues></_>
        <_>
          <internalNodes>
            0 -1 37 -705539432 1494024290 -1845493741 1468473349
            -266614608 2038728842 -322820022 857937931</internalNodes>
          <leafValues>
            -7.0109665393829346e-01 4.9228709936141968e-01</leafValues></_></weakClassifiers></_>
    <!-- stage 7 -->
    <_>
      <maxWeakCount>5</maxWeakCount>
      <stageThreshold>-7.6060581207275391e-01</stageThreshold>
      <weakClassifiers>
        <_>
          <internalNodes>
            0 -1 30 -1877649834 -805236515 -583353766 -2139062072
            -2145146738 -812052144 80220350 1892297294</internalNodes>
          <leafValues>
            -7.9179811477661133e-01 5.0740450620651245e-01</leafValues></_>
        <_>
          <internalNodes>
            0 -1 19 2090842652 1057493764 -1793909433 -1618082674
            1712032511 -1121875952 -1904011639 -2010586471</internalNodes>
          <leafValues>
            -5.8711987733840942e-01 4.6998363733291626e-01</leafValues></_>
        <_>
          <internalNodes>
            0 -1 84 1371670883 -204926827 -2143190632 -666172913
            1241681727 -786253791 1252166289 1263009290</internalNodes>
          <leafValues>
            -5.6810420751571655e-01 5.4948782920837402e-01</leafValues></_>
        <_>
          <internalNodes>
            0 -1 65 -768556470 1394188295 1082196555 1427849281 10798472
            307364356 -349171053 1930394607</internalNodes>
          <leafValues>
            -6.3467299938201904e-01 4.7471541166305542e-01</leafValues></_>
        <_>
          <internalNodes>
            0 -1 95 1973895181 -192310134 -805195645 -1330998773
            -826035686 -2138995200 -536450509 -913600001</internalNodes>
          <leafValues>
            -5.3521674871444702e-01 5.7775330543518066e-01</leafValues></_></weakClassifiers></_>
    <!-- stage 8 -->
    <_>
      <maxWeakCount>6</maxWeakCount>
      <stageThreshold>-3.3752384781837463e-01</stageThreshold>
      <weakClassifiers>
        <_>
          <internalNodes>
            0 -1 24 -1969990500 -1325069276 2048393554 -1977031088
            890049927 -1014841157 -612184069 -496829798</internalNodes>
          <leafValues>
            -6.6844922304153442e-01 5.3017944097518921e-01</leafValues></_>
        <_>
          <internalNodes>
            0 -1 65 -472984054 1349636098 268505226 1493533322
            -536706930 16645 -1993774581 455045770</internalNodes>
          <leafValues>
            -6.1278295516967773e-01 4.6667709946632385e-01</leafValues></_>
        <_>
          <internalNodes>
            0 -1 80 -4724085 -10626039 558135922 458751615 -24941
            1549703390 -37850533 -206848001</internalNodes>
          <leafValues>
            -4.2942994832992554e-01 7.4081313610076904e-01</leafValues></_>
        <_>
          <internalNodes>
            0 -1 92 -620758277 1931534890 -939544577 1595815931
            -1096103030 1137506987 140270043 -713295881</internalNodes>
          <leafValues>
            -4.6776685118675232e-01 6.1194545030593872e-01</leafValues></_>
        <_>
          <internalNodes>
            0 -1 61 -237257138 402721187 152141888 -1385882226
            -1743148920 514080948 -1467442514 -1292483985</internalNodes>
          <leafValues>
            -7.9748487472534180e-01 3.9249375462532043e-01</leafValues></_>
        <_>
          <internalNodes>
            0 -1 13 -704461828 -930340342 1075138585 -1228628799
            -771087937 -1434451832 810273441 -1337630718</internalNodes>
          <leafValues>
            -7.1076107025146484e-01 4.2344596982002258e-01</leafValues></_></weakClassifiers></_>
    <!-- stage 9 -->
    <_>
      <maxWeakCount>7</maxWeakCount>
      <stageThreshold>-7.3401850461959839e-01</stageThreshold>
      <weakClassifiers>
        <_>
          <internalNodes>
            0 -1 94 -1713824492 -935092093 1344413696 1095697103
            -881411834 1025147402 1116782735 1124159979</internalNodes>
          <leafValues>
            -6.7204302549362183e-01 5.2931594848632813e-01</leafValues></_>
        <_>
          <internalNodes>
            0 -1 31 -77739451 1394302996 -754712530 324235339
            -1164902369 310718478 -1391881997 1400966174</internalNodes>
          <leafValues>
            -5.6215143203735352e-01 4.9343639612197876e-01</leafValues></_>
        <_>
          <internalNodes>
            0 -1 87 -330215357 -1056762743 33685515 541934720
            -1876905728 -519733248 -1341353591 -890322553</internalNodes>
          <leafValues>
            -5.9915786981582642e-01 5.0986593961715698e-01</leafValues></_>
        <_>
          <internalNodes>
            0 -1 114 -1210342718 -777453438 553681367 1729218688
            -1333091941 8421890 -2142338861 927187434</internalNodes>
          <leafValues>
            -5.4825741052627563e-01 5.6394594907760620e-01</leafValues></_>
        <_>
          <internalNodes>
            0 -1 46 -20065144 -115846528 293172860 -1813919851 -16871230
            67569408 13644474 -10772246</internalNodes>
          <leafValues>
            -4.6076834201812744e-01 6.5258550643920898e-01</leafValues></_>
        <_>
          <internalNodes>
            0 -1 54 -193858524 -783043444 -2126176245 1409572866
            -502142661 -377421568 -515864551 1351330447</internalNodes>
          <leafValues>
            -6.6687220335006714e-01 4.8657140135765076e-01</leafValues></_>
        <_>
          <internalNodes>
            0 -1 109 1427591633 1195832769 2138529761 -437783559
            528176510 -1879745065 1610604539 -8430081</internalNodes>
          <leafValues>
            -5.0273370742797852e-01 7.0210683345794678e-01</leafValues></_></weakClassifiers></_>
    <!-- stage 10 -->
    <_>
      <maxWeakCount>6</maxWeakCount>
      <stageThreshold>-1.4018687009811401e+00</stageThreshold>
      <weakClassifiers>
        <_>
          <internalNodes>
            0 -1 79 -16845590 -1218638769 648736906 -1287696569
            1929314034 -738652158 -268701999 -216031280</internalNodes>
          <leafValues>
            -5.2653062343597412e-01 5.9279280900955200e-01</leafValues></_>
        <_>
          <internalNodes>
            0 -1 107 -1134831510 421552960 -1744482290 2072621377
            1914729064 -1870495608 -1369254145 -2121145829</internalNodes>
          <leafValues>
            -6.5331411361694336e-01 4.2967689037322998e-01</leafValues></_>
        <_>
          <internalNodes>
            0 -1 36 1427919604 1651970880 -1609451374 -832208044
            -1080946022 -272825961 -133509054 -966889077</internalNodes>
          <leafValues>
            -7.6065957546234131e-01 3.6307221651077271e-01</leafValues></_>
        <_>
          <internalNodes>
            0 -1 82 -781461689 1342750805 1689825690 -666402646
            -1010577848 -1978546092 -1462719848 -554393373</internalNodes>
          <leafValues>
            -5.0206768512725830e-01 5.9514909982681274e-01</leafValues></_>
        <_>
          <internalNodes>
            0 -1 110 -197552128 -1058329976 1149022 -993804266
            -1874491718 -1856831358 1984139963 -488984445</internalNodes>
          <leafValues>
            -5.4775440692901611e-01 5.2910959720611572e-01</leafValues></_>
        <_>
          <internalNodes>
            0 -1 22 -787147782 -113227620 -993639741 869859832
            1075438005 -1364483504 -927866718 -1430352462</internalNodes>
          <leafValues>
            -6.5459752082824707e-01 4.3955013155937195e-01</leafValues></_></weakClassifiers></_>
    <!-- stage 11 -->
    <_>
      <maxWeakCount>7</maxWeakCount>
      <stageThreshold>-9.2832922935485840e-01</stageThreshold>
      <weakClassifiers>
        <_>
          <internalNodes>
            0 -1 77 -1827592958 370675730 -2138729910 -1317002170
            1103459286 -1429052813 -577212166 -1440726510</internalNodes>
          <leafValues>
            -5.9899747371673584e-01 5.3205662965774536e-01</leafValues></_>
        <_>
          <internalNodes>
            0 -1 100 1901810551 -754408949 428102435 1434583503
            416301594 27332777 1167141698 1461584302</internalNodes>
          <leafValues>
            -6.6386550664901733e-01 3.9737334847450256e-01</leafValues></_>
        <_>
          <internalNodes>
            0 -1 118 1175666879 1561854162 -784317914 -925439293
            -2008372530 1354902410 1342341802 454001642</internalNodes>
          <leafValues>
            -5.0481575727462769e-01 5.5016815662384033e-01</leafValues></_>
        <_>
          <internalNodes>
            0 -1 63 -2079194529 -113033213 1897177298 1929745438
            -1861648242 1778581504 -788297479 1395887003</internalNodes>
          <leafValues>
            -6.0707420110702515e-01 4.6998292207717896e-01</leafValues></_>
        <_>
          <internalNodes>
            0 -1 26 -225110970 327431318 1508655731 -1698512889
            1647979474 -1820245982 -534147109 -2101133630</internalNodes>
          <leafValues>
            -6.8855351209640503e-01 4.0882086753845215e-01</leafValues></_>
        <_>
          <internalNodes>
            0 -1 57 -139734390 -551421185 1667776267 1361051437
            1941503784 379059871 322241444 -540597585</internalNodes>
          <leafValues>
            -5.4456746578216553e-01 5.8150637149810791e-01</leafValues></_>
        <_>
          <internalNodes>
            0 -1 120 -788100880 274909326 69634 810354946 -1056905058
            34603264 167944346 1393275871</internalNodes>
          <leafValues>
            -5.8980548381805420e-01 5.2954906225204468e-01</leafValues></_></weakClassifiers></_>
    <!-- stage 12 -->
    <_>
      <maxWeakCount>7</maxWeakCount>
      <stageThreshold>-9.1540890932083130e-01</stageThreshold>
      <weakClassifiers>
        <_>
          <internalNodes>
            0 -1 96 1975436488 862144803 411291954 1150124835
            -1738604281 102745145 4850403 1342294699</internalNodes>
          <leafValues>
            -6.8156427145004272e-01 5.1851850748062134e-01</leafValues></_>
        <_>
          <internalNodes>
            0 -1 48 -136970281 1650622018 -70332844 -740294706
            -193651543 -218628365 -805446433 -1410902702</internalNodes>
          <leafValues>
            -5.0507575273513794e-01 5.4783415794372559e-01</leafValues></_>
        <_>
          <internalNodes>
            0 -1 59 -587227633 373488913 -1652899842 875626339 -58736666
            -1258881388 -142966938 -1080694926</internalNodes>
          <leafValues>
            -4.9509400129318237e-01 5.8525300025939941e-01</leafValues></_>
        <_>
          <internalNodes>
            0 -1 105 835980309 -1039204205 10256 -2143059941 -1874481142
            4331651 1665579180 1547310217</internalNodes>
          <leafValues>
            -7.4549114704132080e-01 3.8582643866539001e-01</leafValues></_>
        <_>
          <internalNodes>
            0 -1 70 -706958117 1997504704 -1074270556 -777027739
            -1103198315 2017139021 -287682827 -7404098</internalNodes>
          <leafValues>
            -4.0929251909255981e-01 7.1928322315216064e-01</leafValues></_>
        <_>
          <internalNodes>
            0 -1 35 512954388 688161553 -2096785085 -1174400496
            -1644079940 -1467445120 -997560574 -2002020342</internalNodes>
          <leafValues>
            -7.1247220039367676e-01 4.1386964917182922e-01</leafValues></_>
        <_>
          <internalNodes>
            0 -1 5 -1827261709 -1919584780 492962866 -60655608
            2139291811 -886996982 1683161728 1630784655</internalNodes>
          <leafValues>
            -6.4025300741195679e-01 4.4935339689254761e-01</leafValues></_></weakClassifiers></_>
    <!-- stage 13 -->
    <_>
      <maxWeakCount>7</maxWeakCount>
      <stageThreshold>-6.5877526998519897e-01</stageThreshold>
      <weakClassifiers>
        <_>
          <internalNodes>
            0 -1 69 -1213400856 -539013921 -386238846 1915419519
            -33896754 -1518864929 -1095043301 -1287964713</internalNodes>
          <leafValues>
            -4.8440748453140259e-01 5.6568366289138794e-01</leafValues></_>
        <_>
          <internalNodes>
            0 -1 12 -1627507500 423179588 -1037418215 -1142093498
            -637499246 455659800 -676916824 11438475</internalNodes>
          <leafValues>
            -6.6689056158065796e-01 3.8327357172966003e-01</leafValues></_>
        <_>
          <internalNodes>
            0 -1 115 -1069294625 -1029267406 1074008324 1838678150
            -2012225078 1748672514 2030796954 1107304480</internalNodes>
          <leafValues>
            -6.1312764883041382e-01 4.4602033495903015e-01</leafValues></_>
        <_>
          <internalNodes>
            0 -1 66 -1208881 2002732495 -1838154191 1937720529 -12434
            -1640200638 786366207 -138414189</internalNodes>
          <leafValues>
            -4.3934071063995361e-01 6.2799185514450073e-01</leafValues></_>
        <_>
          <internalNodes>
            0 -1 0 -757703453 -36699568 -985332603 1840414976
            -1968962940 -1249509370 -1567356520 1607439942</internalNodes>
          <leafValues>
            -5.7145243883132935e-01 5.0444686412811279e-01</leafValues></_>
        <_>
          <internalNodes>
            0 -1 56 2130559663 -159601040 -360940113 1531929249
            2122230372 -1032256287 1909745642 -1680929858</internalNodes>
          <leafValues>
            -4.4955080747604370e-01 6.4929717779159546e-01</leafValues></_>
        <_>
          <internalNodes>
            0 -1 38 1343557910 672141653 554810712 942889756 142868793
            -275971960 822673725 -825410985</internalNodes>
          <leafValues>
            -5.9340894222259521e-01 5.1518481969833374e-01</leafValues></_></weakClassifiers></_>
    <!-- stage 14 -->
    <_>
      <maxWeakCount>9</maxWeakCount>
      <stageThreshold>-8.7305366992950439e-01</stageThreshold>
      <weakClassifiers>
        <_>
          <internalNodes>
            0 -1 23 -1328777898 134226244 276857126 -354345636
            -535624157 -1476394477 -1451044013 -353709245</internalNodes>
          <leafValues>
            -6.0416668653488159e-01 5.1973682641983032e-01</leafValues></_>
        <_>
          <internalNodes>
            0 -1 101 -1051409 -412657963 2146890551 2138523158
            -1644327670 -167780496 1182709699 -539492453</internalNodes>
          <leafValues>
            -3.7688514590263367e-01 6.2185740470886230e-01</leafValues></_>
        <_>
          <internalNodes>
            0 -1 64 827035934 -2109714286 1342310414 -850017899
            135347010 -578125167 -1476296401 1360250887</internalNodes>
          <leafValues>
            -7.3030120134353638e-01 3.4396675229072571e-01</leafValues></_>
        <_>
          <internalNodes>
            0 -1 104 -1289258154 -1960923040 -2080276392 1513259288
            839020618 -1999609668 -1431768909 -850575256</internalNodes>
          <leafValues>
            -5.8691984415054321e-01 4.3180203437805176e-01</leafValues></_>
        <_>
          <internalNodes>
            0 -1 55 -550191035 -680541597 1325293038 -648600864
            -536871064 -1721890220 -1963152728 -75603448</internalNodes>
          <leafValues>
            -4.9837988615036011e-01 5.2944427728652954e-01</leafValues></_>
        <_>
          <internalNodes>
            0 -1 33 -16212818 -83164060 112911884 1963844669 -2143125252
            -2106047393 -1821268805 -1284565445</internalNodes>
          <leafValues>
            -4.3577051162719727e-01 6.2055891752243042e-01</leafValues></_>
        <_>
          <internalNodes>
            0 -1 53 -1414036330 -1540312793 -2058345992 2122389
            -1022706550 377521155 -1702851775 1495087897</internalNodes>
          <leafValues>
            -6.5214228630065918e-01 4.3716022372245789e-01</leafValues></_>
        <_>
          <internalNodes>
            0 -1 71 -805156678 1392705540 12697912 -750054257
            -1308430237 -1602093047 -1195335613 -745858405</internalNodes>
          <leafValues>
            -5.1787430047988892e-01 5.6145149469375610e-01</leafValues></_>
        <_>
          <internalNodes>
            0 -1 60 1358287884 1220641065 -699989679 -1706622774
            -1979599448 -57135102 -327085923 -365923830</internalNodes>
          <leafValues>
            -6.5164875984191895e-01 4.6840324997901917e-01</leafValues></_></weakClassifiers></_>
    <!-- stage 15 -->
    <_>
      <maxWeakCount>7</maxWeakCount>
      <stageThreshold>-7.5422972440719604e-01</stageThreshold>
      <weakClassifiers>
        <_>
          <internalNodes>
            0 -1 73 408786824 486908037 285672302 -2042326591 479154886
            -267800409 428344029 1696620757</internalNodes>
          <leafValues>
            -6.9552236795425415e-01 5.0039523839950562e-01</leafValues></_>
        <_>
          <internalNodes>
            0 -1 75 1075683470 -646737906 21305665 -743078674 321378589
            603030821 -1144650876 1444885748</internalNodes>
          <leafValues>
            -6.6456711292266846e-01 3.7403222918510437e-01</leafValues></_>
        <_>
          <internalNodes>
            0 -1 83 -783285045 -1588383240 -1064850669 -1689714079
            458526891 -136151033 13406385 -754111891</internalNodes>
          <leafValues>
            -4.6680003404617310e-01 5.1440554857254028e-01</leafValues></_>
        <_>
          <internalNodes>
            0 -1 20 -207620996 -1528197136 2146530669 -1333698852
            -135404081 -328468945 -329263105 -909664985</internalNodes>
          <leafValues>
            -4.9009105563163757e-01 5.0998741388320923e-01</leafValues></_>
        <_>
          <internalNodes>
            0 -1 3 -20774957 -938225326 2097225737 -642293743
            -1438636991 876788738 -399112521 -1855893164</internalNodes>
          <leafValues>
            -5.1887547969818115e-01 5.1157164573669434e-01</leafValues></_>
        <_>
          <internalNodes>
            0 -1 99 -241912273 -783855357 1107297075 1368232216
            -1065244662 -1920892911 1074053843 -78909440</internalNodes>
          <leafValues>
            -5.0695806741714478e-01 5.4507267475128174e-01</leafValues></_>
        <_>
          <internalNodes>
            0 -1 119 -1030904646 -950239216 1208025123 288377286
            -660241206 -943701560 -494294362 288051355</internalNodes>
          <leafValues>
            -6.2713813781738281e-01 4.4528251886367798e-01</leafValues></_></weakClassifiers></_>
    <!-- stage 16 -->
    <_>
      <maxWeakCount>7</maxWeakCount>
      <stageThreshold>-9.3687266111373901e-01</stageThreshold>
      <weakClassifiers>
        <_>
          <internalNodes>
            0 -1 47 1402308062 1178617089 1346672078 -903619305
            537330234 545198488 -1020655973 1325848576</internalNodes>
          <leafValues>
            -6.5697675943374634e-01 4.9840763211250305e-01</leafValues></_>
        <_>
          <internalNodes>
            0 -1 81 -1592466449 -681574257 -1933517630 268570756
            36762811 -147783135 1361220159 21709833</internalNodes>
          <leafValues>
            -7.0626574754714966e-01 3.4111255407333374e-01</leafValues></_>
        <_>
          <internalNodes>
            0 -1 117 -2007854785 -639631038 34970774 495468612 813806809
            -1878769404 -1417385663 487403721</internalNodes>
          <leafValues>
            -5.4850488901138306e-01 4.4022548198699951e-01</leafValues></_>
        <_>
          <internalNodes>
            0 -1 86 -1060875105 -1073668054 218824962 -3948476
            -805302268 1870660293 -362634567 1943794526</internalNodes>
          <leafValues>
            -5.2761894464492798e-01 4.5865193009376526e-01</leafValues></_>
        <_>
          <internalNodes>
            0 -1 58 1967425728 -1244446648 -1022217190 -571899724
            1074174122 310493210 67421679 -706488177</internalNodes>
          <leafValues>
            -4.6560996770858765e-01 5.4156887531280518e-01</leafValues></_>
        <_>
          <internalNodes>
            0 -1 16 466040695 778635274 286830868 190986002 1301824577
            -1132314547 1688241506 1619276342</internalNodes>
          <leafValues>
            -6.9011306762695313e-01 3.6955070495605469e-01</leafValues></_>
        <_>
          <internalNodes>
            0 -1 93 -613184569 -212492328 -285245890 -1277550658
            -1625977704 -747215016 1725705418 -1076376481</internalNodes>
          <leafValues>
            -4.3755573034286499e-01 6.2806719541549683e-01</leafValues></_></weakClassifiers></_>
    <!-- stage 17 -->
    <_>
      <maxWeakCount>6</maxWeakCount>
      <stageThreshold>-5.1837182044982910e-01</stageThreshold>
      <weakClassifiers>
        <_>
          <internalNodes>
            0 -1 32 123962198 6719046 1363154176 -1495363500 69276047
            910038147 -1979015783 -1190086566</internalNodes>
          <leafValues>
            -6.3287669420242310e-01 5.1093119382858276e-01</leafValues></_>
        <_>
          <internalNodes>
            0 -1 15 -241889246 -171740542 -804322102 -1316818784
            -2147263097 -1723665680 -468491669 -521965498</internalNodes>
          <leafValues>
            -5.2914059162139893e-01 4.3627440929412842e-01</leafValues></_>
        <_>
          <internalNodes>
            0 -1 91 285430163 268439569 536907200 858818617 1896995302
            -1877892733 1879947435 1523464395</internalNodes>
          <leafValues>
            -5.2459323406219482e-01 5.1058596372604370e-01</leafValues></_>
        <_>
          <internalNodes>
            0 -1 25 269518865 1132466651 1395757062 -1440835372
            575701976 -659076341 182506759 -1634690486</internalNodes>
          <leafValues>
            -6.5788489580154419e-01 4.0501040220260620e-01</leafValues></_>
        <_>
          <internalNodes>
            0 -1 85 403838714 -1270314998 293802942 -947581434 168248838
            -1199462290 -282905601 1902604466</internalNodes>
          <leafValues>
            -7.5721573829650879e-01 3.0534726381301880e-01</leafValues></_>
        <_>
          <internalNodes>
            0 -1 34 -18903473 -674845105 -10576129 -1077485610
            -152635670 -404832531 -1114145 -1344891126</internalNodes>
          <leafValues>
            -4.7981780767440796e-01 5.8929020166397095e-01</leafValues></_></weakClassifiers></_>
    <!-- stage 18 -->
    <_>
      <maxWeakCount>7</maxWeakCount>
      <stageThreshold>-6.9505518674850464e-01</stageThreshold>
      <weakClassifiers>
        <_>
          <internalNodes>
            0 -1 8 -432377708 2129402130 -749006737 928096258 -128519224
            713588900 -2021356800 550944912</internalNodes>
          <leafValues>
            -7.2390574216842651e-01 4.7198772430419922e-01</leafValues></_>
        <_>
          <internalNodes>
            0 -1 42 1231802638 1382172735 1752434038 -1875754648
            -1445206546 -1670717304 -773807661 -1468845741</internalNodes>
          <leafValues>
            -5.9858834743499756e-01 3.8562506437301636e-01</leafValues></_>
        <_>
          <internalNodes>
            0 -1 72 1947426135 1085757748 2121709403 -265031214
            1599971279 2113797371 -12617790 -9473029</internalNodes>
          <leafValues>
            -3.6036142706871033e-01 6.7051416635513306e-01</leafValues></_>
        <_>
          <internalNodes>
            0 -1 6 -881707137 -1095567617 -268439902 -1813515119
            1949559663 2126128722 -30546860 -790121456</internalNodes>
          <leafValues>
            -4.3570056557655334e-01 5.4286807775497437e-01</leafValues></_>
        <_>
          <internalNodes>
            0 -1 2 423072731 -1722674750 688000149 -615312048 151045699
            -2013265743 -536853645 -981363808</internalNodes>
          <leafValues>
            -5.0672149658203125e-01 5.1200258731842041e-01</leafValues></_>
        <_>
          <internalNodes>
            0 -1 27 -1140776748 893587792 324604739 -1161745389
            -778024820 -1350549496 640238209 -2103265664</internalNodes>
          <leafValues>
            -6.0263496637344360e-01 4.6442103385925293e-01</leafValues></_>
        <_>
          <internalNodes>
            0 -1 97 -867312177 -377534981 368931811 -614042378 796917067
            -2025405868 -1612228729 -46983751</internalNodes>
          <leafValues>
            -4.6080023050308228e-01 6.2086653709411621e-01</leafValues></_></weakClassifiers></_>
    <!-- stage 19 -->
    <_>
      <maxWeakCount>7</maxWeakCount>
      <stageThreshold>-9.7645348310470581e-01</stageThreshold>
      <weakClassifiers>
        <_>
          <internalNodes>
            0 -1 88 2295695 1142751507 696404259 8945868 2031276403
            1295253760 -1979674576 254724272</internalNodes>
          <leafValues>
            -7.2881358861923218e-01 4.7126436233520508e-01</leafValues></_>
        <_>
          <internalNodes>
            0 -1 44 290721982 1130434865 1964186546 -1902827231
            -1828235861 -1994719086 -1314418977 1334906891</internalNodes>
          <leafValues>
            -6.6982829570770264e-01 3.3468377590179443e-01</leafValues></_>
        <_>
          <internalNodes>
            0 -1 29 -1190834124 497354482 -1861679782 293908483
            -1341554453 -108330621 -1140645373 -705709526</internalNodes>
          <leafValues>
            -4.8208037018775940e-01 4.9907273054122925e-01</leafValues></_>
        <_>
          <internalNodes>
            0 -1 14 522392820 1271103766 369399866 -82421740 318839348
            -1710587759 -1950283673 1384829555</internalNodes>
          <leafValues>
            -7.5074088573455811e-01 3.0433285236358643e-01</leafValues></_>
        <_>
          <internalNodes>
            0 -1 103 -715672339 1338829956 -8491634 -563612546
            -1073762049 -18596938 1476323002 -644992334</internalNodes>
          <leafValues>
            -4.3017670512199402e-01 5.7885479927062988e-01</leafValues></_>
        <_>
          <internalNodes>
            0 -1 4 -1722150477 634626348 -1639803061 -963132670
            -381016023 -1417312120 -1528919417 1180040212</internalNodes>
          <leafValues>
            -5.9142625331878662e-01 4.3543657660484314e-01</leafValues></_>
        <_>
          <internalNodes>
            0 -1 113 -208193017 -1450368422 268562943 -49012132
            -1912143446 -2055010166 -2110633849 1394563146</internalNodes>
          <leafValues>
            -5.1365000009536743e-01 5.1010417938232422e-01</leafValues></_></weakClassifiers></_></stages>
  <features>
    <_>
      <rect>
        0 5 6 11</rect></_>
    <_>
      <rect>
        0 6 9 11</rect></_>
    <_>
      <rect>
        0 7 8 13</rect></_>
    <_>
      <rect>
        0 11 3 8</rect></_>
    <_>
      <rect>
        0 12 7 9</rect></_>
    <_>
      <rect>
        0 12 7 10</rect></_>
    <_>
      <rect>
        0 16 3 5</rect></_>
    <_>
      <rect>
        0 17 4 6</rect></_>
    <_>
      <rect>
        1 10 6 8</rect></_>
    <_>
      <rect>
        1 10 8 10</rect></_>
    <_>
      <rect>
        1 11 6 11</rect></_>
    <_>
      <rect>
        2 10 4 7</rect></_>
    <_>
      <rect>
        2 13 6 6</rect></_>
    <_>
      <rect>
        2 14 3 5</rect></_>
    <_>
      <rect>
        2 14 8 8</rect></_>
    <_>
      <rect>
        2 19 3 5</rect></_>
    <_>
      <rect>
        2 26 5 7</rect></_>
    <_>
      <rect>
        3 9 5 6</rect></_>
    <_>
      <rect>
        3 11 7 6</rect></_>
    <_>
      <rect>
        3 13 5 4</rect></_>
    <_>
      <rect>
        3 15 3 6</rect></_>
    <_>
      <rect>
        3 15 5 8</rect></_>
    <_>
      <rect>
        4 10 5 10</rect></_>
    <_>
      <rect>
        4 13 5 7</rect></_>
    <_>
      <rect>
        4 15 6 6</rect></_>
    <_>
      <rect>
        4 17 5 7</rect></_>
    <_>
      <rect>
        5 8 5 7</rect></_>
    <_>
      <rect>
        5 13 4 4</rect></_>
    <_>
      <rect>
        5 14 6 6</rect></_>
    <_>
      <rect>
        5 16 3 3</rect></_>
    <_>
      <rect>
        5 18 7 7</rect></_>
    <_>
      <rect>
        5 20 3 3</rect></_>
    <_>
      <rect>
        5 23 5 2</rect></_>
    <_>
      <rect>
        5 27 1 1</rect></_>
    <_>
      <rect>
        6 3 5 10</rect></_>
    <_>
      <rect>
        6 12 4 4</rect></_>
    <_>
      <rect>
        6 15 4 5</rect></_>
    <_>
      <rect>
        6 19 2 3</rect></_>
    <_>
      <rect>
        6 19 4 4</rect></_>
    <_>
      <rect>
        6 19 6 5</rect></_>
    <_>
      <rect>
        6 21 4 3</rect></_>
    <_>
      <rect>
        6 23 2 2</rect></_>
    <_>
      <rect>
        7 8 6 6</rect></_>
    <_>
      <rect>
        7 9 5 8</rect></_>
    <_>
      <rect>
        7 20 4 3</rect></_>
    <_>
      <rect>
        7 20 4 5</rect></_>
    <_>
      <rect>
        7 21 1 2</rect></_>
    <_>
      <rect>
        7 21 4 3</rect></_>
    <_>
      <rect>
        7 23 4 3</rect></_>
    <_>
      <rect>
        7 24 2 2</rect></_>
    <_>
      <rect>
        8 9 6 10</rect></_>
    <_>
      <rect>
        8 12 5 6</rect></_>
    <_>
      <rect>
        8 13 4 5</rect></_>
    <_>
      <rect>
        8 13 6 6</rect></_>
    <_>
      <rect>
        8 15 2 4</rect></_>
    <_>
      <rect>
        8 20 1 2</rect></_>
    <_>
      <rect>
        8 21 1 2</rect></_>
    <_>
      <rect>
        8 23 1 2</rect></_>
    <_>
      <rect>
        8 26 1 2</rect></_>
    <_>
      <rect>
        9 8 5 6</rect></_>
    <_>
      <rect>
        9 12 3 5</rect></_>
    <_>
      <rect>
        9 19 4 3</rect></_>
    <_>
      <rect>
        9 20 2 3</rect></_>
    <_>
      <rect>
        9 21 2 2</rect></_>
    <_>
      <rect>
        9 21 3 3</rect></_>
    <_>
      <rect>
        9 22 1 2</rect></_>
    <_>
      <rect>
        9 22 2 2</rect></_>
    <_>
      <rect>
        9 22 2 3</rect></_>
    <_>
      <rect>
        9 23 1 4</rect></_>
    <_>
      <rect>
        9 23 2 2</rect></_>
    <_>
      <rect>
        9 24 1 1</rect></_>
    <_>
      <rect>
        9 25 1 1</rect></_>
    <_>
      <rect>
        10 15 4 3</rect></_>
    <_>
      <rect>
        10 16 4 4</rect></_>
    <_>
      <rect>
        10 17 3 4</rect></_>
    <_>
      <rect>
        10 18 2 4</rect></_>
    <_>
      <rect>
        10 19 2 3</rect></_>
    <_>
      <rect>
        10 19 4 4</rect></_>
    <_>
      <rect>
        10 21 2 3</rect></_>
    <_>
      <rect>
        10 22 2 2</rect></_>
    <_>
      <rect>
        10 22 2 3</rect></_>
    <_>
      <rect>
        10 22 3 1</rect></_>
    <_>
      <rect>
        11 11 4 5</rect></_>
    <_>
      <rect>
        11 17 2 4</rect></_>
    <_>
      <rect>
        11 18 2 3</rect></_>
    <_>
      <rect>
        11 18 3 3</rect></_>
    <_>
      <rect>
        11 21 2 5</rect></_>
    <_>
      <rect>
        11 22 1 2</rect></_>
    <_>
      <rect>
        11 22 2 1</rect></_>
    <_>
      <rect>
        11 22 2 2</rect></_>
    <_>
      <rect>
        11 22 2 3</rect></_>
    <_>
      <rect>
        11 22 4 4</rect></_>
    <_>
      <rect>
        11 23 2 1</rect></_>
    <_>
      <rect>
        12 14 2 3</rect></_>
    <_>
      <rect>
        12 18 2 4</rect></_>
    <_>
      <rect>
        12 19 1 3</rect></_>
    <_>
      <rect>
        12 19 2 4</rect></_>
    <_>
      <rect>
        12 20 1 3</rect></_>
    <_>
      <rect>
        12 21 1 2</rect></_>
    <_>
      <rect>
        12 21 1 3</rect></_>
    <_>
      <rect>
        12 22 1 1</rect></_>
    <_>
      <rect>
        12 22 1 2</rect></_>
    <_>
      <rect>
        12 23 1 1</rect></_>
    <_>
      <rect>
        13 17 2 3</rect></_>
    <_>
      <rect>
        13 17 3 5</rect></_>
    <_>
      <rect>
        13 18 1 4</rect></_>
    <_>
      <rect>
        13 18 2 4</rect></_>
    <_>
      <rect>
        13 19 2 3</rect></_>
    <_>
      <rect>
        13 21 2 2</rect></_>
    <_>
      <rect>
        13 23 1 1</rect></_>
    <_>
      <rect>
        14 17 1 3</rect></_>
    <_>
      <rect>
        14 17 2 3</rect></_>
    <_>
      <rect>
        14 21 2 2</rect></_>
    <_>
      <rect>
        15 16 3 6</rect></_>
    <_>
      <rect>
        15 19 2 4</rect></_>
    <_>
      <rect>
        16 13 3 7</rect></_>
    <_>
      <rect>
        17 14 2 5</rect></_>
    <_>
      <rect>
        17 18 3 4</rect></_>
    <_>
      <rect>
        17 19 2 5</rect></_>
    <_>
      <rect>
        18 20 2 4</rect></_>
    <_>
      <rect>
        18 23 1 4</rect></_></features></cascade>
</opencv_storage>
