<?xml version="1.0"?>
<opencv_storage>
<cascade>
  <stageType>BOOST</stageType>
  <featureType>LBP</featureType>
  <height>30</height>
  <width>10</width>
  <stageParams>
    <boostType>GAB</boostType>
    <minHitRate>9.9900001287460327e-01</minHitRate>
    <maxFalseAlarm>5.0000000000000000e-01</maxFalseAlarm>
    <weightTrimRate>9.4999999999999996e-01</weightTrimRate>
    <maxDepth>1</maxDepth>
    <maxWeakCount>100</maxWeakCount></stageParams>
  <featureParams>
    <maxCatCount>256</maxCatCount>
    <featSize>1</featSize></featureParams>
  <stageNum>50</stageNum>
  <stages>
    <!-- stage 0 -->
    <_>
      <maxWeakCount>5</maxWeakCount>
      <stageThreshold>-3.9892017841339111e-01</stageThreshold>
      <weakClassifiers>
        <_>
          <internalNodes>
            0 -1 232 -805126134 -572555222 403462272 1127604498
            1075486894 98535816 103186671 1945092827</internalNodes>
          <leafValues>
            -4.0197461843490601e-01 7.6879912614822388e-01</leafValues></_>
        <_>
          <internalNodes>
            0 -1 17 -201341233 305352681 549342639 1374887343 1969213323
            306058142 1409189583 1133199883</internalNodes>
          <leafValues>
            -5.0844353437423706e-01 7.2503006458282471e-01</leafValues></_>
        <_>
          <internalNodes>
            0 -1 330 -721172344 1963033160 163840 1090896065 819240
            134348800 268550547 332394635</internalNodes>
          <leafValues>
            -6.2101542949676514e-01 6.1705982685089111e-01</leafValues></_>
        <_>
          <internalNodes>
            0 -1 289 -263470462 -779976576 32776 -712441751 -2147450680
            8716288 50434955 998966171</internalNodes>
          <leafValues>
            -6.2713819742202759e-01 6.4900255203247070e-01</leafValues></_>
        <_>
          <internalNodes>
            0 -1 15 -1051729774 -801046527 65536 1090715650 17006730
            67305472 1342275586 1124307458</internalNodes>
          <leafValues>
            -6.4459574222564697e-01 6.3372588157653809e-01</leafValues></_></weakClassifiers></_>
    <!-- stage 1 -->
    <_>
      <maxWeakCount>4</maxWeakCount>
      <stageThreshold>-8.3700066804885864e-01</stageThreshold>
      <weakClassifiers>
        <_>
          <internalNodes>
            0 -1 236 -595033976 1523191456 704825569 287510720
            1579714208 71430144 1411276 -1290862387</internalNodes>
          <leafValues>
            -4.7932618856430054e-01 7.5290387868881226e-01</leafValues></_>
        <_>
          <internalNodes>
            0 -1 241 -771211136 -1859351936 32014840 1400307915 36735394
            342820240 272728203 -1819321665</internalNodes>
          <leafValues>
            -5.1344567537307739e-01 7.2566288709640503e-01</leafValues></_>
        <_>
          <internalNodes>
            0 -1 295 -1340571512 -787873792 402669576 1900871697
            -2146791286 -2147483648 -2138537847 -1857486710</internalNodes>
          <leafValues>
            -5.7264178991317749e-01 6.6482126712799072e-01</leafValues></_>
        <_>
          <internalNodes>
            0 -1 107 -75249024 -173354848 159544880 -609519424
            -2042243712 -2146162624 151476427 -616365885</internalNodes>
          <leafValues>
            -5.0381714105606079e-01 7.9225826263427734e-01</leafValues></_></weakClassifiers></_>
    <!-- stage 2 -->
    <_>
      <maxWeakCount>9</maxWeakCount>
      <stageThreshold>-6.0342109203338623e-01</stageThreshold>
      <weakClassifiers>
        <_>
          <internalNodes>
            0 -1 79 -699662417 1066577863 987429719 -11519453 1341434543
            1811679916 -1343836485 2574</internalNodes>
          <leafValues>
            -3.4431630373001099e-01 6.1329305171966553e-01</leafValues></_>
        <_>
          <internalNodes>
            0 -1 107 -71042870 -34958944 427982499 455571537 -146713398
            -480925624 1263859963 1526927562</internalNodes>
          <leafValues>
            -4.0752828121185303e-01 4.7757011651992798e-01</leafValues></_>
        <_>
          <internalNodes>
            0 -1 295 -796340072 -714849980 152047764 1904018353
            -100425669 1744879633 308286091 257755915</internalNodes>
          <leafValues>
            -5.4491657018661499e-01 3.8516914844512939e-01</leafValues></_>
        <_>
          <internalNodes>
            0 -1 109 -483556722 1724312775 -155313701 1076231151
            1790878383 -1196643808 1308588539 -654442531</internalNodes>
          <leafValues>
            -4.6200120449066162e-01 4.7846767306327820e-01</leafValues></_>
        <_>
          <internalNodes>
            0 -1 78 1358396541 -1785623870 1234583639 -423511726
            -1307200802 2125041763 -226285047 805564970</internalNodes>
          <leafValues>
            -4.8468992114067078e-01 4.6551969647407532e-01</leafValues></_>
        <_>
          <internalNodes>
            0 -1 203 -260011891 -1323858984 -1610477421 -616454986
            -1307834735 570434967 1597540523 386622398</internalNodes>
          <leafValues>
            -4.8176798224449158e-01 4.9646568298339844e-01</leafValues></_>
        <_>
          <internalNodes>
            0 -1 236 -721891196 1556513184 1610844369 889192963
            2049999572 1547756545 688490698 1695121675</internalNodes>
          <leafValues>
            -6.5576732158660889e-01 3.5830956697463989e-01</leafValues></_>
        <_>
          <internalNodes>
            0 -1 84 -582051101 1394184715 -1337914717 1363804544
            -1065252208 -1526628280 315304170 78318634</internalNodes>
          <leafValues>
            -5.8292841911315918e-01 4.2975151538848877e-01</leafValues></_>
        <_>
          <internalNodes>
            0 -1 57 1940299079 1495752742 1755215932 925333099
            1197370906 1182688886 1314209270 -11014453</internalNodes>
          <leafValues>
            -3.9351564645767212e-01 6.4848357439041138e-01</leafValues></_></weakClassifiers></_>
    <!-- stage 3 -->
    <_>
      <maxWeakCount>9</maxWeakCount>
      <stageThreshold>-5.3810709714889526e-01</stageThreshold>
      <weakClassifiers>
        <_>
          <internalNodes>
            0 -1 12 -184581513 -671144910 2147478205 -746659664
            1970325753 -1222651784 -1082294038 4276258</internalNodes>
          <leafValues>
            -3.2517483830451965e-01 5.7003891468048096e-01</leafValues></_>
        <_>
          <internalNodes>
            0 -1 98 813507258 390248832 -2104753767 1468936273 478195391
            539529743 -1853732404 442806299</internalNodes>
          <leafValues>
            -5.4205250740051270e-01 3.4727367758750916e-01</leafValues></_>
        <_>
          <internalNodes>
            0 -1 389 1105192335 491340059 1597144768 824552056
            -287607911 947837432 -82899370 -92212529</internalNodes>
          <leafValues>
            -2.9718419909477234e-01 6.2690597772598267e-01</leafValues></_>
        <_>
          <internalNodes>
            0 -1 28 1891616819 1364430062 -1592530092 835044933
            1218554072 -1727380984 80507047 1614042501</internalNodes>
          <leafValues>
            -4.6268725395202637e-01 4.1097643971443176e-01</leafValues></_>
        <_>
          <internalNodes>
            0 -1 10 600808295 -719609839 -956173115 -1287384959
            -1786685000 -393805684 -921581330 1463897609</internalNodes>
          <leafValues>
            -4.8166260123252869e-01 4.1379699110984802e-01</leafValues></_>
        <_>
          <internalNodes>
            0 -1 55 1150804547 896691750 125184624 1396555638 259910653
            1838948172 804781823 1224243022</internalNodes>
          <leafValues>
            -4.5134904980659485e-01 4.7136193513870239e-01</leafValues></_>
        <_>
          <internalNodes>
            0 -1 29 -151324453 390105696 1965394506 -1693605312
            -1543335803 -1840215677 1094902801 1166758131</internalNodes>
          <leafValues>
            -4.8439344763755798e-01 4.6235442161560059e-01</leafValues></_>
        <_>
          <internalNodes>
            0 -1 271 -154880914 419827846 42255874 1900691791 440985292
            -1543421888 -1987919170 70659874</internalNodes>
          <leafValues>
            -6.5602481365203857e-01 3.4505558013916016e-01</leafValues></_>
        <_>
          <internalNodes>
            0 -1 244 -1887847541 -473013750 796798503 -102892235
            20617150 -1439789316 1446260362 -327598604</internalNodes>
          <leafValues>
            -3.9124163985252380e-01 5.6480705738067627e-01</leafValues></_></weakClassifiers></_>
    <!-- stage 4 -->
    <_>
      <maxWeakCount>10</maxWeakCount>
      <stageThreshold>-5.9301382303237915e-01</stageThreshold>
      <weakClassifiers>
        <_>
          <internalNodes>
            0 -1 161 1466363823 201283239 -356721878 823029294 265766638
            -1368065 1610550427 186975522</internalNodes>
          <leafValues>
            -2.9856115579605103e-01 5.4214560985565186e-01</leafValues></_>
        <_>
          <internalNodes>
            0 -1 80 -774456140 1910677648 268601670 951531471 1363808526
            714353034 -104187891 469969579</internalNodes>
          <leafValues>
            -5.1300817728042603e-01 3.6975461244583130e-01</leafValues></_>
        <_>
          <internalNodes>
            0 -1 186 -956972914 303534784 545261702 -53583870
            -1899840611 495563810 2017717964 1746393563</internalNodes>
          <leafValues>
            -4.2913717031478882e-01 4.0037247538566589e-01</leafValues></_>
        <_>
          <internalNodes>
            0 -1 296 1114036456 306286596 193734956 1427494052 177603978
            -1610087418 1099409083 281529039</internalNodes>
          <leafValues>
            -5.2555668354034424e-01 3.4214919805526733e-01</leafValues></_>
        <_>
          <internalNodes>
            0 -1 182 -213603893 -249917191 1694671135 -1660084221
            -1876655991 143919168 1615454344 1465846703</internalNodes>
          <leafValues>
            -4.2670395970344543e-01 4.3719872832298279e-01</leafValues></_>
        <_>
          <internalNodes>
            0 -1 133 -572862012 1931461256 -2146955177 453323142
            -1071510628 -1701707712 -1960721751 995829185</internalNodes>
          <leafValues>
            -4.7095122933387756e-01 4.7626972198486328e-01</leafValues></_>
        <_>
          <internalNodes>
            0 -1 22 -1875275490 1580959118 303173972 305316100
            -1508553488 1929429289 1756506351 275727402</internalNodes>
          <leafValues>
            -6.3967466354370117e-01 3.3894136548042297e-01</leafValues></_>
        <_>
          <internalNodes>
            0 -1 107 1347066568 1427734600 92320896 525733896 -805076539
            178159810 146936463 822306955</internalNodes>
          <leafValues>
            -6.4082992076873779e-01 3.2296669483184814e-01</leafValues></_>
        <_>
          <internalNodes>
            0 -1 259 2069077989 2126269328 -18493555 -1284387661
            340326745 2079801264 -1358387282 427791773</internalNodes>
          <leafValues>
            -4.2915874719619751e-01 5.1079255342483521e-01</leafValues></_>
        <_>
          <internalNodes>
            0 -1 301 -13139232 2063728905 393480 86456705 115978
            -1828544512 -1861640021 210234010</internalNodes>
          <leafValues>
            -5.0401985645294189e-01 4.4069534540176392e-01</leafValues></_></weakClassifiers></_>
    <!-- stage 5 -->
    <_>
      <maxWeakCount>7</maxWeakCount>
      <stageThreshold>-9.3158358335494995e-01</stageThreshold>
      <weakClassifiers>
        <_>
          <internalNodes>
            0 -1 41 -61685632 -208764928 2074231362 1929634080
            -1601912440 -2110488304 1399095434 -82095974</internalNodes>
          <leafValues>
            -2.4078623950481415e-01 7.5826972723007202e-01</leafValues></_>
        <_>
          <internalNodes>
            0 -1 332 -773271424 -653836272 -1544464880 -775602009
            -694251380 -899673575 386128008 -1146126165</internalNodes>
          <leafValues>
            -3.8954818248748779e-01 6.8833941221237183e-01</leafValues></_>
        <_>
          <internalNodes>
            0 -1 359 -766591360 -238105024 34612384 1902183624
            -2011444072 187323424 -702381829 -1819407125</internalNodes>
          <leafValues>
            -4.3872982263565063e-01 6.8839454650878906e-01</leafValues></_>
        <_>
          <internalNodes>
            0 -1 115 -798961024 -735511516 1746142256 1461609176
            -200559464 -424462246 1347206378 -1156639349</internalNodes>
          <leafValues>
            -4.8991483449935913e-01 6.6375440359115601e-01</leafValues></_>
        <_>
          <internalNodes>
            0 -1 250 -1031239800 -704706544 1980785844 1463960552
            -1777236546 -1052601855 -888107125 -1156607265</internalNodes>
          <leafValues>
            -4.1673582792282104e-01 7.5243425369262695e-01</leafValues></_>
        <_>
          <internalNodes>
            0 -1 51 -662257016 -152732036 1885787240 1597991596
            -197090168 762251034 156340970 -240152341</internalNodes>
          <leafValues>
            -4.6000772714614868e-01 6.8519395589828491e-01</leafValues></_>
        <_>
          <internalNodes>
            0 -1 395 1912807618 -788332544 1114132486 1527840774
            562275010 1074266624 8388814 17768655</internalNodes>
          <leafValues>
            -5.7280445098876953e-01 6.0451561212539673e-01</leafValues></_></weakClassifiers></_>
    <!-- stage 6 -->
    <_>
      <maxWeakCount>8</maxWeakCount>
      <stageThreshold>-8.9451098442077637e-01</stageThreshold>
      <weakClassifiers>
        <_>
          <internalNodes>
            0 -1 93 -767496032 -575929272 582526208 -1790602192
            -1994095976 1627686034 1459667338 1095439643</internalNodes>
          <leafValues>
            -3.5869565606117249e-01 5.7061070203781128e-01</leafValues></_>
        <_>
          <internalNodes>
            0 -1 111 -104144766 -765417919 -768425408 -643608155
            1380615842 103434821 1465090218 1936445771</internalNodes>
          <leafValues>
            -4.5144191384315491e-01 5.1091068983078003e-01</leafValues></_>
        <_>
          <internalNodes>
            0 -1 38 -649405752 -637407232 8912916 -181420032 -503267184
            1079164928 1394088094 1515913867</internalNodes>
          <leafValues>
            -5.3039187192916870e-01 4.4496527314186096e-01</leafValues></_>
        <_>
          <internalNodes>
            0 -1 185 -586596222 -708475454 1073771520 856525017
            -972813633 -107149107 1442840731 525817411</internalNodes>
          <leafValues>
            -5.2326881885528564e-01 4.6230486035346985e-01</leafValues></_>
        <_>
          <internalNodes>
            0 -1 369 -810623872 -143783219 2011884136 -243968002
            -1724140850 1364077952 -1950194513 -148662321</internalNodes>
          <leafValues>
            -4.3236047029495239e-01 6.3915002346038818e-01</leafValues></_>
        <_>
          <internalNodes>
            0 -1 89 -1199521344 419500289 536887316 -1652473791
            -2013093728 -1417574400 -1602201175 302076487</internalNodes>
          <leafValues>
            -5.5561351776123047e-01 5.0073200464248657e-01</leafValues></_>
        <_>
          <internalNodes>
            0 -1 208 -309271414 1901412488 134353028 352452610
            -1727475494 1627557888 689144362 1124270331</internalNodes>
          <leafValues>
            -5.8316576480865479e-01 4.7974762320518494e-01</leafValues></_>
        <_>
          <internalNodes>
            0 -1 329 -879848 -236195726 374730390 358825429 -144116828
            67397464 -1927413878 -201619537</internalNodes>
          <leafValues>
            -4.0757745504379272e-01 6.7487561702728271e-01</leafValues></_></weakClassifiers></_>
    <!-- stage 7 -->
    <_>
      <maxWeakCount>8</maxWeakCount>
      <stageThreshold>-7.5043952465057373e-01</stageThreshold>
      <weakClassifiers>
        <_>
          <internalNodes>
            0 -1 127 -666316604 -205345464 774524429 1407838952
            -726729496 -1854175531 -2089980211 406419007</internalNodes>
          <leafValues>
            -3.0508473515510559e-01 5.7425743341445923e-01</leafValues></_>
        <_>
          <internalNodes>
            0 -1 310 -671034688 1560314240 1442878669 290537867 42172588
            -1936949102 -2138928200 436571050</internalNodes>
          <leafValues>
            -4.4517204165458679e-01 4.6437403559684753e-01</leafValues></_>
        <_>
          <internalNodes>
            0 -1 327 -174854016 -543047655 -1255799819 1955976558
            1166118572 73210038 600422077 -620596561</internalNodes>
          <leafValues>
            -4.1898673772811890e-01 5.2109616994857788e-01</leafValues></_>
        <_>
          <internalNodes>
            0 -1 59 -45383552 1400772993 911355684 -145883526 607552128
            1394630257 17298058 -1576040614</internalNodes>
          <leafValues>
            -4.2937275767326355e-01 5.3484994173049927e-01</leafValues></_>
        <_>
          <internalNodes>
            0 -1 287 -243085184 -577906264 1633052977 1365182847
            405837026 -1181281439 1730665306 -649359097</internalNodes>
          <leafValues>
            -4.0990749001502991e-01 5.8556371927261353e-01</leafValues></_>
        <_>
          <internalNodes>
            0 -1 32 -326182182 -134644992 -5607207 -618705498
            -1575767864 -846470062 558185417 -351551457</internalNodes>
          <leafValues>
            -3.7901398539543152e-01 6.4676755666732788e-01</leafValues></_>
        <_>
          <internalNodes>
            0 -1 371 -448468340 -783974336 -2147467125 1292730376
            -2147250045 1342210056 1149608010 940278510</internalNodes>
          <leafValues>
            -5.8329176902770996e-01 4.4403204321861267e-01</leafValues></_>
        <_>
          <internalNodes>
            0 -1 265 1141103234 -267353983 419893728 1359054857
            545309112 427887104 -2146434930 1392733883</internalNodes>
          <leafValues>
            -5.0858116149902344e-01 5.1841747760772705e-01</leafValues></_></weakClassifiers></_>
    <!-- stage 8 -->
    <_>
      <maxWeakCount>8</maxWeakCount>
      <stageThreshold>-7.7751272916793823e-01</stageThreshold>
      <weakClassifiers>
        <_>
          <internalNodes>
            0 -1 42 -101722110 -749474304 -1294328240 876645904
            1090932736 391775504 1560298001 2001421607</internalNodes>
          <leafValues>
            -4.2028984427452087e-01 5.3983885049819946e-01</leafValues></_>
        <_>
          <internalNodes>
            0 -1 108 -932977952 1465427526 51828485 -1860093425 77832946
            -1066368924 134482573 1389354575</internalNodes>
          <leafValues>
            -5.1083207130432129e-01 4.2037948966026306e-01</leafValues></_>
        <_>
          <internalNodes>
            0 -1 101 -872428374 -1168136024 -1968307704 154031650
            63622734 1291191121 1125287866 2134373119</internalNodes>
          <leafValues>
            -4.3287637829780579e-01 5.0937867164611816e-01</leafValues></_>
        <_>
          <internalNodes>
            0 -1 145 -1033862014 201771752 44866440 1128375836
            1146259248 167129018 -1761370406 -251143393</internalNodes>
          <leafValues>
            -3.9534601569175720e-01 5.4989534616470337e-01</leafValues></_>
        <_>
          <internalNodes>
            0 -1 392 -1068252702 -1072479616 1610743856 1124663964
            -1463582590 939556992 966316698 2018240522</internalNodes>
          <leafValues>
            -5.5706572532653809e-01 4.1915884613990784e-01</leafValues></_>
        <_>
          <internalNodes>
            0 -1 171 -157816318 -488423166 268718378 100993280
            -753817400 167772416 1074321566 1311752902</internalNodes>
          <leafValues>
            -5.2984070777893066e-01 4.5480298995971680e-01</leafValues></_>
        <_>
          <internalNodes>
            0 -1 194 -384841085 1441602018 1281909798 1411614318
            1331349644 -60836199 1422325687 -543162401</internalNodes>
          <leafValues>
            -3.4740921854972839e-01 7.1700185537338257e-01</leafValues></_>
        <_>
          <internalNodes>
            0 -1 372 -22089190 -96948284 -1913441083 -1861648785
            356294634 -1939522188 1466089631 1095209787</internalNodes>
          <leafValues>
            -4.5983672142028809e-01 5.4163497686386108e-01</leafValues></_></weakClassifiers></_>
    <!-- stage 9 -->
    <_>
      <maxWeakCount>7</maxWeakCount>
      <stageThreshold>-5.0538790225982666e-01</stageThreshold>
      <weakClassifiers>
        <_>
          <internalNodes>
            0 -1 36 313533064 1954437047 2097132469 -546347649 49885435
            659303647 2146924543 1894725345</internalNodes>
          <leafValues>
            -3.6268344521522522e-01 5.1024043560028076e-01</leafValues></_>
        <_>
          <internalNodes>
            0 -1 189 -666700570 -763068340 54811164 -1751182078
            -175981934 1476935808 621107353 463188655</internalNodes>
          <leafValues>
            -4.6278232336044312e-01 4.0604987740516663e-01</leafValues></_>
        <_>
          <internalNodes>
            0 -1 99 -201274134 -43596984 466344211 1440960561 -251635287
            -1743085440 34328811 189730939</internalNodes>
          <leafValues>
            -4.6329337358474731e-01 4.3157351016998291e-01</leafValues></_>
        <_>
          <internalNodes>
            0 -1 356 1903136191 711373816 263732944 855026495 1073809594
            911417062 321699031 2068314806</internalNodes>
          <leafValues>
            -3.7344276905059814e-01 5.2367556095123291e-01</leafValues></_>
        <_>
          <internalNodes>
            0 -1 153 -678168701 1973062374 522315331 -378541125
            -967142263 -1243619668 -623386181 2030181165</internalNodes>
          <leafValues>
            -3.7901976704597473e-01 5.4950815439224243e-01</leafValues></_>
        <_>
          <internalNodes>
            0 -1 176 1384154778 -703868656 272704278 1572201098
            -1052535584 -2120462272 -2079752053 1095697113</internalNodes>
          <leafValues>
            -4.7240749001502991e-01 4.4715151190757751e-01</leafValues></_>
        <_>
          <internalNodes>
            0 -1 71 1074824480 1473318000 1616433622 1493651768
            1679855650 890962056 826294826 296736975</internalNodes>
          <leafValues>
            -6.3063317537307739e-01 3.4909003973007202e-01</leafValues></_></weakClassifiers></_>
    <!-- stage 10 -->
    <_>
      <maxWeakCount>10</maxWeakCount>
      <stageThreshold>-7.0465511083602905e-01</stageThreshold>
      <weakClassifiers>
        <_>
          <internalNodes>
            0 -1 218 -131378447 492596924 1827479797 1529194252
            -1694505071 -1380446244 -498147094 709903108</internalNodes>
          <leafValues>
            -2.0601503551006317e-01 5.7433152198791504e-01</leafValues></_>
        <_>
          <internalNodes>
            0 -1 27 -406986563 1597695908 -1476460489 221849527
            407683316 1839031254 754156776 2133690518</internalNodes>
          <leafValues>
            -3.7706926465034485e-01 4.4916036725044250e-01</leafValues></_>
        <_>
          <internalNodes>
            0 -1 93 -748494366 -549812920 866755636 -687002512
            -1309701189 -1618176813 1124729803 -1305525877</internalNodes>
          <leafValues>
            -3.2670128345489502e-01 5.1279586553573608e-01</leafValues></_>
        <_>
          <internalNodes>
            0 -1 6 -1088753520 -786884608 1359245727 300093895 840343438
            578830336 403773579 50465408</internalNodes>
          <leafValues>
            -5.3943479061126709e-01 3.3376583456993103e-01</leafValues></_>
        <_>
          <internalNodes>
            0 -1 13 1103757357 -985562413 1963372807 -43160433
            -260013241 512754049 1015699598 453577222</internalNodes>
          <leafValues>
            -5.5817729234695435e-01 3.7985962629318237e-01</leafValues></_>
        <_>
          <internalNodes>
            0 -1 235 -747938878 -790976743 -1173765347 -706269445
            -1370048087 -1203804169 -1646809157 -1197844595</internalNodes>
          <leafValues>
            -3.8698926568031311e-01 5.6837964057922363e-01</leafValues></_>
        <_>
          <internalNodes>
            0 -1 173 -627247397 -559835472 -827937292 521371333
            -1852549989 -1701908764 18982398 194728603</internalNodes>
          <leafValues>
            -3.8267236948013306e-01 5.2635598182678223e-01</leafValues></_>
        <_>
          <internalNodes>
            0 -1 346 -78721458 1793777359 1849998767 -628805660
            -62981058 -1695571993 1138273529 1002694828</internalNodes>
          <leafValues>
            -4.1993495821952820e-01 4.9430364370346069e-01</leafValues></_>
        <_>
          <internalNodes>
            0 -1 393 118485424 -238239072 536559217 24317329 -822176580
            -1113637382 -614148152 -503448362</internalNodes>
          <leafValues>
            -4.0389284491539001e-01 5.3590971231460571e-01</leafValues></_>
        <_>
          <internalNodes>
            0 -1 152 1480992392 117638018 420764936 2107457586
            -779564888 818413704 -1475592064 453730954</internalNodes>
          <leafValues>
            -5.2158182859420776e-01 4.2216762900352478e-01</leafValues></_></weakClassifiers></_>
    <!-- stage 11 -->
    <_>
      <maxWeakCount>10</maxWeakCount>
      <stageThreshold>-1.1238687038421631e+00</stageThreshold>
      <weakClassifiers>
        <_>
          <internalNodes>
            0 -1 120 -377339686 -735459632 1722723391 -2115154834
            -2107085876 2028086494 22538651 705314159</internalNodes>
          <leafValues>
            -2.9959514737129211e-01 4.9547919631004333e-01</leafValues></_>
        <_>
          <internalNodes>
            0 -1 330 -169875262 1091211784 1193528969 -773071021
            1690298564 1345207604 -675349454 -408954173</internalNodes>
          <leafValues>
            -3.1085732579231262e-01 5.0318247079849243e-01</leafValues></_>
        <_>
          <internalNodes>
            0 -1 405 -232005496 1877991692 -1134804414 -583071672
            -1053783648 674271660 37087068 -557383409</internalNodes>
          <leafValues>
            -3.3905199170112610e-01 5.0090086460113525e-01</leafValues></_>
        <_>
          <internalNodes>
            0 -1 26 1371664450 -648701562 -1788776144 -753679915
            -1609424651 -544079824 2040668809 2047034639</internalNodes>
          <leafValues>
            -4.4603559374809265e-01 4.2135766148567200e-01</leafValues></_>
        <_>
          <internalNodes>
            0 -1 314 -1044322624 1302200406 152080512 352556928
            -804106080 37789745 805705898 1409745434</internalNodes>
          <leafValues>
            -5.8074474334716797e-01 3.6404752731323242e-01</leafValues></_>
        <_>
          <internalNodes>
            0 -1 279 1970796355 1074090306 1291640184 1518777894
            -813828865 -293719442 -84295860 -102927873</internalNodes>
          <leafValues>
            -3.6836984753608704e-01 5.4763191938400269e-01</leafValues></_>
        <_>
          <internalNodes>
            0 -1 386 -1819290821 154179798 465545123 1156753258
            1675618026 -1974510084 -272189872 -940857457</internalNodes>
          <leafValues>
            -3.4950006008148193e-01 5.7334250211715698e-01</leafValues></_>
        <_>
          <internalNodes>
            0 -1 87 1608376243 -1250810140 1873553068 -48215105
            -1049574535 -692279692 -201434635 -29684773</internalNodes>
          <leafValues>
            -2.7213591337203979e-01 6.9257122278213501e-01</leafValues></_>
        <_>
          <internalNodes>
            0 -1 130 -704273214 -741169591 -294754030 -1116902756
            489672361 268973330 -719753333 -1196006337</internalNodes>
          <leafValues>
            -4.3426567316055298e-01 4.9817070364952087e-01</leafValues></_>
        <_>
          <internalNodes>
            0 -1 224 -261031276 -1155440846 -111625239 -713164004
            -619920152 -896479293 -732780328 -721222749</internalNodes>
          <leafValues>
            -3.8602155447006226e-01 5.3434145450592041e-01</leafValues></_></weakClassifiers></_>
    <!-- stage 12 -->
    <_>
      <maxWeakCount>10</maxWeakCount>
      <stageThreshold>-1.0826351642608643e+00</stageThreshold>
      <weakClassifiers>
        <_>
          <internalNodes>
            0 -1 331 -7090510 -578052990 1193279560 890566318 1184028824
            69508818 92032016 1196156634</internalNodes>
          <leafValues>
            -2.1658986806869507e-01 5.7007378339767456e-01</leafValues></_>
        <_>
          <internalNodes>
            0 -1 245 -563878682 1405751514 -1595603770 2101290759
            -587099518 -669432213 1118346922 -581188357</internalNodes>
          <leafValues>
            -2.8399738669395447e-01 5.3830176591873169e-01</leafValues></_>
        <_>
          <internalNodes>
            0 -1 403 -215228214 -776915256 1814838204 1499666789
            -1719078197 -472762094 37406958 -75002625</internalNodes>
          <leafValues>
            -2.6033097505569458e-01 6.4329355955123901e-01</leafValues></_>
        <_>
          <internalNodes>
            0 -1 352 -638323517 -656825378 -1811285254 529109639
            -1799950436 596969927 1387449017 -627316513</internalNodes>
          <leafValues>
            -2.9696586728096008e-01 6.4240872859954834e-01</leafValues></_>
        <_>
          <internalNodes>
            0 -1 30 -795873152 1075013698 16781570 1409630864 -467200670
            1380194368 1482983953 1120119299</internalNodes>
          <leafValues>
            -5.5823087692260742e-01 3.4821864962577820e-01</leafValues></_>
        <_>
          <internalNodes>
            0 -1 332 -638133062 -794308585 -353024768 426100903
            1987478697 -819243367 -1657378407 -605040653</internalNodes>
          <leafValues>
            -3.9135301113128662e-01 5.6796419620513916e-01</leafValues></_>
        <_>
          <internalNodes>
            0 -1 399 -199039808 85901792 134222976 95896449 33612440
            -1741945832 -1828003701 302237316</internalNodes>
          <leafValues>
            -5.3870785236358643e-01 4.0404942631721497e-01</leafValues></_>
        <_>
          <internalNodes>
            0 -1 105 -531580774 -1862155506 -2147113946 -2128150079
            33554586 566936592 1884025002 1529541771</internalNodes>
          <leafValues>
            -5.7632678747177124e-01 3.7145060300827026e-01</leafValues></_>
        <_>
          <internalNodes>
            0 -1 182 -194251575 -602678067 126566693 -915823409
            -789404706 -1991268009 -2106330693 -601901381</internalNodes>
          <leafValues>
            -3.5402390360832214e-01 6.4314782619476318e-01</leafValues></_>
        <_>
          <internalNodes>
            0 -1 254 -794627878 -156185874 -1571000647 1571434301
            1551848932 -1687535920 -2014114066 -1693461041</internalNodes>
          <leafValues>
            -3.6396011710166931e-01 6.0644090175628662e-01</leafValues></_></weakClassifiers></_>
    <!-- stage 13 -->
    <_>
      <maxWeakCount>11</maxWeakCount>
      <stageThreshold>-4.7457674145698547e-01</stageThreshold>
      <weakClassifiers>
        <_>
          <internalNodes>
            0 -1 4 -199231446 -112398360 -71452035 1593145270 2145751062
            470843358 2138185575 108200449</internalNodes>
          <leafValues>
            -2.6142597198486328e-01 5.1566952466964722e-01</leafValues></_>
        <_>
          <internalNodes>
            0 -1 48 -201687579 -635328277 488901155 -749508991
            -801111552 -282495642 -176094257 -144726473</internalNodes>
          <leafValues>
            -2.6288056373596191e-01 5.5468904972076416e-01</leafValues></_>
        <_>
          <internalNodes>
            0 -1 329 -537415424 -241899358 16961610 -577756973
            -389531848 -926654304 421529757 277059591</internalNodes>
          <leafValues>
            -4.5946344733238220e-01 3.5487508773803711e-01</leafValues></_>
        <_>
          <internalNodes>
            0 -1 219 -7654399 -2146995954 -766227119 1295579 -171736568
            153436484 994951292 537856343</internalNodes>
          <leafValues>
            -5.3641426563262939e-01 3.2086756825447083e-01</leafValues></_>
        <_>
          <internalNodes>
            0 -1 327 -185151488 580847737 708842532 -199928177
            -1412330783 -1718804349 1158183611 449587402</internalNodes>
          <leafValues>
            -5.4873436689376831e-01 3.4484535455703735e-01</leafValues></_>
        <_>
          <internalNodes>
            0 -1 193 -247409661 1592035527 135336012 1931285894
            -1340051454 -896531322 1660969115 1394819914</internalNodes>
          <leafValues>
            -4.9179261922836304e-01 3.8530224561691284e-01</leafValues></_>
        <_>
          <internalNodes>
            0 -1 67 -179039155 814190599 285882782 -1955593526 151783573
            -1599385327 38275538 555847590</internalNodes>
          <leafValues>
            -4.5180505514144897e-01 4.1935935616493225e-01</leafValues></_>
        <_>
          <internalNodes>
            0 -1 136 -210708005 -100762869 1450148825 1468411625
            1442972354 -597710300 1473848127 2120157065</internalNodes>
          <leafValues>
            -4.1660133004188538e-01 4.6490821242332458e-01</leafValues></_>
        <_>
          <internalNodes>
            0 -1 86 -100150578 -696155463 16984387 297945748 900270291
            -1821273974 1671512494 1149699010</internalNodes>
          <leafValues>
            -5.1677429676055908e-01 3.9707714319229126e-01</leafValues></_>
        <_>
          <internalNodes>
            0 -1 344 -778509827 1365611105 -1133938491 855973748
            -662057225 -1661141614 1726485774 1415676907</internalNodes>
          <leafValues>
            -4.3378961086273193e-01 4.8309707641601563e-01</leafValues></_>
        <_>
          <internalNodes>
            0 -1 38 -146105633 2134310208 -1079444449 1966997324
            1594230914 -545929419 -717786391 -277359821</internalNodes>
          <leafValues>
            -3.1428563594818115e-01 6.6735965013504028e-01</leafValues></_></weakClassifiers></_>
    <!-- stage 14 -->
    <_>
      <maxWeakCount>11</maxWeakCount>
      <stageThreshold>-5.0619316101074219e-01</stageThreshold>
      <weakClassifiers>
        <_>
          <internalNodes>
            0 -1 139 -1128106506 -252294733 -1381255166 523704039
            -325146629 -2067980040 1230053115 465567103</internalNodes>
          <leafValues>
            -1.6292135417461395e-01 5.8108109235763550e-01</leafValues></_>
        <_>
          <internalNodes>
            0 -1 353 -843059045 1876819934 933519099 -1795048556
            877796323 39652605 1073727263 -213929989</internalNodes>
          <leafValues>
            -1.9328346848487854e-01 7.1048420667648315e-01</leafValues></_>
        <_>
          <internalNodes>
            0 -1 285 -742000254 -662125916 168073757 -1063374795
            -1375239288 1089470478 1007235976 985860744</internalNodes>
          <leafValues>
            -4.3152797222137451e-01 3.9231887459754944e-01</leafValues></_>
        <_>
          <internalNodes>
            0 -1 373 -742393680 -1828333527 -1071311806 -48200423
            -1677284950 1504345272 -1606250833 292751790</internalNodes>
          <leafValues>
            -4.2505735158920288e-01 4.1474509239196777e-01</leafValues></_>
        <_>
          <internalNodes>
            0 -1 354 -800985888 2015445106 1097403206 1076740352
            -459697792 436207756 546285723 730538175</internalNodes>
          <leafValues>
            -5.7019835710525513e-01 3.2358226180076599e-01</leafValues></_>
        <_>
          <internalNodes>
            0 -1 315 -347350871 1385167390 -136611121 321974726
            -549608037 -1797795563 -1379296887 423623634</internalNodes>
          <leafValues>
            -3.7621778249740601e-01 5.0278210639953613e-01</leafValues></_>
        <_>
          <internalNodes>
            0 -1 241 -750718720 1208258883 1788346384 389284107
            -267353923 -1668560878 889482 -1827192693</internalNodes>
          <leafValues>
            -4.8074504733085632e-01 4.3714565038681030e-01</leafValues></_>
        <_>
          <internalNodes>
            0 -1 319 -796471192 1421873296 -1996143328 1460117891
            -1873505623 -1333553152 637942058 688211978</internalNodes>
          <leafValues>
            -5.2095580101013184e-01 4.0741425752639771e-01</leafValues></_>
        <_>
          <internalNodes>
            0 -1 156 -1038156594 1917943893 325002500 1704022980
            -754803296 -1318837949 824223775 1109070769</internalNodes>
          <leafValues>
            -5.7604736089706421e-01 3.5817512869834900e-01</leafValues></_>
        <_>
          <internalNodes>
            0 -1 178 -147406554 1396801810 -1047393908 1119900689
            1756302259 -793181553 1108214410 855572487</internalNodes>
          <leafValues>
            -5.7827317714691162e-01 3.6014720797538757e-01</leafValues></_>
        <_>
          <internalNodes>
            0 -1 333 1795144350 -874714256 1304704481 -179396730
            -693657701 -645086853 -570889286 1469840231</internalNodes>
          <leafValues>
            -4.6120977401733398e-01 5.1841229200363159e-01</leafValues></_></weakClassifiers></_>
    <!-- stage 15 -->
    <_>
      <maxWeakCount>10</maxWeakCount>
      <stageThreshold>-5.5438154935836792e-01</stageThreshold>
      <weakClassifiers>
        <_>
          <internalNodes>
            0 -1 106 -386733562 448933384 -285717378 1658228715
            -2047898867 72231183 2094513279 1670330223</internalNodes>
          <leafValues>
            -3.9259257912635803e-01 4.6778243780136108e-01</leafValues></_>
        <_>
          <internalNodes>
            0 -1 177 -538841918 1509958811 536586 422631015 1782745282
            -632466840 4369630 21966698</internalNodes>
          <leafValues>
            -4.7863394021987915e-01 3.3365657925605774e-01</leafValues></_>
        <_>
          <internalNodes>
            0 -1 309 1427211923 -848514464 -1414825753 2103164977
            1464681690 988721404 1679075743 -1111151358</internalNodes>
          <leafValues>
            -2.6299396157264709e-01 6.0818815231323242e-01</leafValues></_>
        <_>
          <internalNodes>
            0 -1 283 1426051891 872580871 -1996667669 -793647690
            -567296945 -1684441481 1651998461 -51413025</internalNodes>
          <leafValues>
            -3.4483578801155090e-01 5.2284741401672363e-01</leafValues></_>
        <_>
          <internalNodes>
            0 -1 56 -550046550 1592000358 1424925335 -153086949
            416553118 -1183165742 -385801146 -674235553</internalNodes>
          <leafValues>
            -3.6685374379158020e-01 4.9966093897819519e-01</leafValues></_>
        <_>
          <internalNodes>
            0 -1 22 -245794407 689419299 705069250 -724656944 17245600
            1930218633 2073691789 1384864777</internalNodes>
          <leafValues>
            -5.1419568061828613e-01 3.6400046944618225e-01</leafValues></_>
        <_>
          <internalNodes>
            0 -1 395 329493952 293614028 237954 -1916567164 952216272
            805841484 22862674 1238841463</internalNodes>
          <leafValues>
            -5.7469642162322998e-01 3.2774135470390320e-01</leafValues></_>
        <_>
          <internalNodes>
            0 -1 337 -626468159 2020333892 -2117650349 -586829799
            1822333338 421275128 -138696037 95739579</internalNodes>
          <leafValues>
            -4.1560161113739014e-01 4.6460303664207458e-01</leafValues></_>
        <_>
          <internalNodes>
            0 -1 388 -600312277 459330372 -1261754703 -1748358630
            -483682097 1743840889 1718243095 -285278285</internalNodes>
          <leafValues>
            -3.3049535751342773e-01 6.1419576406478882e-01</leafValues></_>
        <_>
          <internalNodes>
            0 -1 225 -799822144 123479643 395112380 -1115232294
            -642349971 -1142093178 -1354850481 -36580361</internalNodes>
          <leafValues>
            -2.8384479880332947e-01 6.3990449905395508e-01</leafValues></_></weakClassifiers></_>
    <!-- stage 16 -->
    <_>
      <maxWeakCount>11</maxWeakCount>
      <stageThreshold>-1.0960519313812256e+00</stageThreshold>
      <weakClassifiers>
        <_>
          <internalNodes>
            0 -1 390 -782077824 -2037341056 -835312640 -1860829813
            147639550 209314 19325703 -2103487897</internalNodes>
          <leafValues>
            -1.9271624088287354e-01 5.6004250049591064e-01</leafValues></_>
        <_>
          <internalNodes>
            0 -1 114 -637533600 -741752219 806879701 -794309359
            -1375557153 -628600080 -347547155 1560528027</internalNodes>
          <leafValues>
            -4.0270715951919556e-01 4.0069407224655151e-01</leafValues></_>
        <_>
          <internalNodes>
            0 -1 339 -774864160 -1618364270 1745386536 -679280227
            -1830242616 -1086155695 -2009985814 -76830541</internalNodes>
          <leafValues>
            -3.2657599449157715e-01 5.3869771957397461e-01</leafValues></_>
        <_>
          <internalNodes>
            0 -1 2 -738917664 -13589238 1551561270 -1709959904
            -1486469952 1594891850 -1587963922 -1838546641</internalNodes>
          <leafValues>
            -3.6310011148452759e-01 4.8414066433906555e-01</leafValues></_>
        <_>
          <internalNodes>
            0 -1 190 -614292848 -690355706 -1714602497 -606633718
            -1040935784 588766160 -1774520582 -2025896779</internalNodes>
          <leafValues>
            -4.0680336952209473e-01 4.7316917777061462e-01</leafValues></_>
        <_>
          <internalNodes>
            0 -1 164 113811850 -1310901583 -1519793373 -168443917
            1828226265 -1233601030 -1636419863 -996008670</internalNodes>
          <leafValues>
            -4.0430235862731934e-01 4.8754981160163879e-01</leafValues></_>
        <_>
          <internalNodes>
            0 -1 357 -266667897 -745989892 -368184297 -445694208
            -824697709 -626424228 95919832 -69211465</internalNodes>
          <leafValues>
            -2.9410067200660706e-01 6.9353073835372925e-01</leafValues></_>
        <_>
          <internalNodes>
            0 -1 313 849505450 1431274217 651917835 -773036086 183738042
            1875244212 -1615141749 -212707073</internalNodes>
          <leafValues>
            -3.6349120736122131e-01 5.4795628786087036e-01</leafValues></_>
        <_>
          <internalNodes>
            0 -1 394 -60313217 270787266 -2068167087 1703830174
            970167969 418739654 -2054166834 -1144041721</internalNodes>
          <leafValues>
            -3.0122095346450806e-01 6.5274798870086670e-01</leafValues></_>
        <_>
          <internalNodes>
            0 -1 360 -125444865 600029353 -2064368622 -1199592288
            -1970926937 586579300 -1252789999 -1433477925</internalNodes>
          <leafValues>
            -3.2195159792900085e-01 6.4243322610855103e-01</leafValues></_>
        <_>
          <internalNodes>
            0 -1 239 1601501016 -276034370 76439425 -1645527439
            -69944568 -1192055170 1173741527 -1650991651</internalNodes>
          <leafValues>
            -3.9598160982131958e-01 5.5964344739913940e-01</leafValues></_></weakClassifiers></_>
    <!-- stage 17 -->
    <_>
      <maxWeakCount>10</maxWeakCount>
      <stageThreshold>-4.0580901503562927e-01</stageThreshold>
      <weakClassifiers>
        <_>
          <internalNodes>
            0 -1 284 293667152 189726776 -1203863917 -1576223140
            1902659455 -1351258200 1052440574 754246877</internalNodes>
          <leafValues>
            -3.6211031675338745e-01 4.6576499938964844e-01</leafValues></_>
        <_>
          <internalNodes>
            0 -1 86 -1931767651 1823526200 -335592996 -186741362
            891755199 -572790209 -999880722 -1087437427</internalNodes>
          <leafValues>
            -2.4823139607906342e-01 5.3851950168609619e-01</leafValues></_>
        <_>
          <internalNodes>
            0 -1 192 -547509062 724775583 1727536908 1865198742
            -1631837508 721029022 1473820651 -1076916550</internalNodes>
          <leafValues>
            -2.9837226867675781e-01 4.8289617896080017e-01</leafValues></_>
        <_>
          <internalNodes>
            0 -1 344 -1711735815 2147432034 -847746940 1537719015
            -1731535203 -1065531170 -1359307378 -924083225</internalNodes>
          <leafValues>
            -3.0742087960243225e-01 5.5509829521179199e-01</leafValues></_>
        <_>
          <internalNodes>
            0 -1 293 -705093513 -999530574 -521197909 -892383655
            -1235296249 -729355502 1054069875 -457389954</internalNodes>
          <leafValues>
            -2.8960171341896057e-01 5.2542686462402344e-01</leafValues></_>
        <_>
          <internalNodes>
            0 -1 332 1906897030 -1409138603 -1986047446 1170412567
            1476980746 657416 455334570 1477165240</internalNodes>
          <leafValues>
            -5.3741759061813354e-01 3.4887713193893433e-01</leafValues></_>
        <_>
          <internalNodes>
            0 -1 40 -791098686 -1534065551 327434432 327156124
            1629676271 -1339939957 1728279665 320554056</internalNodes>
          <leafValues>
            -6.1025285720825195e-01 2.8956288099288940e-01</leafValues></_>
        <_>
          <internalNodes>
            0 -1 213 1492998075 -705967917 -910181243 1441524863
            -1819151684 -187078426 -1736508115 -618150469</internalNodes>
          <leafValues>
            -2.4922144412994385e-01 7.2339415550231934e-01</leafValues></_>
        <_>
          <internalNodes>
            0 -1 303 -700523306 -1863749060 -136594121 -1795242649
            149925513 -895563281 -1915284909 -1440802641</internalNodes>
          <leafValues>
            -3.5618042945861816e-01 5.4784363508224487e-01</leafValues></_>
        <_>
          <internalNodes>
            0 -1 370 411949955 -984506236 4604106 -1064234815 -970080763
            726145 545993179 1066650467</internalNodes>
          <leafValues>
            -4.4271051883697510e-01 4.2649245262145996e-01</leafValues></_></weakClassifiers></_>
    <!-- stage 18 -->
    <_>
      <maxWeakCount>12</maxWeakCount>
      <stageThreshold>-1.0433160066604614e+00</stageThreshold>
      <weakClassifiers>
        <_>
          <internalNodes>
            0 -1 286 1689473297 4601622 1297759358 240824123 251406949
            627604351 -320968482 1652370270</internalNodes>
          <leafValues>
            -2.9838711023330688e-01 4.9637681245803833e-01</leafValues></_>
        <_>
          <internalNodes>
            0 -1 387 -1702970313 818062832 -1892317338 -1790624744
            855490556 752285150 1192285966 686010430</internalNodes>
          <leafValues>
            -3.3658701181411743e-01 4.1457167267799377e-01</leafValues></_>
        <_>
          <internalNodes>
            0 -1 167 -1211784235 779812344 -29993453 971374522
            1334123518 -43204685 -371134760 -55444656</internalNodes>
          <leafValues>
            -2.8217187523841858e-01 5.4335302114486694e-01</leafValues></_>
        <_>
          <internalNodes>
            0 -1 141 -2131220363 863957028 -1598440065 1367260088
            -1586847806 -1139433861 -633636913 513484369</internalNodes>
          <leafValues>
            -3.9926216006278992e-01 4.2626044154167175e-01</leafValues></_>
        <_>
          <internalNodes>
            0 -1 117 -310408385 336878075 -214597604 -155451616
            1717339037 2066746866 1395890106 -926466433</internalNodes>
          <leafValues>
            -2.3881474137306213e-01 6.3612139225006104e-01</leafValues></_>
        <_>
          <internalNodes>
            0 -1 217 -965757229 -1896699051 803405819 1035986245
            -537610264 -52643024 2044096233 -2069693415</internalNodes>
          <leafValues>
            -3.2720246911048889e-01 5.4687446355819702e-01</leafValues></_>
        <_>
          <internalNodes>
            0 -1 97 -1504089725 -637461884 -1878063040 134807708
            -1283620945 -2133950069 -468133639 1267600414</internalNodes>
          <leafValues>
            -4.7255036234855652e-01 3.9682573080062866e-01</leafValues></_>
        <_>
          <internalNodes>
            0 -1 335 1151525829 484479782 1871085104 258599428
            -1710476405 -1800800142 1099567388 235530927</internalNodes>
          <leafValues>
            -4.5900061726570129e-01 4.1713100671768188e-01</leafValues></_>
        <_>
          <internalNodes>
            0 -1 214 2113591273 1684221163 2057797293 -1766456035
            2075858559 -353445030 1496777674 -1460072572</internalNodes>
          <leafValues>
            -3.6877098679542542e-01 5.1658856868743896e-01</leafValues></_>
        <_>
          <internalNodes>
            0 -1 61 1532132401 442858253 -269717770 -625873698 930251924
            1287310539 1576923005 -405387214</internalNodes>
          <leafValues>
            -3.7938886880874634e-01 5.4121822118759155e-01</leafValues></_>
        <_>
          <internalNodes>
            0 -1 46 -871755764 1809109721 -989821504 983120056 126357153
            1695287573 782005067 15784356</internalNodes>
          <leafValues>
            -6.6560322046279907e-01 3.1970745325088501e-01</leafValues></_>
        <_>
          <internalNodes>
            0 -1 397 -951884131 -645350777 1702873525 221545046
            427691605 -1137021511 -1223281089 -1379361034</internalNodes>
          <leafValues>
            -3.4115886688232422e-01 6.6474539041519165e-01</leafValues></_></weakClassifiers></_>
    <!-- stage 19 -->
    <_>
      <maxWeakCount>11</maxWeakCount>
      <stageThreshold>-7.1877878904342651e-01</stageThreshold>
      <weakClassifiers>
        <_>
          <internalNodes>
            0 -1 146 443552352 1168729554 1061188288 -170193614
            1472672416 -485421867 259301102 -68446542</internalNodes>
          <leafValues>
            -7.7790305018424988e-02 6.5778398513793945e-01</leafValues></_>
        <_>
          <internalNodes>
            0 -1 302 -236588845 -632224238 1883277981 1930805633
            -1140077432 -148561384 -535182594 -370433638</internalNodes>
          <leafValues>
            -2.0241346955299377e-01 6.6696608066558838e-01</leafValues></_>
        <_>
          <internalNodes>
            0 -1 289 -19750774 -21369100 1767660682 1603792494
            -1835939606 -1225412931 -616653941 -73733488</internalNodes>
          <leafValues>
            -2.8303870558738708e-01 5.6488484144210815e-01</leafValues></_>
        <_>
          <internalNodes>
            0 -1 236 -326446966 -555827715 -635250217 -676920859
            -538335831 -805776629 -1741350436 -544238899</internalNodes>
          <leafValues>
            -3.6373740434646606e-01 5.4620403051376343e-01</leafValues></_>
        <_>
          <internalNodes>
            0 -1 290 1915638416 -1606686031 -769761767 -1795180614
            -1144017174 -2085957443 -140394898 -206981160</internalNodes>
          <leafValues>
            -3.8418173789978027e-01 4.7064468264579773e-01</leafValues></_>
        <_>
          <internalNodes>
            0 -1 231 -257250151 -540956423 1958059467 -1627017234
            -1590459616 -1355309386 -439570853 -73683992</internalNodes>
          <leafValues>
            -2.7319249510765076e-01 6.7635995149612427e-01</leafValues></_>
        <_>
          <internalNodes>
            0 -1 169 -490471749 -1167262340 -956388363 -789841964
            -1661575041 -1795743755 -822323533 -1223394608</internalNodes>
          <leafValues>
            -3.7577471137046814e-01 5.2354264259338379e-01</leafValues></_>
        <_>
          <internalNodes>
            0 -1 176 -970389807 -143730334 -707310383 1913254812
            -1589361661 -434228656 259769585 -135272802</internalNodes>
          <leafValues>
            -2.9339864850044250e-01 6.3462150096893311e-01</leafValues></_>
        <_>
          <internalNodes>
            0 -1 47 -118045119 -50967836 1828647441 -13768515
            -1321941304 -621984634 -737504327 -44386853</internalNodes>
          <leafValues>
            -2.8663876652717590e-01 6.7903536558151245e-01</leafValues></_>
        <_>
          <internalNodes>
            0 -1 345 -1120275401 -886367491 -33915982 -114958936
            -287408778 -1145561479 -553771152 -104022360</internalNodes>
          <leafValues>
            -3.0767565965652466e-01 6.3960081338882446e-01</leafValues></_>
        <_>
          <internalNodes>
            0 -1 253 -107101034 2120887948 1475782812 1475746350
            2137661848 -1706068108 -1481508182 -582012981</internalNodes>
          <leafValues>
            -3.5375210642814636e-01 6.0059809684753418e-01</leafValues></_></weakClassifiers></_>
    <!-- stage 20 -->
    <_>
      <maxWeakCount>13</maxWeakCount>
      <stageThreshold>-6.9542819261550903e-01</stageThreshold>
      <weakClassifiers>
        <_>
          <internalNodes>
            0 -1 234 -804336926 1300588112 1778386435 196977009
            391792035 1514548278 1861265305 123163950</internalNodes>
          <leafValues>
            -2.8991597890853882e-01 4.7864767909049988e-01</leafValues></_>
        <_>
          <internalNodes>
            0 -1 262 -142282514 419508292 -1052708731 1291878602
            1024312621 1288836824 -745484105 348324209</internalNodes>
          <leafValues>
            -4.5517614483833313e-01 3.2055243849754333e-01</leafValues></_>
        <_>
          <internalNodes>
            0 -1 123 -537031129 -783097630 -1345365466 -537449284
            1115481311 -351238921 691248815 -279744894</internalNodes>
          <leafValues>
            -2.4718095362186432e-01 6.0194087028503418e-01</leafValues></_>
        <_>
          <internalNodes>
            0 -1 228 -221850813 -1934918884 -688983438 -254883161
            2088674549 2063072701 -1143014374 -1220069578</internalNodes>
          <leafValues>
            -2.9806604981422424e-01 5.0396317243576050e-01</leafValues></_>
        <_>
          <internalNodes>
            0 -1 349 -950547477 -2085688421 -208767330 -1462643246
            775917663 -608653592 1093204560 -691537674</internalNodes>
          <leafValues>
            -2.4775001406669617e-01 6.5676951408386230e-01</leafValues></_>
        <_>
          <internalNodes>
            0 -1 172 400541195 -698484770 -373396738 858980287
            1387071945 -741159015 1610390009 -135393773</internalNodes>
          <leafValues>
            -4.0231531858444214e-01 4.6046131849288940e-01</leafValues></_>
        <_>
          <internalNodes>
            0 -1 34 2143017559 1540751124 918008574 -1216809353
            1002910175 902994740 1817261786 -35526436</internalNodes>
          <leafValues>
            -2.9017153382301331e-01 6.0122489929199219e-01</leafValues></_>
        <_>
          <internalNodes>
            0 -1 39 -546439941 -76036302 -1350662506 1499426583
            -330710035 -731949218 1934000791 -15030337</internalNodes>
          <leafValues>
            -2.7387320995330811e-01 6.7177522182464600e-01</leafValues></_>
        <_>
          <internalNodes>
            0 -1 347 1514655812 1954648356 1296269329 1317098372
            1342227961 2020261906 -737440211 248637131</internalNodes>
          <leafValues>
            -4.8284211754798889e-01 4.4746366143226624e-01</leafValues></_>
        <_>
          <internalNodes>
            0 -1 260 -305946328 -1802217450 1344290940 -1179533035
            -126352225 848330808 340432936 812007490</internalNodes>
          <leafValues>
            -5.4745024442672729e-01 3.4890460968017578e-01</leafValues></_>
        <_>
          <internalNodes>
            0 -1 62 1091604600 -503054073 -971992832 352405665
            -1740525439 -744486888 -341831745 119095865</internalNodes>
          <leafValues>
            -5.5261301994323730e-01 3.5637068748474121e-01</leafValues></_>
        <_>
          <internalNodes>
            0 -1 59 1573241731 -763421304 910437644 2038093371
            1953964739 434330486 334036947 -117548078</internalNodes>
          <leafValues>
            -3.5423764586448669e-01 5.6370913982391357e-01</leafValues></_>
        <_>
          <internalNodes>
            0 -1 142 1150921333 1370787701 2134259696 -51811331
            1659655410 -677909574 659832719 -1644848269</internalNodes>
          <leafValues>
            -3.5928893089294434e-01 5.7222408056259155e-01</leafValues></_></weakClassifiers></_>
    <!-- stage 21 -->
    <_>
      <maxWeakCount>12</maxWeakCount>
      <stageThreshold>-8.2600748538970947e-01</stageThreshold>
      <weakClassifiers>
        <_>
          <internalNodes>
            0 -1 282 1075171736 784938059 288783773 461162249 501475735
            -955560709 1335475581 -443638836</internalNodes>
          <leafValues>
            -1.3079018890857697e-01 5.7274824380874634e-01</leafValues></_>
        <_>
          <internalNodes>
            0 -1 269 551956524 1242333635 151580945 1294229600
            1128517532 -115490144 -1880345640 806380658</internalNodes>
          <leafValues>
            -5.5758416652679443e-01 2.7134543657302856e-01</leafValues></_>
        <_>
          <internalNodes>
            0 -1 159 1552240291 1285850615 -218703379 -675547393
            1832766571 -566260086 -813741589 -380862294</internalNodes>
          <leafValues>
            -2.8825128078460693e-01 5.0636065006256104e-01</leafValues></_>
        <_>
          <internalNodes>
            0 -1 124 -646467009 194741029 1408377562 -607442948
            -813258504 -1139563137 -186770482 -18890796</internalNodes>
          <leafValues>
            -1.9964310526847839e-01 6.9279479980468750e-01</leafValues></_>
        <_>
          <internalNodes>
            0 -1 327 -651968344 -2084535080 -735394522 -1065168582
            1074825137 137104044 1080969 1089106069</internalNodes>
          <leafValues>
            -5.5572092533111572e-01 2.7727866172790527e-01</leafValues></_>
        <_>
          <internalNodes>
            0 -1 45 -1049992506 1488298289 1350666144 440547966
            536944192 833905829 1906518035 492781700</internalNodes>
          <leafValues>
            -6.7487567663192749e-01 2.4031201004981995e-01</leafValues></_>
        <_>
          <internalNodes>
            0 -1 274 -990130188 2093256626 -1959839911 728597757
            -1466677365 -1250267916 -1880829954 -1717068671</internalNodes>
          <leafValues>
            -3.2799887657165527e-01 5.2125912904739380e-01</leafValues></_>
        <_>
          <internalNodes>
            0 -1 196 76434620 456006290 615624991 412784969 1234839181
            -861360054 109812100 1076009485</internalNodes>
          <leafValues>
            -5.2716904878616333e-01 3.4289583563804626e-01</leafValues></_>
        <_>
          <internalNodes>
            0 -1 160 2134999707 -784472199 -1348944962 -646756918
            123057790 -1443497480 -319415446 -376471321</internalNodes>
          <leafValues>
            -3.0342447757720947e-01 6.4579147100448608e-01</leafValues></_>
        <_>
          <internalNodes>
            0 -1 99 -268255158 851099784 67634450 1382986753 1891685073
            1644331021 -577961824 493586235</internalNodes>
          <leafValues>
            -5.1006627082824707e-01 3.7702703475952148e-01</leafValues></_>
        <_>
          <internalNodes>
            0 -1 181 1340726856 274805271 -346187430 1938878600
            128985542 -477847551 1959682378 -89454376</internalNodes>
          <leafValues>
            -4.4043675065040588e-01 4.3125173449516296e-01</leafValues></_>
        <_>
          <internalNodes>
            0 -1 229 -1652378362 608300796 -1590670895 205571388
            -399924969 185096608 1344635992 184680942</internalNodes>
          <leafValues>
            -6.4739125967025757e-01 3.0390894412994385e-01</leafValues></_></weakClassifiers></_>
    <!-- stage 22 -->
    <_>
      <maxWeakCount>10</maxWeakCount>
      <stageThreshold>-8.6192977428436279e-01</stageThreshold>
      <weakClassifiers>
        <_>
          <internalNodes>
            0 -1 110 591397544 205694976 1275068426 340787220
            -2075445765 16810368 -872177078 1090636007</internalNodes>
          <leafValues>
            -5.1824820041656494e-01 4.0874812006950378e-01</leafValues></_>
        <_>
          <internalNodes>
            0 -1 323 1381074636 1361130180 5862720 -586749118 1074293062
            -352275448 -956186584 1961615624</internalNodes>
          <leafValues>
            -4.0999656915664673e-01 3.4681463241577148e-01</leafValues></_>
        <_>
          <internalNodes>
            0 -1 237 -404955122 -1082274474 -953123542 870783470
            1620661742 2051908984 537959602 -1445989679</internalNodes>
          <leafValues>
            -3.4688860177993774e-01 4.3825685977935791e-01</leafValues></_>
        <_>
          <internalNodes>
            0 -1 7 970533629 2046891829 -1088099266 -853402527 174764931
            1085462486 -1270804549 669078099</internalNodes>
          <leafValues>
            -3.8147774338722229e-01 4.2388510704040527e-01</leafValues></_>
        <_>
          <internalNodes>
            0 -1 25 2012202431 1664212979 -355600575 1869933424
            2057213566 894402036 1373099966 -79448117</internalNodes>
          <leafValues>
            -2.8062403202056885e-01 6.5742969512939453e-01</leafValues></_>
        <_>
          <internalNodes>
            0 -1 5 1720456934 -939424626 -1073675958 1444002446
            692383875 1879589657 100672680 399639944</internalNodes>
          <leafValues>
            -6.6063827276229858e-01 2.7652636170387268e-01</leafValues></_>
        <_>
          <internalNodes>
            0 -1 51 -899921337 -151605641 1886669908 -737219953
            -1807735780 1205190066 -1202334725 -82889049</internalNodes>
          <leafValues>
            -3.4442383050918579e-01 5.5390131473541260e-01</leafValues></_>
        <_>
          <internalNodes>
            0 -1 190 -1220378620 1957068819 19273774 1427188850
            -1942986530 -1290731456 -2008827169 1597457536</internalNodes>
          <leafValues>
            -5.0878649950027466e-01 3.6795681715011597e-01</leafValues></_>
        <_>
          <internalNodes>
            0 -1 20 -717308742 -148821943 1744298091 -310149438
            971936963 1517607496 2032306156 -651314646</internalNodes>
          <leafValues>
            -3.6559396982192993e-01 5.3597974777221680e-01</leafValues></_>
        <_>
          <internalNodes>
            0 -1 50 -1000048502 1413677134 -1605676788 806449472
            1203507423 830669189 -930475317 2103099536</internalNodes>
          <leafValues>
            -5.9613215923309326e-01 3.3353582024574280e-01</leafValues></_></weakClassifiers></_>
    <!-- stage 23 -->
    <_>
      <maxWeakCount>11</maxWeakCount>
      <stageThreshold>-6.7902123928070068e-01</stageThreshold>
      <weakClassifiers>
        <_>
          <internalNodes>
            0 -1 222 -1668616429 -1664118135 653669385 -822086596
            1040123550 -1896256737 -75616708 1861033310</internalNodes>
          <leafValues>
            -1.1772666126489639e-01 5.6562137603759766e-01</leafValues></_>
        <_>
          <internalNodes>
            0 -1 130 -557713513 -636049591 -1100662397 -1750831415
            841901987 -637128297 1362438282 2047053269</internalNodes>
          <leafValues>
            -2.7368876338005066e-01 4.5742994546890259e-01</leafValues></_>
        <_>
          <internalNodes>
            0 -1 360 -624982529 -41518696 234302483 -484586079
            -264957543 -339952154 -538477537 -72876961</internalNodes>
          <leafValues>
            -1.8202361464500427e-01 7.2424340248107910e-01</leafValues></_>
        <_>
          <internalNodes>
            0 -1 285 -93857383 1492413399 1847463437 -104990049
            -831094596 -1712135970 -648547438 -388573526</internalNodes>
          <leafValues>
            -2.5128850340843201e-01 6.0608279705047607e-01</leafValues></_>
        <_>
          <internalNodes>
            0 -1 187 -385711936 834916353 621838407 1300773476
            -1879710319 1611153423 -1036679538 2120471298</internalNodes>
          <leafValues>
            -4.6208932995796204e-01 3.5618445277214050e-01</leafValues></_>
        <_>
          <internalNodes>
            0 -1 118 1985467373 -1879658602 1893673902 379221486
            2147413501 -714965513 -1682441489 -1452157187</internalNodes>
          <leafValues>
            -2.6058742403984070e-01 5.9844404458999634e-01</leafValues></_>
        <_>
          <internalNodes>
            0 -1 137 -840854105 -281674251 -214129162 -327620786
            -58778978 -544057876 1469247324 -68249689</internalNodes>
          <leafValues>
            -2.3481360077857971e-01 6.8481636047363281e-01</leafValues></_>
        <_>
          <internalNodes>
            0 -1 111 -320953000 1381256270 595870221 2112898017 30450262
            1870661681 836034571 1984114835</internalNodes>
          <leafValues>
            -5.0592350959777832e-01 3.5967656970024109e-01</leafValues></_>
        <_>
          <internalNodes>
            0 -1 402 1159190250 324292690 -1445170111 110400345
            1187683242 -285177836 170584224 1597083688</internalNodes>
          <leafValues>
            -4.8985335230827332e-01 3.5787865519523621e-01</leafValues></_>
        <_>
          <internalNodes>
            0 -1 179 -2126191964 696254986 -997058896 269408781
            -986611135 -156137966 136414275 89207704</internalNodes>
          <leafValues>
            -6.7768341302871704e-01 2.9205968976020813e-01</leafValues></_>
        <_>
          <internalNodes>
            0 -1 149 1713501901 980855577 -550652114 -1835941329
            -1998163461 1390409291 2039467745 -572570223</internalNodes>
          <leafValues>
            -3.2168370485305786e-01 5.9965151548385620e-01</leafValues></_></weakClassifiers></_>
    <!-- stage 24 -->
    <_>
      <maxWeakCount>10</maxWeakCount>
      <stageThreshold>-5.5120521783828735e-01</stageThreshold>
      <weakClassifiers>
        <_>
          <internalNodes>
            0 -1 378 10994751 109293119 -1527845513 202174076 -656217990
            -1380517356 -53635864 143705930</internalNodes>
          <leafValues>
            -1.7771084606647491e-01 5.5341881513595581e-01</leafValues></_>
        <_>
          <internalNodes>
            0 -1 383 -1714953009 932780190 771685373 267804712 367883919
            -1920991234 -1064402991 -555504377</internalNodes>
          <leafValues>
            -2.3526312410831451e-01 5.7615703344345093e-01</leafValues></_>
        <_>
          <internalNodes>
            0 -1 18 1191611135 -3736661 -1347683037 -106178948
            1433794507 -281893551 -998811706 -420224270</internalNodes>
          <leafValues>
            -2.0827826857566833e-01 6.5366518497467041e-01</leafValues></_>
        <_>
          <internalNodes>
            0 -1 183 1110501934 814351656 1472402754 1570295938
            -1597927196 2018689340 1688413269 1197746217</internalNodes>
          <leafValues>
            -5.4258817434310913e-01 2.8558045625686646e-01</leafValues></_>
        <_>
          <internalNodes>
            0 -1 83 1381126879 -1892155326 -637452203 -57068994
            673272065 -511751525 -1592637410 369115344</internalNodes>
          <leafValues>
            -5.8238661289215088e-01 2.6741433143615723e-01</leafValues></_>
        <_>
          <internalNodes>
            0 -1 381 -956372061 314769694 671781996 -2012286903
            1845560018 1480591881 47334248 1119824035</internalNodes>
          <leafValues>
            -4.5112979412078857e-01 3.8222154974937439e-01</leafValues></_>
        <_>
          <internalNodes>
            0 -1 348 -131129187 -265511322 -544442109 -741739337
            1467609081 -221381016 -1369556778 1795542826</internalNodes>
          <leafValues>
            -3.6200851202011108e-01 4.9725562334060669e-01</leafValues></_>
        <_>
          <internalNodes>
            0 -1 292 -1042668603 -1127814376 1000639619 -1454855956
            1711187901 -92520722 -63607074 -1461763313</internalNodes>
          <leafValues>
            -3.1695023179054260e-01 5.6751948595046997e-01</leafValues></_>
        <_>
          <internalNodes>
            0 -1 390 -1041762569 -1907054942 -12699766 -2053198337
            -924001245 -121162573 -2136545570 -2104528137</internalNodes>
          <leafValues>
            -3.3482626080513000e-01 5.7324063777923584e-01</leafValues></_>
        <_>
          <internalNodes>
            0 -1 368 743186178 218346339 -1333675945 -1867245098
            -515057121 994672810 1285571360 1246824960</internalNodes>
          <leafValues>
            -5.7004600763320923e-01 3.2892304658889771e-01</leafValues></_></weakClassifiers></_>
    <!-- stage 25 -->
    <_>
      <maxWeakCount>12</maxWeakCount>
      <stageThreshold>-9.5930784940719604e-01</stageThreshold>
      <weakClassifiers>
        <_>
          <internalNodes>
            0 -1 127 -632765330 -773801124 799933952 -672290207
            -542179911 -1544304908 -612405307 1234745191</internalNodes>
          <leafValues>
            -1.9439579546451569e-01 4.9659863114356995e-01</leafValues></_>
        <_>
          <internalNodes>
            0 -1 56 1601692035 1417935411 -603545057 -269364454
            1749123466 1101025476 1634700620 -577856689</internalNodes>
          <leafValues>
            -2.5386303663253784e-01 5.3343200683593750e-01</leafValues></_>
        <_>
          <internalNodes>
            0 -1 210 -1441203464 -519995318 336093609 -936798393
            -536771413 -1023245727 -238018609 1511873282</internalNodes>
          <leafValues>
            -4.0172585844993591e-01 3.5807499289512634e-01</leafValues></_>
        <_>
          <internalNodes>
            0 -1 359 -404980145 -1277239326 -633838427 -110529443
            1746642106 -1620437983 -13384869 -204485429</internalNodes>
          <leafValues>
            -2.3369191586971283e-01 6.2687361240386963e-01</leafValues></_>
        <_>
          <internalNodes>
            0 -1 241 1527700589 -80036988 -1644563979 2042318987
            -881288821 -1101031536 -1320348933 -274743746</internalNodes>
          <leafValues>
            -2.5404736399650574e-01 6.2826764583587646e-01</leafValues></_>
        <_>
          <internalNodes>
            0 -1 155 -1964986872 -753465408 1073844374 -144253795
            1548132477 1363184642 -498786080 89458998</internalNodes>
          <leafValues>
            -5.4085195064544678e-01 3.2593646645545959e-01</leafValues></_>
        <_>
          <internalNodes>
            0 -1 49 1368475088 -1302784889 1745590535 59867650
            1344387820 198855840 1141342272 981676865</internalNodes>
          <leafValues>
            -5.1929730176925659e-01 3.2651528716087341e-01</leafValues></_>
        <_>
          <internalNodes>
            0 -1 33 -831000953 487059585 -1073495440 -1723743151
            -2147302352 -1637870206 619681865 1014061569</internalNodes>
          <leafValues>
            -4.9821370840072632e-01 3.8444402813911438e-01</leafValues></_>
        <_>
          <internalNodes>
            0 -1 188 495360030 277905524 67709309 497238017 -1112966504
            8402305 1946485547 1004322944</internalNodes>
          <leafValues>
            -4.5836514234542847e-01 3.8146549463272095e-01</leafValues></_>
        <_>
          <internalNodes>
            0 -1 294 -609768115 -1200781330 1992073195 -1641125896
            392129288 1071233470 913685951 2098592724</internalNodes>
          <leafValues>
            -3.4237682819366455e-01 5.2945286035537720e-01</leafValues></_>
        <_>
          <internalNodes>
            0 -1 366 -378878369 -622113040 2006283998 -1089321683
            -1678191428 -1209733795 -1535328774 -2375445</internalNodes>
          <leafValues>
            -2.6824435591697693e-01 7.1117788553237915e-01</leafValues></_>
        <_>
          <internalNodes>
            0 -1 304 1253299466 -81170732 2072084356 516292542
            -558238512 -1160880651 66522637 -1397231890</internalNodes>
          <leafValues>
            -3.4296950697898865e-01 5.4208815097808838e-01</leafValues></_></weakClassifiers></_>
    <!-- stage 26 -->
    <_>
      <maxWeakCount>14</maxWeakCount>
      <stageThreshold>-8.5181844234466553e-01</stageThreshold>
      <weakClassifiers>
        <_>
          <internalNodes>
            0 -1 8 276824352 1791657890 -2145697790 -2021086064
            386402768 -2012473928 -1857666956 1409351680</internalNodes>
          <leafValues>
            -5.4032260179519653e-01 3.9497041702270508e-01</leafValues></_>
        <_>
          <internalNodes>
            0 -1 281 1431675874 -659450882 -538305975 1601917331
            521861947 -604134491 -33686933 -523512021</internalNodes>
          <leafValues>
            -2.6665097475051880e-01 4.8667874932289124e-01</leafValues></_>
        <_>
          <internalNodes>
            0 -1 41 2139026095 -78130870 -89169134 -33347552 -385578543
            930521498 -1176239605 -545260593</internalNodes>
          <leafValues>
            -2.5678145885467529e-01 5.5075496435165405e-01</leafValues></_>
        <_>
          <internalNodes>
            0 -1 243 -643476224 -2008938174 2097402113 331761771
            819658988 1222158366 -1442026926 772360402</internalNodes>
          <leafValues>
            -5.6153208017349243e-01 2.5941565632820129e-01</leafValues></_>
        <_>
          <internalNodes>
            0 -1 379 -1147408229 -1825336541 -1615891614 -1751529711
            -542118709 444912825 -1430788554 1483532459</internalNodes>
          <leafValues>
            -3.1462356448173523e-01 5.0541710853576660e-01</leafValues></_>
        <_>
          <internalNodes>
            0 -1 115 -1859913317 2083453116 739639529 2141070297
            -1222413880 -1082443701 1446295275 -271601941</internalNodes>
          <leafValues>
            -2.5262865424156189e-01 6.2547093629837036e-01</leafValues></_>
        <_>
          <internalNodes>
            0 -1 351 412287114 1174438464 432226327 1549836376
            1115752651 -1169946495 1141461259 1945126006</internalNodes>
          <leafValues>
            -5.0872492790222168e-01 3.7291643023490906e-01</leafValues></_>
        <_>
          <internalNodes>
            0 -1 398 1362815199 1555161769 870446887 -1661714317
            2120998031 -1224807964 191867122 -36970961</internalNodes>
          <leafValues>
            -3.0117735266685486e-01 6.3533782958984375e-01</leafValues></_>
        <_>
          <internalNodes>
            0 -1 195 1483160262 -1054309824 -2127898049 1699287115
            1746454820 2069893006 2047885239 1301119183</internalNodes>
          <leafValues>
            -4.8734810948371887e-01 3.7790581583976746e-01</leafValues></_>
        <_>
          <internalNodes>
            0 -1 321 -2086823645 1464662741 1063092107 -638140673
            -714373314 -1847591782 1601879662 -639762011</internalNodes>
          <leafValues>
            -3.1514224410057068e-01 5.7110440731048584e-01</leafValues></_>
        <_>
          <internalNodes>
            0 -1 197 2100294387 -1194092846 1221014933 1978640354
            2136180624 -1422706768 1185964970 -268617835</internalNodes>
          <leafValues>
            -2.9049363732337952e-01 6.5965962409973145e-01</leafValues></_>
        <_>
          <internalNodes>
            0 -1 384 -797977965 -952382406 -1449546237 -1310267828
            1199549960 -457904645 1997752554 -1157694942</internalNodes>
          <leafValues>
            -2.9863321781158447e-01 6.0513752698898315e-01</leafValues></_>
        <_>
          <internalNodes>
            0 -1 298 -540025262 -742917946 -646085213 212467171
            1496867464 -1025704274 1206740035 -1663592580</internalNodes>
          <leafValues>
            -3.6703965067863464e-01 5.5923032760620117e-01</leafValues></_>
        <_>
          <internalNodes>
            0 -1 248 -823022808 -1142378143 -68260833 -706818665
            -620933367 -1649103719 -2097361043 -308825345</internalNodes>
          <leafValues>
            -3.3377438783645630e-01 5.9113353490829468e-01</leafValues></_></weakClassifiers></_>
    <!-- stage 27 -->
    <_>
      <maxWeakCount>11</maxWeakCount>
      <stageThreshold>-6.7691099643707275e-01</stageThreshold>
      <weakClassifiers>
        <_>
          <internalNodes>
            0 -1 261 -801311490 1038937726 -266321 1744486329 -915775756
            -2097453220 -1476513925 225116167</internalNodes>
          <leafValues>
            -2.4950884282588959e-01 4.8304307460784912e-01</leafValues></_>
        <_>
          <internalNodes>
            0 -1 380 1277661379 254326561 -253840137 -2130140527
            -182809905 503086488 -162595105 -1446791401</internalNodes>
          <leafValues>
            -2.7446648478507996e-01 4.6985983848571777e-01</leafValues></_>
        <_>
          <internalNodes>
            0 -1 43 -741116033 636934995 -178769815 1692866716
            -757853552 -1655698412 -629162753 -129018146</internalNodes>
          <leafValues>
            -2.4858757853507996e-01 5.5965739488601685e-01</leafValues></_>
        <_>
          <internalNodes>
            0 -1 38 -146420922 -232358844 -1086411750 -805738880
            -433692232 2061451556 -276827507 -2678785</internalNodes>
          <leafValues>
            -3.1654927134513855e-01 4.7707346081733704e-01</leafValues></_>
        <_>
          <internalNodes>
            0 -1 93 6617379 -647347126 -423758511 -944419141 -1280404813
            -503995246 1194689451 -328641093</internalNodes>
          <leafValues>
            -2.8789412975311279e-01 5.4603362083435059e-01</leafValues></_>
        <_>
          <internalNodes>
            0 -1 29 -662927389 -138562442 1040047703 -80742307
            -672018181 1391577462 -2126373626 -232815434</internalNodes>
          <leafValues>
            -2.8050369024276733e-01 5.7226085662841797e-01</leafValues></_>
        <_>
          <internalNodes>
            0 -1 404 -402630614 1005998234 151563 1950359617 -723218405
            -1966702069 1384368165 340188547</internalNodes>
          <leafValues>
            -4.7915565967559814e-01 3.6914214491844177e-01</leafValues></_>
        <_>
          <internalNodes>
            0 -1 327 1930682504 -94068327 -1811673024 -1065320348
            -502977735 1276121218 136963514 -213807958</internalNodes>
          <leafValues>
            -4.5934420824050903e-01 3.7725773453712463e-01</leafValues></_>
        <_>
          <internalNodes>
            0 -1 390 -639259443 -16734720 -1103649390 1008430447
            1558174922 -2147377737 1152885534 -1957717378</internalNodes>
          <leafValues>
            -3.1861874461174011e-01 5.6430423259735107e-01</leafValues></_>
        <_>
          <internalNodes>
            0 -1 24 -1649880958 -1260949386 -1362342221 -754206030
            -1404582492 -550448913 872139913 -2102533615</internalNodes>
          <leafValues>
            -4.2660808563232422e-01 4.7748208045959473e-01</leafValues></_>
        <_>
          <internalNodes>
            0 -1 131 -1304166208 499133391 1879302488 422880142
            -1943262848 -2146802550 423797003 1656184846</internalNodes>
          <leafValues>
            -5.5324465036392212e-01 3.4262025356292725e-01</leafValues></_></weakClassifiers></_>
    <!-- stage 28 -->
    <_>
      <maxWeakCount>12</maxWeakCount>
      <stageThreshold>-6.0621422529220581e-01</stageThreshold>
      <weakClassifiers>
        <_>
          <internalNodes>
            0 -1 75 722446 293896195 33571076 881879098 1193873212
            1663934600 -1775763324 533256</internalNodes>
          <leafValues>
            -5.0714284181594849e-01 4.1060605645179749e-01</leafValues></_>
        <_>
          <internalNodes>
            0 -1 244 -1299215621 -1252115497 -1888580428 -78774274
            1367316350 976621564 979838538 -189074967</internalNodes>
          <leafValues>
            -2.5848707556724548e-01 5.4451113939285278e-01</leafValues></_>
        <_>
          <internalNodes>
            0 -1 113 -348722241 -760100233 534776626 -1316751615
            48877045 -1120086123 -537532834 -806889762</internalNodes>
          <leafValues>
            -2.1636559069156647e-01 6.3485050201416016e-01</leafValues></_>
        <_>
          <internalNodes>
            0 -1 391 1749718 675627014 1513554974 -2124574271 678107922
            547121413 302224525 -1163506132</internalNodes>
          <leafValues>
            -4.4619047641754150e-01 3.5631406307220459e-01</leafValues></_>
        <_>
          <internalNodes>
            0 -1 120 -987051752 -781740840 360859186 463275076
            -1708601720 2049785892 -1589471209 981229857</internalNodes>
          <leafValues>
            -5.1735383272171021e-01 3.5096701979637146e-01</leafValues></_>
        <_>
          <internalNodes>
            0 -1 193 1996600975 -1329353551 657173234 530627386
            558231568 -89168841 551129818 -73148998</internalNodes>
          <leafValues>
            -3.2060277462005615e-01 5.6947875022888184e-01</leafValues></_>
        <_>
          <internalNodes>
            0 -1 143 420495143 877934982 1988802036 2041812603
            -1485502639 1873260240 1941830622 -438226168</internalNodes>
          <leafValues>
            -3.4156221151351929e-01 5.0749164819717407e-01</leafValues></_>
        <_>
          <internalNodes>
            0 -1 90 -203744279 2115582715 2045758047 -1191752656
            1181587027 1272043268 979130319 -1331280506</internalNodes>
          <leafValues>
            -3.5609239339828491e-01 5.1521366834640503e-01</leafValues></_>
        <_>
          <internalNodes>
            0 -1 295 807146416 1392608482 355504648 688333184 1227165978
            178340080 288655437 1193224584</internalNodes>
          <leafValues>
            -6.4563488960266113e-01 3.0814328789710999e-01</leafValues></_>
        <_>
          <internalNodes>
            0 -1 300 -1062127584 1413555378 353677918 318884296
            -1338453120 -670547568 128000314 389512576</internalNodes>
          <leafValues>
            -5.8830863237380981e-01 3.4030294418334961e-01</leafValues></_>
        <_>
          <internalNodes>
            0 -1 48 -702024019 287427497 1328631315 -1214453097
            1487540753 -1109297821 2135246793 -287574465</internalNodes>
          <leafValues>
            -3.6327779293060303e-01 5.5256098508834839e-01</leafValues></_>
        <_>
          <internalNodes>
            0 -1 340 199672775 -649730738 -297353893 389446187
            -549527253 -1614941090 1602502427 -108676760</internalNodes>
          <leafValues>
            -2.8880739212036133e-01 6.5341973304748535e-01</leafValues></_></weakClassifiers></_>
    <!-- stage 29 -->
    <_>
      <maxWeakCount>12</maxWeakCount>
      <stageThreshold>-5.5593615770339966e-01</stageThreshold>
      <weakClassifiers>
        <_>
          <internalNodes>
            0 -1 326 1581318144 1116386216 477081153 1401858886
            1424096208 1521114431 1011430831 1090059502</internalNodes>
          <leafValues>
            -3.5051545500755310e-01 4.4224423170089722e-01</leafValues></_>
        <_>
          <internalNodes>
            0 -1 122 -184838433 -561334351 -2122895118 2079406206
            2008973136 -886456450 -542143489 -35662364</internalNodes>
          <leafValues>
            -1.9487053155899048e-01 6.3445138931274414e-01</leafValues></_>
        <_>
          <internalNodes>
            0 -1 382 -606789541 654640923 -1103152395 997419812
            -2007339013 117294846 2086075100 -238100554</internalNodes>
          <leafValues>
            -2.5159224867820740e-01 4.9980416893959045e-01</leafValues></_>
        <_>
          <internalNodes>
            0 -1 249 -704056646 1478791680 1261795990 -1800295870
            1495373288 -375389016 -1513535476 996239614</internalNodes>
          <leafValues>
            -4.0101206302642822e-01 3.4775945544242859e-01</leafValues></_>
        <_>
          <internalNodes>
            0 -1 241 945578760 -669376302 68276784 320742017 -2111198862
            -1903689712 608289090 128387605</internalNodes>
          <leafValues>
            -5.5073136091232300e-01 2.9040434956550598e-01</leafValues></_>
        <_>
          <internalNodes>
            0 -1 312 -233254852 -1455286224 1098169 26517577 -234798851
            -522165640 1241982742 1252333475</internalNodes>
          <leafValues>
            -5.3879654407501221e-01 2.7564847469329834e-01</leafValues></_>
        <_>
          <internalNodes>
            0 -1 104 -1576214008 1594907123 -722352621 -164986610
            111731878 1758626944 1265126039 493782792</internalNodes>
          <leafValues>
            -6.1203938722610474e-01 2.7602222561836243e-01</leafValues></_>
        <_>
          <internalNodes>
            0 -1 14 241209660 -570807702 2079534733 -68556892 -20120746
            -1932402725 2138272991 -490633546</internalNodes>
          <leafValues>
            -2.9892721772193909e-01 5.7480508089065552e-01</leafValues></_>
        <_>
          <internalNodes>
            0 -1 158 1378279155 -184779304 787863037 -831829084
            2130149338 -186013707 -282624883 -635368278</internalNodes>
          <leafValues>
            -3.9078909158706665e-01 4.6485599875450134e-01</leafValues></_>
        <_>
          <internalNodes>
            0 -1 318 -1178892857 -833135618 166541151 -509423667
            1995810390 1977226840 -1126957191 -926655542</internalNodes>
          <leafValues>
            -2.9683026671409607e-01 6.0300445556640625e-01</leafValues></_>
        <_>
          <internalNodes>
            0 -1 115 1445986698 -591726491 1008472189 -942719239
            -49598336 -1229229480 -131326214 -1211152484</internalNodes>
          <leafValues>
            -3.6707949638366699e-01 4.9557498097419739e-01</leafValues></_>
        <_>
          <internalNodes>
            0 -1 23 1902624679 -1749879943 -8946128 -618684626
            -964796499 1006497197 -1375822657 -1141688725</internalNodes>
          <leafValues>
            -2.7277958393096924e-01 6.5488356351852417e-01</leafValues></_></weakClassifiers></_>
    <!-- stage 30 -->
    <_>
      <maxWeakCount>13</maxWeakCount>
      <stageThreshold>-9.8677843809127808e-01</stageThreshold>
      <weakClassifiers>
        <_>
          <internalNodes>
            0 -1 184 -48192920 -655529565 -1721258365 67929287
            -567934919 2025287551 1317492194 -487072963</internalNodes>
          <leafValues>
            -1.2834978103637695e-01 5.5106621980667114e-01</leafValues></_>
        <_>
          <internalNodes>
            0 -1 200 -587980621 -245199322 271779579 2103411247
            1704236380 -121388458 551431386 -891325221</internalNodes>
          <leafValues>
            -2.1909092366695404e-01 5.4967439174652100e-01</leafValues></_>
        <_>
          <internalNodes>
            0 -1 125 1453717191 994248380 1852726759 -1175811329
            -177008951 -245048907 -1134568568 -219089998</internalNodes>
          <leafValues>
            -2.1584376692771912e-01 6.0313868522644043e-01</leafValues></_>
        <_>
          <internalNodes>
            0 -1 273 -1214326627 -1494287857 2063390949 1202829103
            -479514774 -1164795918 -42141715 -2069567126</internalNodes>
          <leafValues>
            -3.5979437828063965e-01 4.2039206624031067e-01</leafValues></_>
        <_>
          <internalNodes>
            0 -1 142 1679400527 518939033 -415549863 -207049796
            1726420147 513801214 -1223250097 -1211784233</internalNodes>
          <leafValues>
            -3.0764842033386230e-01 5.2273142337799072e-01</leafValues></_>
        <_>
          <internalNodes>
            0 -1 240 -298902827 673524720 2074945139 -549165069
            -2022236358 1028848890 521020216 -82805267</internalNodes>
          <leafValues>
            -3.2520914077758789e-01 4.8071217536926270e-01</leafValues></_>
        <_>
          <internalNodes>
            0 -1 375 -1215276716 -1740438904 1509986973 449522049
            -1052557186 -872052720 -2144548856 290032290</internalNodes>
          <leafValues>
            -5.2905392646789551e-01 3.2396548986434937e-01</leafValues></_>
        <_>
          <internalNodes>
            0 -1 31 -43517531 2108619680 662617125 2136292529 1383410778
            -136375134 -1246181434 -236822758</internalNodes>
          <leafValues>
            -3.4847176074981689e-01 5.1989269256591797e-01</leafValues></_>
        <_>
          <internalNodes>
            0 -1 331 -1439461644 1588139474 257990870 1964179437
            -468002379 653201106 788335770 -1647982668</internalNodes>
          <leafValues>
            -3.8221848011016846e-01 4.4838193058967590e-01</leafValues></_>
        <_>
          <internalNodes>
            0 -1 65 1909432551 -22131403 1948849944 830708497 2085795996
            -606503056 1874531066 -899684193</internalNodes>
          <leafValues>
            -3.0973678827285767e-01 5.6269806623458862e-01</leafValues></_>
        <_>
          <internalNodes>
            0 -1 54 -2009058004 1918035776 -922731253 -1811609584
            165300389 2021874529 -736177680 333496690</internalNodes>
          <leafValues>
            -5.7782018184661865e-01 3.1662142276763916e-01</leafValues></_>
        <_>
          <internalNodes>
            0 -1 258 -950665321 1899659047 1961758293 1893541437
            346024177 -1144720901 2054580806 -573982321</internalNodes>
          <leafValues>
            -2.7757629752159119e-01 6.6968280076980591e-01</leafValues></_>
        <_>
          <internalNodes>
            0 -1 1 -1449654583 2126249773 1070480789 -570818784
            -910577773 -271550475 -276842631 -250536561</internalNodes>
          <leafValues>
            -3.1448820233345032e-01 5.6082594394683838e-01</leafValues></_></weakClassifiers></_>
    <!-- stage 31 -->
    <_>
      <maxWeakCount>12</maxWeakCount>
      <stageThreshold>-6.6521173715591431e-01</stageThreshold>
      <weakClassifiers>
        <_>
          <internalNodes>
            0 -1 109 -485555702 1687600320 -419558921 1615195903
            -1342330482 -1658410327 1207826937 1885199837</internalNodes>
          <leafValues>
            -2.7118644118309021e-01 4.6808511018753052e-01</leafValues></_>
        <_>
          <internalNodes>
            0 -1 336 -1131487991 -1792278029 1766444280 -82928095
            -541215890 -1970911554 1888755659 1287125527</internalNodes>
          <leafValues>
            -2.8586986660957336e-01 4.3081197142601013e-01</leafValues></_>
        <_>
          <internalNodes>
            0 -1 58 -135924897 377186559 -344445010 963564827 1316818549
            1601495218 1054242623 -4196709</internalNodes>
          <leafValues>
            -2.1523435413837433e-01 6.0962635278701782e-01</leafValues></_>
        <_>
          <internalNodes>
            0 -1 82 -63053459 1263086327 -308383614 799963070 442879208
            -138181644 457907575 2031191907</internalNodes>
          <leafValues>
            -3.6383435130119324e-01 3.8832730054855347e-01</leafValues></_>
        <_>
          <internalNodes>
            0 -1 325 -171442549 -605058120 1149229298 1604894716
            -203183281 -1581912136 728626153 -653263928</internalNodes>
          <leafValues>
            -2.4168860912322998e-01 6.3124257326126099e-01</leafValues></_>
        <_>
          <internalNodes>
            0 -1 251 -16030761 1831250594 397776609 1542040939 465307591
            -848844180 660404096 -1447842177</internalNodes>
          <leafValues>
            -2.3927628993988037e-01 6.0084861516952515e-01</leafValues></_>
        <_>
          <internalNodes>
            0 -1 246 2058485429 -26877072 1286721853 967591259
            1993136382 -1230714370 -1696133001 -1657084065</internalNodes>
          <leafValues>
            -2.8926840424537659e-01 6.0402691364288330e-01</leafValues></_>
        <_>
          <internalNodes>
            0 -1 147 317893776 1360791338 1370865964 1603502088
            1160330142 1350062282 -922033880 614125670</internalNodes>
          <leafValues>
            -5.0174546241760254e-01 3.5745650529861450e-01</leafValues></_>
        <_>
          <internalNodes>
            0 -1 226 1356809306 -716222770 441290067 -1209204816
            -713117715 -301126657 -25809170 -901781382</internalNodes>
          <leafValues>
            -3.4441757202148438e-01 5.1094818115234375e-01</leafValues></_>
        <_>
          <internalNodes>
            0 -1 311 -1623808203 2099095275 1972214136 -1709261062
            -1647852554 -1934412592 -2052232043 -2116164629</internalNodes>
          <leafValues>
            -3.2038265466690063e-01 5.5662727355957031e-01</leafValues></_>
        <_>
          <internalNodes>
            0 -1 148 -96951637 -1639995159 889128570 300799118
            -751300394 -705207281 695267312 -766516101</internalNodes>
          <leafValues>
            -3.2458081841468811e-01 5.5609726905822754e-01</leafValues></_>
        <_>
          <internalNodes>
            0 -1 72 -1023758667 -69083992 1454802740 -143788936
            1605958300 1788753913 -1359287190 1727047276</internalNodes>
          <leafValues>
            -3.6913728713989258e-01 4.9210914969444275e-01</leafValues></_></weakClassifiers></_>
    <!-- stage 32 -->
    <_>
      <maxWeakCount>12</maxWeakCount>
      <stageThreshold>-8.8787800073623657e-01</stageThreshold>
      <weakClassifiers>
        <_>
          <internalNodes>
            0 -1 264 1588261446 2067734120 -1082130578 1328233870
            1540690428 922370047 -255922369 48116083</internalNodes>
          <leafValues>
            -2.7555555105209351e-01 4.5565217733383179e-01</leafValues></_>
        <_>
          <internalNodes>
            0 -1 288 -1275365999 -741967933 -1124190787 1039736781
            -289808997 -119742522 -119372431 -76880453</internalNodes>
          <leafValues>
            -1.8871793150901794e-01 6.3878154754638672e-01</leafValues></_>
        <_>
          <internalNodes>
            0 -1 394 -567903703 1990904360 -1778718592 1351576477
            -674500991 1794923628 -308810136 -36784466</internalNodes>
          <leafValues>
            -2.4933584034442902e-01 5.1840406656265259e-01</leafValues></_>
        <_>
          <internalNodes>
            0 -1 73 -1541045783 1392629087 -745831188 -2059288317
            811811072 153952280 67117090 155413217</internalNodes>
          <leafValues>
            -4.8931479454040527e-01 2.8947126865386963e-01</leafValues></_>
        <_>
          <internalNodes>
            0 -1 99 -620261227 -1099002464 1341974279 1063710103
            -426422040 -1580017491 1042002666 -1218192710</internalNodes>
          <leafValues>
            -2.4319970607757568e-01 6.2738555669784546e-01</leafValues></_>
        <_>
          <internalNodes>
            0 -1 9 -46991683 -691337281 -1075006611 -1784302324
            1611136981 -1830620106 -1968942806 -607289350</internalNodes>
          <leafValues>
            -2.4712908267974854e-01 6.5722858905792236e-01</leafValues></_>
        <_>
          <internalNodes>
            0 -1 302 -1048586141 -641274376 1893588179 1196788685
            622489315 -62553559 -635739476 -839918935</internalNodes>
          <leafValues>
            -2.6789298653602600e-01 6.2470293045043945e-01</leafValues></_>
        <_>
          <internalNodes>
            0 -1 129 77703984 46239300 1582246 -1869397278 33591388
            29596289 1340375977 1526219183</internalNodes>
          <leafValues>
            -6.0414361953735352e-01 2.9652258753776550e-01</leafValues></_>
        <_>
          <internalNodes>
            0 -1 52 1959105259 1441230394 -55411593 -1686570401
            -681533568 -1392850718 -1964150518 -1140903942</internalNodes>
          <leafValues>
            -2.8254935145378113e-01 6.2727087736129761e-01</leafValues></_>
        <_>
          <internalNodes>
            0 -1 207 -765411171 -260767745 -1268842522 1212119354
            -1936139624 -1620045019 -1472794658 970419222</internalNodes>
          <leafValues>
            -4.0857809782028198e-01 4.3947657942771912e-01</leafValues></_>
        <_>
          <internalNodes>
            0 -1 337 1526536774 -1201088060 1642272259 130364179
            1859163352 703735103 1609681242 -628441590</internalNodes>
          <leafValues>
            -4.1333070397377014e-01 4.5030462741851807e-01</leafValues></_>
        <_>
          <internalNodes>
            0 -1 388 -977100973 48363844 -1599084557 890131989 -75517313
            2127601400 1718398896 -276775159</internalNodes>
          <leafValues>
            -3.4391871094703674e-01 5.3998070955276489e-01</leafValues></_></weakClassifiers></_>
    <!-- stage 33 -->
    <_>
