<?xml version="1.0"?>
<opencv_storage>
<cascade>
  <stageType>BOOST</stageType>
  <featureType>LBP</featureType>
  <height>50</height>
  <width>40</width>
  <stageParams>
    <boostType>GAB</boostType>
    <minHitRate>9.9900001287460327e-01</minHitRate>
    <maxFalseAlarm>3.0000001192092896e-01</maxFalseAlarm>
    <weightTrimRate>9.4999999999999996e-01</weightTrimRate>
    <maxDepth>1</maxDepth>
    <maxWeakCount>100</maxWeakCount></stageParams>
  <featureParams>
    <maxCatCount>256</maxCatCount>
    <featSize>1</featSize></featureParams>
  <stageNum>20</stageNum>
  <stages>
    <!-- stage 0 -->
    <_>
      <maxWeakCount>5</maxWeakCount>
      <stageThreshold>-8.6445444822311401e-01</stageThreshold>
      <weakClassifiers>
        <_>
          <internalNodes>
            0 -1 67 34952 -620035887 -2075946598 -3415721 -800864049
            -58146386 -91514209 -3147057</internalNodes>
          <leafValues>
            -8.8910889625549316e-01 7.7534246444702148e-01</leafValues></_>
        <_>
          <internalNodes>
            0 -1 105 1149815893 142606464 269488149 1501921665
            -629057377 -594831231 -5113089 -577766449</internalNodes>
          <leafValues>
            -7.7628850936889648e-01 6.4893066883087158e-01</leafValues></_>
        <_>
          <internalNodes>
            0 -1 3 1493234803 2135425023 1073610751 -1 285306884
            -11157505 2119663615 -1</internalNodes>
          <leafValues>
            -6.4486587047576904e-01 7.1355128288269043e-01</leafValues></_>
        <_>
          <internalNodes>
            0 -1 14 911591159 -36613872 286331347 -683605808 1074334154
            -75333469 1921122559 -6028800</internalNodes>
          <leafValues>
            -6.2938517332077026e-01 7.1323084831237793e-01</leafValues></_>
        <_>
          <internalNodes>
            0 -1 58 1075963064 1510047757 536920354 1862893585
            1896383226 -1920823165 -1040140039 -606104913</internalNodes>
          <leafValues>
            -7.4153834581375122e-01 6.4997482299804688e-01</leafValues></_></weakClassifiers></_>
    <!-- stage 1 -->
    <_>
      <maxWeakCount>7</maxWeakCount>
      <stageThreshold>-8.3903765678405762e-01</stageThreshold>
      <weakClassifiers>
        <_>
          <internalNodes>
            0 -1 24 -738993161 1024573935 -170519201 368120141 407938015
            -1954542350 737753531 37892997</internalNodes>
          <leafValues>
            -8.2392776012420654e-01 6.6119271516799927e-01</leafValues></_>
        <_>
          <internalNodes>
            0 -1 66 -402357106 -183402111 -788445697 -289041899
            1645578677 -225920088 176488603 -810745727</internalNodes>
          <leafValues>
            -6.5183287858963013e-01 5.9651386737823486e-01</leafValues></_>
        <_>
          <internalNodes>
            0 -1 99 1359002776 -720305712 16812367 520166739 287875514
            -108324718 151039903 -1903214165</internalNodes>
          <leafValues>
            -5.9518498182296753e-01 6.5323531627655029e-01</leafValues></_>
        <_>
          <internalNodes>
            0 -1 153 -648245036 2144542485 -648773293 1601396054
            -1274419976 -550270712 -1978624837 -1693728758</internalNodes>
          <leafValues>
            -5.1938027143478394e-01 7.4032247066497803e-01</leafValues></_>
        <_>
          <internalNodes>
            0 -1 122 -83633968 -1651658086 246175 -514389985 -1574288725
            949190656 428554954 -1376112</internalNodes>
          <leafValues>
            -7.0668685436248779e-01 5.6071972846984863e-01</leafValues></_>
        <_>
          <internalNodes>
            0 -1 13 -800852777 1499056389 827416707 -40546297 2179199
            -775397235 921047819 307047314</internalNodes>
          <leafValues>
            -7.5890445709228516e-01 5.7274192571640015e-01</leafValues></_>
        <_>
          <internalNodes>
            0 -1 92 1251325663 -1382379085 -2139012077 -1129194989
            -2146107233 -1399812986 -1029370928 487735032</internalNodes>
          <leafValues>
            -8.5282117128372192e-01 4.8341232538223267e-01</leafValues></_></weakClassifiers></_>
    <!-- stage 2 -->
    <_>
      <maxWeakCount>6</maxWeakCount>
      <stageThreshold>-4.6475586295127869e-01</stageThreshold>
      <weakClassifiers>
        <_>
          <internalNodes>
            0 -1 15 152180151 -117396587 234964893 -242736503 8915839
            -1979604831 25887215 2143573511</internalNodes>
          <leafValues>
            -7.3269689083099365e-01 5.9864521026611328e-01</leafValues></_>
        <_>
          <internalNodes>
            0 -1 60 -682431774 1426264297 1895850064 1157988611
            -1056472829 447060224 -782797937 -607130710</internalNodes>
          <leafValues>
            -6.6789251565933228e-01 5.2713906764984131e-01</leafValues></_>
        <_>
          <internalNodes>
            0 -1 25 -799672069 268538103 -1090720007 1387615859
            283475311 -715655209 -83968001 -1</internalNodes>
          <leafValues>
            -5.0387859344482422e-01 6.7667776346206665e-01</leafValues></_>
        <_>
          <internalNodes>
            0 -1 103 868336523 -1912220991 -1438575789 -175783739
            344130523 -1741634910 4925579 1070597121</internalNodes>
          <leafValues>
            -7.5170332193374634e-01 5.2795112133026123e-01</leafValues></_>
        <_>
          <internalNodes>
            0 -1 108 1964563192 -244252672 411165207 389087388
            -1560106824 -1182629840 -1258252097 327637531</internalNodes>
          <leafValues>
            -6.9573855400085449e-01 5.3226369619369507e-01</leafValues></_>
        <_>
          <internalNodes>
            0 -1 35 -1018852625 -717111273 105373 -1279196144 1082141939
            -2035040236 1340097443 -134654123</internalNodes>
          <leafValues>
            -6.8923282623291016e-01 5.1156604290008545e-01</leafValues></_></weakClassifiers></_>
    <!-- stage 3 -->
    <_>
      <maxWeakCount>7</maxWeakCount>
      <stageThreshold>-6.7980009317398071e-01</stageThreshold>
      <weakClassifiers>
        <_>
          <internalNodes>
            0 -1 113 956310788 318903601 -519434315 -1086060224
            -1530392920 958464000 67783624 -1981534839</internalNodes>
          <leafValues>
            -6.9007265567779541e-01 5.7708507776260376e-01</leafValues></_>
        <_>
          <internalNodes>
            0 -1 61 -653966837 288450611 -1079250946 151121647
            -526356363 2029453054 -167783041 -303562769</internalNodes>
          <leafValues>
            -5.4737329483032227e-01 6.5098261833190918e-01</leafValues></_>
        <_>
          <internalNodes>
            0 -1 50 -285169987 -673729264 -1862250173 -6499515
            -1448083011 801912952 243732352 2072266501</internalNodes>
          <leafValues>
            -7.4389767646789551e-01 4.8256185650825500e-01</leafValues></_>
        <_>
          <internalNodes>
            0 -1 26 -263067825 840010245 -1558007655 -1962082296
            1897222691 1090617984 -430446470 -136582518</internalNodes>
          <leafValues>
            -5.6056696176528931e-01 6.2078303098678589e-01</leafValues></_>
        <_>
          <internalNodes>
            0 -1 63 1319171935 -2068658848 -1851714244 310494295 9542808
            -1005532928 -505765714 -2135912294</internalNodes>
          <leafValues>
            -6.3527107238769531e-01 5.6836140155792236e-01</leafValues></_>
        <_>
          <internalNodes>
            0 -1 133 -653921935 160742217 -84926161 1569300683
            -1457938969 -1714945400 -939212701 -313932576</internalNodes>
          <leafValues>
            -5.2324068546295166e-01 6.7557817697525024e-01</leafValues></_>
        <_>
          <internalNodes>
            0 -1 90 1879326972 2100920329 539001055 421103629 729985272
            1746190336 990027891 -1297284247</internalNodes>
          <leafValues>
            -6.2534850835800171e-01 5.7211446762084961e-01</leafValues></_></weakClassifiers></_>
    <!-- stage 4 -->
    <_>
      <maxWeakCount>8</maxWeakCount>
      <stageThreshold>-8.4665477275848389e-01</stageThreshold>
      <weakClassifiers>
        <_>
          <internalNodes>
            0 -1 2 -534482977 -510050751 -771620008 -239068491 134259455
            -1520385536 709496491 2143422323</internalNodes>
          <leafValues>
            -6.5301203727722168e-01 5.6624472141265869e-01</leafValues></_>
        <_>
          <internalNodes>
            0 -1 54 -2131070754 1347440721 -2143236388 1154568369
            -1320173089 -1827992317 -1417549154 -560280678</internalNodes>
          <leafValues>
            -6.2693136930465698e-01 4.9171137809753418e-01</leafValues></_>
        <_>
          <internalNodes>
            0 -1 136 1068179206 -1115385550 -1903307767 -1182724068
            -1904179969 -1971289983 -2013229544 -608894208</internalNodes>
          <leafValues>
            -7.3781329393386841e-01 4.1732302308082581e-01</leafValues></_>
        <_>
          <internalNodes>
            0 -1 43 1419504362 1079152720 -259931965 -220983102
            -578244181 -1950301173 -993671781 11668687</internalNodes>
          <leafValues>
            -7.4434709548950195e-01 4.2591550946235657e-01</leafValues></_>
        <_>
          <internalNodes>
            0 -1 69 -610565430 502744541 34291949 900141312 1779810954
            684265474 -446445429 -313998803</internalNodes>
          <leafValues>
            -6.8281209468841553e-01 4.7165650129318237e-01</leafValues></_>
        <_>
          <internalNodes>
            0 -1 9 -754882829 1515766162 1073815731 -586888815
            1082303487 176212186 17318466 -5290238</internalNodes>
          <leafValues>
            -6.5331524610519409e-01 4.9747326970100403e-01</leafValues></_>
        <_>
          <internalNodes>
            0 -1 116 2047979760 -1254799104 1346437137 995164163
            563118266 -1140225904 142679691 1477984297</internalNodes>
          <leafValues>
            -7.1251881122589111e-01 4.5863962173461914e-01</leafValues></_>
        <_>
          <internalNodes>
            0 -1 45 -80758448 -785051115 1093140860 1504776304
            -1030184893 622919827 -1455160182 298816667</internalNodes>
          <leafValues>
            -6.9920325279235840e-01 5.2903985977172852e-01</leafValues></_></weakClassifiers></_>
    <!-- stage 5 -->
    <_>
      <maxWeakCount>7</maxWeakCount>
      <stageThreshold>-8.4361869096755981e-01</stageThreshold>
      <weakClassifiers>
        <_>
          <internalNodes>
            0 -1 130 462369279 538707164 24700 1035790597 616650905
            478949441 -230390539 282820383</internalNodes>
          <leafValues>
            -7.1883291006088257e-01 5.4865086078643799e-01</leafValues></_>
        <_>
          <internalNodes>
            0 -1 42 1254614855 1900081157 -1006599849 1124208641
            81289015 1560330248 1164670519 1978351939</internalNodes>
          <leafValues>
            -7.1984380483627319e-01 4.2073649168014526e-01</leafValues></_>
        <_>
          <internalNodes>
            0 -1 135 -924860965 -2002731290 -687872073 -2065973838
            -2064318743 -640354596 -1796907019 -1795575606</internalNodes>
          <leafValues>
            -5.0449699163436890e-01 6.2149304151535034e-01</leafValues></_>
        <_>
          <internalNodes>
            0 -1 0 -1073506245 1528053785 1745502283 1489110229
            -267656710 -88045545 -1530085735 1781792992</internalNodes>
          <leafValues>
            -7.0710808038711548e-01 4.2517781257629395e-01</leafValues></_>
        <_>
          <internalNodes>
            0 -1 120 -693904131 1061040125 -1074528257 492670591
            -1347693059 -16401 -349006342 -1895945153</internalNodes>
          <leafValues>
            -5.0190526247024536e-01 6.4503985643386841e-01</leafValues></_>
        <_>
          <internalNodes>
            0 -1 84 -1048599700 1366879218 -2146430792 194356059
            59868039 958562304 1344832499 -1914879705</internalNodes>
          <leafValues>
            -6.4151209592819214e-01 4.7379598021507263e-01</leafValues></_>
        <_>
          <internalNodes>
            0 -1 150 1660940867 3510551 411640663 -2132752312 947919039
            -368926559 -784318070 -249472374</internalNodes>
          <leafValues>
            -5.7329171895980835e-01 5.6631356477737427e-01</leafValues></_></weakClassifiers></_>
    <!-- stage 6 -->
    <_>
      <maxWeakCount>8</maxWeakCount>
      <stageThreshold>-3.9084354043006897e-01</stageThreshold>
      <weakClassifiers>
        <_>
          <internalNodes>
            0 -1 110 -989674160 -1946004524 -1852386822 329450518
            -1741601832 1486913811 -1433796392 27395081</internalNodes>
          <leafValues>
            -6.6212534904479980e-01 5.2149230241775513e-01</leafValues></_>
        <_>
          <internalNodes>
            0 -1 102 -187566115 562090177 -977255999 1037420741
            -704626620 -1946157047 -1094330161 531594445</internalNodes>
          <leafValues>
            -6.5190047025680542e-01 4.4196873903274536e-01</leafValues></_>
        <_>
          <internalNodes>
            0 -1 142 -212817776 -9437104 -721419787 2031685857
            1353250986 2047416970 939788682 2098413571</internalNodes>
          <leafValues>
            -6.9156485795974731e-01 4.8624560236930847e-01</leafValues></_>
        <_>
          <internalNodes>
            0 -1 68 -1969795139 -1288377211 -750653293 -1322910573
            -2147310280 -619659071 1219494559 -543599594</internalNodes>
          <leafValues>
            -5.4358857870101929e-01 5.4553890228271484e-01</leafValues></_>
        <_>
          <internalNodes>
            0 -1 38 -473443531 1515307333 1224998926 -616562606
            -1582245593 1095882886 -358381385 -1112809238</internalNodes>
          <leafValues>
            -4.9763801693916321e-01 6.1811399459838867e-01</leafValues></_>
        <_>
          <internalNodes>
            0 -1 85 1695439184 1170540821 50665873 524877905 -360703844
            -1461188416 -1995920853 -1927806936</internalNodes>
          <leafValues>
            -6.0652518272399902e-01 5.1588875055313110e-01</leafValues></_>
        <_>
          <internalNodes>
            0 -1 56 -1216158312 -247234408 -1995435625 205815809
            -987717701 814514368 1100480587 -240435195</internalNodes>
          <leafValues>
            -6.0012024641036987e-01 5.4932284355163574e-01</leafValues></_>
        <_>
          <internalNodes>
            0 -1 8 -1991896606 -1730608950 806459473 1507676337
            -1072658005 -1031297454 -847203158 -952020831</internalNodes>
          <leafValues>
            -6.5303355455398560e-01 5.1553487777709961e-01</leafValues></_></weakClassifiers></_>
    <!-- stage 7 -->
    <_>
      <maxWeakCount>8</maxWeakCount>
      <stageThreshold>-6.8023478984832764e-01</stageThreshold>
      <weakClassifiers>
        <_>
          <internalNodes>
            0 -1 64 -2079912338 -247336749 -400504571 -1189226094
            -2101244493 -10357773 62062719 1334117765</internalNodes>
          <leafValues>
            -7.2753626108169556e-01 5.1872509717941284e-01</leafValues></_>
        <_>
          <internalNodes>
            0 -1 87 1214957738 13213223 -2138369653 729909767 1107986614
            -41936765 -750370669 -269299565</internalNodes>
          <leafValues>
            -6.7114937305450439e-01 4.2686206102371216e-01</leafValues></_>
        <_>
          <internalNodes>
            0 -1 41 804954813 -1342177324 2147450869 -133135 662663135
            -268996653 1073682425 -2272313</internalNodes>
          <leafValues>
            -4.5404770970344543e-01 6.5185403823852539e-01</leafValues></_>
        <_>
          <internalNodes>
            0 -1 121 1107361928 -82720808 -1600944047 -1582726902
            562074248 -2142236560 957188748 -619795685</internalNodes>
          <leafValues>
            -6.8891102075576782e-01 4.3908050656318665e-01</leafValues></_>
        <_>
          <internalNodes>
            0 -1 75 -1546464771 -920198096 -805236643 -1861865207
            -1476189645 -1469480928 -1066889080 -302775816</internalNodes>
          <leafValues>
            -6.2272614240646362e-01 4.4583398103713989e-01</leafValues></_>
        <_>
          <internalNodes>
            0 -1 104 306332635 425052303 -1945048983 -1246175930
            -1917985317 -1141839856 -1785809241 -550939316</internalNodes>
          <leafValues>
            -5.9638458490371704e-01 5.6671178340911865e-01</leafValues></_>
        <_>
          <internalNodes>
            0 -1 27 -227343545 1078050911 -1056886272 -830454774
            1614901825 545310870 -770621119 1906935949</internalNodes>
          <leafValues>
            -7.4160212278366089e-01 4.9136787652969360e-01</leafValues></_>
        <_>
          <internalNodes>
            0 -1 106 -866781739 -2004822997 -607469568 -1033588979
            947988673 -57974612 1243130520 -1181963634</internalNodes>
          <leafValues>
            -5.7834243774414063e-01 5.7976621389389038e-01</leafValues></_></weakClassifiers></_>
    <!-- stage 8 -->
    <_>
      <maxWeakCount>8</maxWeakCount>
      <stageThreshold>-5.1504909992218018e-01</stageThreshold>
      <weakClassifiers>
        <_>
          <internalNodes>
            0 -1 107 2074046880 1036375827 1157636118 1061487648
            -473268062 403177668 8397291 181088615</internalNodes>
          <leafValues>
            -6.8838524818420410e-01 5.1563751697540283e-01</leafValues></_>
        <_>
          <internalNodes>
            0 -1 20 -245243744 822185985 268436127 -330988890 89457071
            453691683 -280975166 -99057528</internalNodes>
          <leafValues>
            -6.8920779228210449e-01 3.8873180747032166e-01</leafValues></_>
        <_>
          <internalNodes>
            0 -1 77 -37991436 -1652505543 1624267598 234209872 -74658339
            -1402695283 1074042888 -1160638710</internalNodes>
          <leafValues>
            -5.0443929433822632e-01 5.7557517290115356e-01</leafValues></_>
        <_>
          <internalNodes>
            0 -1 124 -1852080324 -1052733356 -167427844 -908828620
            -1717986855 -1736308472 -1993998157 -1083635707</internalNodes>
          <leafValues>
            -6.0809278488159180e-01 4.6640384197235107e-01</leafValues></_>
        <_>
          <internalNodes>
            0 -1 149 -50594149 -1107296262 -272826497 1056750847
            -83989121 -1612810338 -1695646738 -1945839365</internalNodes>
          <leafValues>
            -4.9941918253898621e-01 5.9900033473968506e-01</leafValues></_>
        <_>
          <internalNodes>
            0 -1 29 -866847249 1359223365 -1877571568 490766997
            541110923 4525063 -1574534776 -49246294</internalNodes>
          <leafValues>
            -5.5516171455383301e-01 5.4490208625793457e-01</leafValues></_>
        <_>
          <internalNodes>
            0 -1 96 -640630692 -716603152 -905904049 423690517
            -1719572010 950140928 167789229 461447823</internalNodes>
          <leafValues>
            -6.4384269714355469e-01 4.9881666898727417e-01</leafValues></_>
        <_>
          <internalNodes>
            0 -1 55 2017675778 361871361 68994157 -1811873663 2114156305
            -1408956793 -455703007 -1395011941</internalNodes>
          <leafValues>
            -6.5737056732177734e-01 4.7984600067138672e-01</leafValues></_></weakClassifiers></_>
    <!-- stage 9 -->
    <_>
      <maxWeakCount>8</maxWeakCount>
      <stageThreshold>-2.8288260102272034e-01</stageThreshold>
      <weakClassifiers>
        <_>
          <internalNodes>
            0 -1 122 -728141232 -1111232897 -1921313569 1042023488
            -1818183527 -662697944 -1065342711 897974276</internalNodes>
          <leafValues>
            -5.9605908393859863e-01 5.3768843412399292e-01</leafValues></_>
        <_>
          <internalNodes>
            0 -1 78 1506472666 289141151 -1077305063 17531393 454212379
            243306889 -1055358845 -395476079</internalNodes>
          <leafValues>
            -5.3640818595886230e-01 4.8907059431076050e-01</leafValues></_>
        <_>
          <internalNodes>
            0 -1 34 -629145601 2138505214 -335548113 -34085260
            -1157630081 -526467 1467970041 -469774086</internalNodes>
          <leafValues>
            -3.8308915495872498e-01 7.1809399127960205e-01</leafValues></_>
        <_>
          <internalNodes>
            0 -1 36 -1269725088 903164320 1392773924 -541059599 72729745
            928026787 25385512 -269121505</internalNodes>
          <leafValues>
            -7.6385599374771118e-01 3.7474924325942993e-01</leafValues></_>
        <_>
          <internalNodes>
            0 -1 40 166757887 -1861627503 12587967 -250569472 1521099225
            -1719015388 1285902683 -303804351</internalNodes>
          <leafValues>
            -5.5170178413391113e-01 4.9666833877563477e-01</leafValues></_>
        <_>
          <internalNodes>
            0 -1 86 -103420168 -729694191 -2066464272 -2123300591
            -2107593766 1277427777 35035 -817608021</internalNodes>
          <leafValues>
            -6.2164986133575439e-01 4.9035590887069702e-01</leafValues></_>
        <_>
          <internalNodes>
            0 -1 5 -196884790 -1910360582 -117530004 473792355
            1710951112 -155828401 1146765279 -568609409</internalNodes>
          <leafValues>
            -4.9621385335922241e-01 6.1667531728744507e-01</leafValues></_>
        <_>
          <internalNodes>
            0 -1 144 1573949656 1506804244 603979921 855901200 280497146
            -1096219232 1510707406 970132139</internalNodes>
          <leafValues>
            -6.5836453437805176e-01 4.7295880317687988e-01</leafValues></_></weakClassifiers></_>
    <!-- stage 10 -->
    <_>
      <maxWeakCount>9</maxWeakCount>
      <stageThreshold>-2.6591083407402039e-01</stageThreshold>
      <weakClassifiers>
        <_>
          <internalNodes>
            0 -1 57 -341792058 31004495 -2113927168 697409633 1297690651
            688227077 -400406405 -22474752</internalNodes>
          <leafValues>
            -6.0313314199447632e-01 5.1848810911178589e-01</leafValues></_>
        <_>
          <internalNodes>
            0 -1 123 587247777 1232161117 1367371733 -580319736
            176333452 588944514 170068638 1265305627</internalNodes>
          <leafValues>
            -6.7462009191513062e-01 3.9337429404258728e-01</leafValues></_>
        <_>
          <internalNodes>
            0 -1 80 1343238652 -1609432959 22055839 252773384 697344747
            -360149856 12781593 -1459099639</internalNodes>
          <leafValues>
            -4.8840701580047607e-01 5.6230503320693970e-01</leafValues></_>
        <_>
          <internalNodes>
            0 -1 1 -772415145 -518851321 35291139 604079475 1999690
            -1609561981 1378591178 930414843</internalNodes>
          <leafValues>
            -6.6802269220352173e-01 4.0551272034645081e-01</leafValues></_>
        <_>
          <internalNodes>
            0 -1 46 -212101930 -11598954 1493207742 -780107776 548195476
            -1164798958 -1551808297 1141045071</internalNodes>
          <leafValues>
            -6.7004805803298950e-01 4.0317320823669434e-01</leafValues></_>
        <_>
          <internalNodes>
            0 -1 132 -1068564003 -115389611 620826463 302105160
            739907804 -1431689174 890907322 1529831682</internalNodes>
          <leafValues>
            -5.8416438102722168e-01 4.6359717845916748e-01</leafValues></_>
        <_>
          <internalNodes>
            0 -1 146 -101647208 -729249742 336597175 1732253722
            446279882 -662059894 360792971 -1142022181</internalNodes>
          <leafValues>
            -5.8768773078918457e-01 5.1435142755508423e-01</leafValues></_>
        <_>
          <internalNodes>
            0 -1 119 826290308 143244282 -1870597224 -729698176
            -290342741 -322809599 -1140800888 -372633368</internalNodes>
          <leafValues>
            -8.0662113428115845e-01 3.8662528991699219e-01</leafValues></_>
        <_>
          <internalNodes>
            0 -1 81 -1057700365 1086762082 1860038541 -1261341485
            -167850756 -1713979580 -1043065864 -566172166</internalNodes>
          <leafValues>
            -5.5195671319961548e-01 5.7679003477096558e-01</leafValues></_></weakClassifiers></_>
    <!-- stage 11 -->
    <_>
      <maxWeakCount>8</maxWeakCount>
      <stageThreshold>-3.4411013126373291e-01</stageThreshold>
      <weakClassifiers>
        <_>
          <internalNodes>
            0 -1 139 822555409 1006951303 1577111879 -1029595109
            870323703 -1998459767 -2071980861 1062218458</internalNodes>
          <leafValues>
            -7.4534159898757935e-01 5.0078248977661133e-01</leafValues></_>
        <_>
          <internalNodes>
            0 -1 47 -363796914 271797114 -1053097968 -2088595887
            -268423113 84205791 -1266448366 -997217521</internalNodes>
          <leafValues>
            -6.8025827407836914e-01 3.9149227738380432e-01</leafValues></_>
        <_>
          <internalNodes>
            0 -1 140 -2113247439 -1781366138 -1039837173 -1804369816
            -1503591970 -1462761344 -1198862199 -1222156055</internalNodes>
          <leafValues>
            -5.2893012762069702e-01 5.2184128761291504e-01</leafValues></_>
        <_>
          <internalNodes>
            0 -1 148 -598420493 1082151014 -1576894062 278976166
            -2000674765 -2143125501 -522993102 176735338</internalNodes>
          <leafValues>
            -6.4627605676651001e-01 4.2252323031425476e-01</leafValues></_>
        <_>
          <internalNodes>
            0 -1 17 -155781147 -268501327 1476308991 -262293 1627377527
            -1812463757 1928807893 -84085</internalNodes>
          <leafValues>
            -4.9779924750328064e-01 5.6727063655853271e-01</leafValues></_>
        <_>
          <internalNodes>
            0 -1 137 -883093093 -28171815 -1655081633 -1621873315
            -580634708 -809249494 -310080065 -1077995686</internalNodes>
          <leafValues>
            -4.6573406457901001e-01 6.6365587711334229e-01</leafValues></_>
        <_>
          <internalNodes>
            0 -1 152 821799075 15775716 -713032649 1145552822 900870431
            -771916841 2011109375 -1477149193</internalNodes>
          <leafValues>
            -5.2129888534545898e-01 5.4763913154602051e-01</leafValues></_>
        <_>
          <internalNodes>
            0 -1 59 -236717058 1370020175 -1404565372 -2128537215
            -1722738406 290144528 -1476261888 -894467197</internalNodes>
          <leafValues>
            -5.1486295461654663e-01 5.5179721117019653e-01</leafValues></_></weakClassifiers></_>
    <!-- stage 12 -->
    <_>
      <maxWeakCount>10</maxWeakCount>
      <stageThreshold>-7.3699599504470825e-01</stageThreshold>
      <weakClassifiers>
        <_>
          <internalNodes>
            0 -1 51 -1576735758 -1748987880 -62910056 -654255268
            11390933 715442919 1353990420 1266155840</internalNodes>
          <leafValues>
            -6.3068181276321411e-01 4.9839743971824646e-01</leafValues></_>
        <_>
          <internalNodes>
            0 -1 101 1423524448 -721414131 -2147419807 -1727799221
            -749264750 -1069460061 1086409217 -72679198</internalNodes>
          <leafValues>
            -5.2084076404571533e-01 4.3863803148269653e-01</leafValues></_>
        <_>
          <internalNodes>
            0 -1 70 -645369704 398573725 953700432 9920528 948036504
            318777904 1526780954 1254986001</internalNodes>
          <leafValues>
            -6.5106427669525146e-01 3.8639500737190247e-01</leafValues></_>
        <_>
          <internalNodes>
            0 -1 52 142252903 -1781395431 -1417621026 -2065432000
            1074022555 -481722326 -1727747448 -1561679029</internalNodes>
          <leafValues>
            -5.1794165372848511e-01 4.8546749353408813e-01</leafValues></_>
        <_>
          <internalNodes>
            0 -1 18 -825253409 -1610610539 1895862588 -1651340277
            1184645071 1839640084 2005630191 -292592992</internalNodes>
          <leafValues>
            -4.9088945984840393e-01 5.1308447122573853e-01</leafValues></_>
        <_>
          <internalNodes>
            0 -1 62 1151139386 -724557645 134222111 22552869 176209301
            1485422641 -1467639407 1568673913</internalNodes>
          <leafValues>
            -7.3630672693252563e-01 3.5975962877273560e-01</leafValues></_>
        <_>
          <internalNodes>
            0 -1 39 -941938624 -550485935 -419359305 805835801 279036311
            -794460019 128880808 -443465513</internalNodes>
          <leafValues>
            -6.0794419050216675e-01 4.4492623209953308e-01</leafValues></_>
        <_>
          <internalNodes>
            0 -1 91 1233141968 1496385616 1564755163 1225587720
            -627310160 2108162081 613124794 1470021803</internalNodes>
          <leafValues>
            -6.2464958429336548e-01 4.3192774057388306e-01</leafValues></_>
        <_>
          <internalNodes>
            0 -1 6 -201895542 2013466816 -1828600703 -1290664448
            -1610269849 1615103000 -1517771612 -310181752</internalNodes>
          <leafValues>
            -5.7107275724411011e-01 5.0015091896057129e-01</leafValues></_>
        <_>
          <internalNodes>
            0 -1 89 -65935220 2119791385 1027691421 -2120700333
            1619233165 700661896 1300404914 -1995726297</internalNodes>
          <leafValues>
            -6.0223078727722168e-01 4.9402055144309998e-01</leafValues></_></weakClassifiers></_>
    <!-- stage 13 -->
    <_>
      <maxWeakCount>10</maxWeakCount>
      <stageThreshold>-5.0872206687927246e-01</stageThreshold>
      <weakClassifiers>
        <_>
          <internalNodes>
            0 -1 65 -2140918102 -1861958623 -855254703 -1432313717
            -2105235137 -1467991664 152667395 127598642</internalNodes>
          <leafValues>
            -8.6991870403289795e-01 4.5347118377685547e-01</leafValues></_>
        <_>
          <internalNodes>
            0 -1 161 -1058027349 61770495 2129657837 -465745745
            -822157772 -1631584257 -1937917065 -1602552353</internalNodes>
          <leafValues>
            -3.9732888340950012e-01 5.7678180932998657e-01</leafValues></_>
        <_>
          <internalNodes>
            0 -1 136 279651622 -1861697389 193123765 -447922096
            -1073445681 -1610071932 -910061559 -691206584</internalNodes>
          <leafValues>
            -5.9026038646697998e-01 4.3282777070999146e-01</leafValues></_>
        <_>
          <internalNodes>
            0 -1 126 1443946617 -547110079 -954942483 -1224269994
            1325592570 -14794358 -1523069669 -41204455</internalNodes>
          <leafValues>
            -4.4655665755271912e-01 5.9295994043350220e-01</leafValues></_>
        <_>
          <internalNodes>
            0 -1 23 -779922618 -767393471 1375740047 -1316854897
            -1541303005 -213474810 -1744158509 -1047559477</internalNodes>
          <leafValues>
            -5.9402596950531006e-01 4.4320532679557800e-01</leafValues></_>
        <_>
          <internalNodes>
            0 -1 53 -802552637 475076150 2059418939 159570069 190989923
            1955204098 1040878725 1952141838</internalNodes>
          <leafValues>
            -6.4874231815338135e-01 4.2253768444061279e-01</leafValues></_>
        <_>
          <internalNodes>
            0 -1 138 1636090064 -649946864 -888911736 -570306103
            2023850208 -1416625936 134415981 523774175</internalNodes>
          <leafValues>
            -6.5356379747390747e-01 4.2031535506248474e-01</leafValues></_>
        <_>
          <internalNodes>
            0 -1 94 -1432148893 -81039903 2130083831 -1256063108
            -2007200262 -981316916 -1487546916 -348702211</internalNodes>
          <leafValues>
            -5.1955962181091309e-01 5.9596890211105347e-01</leafValues></_>
        <_>
          <internalNodes>
            0 -1 131 88412423 281716103 143697383 -1731354888 612696273
            -1046429630 -2122127231 509610004</internalNodes>
          <leafValues>
            -8.3923465013504028e-01 3.6471372842788696e-01</leafValues></_>
        <_>
          <internalNodes>
            0 -1 151 1293340683 141688237 -732501935 -128453457
            2079795423 -673988638 -596158481 -41948714</internalNodes>
          <leafValues>
            -5.4382711648941040e-01 5.9547954797744751e-01</leafValues></_></weakClassifiers></_>
    <!-- stage 14 -->
    <_>
      <maxWeakCount>10</maxWeakCount>
      <stageThreshold>-3.3671909570693970e-01</stageThreshold>
      <weakClassifiers>
        <_>
          <internalNodes>
            0 -1 33 -528321520 -1409252287 -1056636517 2034272148
            1610680879 111668613 1476866730 1970304848</internalNodes>
          <leafValues>
            -7.5086504220962524e-01 4.7063311934471130e-01</leafValues></_>
        <_>
          <internalNodes>
            0 -1 134 861925552 -1157593916 -1982073802 -817724590
            343978496 1745486403 168263838 927412747</internalNodes>
          <leafValues>
            -7.3351025581359863e-01 3.2207393646240234e-01</leafValues></_>
        <_>
          <internalNodes>
            0 -1 127 -473897003 997948505 184569077 1153795679
            1251518113 -1885418050 959984859 -973142005</internalNodes>
          <leafValues>
            -4.2926129698753357e-01 5.7816809415817261e-01</leafValues></_>
        <_>
          <internalNodes>
            0 -1 31 -718166784 899664305 -771321472 -1303314145
            1745226244 -260986041 -892656972 1952668677</internalNodes>
          <leafValues>
            -6.9991999864578247e-01 3.6301732063293457e-01</leafValues></_>
        <_>
          <internalNodes>
            0 -1 156 14645759 11337707 -558991026 -442632461 -142735416
            -596609389 -1779385875 -2041448553</internalNodes>
          <leafValues>
            -4.6819451451301575e-01 5.3348922729492188e-01</leafValues></_>
        <_>
          <internalNodes>
            0 -1 145 402789015 143688199 738281731 -208170953
            -2011597268 -1290630647 -96188882 754255668</internalNodes>
          <leafValues>
            -6.2758028507232666e-01 4.1877788305282593e-01</leafValues></_>
        <_>
          <internalNodes>
            0 -1 117 1912330879 1440303729 1971275621 -773898629
            -1737930020 -99549236 -1940902279 -909221369</internalNodes>
          <leafValues>
            -3.8528573513031006e-01 7.2175318002700806e-01</leafValues></_>
        <_>
          <internalNodes>
            0 -1 74 -1102775946 -957984 -915515555 -202924526 -403247136
            -20502 -1351816545 -478679302</internalNodes>
          <leafValues>
            -5.1165610551834106e-01 5.6252348423004150e-01</leafValues></_>
        <_>
          <internalNodes>
            0 -1 159 1253045187 81854383 -499161417 635711225 2004876839
            -1837663371 -184614921 854915029</internalNodes>
          <leafValues>
            -5.3670114278793335e-01 5.6292098760604858e-01</leafValues></_>
        <_>
          <internalNodes>
            0 -1 112 -1798876173 -1884839943 -594180 -35424311
            -656537256 -1731807880 853380572 -1107323266</internalNodes>
          <leafValues>
            -4.5993021130561829e-01 6.3119411468505859e-01</leafValues></_></weakClassifiers></_>
    <!-- stage 15 -->
    <_>
      <maxWeakCount>11</maxWeakCount>
      <stageThreshold>-6.2378704547882080e-01</stageThreshold>
      <weakClassifiers>
        <_>
          <internalNodes>
            0 -1 125 -1375335168 1042710503 -32770 -21168139 -1343275051
            -1073774593 -268795906 -1078231780</internalNodes>
          <leafValues>
            -4.1883766651153564e-01 5.5313348770141602e-01</leafValues></_>
        <_>
          <internalNodes>
            0 -1 28 940768882 -595427323 806995991 239190233 1612831871
            1694502469 16820792 2051734024</internalNodes>
          <leafValues>
            -6.1528575420379639e-01 3.8443383574485779e-01</leafValues></_>
        <_>
          <internalNodes>
            0 -1 98 -1053560072 353861877 25460945 190087427 -1978795842
            -1417146364 696819867 -1616932179</internalNodes>
          <leafValues>
            -5.2414429187774658e-01 4.4556370377540588e-01</leafValues></_>
        <_>
          <internalNodes>
            0 -1 32 1236947106 -250896559 -1878974399 -654307312
            564877549 470343433 537743626 -318629256</internalNodes>
          <leafValues>
            -6.1675024032592773e-01 4.1119289398193359e-01</leafValues></_>
        <_>
          <internalNodes>
            0 -1 157 1358153423 672989828 26401958 -1254861100
            -527265585 549492864 -381120507 -1431122805</internalNodes>
          <leafValues>
            -5.1693993806838989e-01 4.8606020212173462e-01</leafValues></_>
        <_>
          <internalNodes>
            0 -1 48 -22321191 -163645755 1041694438 -1137446989
            2138381596 -268960266 -1116438598 -1854454473</internalNodes>
          <leafValues>
            -5.0859868526458740e-01 5.3241419792175293e-01</leafValues></_>
        <_>
          <internalNodes>
            0 -1 143 2067323000 -65430759 1100344009 -549368017
            193018042 -1294271949 154731866 -1186242631</internalNodes>
          <leafValues>
            -4.8336467146873474e-01 5.6310915946960449e-01</leafValues></_>
        <_>
          <internalNodes>
            0 -1 30 -286418095 -63492249 -1087787193 -1889275165
            -439845453 2128306039 1300165852 -324615009</internalNodes>
          <leafValues>
            -4.4257491827011108e-01 6.6653388738632202e-01</leafValues></_>
        <_>
          <internalNodes>
            0 -1 115 -1020968807 -1681538879 -1357521009 420843073
            -1089351432 -295729632 487782843 -1097133093</internalNodes>
          <leafValues>
            -4.0723589062690735e-01 6.9447499513626099e-01</leafValues></_>
        <_>
          <internalNodes>
            0 -1 147 -1627211568 -114768627 -2143006246 -614919049
            127855 -1606893432 137 778751391</internalNodes>
          <leafValues>
            -6.0972142219543457e-01 4.3837201595306396e-01</leafValues></_>
        <_>
          <internalNodes>
            0 -1 100 2046023639 148728818 -589497892 -1644329228
            1675157499 -319107848 1853310700 -1966947959</internalNodes>
          <leafValues>
            -4.5267570018768311e-01 6.0945177078247070e-01</leafValues></_></weakClassifiers></_>
    <!-- stage 16 -->
    <_>
      <maxWeakCount>9</maxWeakCount>
      <stageThreshold>-7.2368860244750977e-01</stageThreshold>
      <weakClassifiers>
        <_>
          <internalNodes>
            0 -1 19 -532568765 16975880 296174853 -1795129344 552403227
            1101562400 1854283172 2009235464</internalNodes>
          <leafValues>
            -5.6923079490661621e-01 5.1404958963394165e-01</leafValues></_>
        <_>
          <internalNodes>
            0 -1 155 2112580871 733593599 -605095233 -1711277377
            2147417064 -1073741833 -352325954 -1128858689</internalNodes>
          <leafValues>
            -3.7283948063850403e-01 5.9268373250961304e-01</leafValues></_>
        <_>
          <internalNodes>
            0 -1 71 1435631532 862761315 621859733 764780634 274239645
            2023780352 5157193 -560557910</internalNodes>
          <leafValues>
            -4.8983708024024963e-01 4.5840501785278320e-01</leafValues></_>
        <_>
          <internalNodes>
            0 -1 11 480065336 436281856 -779345052 -1359571933 964782143
            1010149958 1133381873 629668483</internalNodes>
          <leafValues>
            -5.9949350357055664e-01 3.9688658714294434e-01</leafValues></_>
        <_>
          <internalNodes>
            0 -1 21 1479730081 1081426391 -82717433 2039824642
            1370030491 -1090355188 1476397058 -343605109</internalNodes>
          <leafValues>
            -4.9635812640190125e-01 5.2649223804473877e-01</leafValues></_>
        <_>
          <internalNodes>
            0 -1 88 -42908601 119981711 -276484132 976590831 -1518959115
            2113667071 1528633070 -34471953</internalNodes>
          <leafValues>
            -4.3453297019004822e-01 6.2852013111114502e-01</leafValues></_>
        <_>
          <internalNodes>
            0 -1 95 -285864712 1914503564 -536521339 277188669 570597450
            704876688 236028193 -268588398</internalNodes>
          <leafValues>
            -6.3303971290588379e-01 4.5068153738975525e-01</leafValues></_>
        <_>
          <internalNodes>
            0 -1 113 1160005058 1897496836 134304200 1033863498
            -805273398 -930316088 163610760 -912545655</internalNodes>
          <leafValues>
            -6.0790038108825684e-01 4.8685613274574280e-01</leafValues></_>
        <_>
          <internalNodes>
            0 -1 37 -558309862 -1195234798 -611841380 562332417
            -1609280711 -2138962742 -1202417269 810076562</internalNodes>
          <leafValues>
            -6.8730783462524414e-01 4.1605162620544434e-01</leafValues></_></weakClassifiers></_>
    <!-- stage 17 -->
    <_>
      <maxWeakCount>8</maxWeakCount>
      <stageThreshold>-2.1276330947875977e-01</stageThreshold>
      <weakClassifiers>
        <_>
          <internalNodes>
            0 -1 79 713731642 589811180 1943010814 245275247 1295844350
            1728630914 261962716 -1885364821</internalNodes>
          <leafValues>
            -4.8471614718437195e-01 5.4465848207473755e-01</leafValues></_>
        <_>
          <internalNodes>
            0 -1 158 1391457087 573485831 -1027688850 15380347
            -134218553 -8429635 -84951041 -1410601115</internalNodes>
          <leafValues>
            -4.0015605092048645e-01 6.2416946887969971e-01</leafValues></_>
        <_>
          <internalNodes>
            0 -1 83 135528583 -117397606 1300310191 -1648360888
            548001489 444736264 -628135421 1086880290</internalNodes>
          <leafValues>
            -5.9800964593887329e-01 4.3915078043937683e-01</leafValues></_>
        <_>
          <internalNodes>
            0 -1 93 1975087528 -841689257 -2013159408 2035789107
            34359491 1920993408 873551329 -124169122</internalNodes>
          <leafValues>
            -5.9713810682296753e-01 4.2924046516418457e-01</leafValues></_>
        <_>
          <internalNodes>
            0 -1 76 -2001673805 -2080371884 -1673494156 -1047936763
            559497901 173412384 1770211233 1474576917</internalNodes>
          <leafValues>
            -7.1557605266571045e-01 3.8367691636085510e-01</leafValues></_>
        <_>
          <internalNodes>
            0 -1 128 -183447342 -635834238 655425681 134300168
            -353777477 -188514173 163625851 -1836067697</internalNodes>
          <leafValues>
            -5.5479145050048828e-01 5.1938647031784058e-01</leafValues></_>
        <_>
          <internalNodes>
            0 -1 10 -511674377 -2050995136 -50406730 1446208746
            -2114849667 -439028514 -1212436489 -118687810</internalNodes>
          <leafValues>
            -4.6657708287239075e-01 6.3875651359558105e-01</leafValues></_>
        <_>
          <internalNodes>
            0 -1 109 -80662313 -1962344424 -251543503 -106419896
            1083351296 -1158110714 405803679 1565106248</internalNodes>
          <leafValues>
            -5.5005538463592529e-01 5.5942225456237793e-01</leafValues></_></weakClassifiers></_>
    <!-- stage 18 -->
    <_>
      <maxWeakCount>10</maxWeakCount>
      <stageThreshold>-7.7279514074325562e-01</stageThreshold>
      <weakClassifiers>
        <_>
          <internalNodes>
            0 -1 129 8650959 -2140602365 -1070219263 -671005695
            268461961 -1945579514 67197965 527439860</internalNodes>
          <leafValues>
            -6.8731564283370972e-01 5.0198256969451904e-01</leafValues></_>
        <_>
          <internalNodes>
            0 -1 49 98176893 -275116254 528355151 -1415234270 -152674616
            -1658425650 -1948165031 -711983405</internalNodes>
          <leafValues>
            -3.7392783164978027e-01 7.4121898412704468e-01</leafValues></_>
        <_>
          <internalNodes>
            0 -1 111 -9671727 -96571695 134080511 1174343135 -1079329026
            -138414594 -1649930997 -1413511393</internalNodes>
          <leafValues>
            -4.2534324526786804e-01 6.4240431785583496e-01</leafValues></_>
        <_>
          <internalNodes>
            0 -1 114 -768544494 -278290511 1711215606 2048147032
            1961221258 -128002659 1304184286 -1428676904</internalNodes>
          <leafValues>
            -4.5957878232002258e-01 6.4731234312057495e-01</leafValues></_>
        <_>
          <internalNodes>
            0 -1 22 -1249868428 -849937027 2130427129 -818071449
            1356784887 -1001030315 698396148 -7274564</internalNodes>
          <leafValues>
            -5.0793427228927612e-01 6.1074066162109375e-01</leafValues></_>
        <_>
          <internalNodes>
            0 -1 154 2147384701 1811218047 -269025676 -67883535
            2146242076 2140896733 -84169132 -586144084</internalNodes>
          <leafValues>
            -5.5286192893981934e-01 5.7519930601119995e-01</leafValues></_>
        <_>
          <internalNodes>
            0 -1 44 1243086224 1073813536 1090617900 -712947376
            -402549917 -872118262 1355042857 -117243882</internalNodes>
          <leafValues>
            -5.6985729932785034e-01 5.6618785858154297e-01</leafValues></_>
        <_>
          <internalNodes>
            0 -1 12 313731847 2079850358 1045909207 -965571136
            1903438161 1148145519 1341529386 -65577169</internalNodes>
          <leafValues>
            -4.5149987936019897e-01 6.9467139244079590e-01</leafValues></_>
        <_>
          <internalNodes>
            0 -1 118 -574822595 -285247558 -536879107 -46371339
            -2064155651 2074017661 -46760008 -1418674816</internalNodes>
          <leafValues>
            -5.1272553205490112e-01 6.3065057992935181e-01</leafValues></_>
        <_>
          <internalNodes>
            0 -1 72 -1219852640 -452116143 549586391 16973975 1078341952
            1208483850 556029064 -670908286</internalNodes>
          <leafValues>
            -7.4731934070587158e-01 4.7161498665809631e-01</leafValues></_></weakClassifiers></_>
    <!-- stage 19 -->
    <_>
      <maxWeakCount>9</maxWeakCount>
      <stageThreshold>-6.1448907852172852e-01</stageThreshold>
      <weakClassifiers>
        <_>
          <internalNodes>
            0 -1 7 -2082260094 -133073155 -234930518 1396570814
            -34502288 -1139445255 -33718315 352392955</internalNodes>
          <leafValues>
            -4.2541435360908508e-01 5.9697258472442627e-01</leafValues></_>
        <_>
          <internalNodes>
            0 -1 4 -1065335158 1493233686 285294657 -1811808064
            1480815949 8393731 1719734475 -424906302</internalNodes>
          <leafValues>
            -5.0452840328216553e-01 5.1174640655517578e-01</leafValues></_>
        <_>
          <internalNodes>
            0 -1 16 453100995 -668989436 25296918 184582914 67689357
            -2013166938 279446127 1605911487</internalNodes>
          <leafValues>
            -5.9417730569839478e-01 4.6817913651466370e-01</leafValues></_>
        <_>
          <internalNodes>
            0 -1 162 -855741113 237595558 -876944619 -2111558862
            1575984461 -332011540 1306460134 -1937856201</internalNodes>
          <leafValues>
            -4.8965930938720703e-01 5.5295574665069580e-01</leafValues></_>
        <_>
          <internalNodes>
            0 -1 97 -1728145153 568983403 -33831631 -1628346551
            1557962628 -1761755493 492113239 -1161155378</internalNodes>
          <leafValues>
            -4.5478323101997375e-01 6.3669103384017944e-01</leafValues></_>
        <_>
          <internalNodes>
            0 -1 141 -150292599 -541427618 1192415613 -8991299
            -946702104 1997116760 52860149 -8452257</internalNodes>
          <leafValues>
            -4.1702154278755188e-01 6.7677283287048340e-01</leafValues></_>
        <_>
          <internalNodes>
            0 -1 73 343458994 -1837035262 215587017 331788935 -985202396
            201332864 -1693380086 -398208822</internalNodes>
          <leafValues>
            -6.8371379375457764e-01 4.4992086291313171e-01</leafValues></_>
        <_>
          <internalNodes>
            0 -1 160 1105457198 92320512 1142198280 1526747144
            -754414696 1077977098 -1138702325 1470070304</internalNodes>
          <leafValues>
            -6.2352305650711060e-01 4.9028030037879944e-01</leafValues></_>
        <_>
          <internalNodes>
            0 -1 82 261960348 285331495 -1392433332 422255119 543197196
            -1342046208 137282090 -417134065</internalNodes>
          <leafValues>
            -6.0552966594696045e-01 4.9705514311790466e-01</leafValues></_></weakClassifiers></_></stages>
  <features>
    <_>
      <rect>
        0 0 11 9</rect></_>
    <_>
      <rect>
        0 2 9 14</rect></_>
    <_>
      <rect>
        0 2 11 10</rect></_>
    <_>
      <rect>
        0 13 10 11</rect></_>
    <_>
      <rect>
        0 15 5 7</rect></_>
    <_>
      <rect>
        0 18 3 6</rect></_>
    <_>
      <rect>
        0 21 7 5</rect></_>
    <_>
      <rect>
        0 23 8 7</rect></_>
    <_>
      <rect>
        1 4 7 6</rect></_>
    <_>
      <rect>
        1 13 9 4</rect></_>
    <_>
      <rect>
        1 21 13 8</rect></_>
    <_>
      <rect>
        1 33 7 5</rect></_>
    <_>
      <rect>
        1 36 3 4</rect></_>
    <_>
      <rect>
        2 8 8 11</rect></_>
    <_>
      <rect>
        2 10 9 5</rect></_>
    <_>
      <rect>
        2 10 9 6</rect></_>
    <_>
      <rect>
        2 11 7 5</rect></_>
    <_>
      <rect>
        2 14 8 3</rect></_>
    <_>
      <rect>
        2 14 9 4</rect></_>
    <_>
      <rect>
        3 16 6 6</rect></_>
    <_>
      <rect>
        3 17 11 7</rect></_>
    <_>
      <rect>
        3 21 11 5</rect></_>
    <_>
      <rect>
        3 22 11 7</rect></_>
    <_>
      <rect>
        3 25 8 5</rect></_>
    <_>
      <rect>
        4 0 12 11</rect></_>
    <_>
      <rect>
        4 18 12 9</rect></_>
    <_>
      <rect>
        4 19 6 6</rect></_>
    <_>
      <rect>
        4 21 5 4</rect></_>
    <_>
      <rect>
        4 21 8 2</rect></_>
    <_>
      <rect>
        4 21 12 8</rect></_>
    <_>
      <rect>
        4 25 9 3</rect></_>
    <_>
      <rect>
        4 29 4 3</rect></_>
    <_>
      <rect>
        5 10 10 10</rect></_>
    <_>
      <rect>
        5 11 11 4</rect></_>
    <_>
      <rect>
        5 15 5 3</rect></_>
    <_>
      <rect>
        5 15 8 3</rect></_>
    <_>
      <rect>
        5 21 10 6</rect></_>
    <_>
      <rect>
        5 22 11 8</rect></_>
    <_>
      <rect>
        5 23 7 5</rect></_>
    <_>
      <rect>
        5 23 9 6</rect></_>
    <_>
      <rect>
        6 10 8 4</rect></_>
    <_>
      <rect>
        6 12 8 4</rect></_>
    <_>
      <rect>
        6 15 4 5</rect></_>
    <_>
      <rect>
        7 2 11 15</rect></_>
    <_>
      <rect>
        7 14 4 3</rect></_>
    <_>
      <rect>
        7 22 6 8</rect></_>
    <_>
      <rect>
        7 31 6 4</rect></_>
    <_>
      <rect>
        8 24 5 4</rect></_>
    <_>
      <rect>
        8 27 3 4</rect></_>
    <_>
      <rect>
        8 35 5 4</rect></_>
    <_>
      <rect>
        9 8 8 5</rect></_>
    <_>
      <rect>
        9 13 6 3</rect></_>
    <_>
      <rect>
        9 20 10 9</rect></_>
    <_>
      <rect>
        9 22 3 2</rect></_>
    <_>
      <rect>
        9 22 10 6</rect></_>
    <_>
      <rect>
        9 23 3 4</rect></_>
    <_>
      <rect>
        10 20 5 2</rect></_>
    <_>
      <rect>
        10 20 5 4</rect></_>
    <_>
      <rect>
        10 20 6 5</rect></_>
    <_>
      <rect>
        10 21 4 5</rect></_>
    <_>
      <rect>
        10 21 6 6</rect></_>
    <_>
      <rect>
        10 22 3 4</rect></_>
    <_>
      <rect>
        10 22 7 2</rect></_>
    <_>
      <rect>
        10 25 10 7</rect></_>
    <_>
      <rect>
        11 12 5 5</rect></_>
    <_>
      <rect>
        11 13 4 5</rect></_>
    <_>
      <rect>
        11 16 5 3</rect></_>
    <_>
      <rect>
        11 16 7 8</rect></_>
    <_>
      <rect>
        12 12 4 4</rect></_>
    <_>
      <rect>
        12 19 4 5</rect></_>
    <_>
      <rect>
        12 21 4 2</rect></_>
    <_>
      <rect>
        12 22 4 2</rect></_>
    <_>
      <rect>
        12 24 6 3</rect></_>
    <_>
      <rect>
        12 24 8 4</rect></_>
    <_>
      <rect>
        12 28 6 3</rect></_>
    <_>
      <rect>
        13 5 2 6</rect></_>
    <_>
      <rect>
        13 12 6 3</rect></_>
    <_>
      <rect>
        13 20 4 2</rect></_>
    <_>
      <rect>
        13 23 3 3</rect></_>
    <_>
      <rect>
        13 24 3 2</rect></_>
    <_>
      <rect>
        13 24 9 2</rect></_>
    <_>
      <rect>
        13 24 9 4</rect></_>
    <_>
      <rect>
        13 26 4 3</rect></_>
    <_>
      <rect>
        13 34 5 5</rect></_>
    <_>
      <rect>
        14 21 3 3</rect></_>
    <_>
      <rect>
        14 21 7 2</rect></_>
    <_>
      <rect>
        14 22 4 2</rect></_>
    <_>
      <rect>
        14 23 3 3</rect></_>
    <_>
      <rect>
        14 24 3 4</rect></_>
    <_>
      <rect>
        14 24 4 2</rect></_>
    <_>
      <rect>
        14 24 5 2</rect></_>
    <_>
      <rect>
        14 29 5 2</rect></_>
    <_>
      <rect>
        15 2 6 10</rect></_>
    <_>
      <rect>
        15 22 4 3</rect></_>
    <_>
      <rect>
        15 24 5 1</rect></_>
    <_>
      <rect>
        15 25 2 2</rect></_>
    <_>
      <rect>
        15 25 4 2</rect></_>
    <_>
      <rect>
        15 25 7 5</rect></_>
    <_>
      <rect>
        15 26 4 2</rect></_>
    <_>
      <rect>
        15 27 4 2</rect></_>
    <_>
      <rect>
        15 27 8 3</rect></_>
    <_>
      <rect>
        16 1 3 14</rect></_>
    <_>
      <rect>
        16 2 8 11</rect></_>
    <_>
      <rect>
        16 9 4 5</rect></_>
    <_>
      <rect>
        16 13 4 4</rect></_>
    <_>
      <rect>
        16 15 8 9</rect></_>
    <_>
      <rect>
        16 18 8 9</rect></_>
    <_>
      <rect>
        16 23 3 2</rect></_>
    <_>
      <rect>
        16 26 4 2</rect></_>
    <_>
      <rect>
        16 26 7 3</rect></_>
    <_>
      <rect>
        17 21 2 2</rect></_>
    <_>
      <rect>
        17 22 2 2</rect></_>
    <_>
      <rect>
        17 22 6 7</rect></_>
    <_>
      <rect>
        17 24 2 1</rect></_>
    <_>
      <rect>
        17 25 4 1</rect></_>
    <_>
      <rect>
        17 26 4 2</rect></_>
    <_>
      <rect>
        17 27 5 2</rect></_>
    <_>
      <rect>
        17 29 7 2</rect></_>
    <_>
      <rect>
        18 2 2 3</rect></_>
    <_>
      <rect>
        18 14 5 7</rect></_>
    <_>
      <rect>
        18 22 1 2</rect></_>
    <_>
      <rect>
        18 22 4 5</rect></_>
    <_>
      <rect>
        18 23 2 2</rect></_>
    <_>
      <rect>
        18 23 4 2</rect></_>
    <_>
      <rect>
        18 24 2 1</rect></_>
    <_>
      <rect>
        18 25 1 1</rect></_>
    <_>
      <rect>
        18 25 4 2</rect></_>
    <_>
      <rect>
        18 26 2 2</rect></_>
    <_>
      <rect>
        18 27 3 2</rect></_>
    <_>
      <rect>
        19 10 4 5</rect></_>
    <_>
      <rect>
        19 10 7 6</rect></_>
    <_>
      <rect>
        19 11 5 5</rect></_>
    <_>
      <rect>
        19 20 4 2</rect></_>
    <_>
      <rect>
        19 20 7 5</rect></_>
    <_>
      <rect>
        19 22 2 2</rect></_>
    <_>
      <rect>
        19 22 7 7</rect></_>
    <_>
      <rect>
        19 24 1 1</rect></_>
    <_>
      <rect>
        19 24 3 2</rect></_>
    <_>
      <rect>
        19 25 6 2</rect></_>
    <_>
      <rect>
        20 12 3 5</rect></_>
    <_>
      <rect>
        20 24 1 1</rect></_>
    <_>
      <rect>
        20 25 2 2</rect></_>
    <_>
      <rect>
        20 26 4 2</rect></_>
    <_>
      <rect>
        20 26 5 2</rect></_>
    <_>
      <rect>
        20 27 4 2</rect></_>
    <_>
      <rect>
        21 9 4 4</rect></_>
    <_>
      <rect>
        21 25 2 2</rect></_>
    <_>
      <rect>
        21 28 2 2</rect></_>
    <_>
      <rect>
        22 2 6 15</rect></_>
    <_>
      <rect>
        22 3 5 5</rect></_>
    <_>
      <rect>
        22 21 6 5</rect></_>
    <_>
      <rect>
        22 22 5 5</rect></_>
    <_>
      <rect>
        22 22 6 4</rect></_>
    <_>
      <rect>
        22 28 3 2</rect></_>
    <_>
      <rect>
        24 4 2 3</rect></_>
    <_>
      <rect>
        25 7 5 6</rect></_>
    <_>
      <rect>
        27 22 4 4</rect></_>
    <_>
      <rect>
        28 15 4 3</rect></_>
    <_>
      <rect>
        30 15 3 4</rect></_>
    <_>
      <rect>
        31 18 3 4</rect></_>
    <_>
      <rect>
        31 22 3 3</rect></_>
    <_>
      <rect>
        33 6 2 8</rect></_>
    <_>
      <rect>
        34 12 2 2</rect></_></features></cascade>
</opencv_storage>
