<?xml version="1.0"?>
<opencv_storage>
<cascade>
  <stageType>BOOST</stageType>
  <featureType>LBP</featureType>
  <height>50</height>
  <width>40</width>
  <stageParams>
    <boostType>GAB</boostType>
    <minHitRate>9.9900001287460327e-01</minHitRate>
    <maxFalseAlarm>3.0000001192092896e-01</maxFalseAlarm>
    <weightTrimRate>9.4999999999999996e-01</weightTrimRate>
    <maxDepth>1</maxDepth>
    <maxWeakCount>100</maxWeakCount></stageParams>
  <featureParams>
    <maxCatCount>256</maxCatCount>
    <featSize>1</featSize></featureParams>
  <stageNum>20</stageNum>
  <stages>
    <!-- stage 0 -->
    <_>
      <maxWeakCount>4</maxWeakCount>
      <stageThreshold>-1.5133725404739380e+00</stageThreshold>
      <weakClassifiers>
        <_>
          <internalNodes>
            0 -1 72 3208 -645881317 1078010833 -41615165 -666729846
            -628602864 -527522561 -67109921</internalNodes>
          <leafValues>
            -8.9534884691238403e-01 7.9520297050476074e-01</leafValues></_>
        <_>
          <internalNodes>
            0 -1 51 399712415 385941569 310453055 458326355 939722171
            788545581 -274185249 -1968197733</internalNodes>
          <leafValues>
            -7.6059573888778687e-01 6.8416541814804077e-01</leafValues></_>
        <_>
          <internalNodes>
            0 -1 108 671622148 991953092 269029460 -576907239 738636249
            -310328896 371212524 -76732085</internalNodes>
          <leafValues>
            -8.2290989160537720e-01 5.9918135404586792e-01</leafValues></_>
        <_>
          <internalNodes>
            0 -1 61 -1763639209 293961877 272957979 597393495 541682907
            1506281609 588874479 -339792913</internalNodes>
          <leafValues>
            -7.2506994009017944e-01 6.1189985275268555e-01</leafValues></_></weakClassifiers></_>
    <!-- stage 1 -->
    <_>
      <maxWeakCount>6</maxWeakCount>
      <stageThreshold>-3.8554468750953674e-01</stageThreshold>
      <weakClassifiers>
        <_>
          <internalNodes>
            0 -1 105 420002299 -249510765 1074270355 1032913368
            1073785595 -905953087 1476397722 56754891</internalNodes>
          <leafValues>
            -7.4008810520172119e-01 6.4223384857177734e-01</leafValues></_>
        <_>
          <internalNodes>
            0 -1 40 32703949 295436373 -1392505549 433161296 726663607
            195789192 -1115567717 -336864364</internalNodes>
          <leafValues>
            -7.0430856943130493e-01 5.9953904151916504e-01</leafValues></_>
        <_>
          <internalNodes>
            0 -1 137 1879752704 1392607306 352388368 1565851666
            -671051025 -660078391 1225300249 -653291377</internalNodes>
          <leafValues>
            -7.3837602138519287e-01 5.2056944370269775e-01</leafValues></_>
        <_>
          <internalNodes>
            0 -1 103 -782565349 341508101 26300803 160154198 1101388287
            -1652471552 -938932849 -929676453</internalNodes>
          <leafValues>
            -6.3922673463821411e-01 6.1830711364746094e-01</leafValues></_>
        <_>
          <internalNodes>
            0 -1 85 -178552790 -157579134 -788512448 -251556781
            -381515094 -905445244 1418035371 1489699215</internalNodes>
          <leafValues>
            -6.1381161212921143e-01 6.0249900817871094e-01</leafValues></_>
        <_>
          <internalNodes>
            0 -1 84 -712915904 1963300928 337182843 -552807424
            -2087999093 -669979999 -1476228693 -628389333</internalNodes>
          <leafValues>
            -7.4543684720993042e-01 4.8888489603996277e-01</leafValues></_></weakClassifiers></_>
    <!-- stage 2 -->
    <_>
      <maxWeakCount>7</maxWeakCount>
      <stageThreshold>-7.8976505994796753e-01</stageThreshold>
      <weakClassifiers>
        <_>
          <internalNodes>
            0 -1 30 -1078483021 85262507 -2138012613 8626179 275288315
            336103984 -1618863909 193647817</internalNodes>
          <leafValues>
            -7.0098036527633667e-01 5.7550334930419922e-01</leafValues></_>
        <_>
          <internalNodes>
            0 -1 138 -87106938 1895829572 620843033 1359042052
            -754921070 16973960 -1744792951 -1626668032</internalNodes>
          <leafValues>
            -5.9898382425308228e-01 5.8797907829284668e-01</leafValues></_>
        <_>
          <internalNodes>
            0 -1 35 -53125988 -547942181 1216398543 -176160431
            -1383497650 -1987968852 -1064779537 -1878924405</internalNodes>
          <leafValues>
            -6.2223470211029053e-01 5.6415295600891113e-01</leafValues></_>
        <_>
          <internalNodes>
            0 -1 122 -679222185 285311105 1342243077 2030059648
            -1606365048 1207992448 1090703499 487260235</internalNodes>
          <leafValues>
            -6.4812141656875610e-01 5.5242460966110229e-01</leafValues></_>
        <_>
          <internalNodes>
            0 -1 32 -575668621 -282459209 145687290 -1624627009
            -597739817 -1681975745 -320898529 -348129545</internalNodes>
          <leafValues>
            -4.7972884774208069e-01 7.6080173254013062e-01</leafValues></_>
        <_>
          <internalNodes>
            0 -1 76 486736592 218169561 1140920400 -577695488 -939506303
            -104855416 -1996488040 -329660654</internalNodes>
          <leafValues>
            -7.2635728120803833e-01 5.3593456745147705e-01</leafValues></_>
        <_>
          <internalNodes>
            0 -1 28 -1033641842 -268107621 -1879047228 -1726676992
            8487387 -2011168768 -1023311734 -2007808489</internalNodes>
          <leafValues>
            -6.7735123634338379e-01 5.8817303180694580e-01</leafValues></_></weakClassifiers></_>
    <!-- stage 3 -->
    <_>
      <maxWeakCount>7</maxWeakCount>
      <stageThreshold>-2.0280888676643372e-01</stageThreshold>
      <weakClassifiers>
        <_>
          <internalNodes>
            0 -1 1 -220536638 805741089 634503559 -610565885 -255754016
            1350705920 -528350481 -578567537</internalNodes>
          <leafValues>
            -6.6433566808700562e-01 5.8497011661529541e-01</leafValues></_>
        <_>
          <internalNodes>
            0 -1 116 -585655909 318898433 -2146416581 964700162
            -652194402 54979977 -1199042017 1739057610</internalNodes>
          <leafValues>
            -6.4214068651199341e-01 4.7608861327171326e-01</leafValues></_>
        <_>
          <internalNodes>
            0 -1 123 -1048321537 -1073147447 -1878961891 1376125008
            -2130672725 830475297 200929 369234048</internalNodes>
          <leafValues>
            -7.7083253860473633e-01 4.0666785836219788e-01</leafValues></_>
        <_>
          <internalNodes>
            0 -1 129 -690761044 1393214359 84482893 1359151184
            1628106881 1887797386 1225310424 -1870591606</internalNodes>
          <leafValues>
            -6.4694172143936157e-01 4.7393095493316650e-01</leafValues></_>
        <_>
          <internalNodes>
            0 -1 70 -1320079821 296794130 -1324068067 897949727
            1371630591 -1599069501 -1304033095 -1935151920</internalNodes>
          <leafValues>
            -7.3366278409957886e-01 4.2187061905860901e-01</leafValues></_>
        <_>
          <internalNodes>
            0 -1 54 -824735712 -984504174 -1238774517 -2053692863
            1620226733 -1073479677 -217520977 93020815</internalNodes>
          <leafValues>
            -7.2937989234924316e-01 4.4146740436553955e-01</leafValues></_>
        <_>
          <internalNodes>
            0 -1 48 -145958129 -587169348 -1862019263 890314822
            1350568590 1887486082 -1807166258 1107738650</internalNodes>
          <leafValues>
            -5.6855010986328125e-01 5.8984905481338501e-01</leafValues></_></weakClassifiers></_>
    <!-- stage 4 -->
    <_>
      <maxWeakCount>8</maxWeakCount>
      <stageThreshold>-3.7406945228576660e-01</stageThreshold>
      <weakClassifiers>
        <_>
          <internalNodes>
            0 -1 20 -931888120 -2139060096 -683567357 -792594285
            1745207500 -2000158707 -963933479 -6823447</internalNodes>
          <leafValues>
            -7.5999999046325684e-01 5.3280001878738403e-01</leafValues></_>
        <_>
          <internalNodes>
            0 -1 165 -2110369 1712537670 -1973708720 460342416
            1903548410 1665660793 738760290 -538975042</internalNodes>
          <leafValues>
            -5.0602173805236816e-01 6.1620956659317017e-01</leafValues></_>
        <_>
          <internalNodes>
            0 -1 125 1074325806 -1733245625 -251129739 -578617143
            1889661371 -1693448176 -100566308 -1685503999</internalNodes>
          <leafValues>
            -6.2112408876419067e-01 4.7617375850677490e-01</leafValues></_>
        <_>
          <internalNodes>
            0 -1 111 -763934987 824679486 -288423987 -1345335445
            1442836469 829811710 1433401214 -1754065608</internalNodes>
          <leafValues>
            -5.4700654745101929e-01 5.7791054248809814e-01</leafValues></_>
        <_>
          <internalNodes>
            0 -1 168 -737347437 429109789 -2143284670 -1801234424
            -499056497 273418384 671253000 318504794</internalNodes>
          <leafValues>
            -6.2611585855484009e-01 5.0101530551910400e-01</leafValues></_>
        <_>
          <internalNodes>
            0 -1 167 -249904920 -721154048 610497 -92274428 -2141080388
            -2128084864 -1458962296 -682277713</internalNodes>
          <leafValues>
            -5.7868623733520508e-01 5.6324154138565063e-01</leafValues></_>
        <_>
          <internalNodes>
            0 -1 4 -1052384156 1548829510 -1257205421 -1161801597
            8585296 -1287602158 -656178937 -771495901</internalNodes>
          <leafValues>
            -5.3316068649291992e-01 6.3127654790878296e-01</leafValues></_>
        <_>
          <internalNodes>
            0 -1 71 2089075270 -648018862 -2013262612 939820053
            -928513656 1145126928 -771700570 -568867125</internalNodes>
          <leafValues>
            -6.8832820653915405e-01 5.0615406036376953e-01</leafValues></_></weakClassifiers></_>
    <!-- stage 5 -->
    <_>
      <maxWeakCount>8</maxWeakCount>
      <stageThreshold>-6.6622215509414673e-01</stageThreshold>
      <weakClassifiers>
        <_>
          <internalNodes>
            0 -1 135 -2121752406 -673959596 -720325480 -539416573
            -2088186369 -1441791936 83932090 532752523</internalNodes>
          <leafValues>
            -7.2413790225982666e-01 5.5028617382049561e-01</leafValues></_>
        <_>
          <internalNodes>
            0 -1 38 970960287 90046783 -803600123 567327369 1023148443
            2095187041 -188557110 -1950553703</internalNodes>
          <leafValues>
            -6.6306197643280029e-01 4.2984309792518616e-01</leafValues></_>
        <_>
          <internalNodes>
            0 -1 41 -641367985 -469720513 1983709039 -784819521
            -555824913 -591410499 2146411758 -891810197</internalNodes>
          <leafValues>
            -4.9366328120231628e-01 5.9786492586135864e-01</leafValues></_>
        <_>
          <internalNodes>
            0 -1 141 -528694685 -220872675 -1625207011 322371673
            -1845359741 1375764490 -1996451711 413696142</internalNodes>
          <leafValues>
            -5.6530666351318359e-01 5.2377837896347046e-01</leafValues></_>
        <_>
          <internalNodes>
            0 -1 154 -2130370528 -612302712 -1073621604 -581612001
            -1879015267 -1789886448 -1442774908 990159055</internalNodes>
          <leafValues>
            -8.2567822933197021e-01 3.5167208313941956e-01</leafValues></_>
        <_>
          <internalNodes>
            0 -1 98 1617863971 -1921580960 -788164337 -43392888
            1961616363 -448722824 57180959 -2027808344</internalNodes>
          <leafValues>
            -6.6818529367446899e-01 4.4402751326560974e-01</leafValues></_>
        <_>
          <internalNodes>
            0 -1 164 -778836196 1914733593 -855457788 606403127
            1898002540 1143216257 -345601199 -1027083298</internalNodes>
          <leafValues>
            -6.3310337066650391e-01 4.8501464724540710e-01</leafValues></_>
        <_>
          <internalNodes>
            0 -1 15 -1375420809 -147884099 -273678337 1526685695
            -1880642083 1434394623 -319820548 -419987457</internalNodes>
          <leafValues>
            -4.7881653904914856e-01 6.6820651292800903e-01</leafValues></_></weakClassifiers></_>
    <!-- stage 6 -->
    <_>
      <maxWeakCount>10</maxWeakCount>
      <stageThreshold>-5.2031195163726807e-01</stageThreshold>
      <weakClassifiers>
        <_>
          <internalNodes>
            0 -1 120 6503082 -262168884 1493406033 -52576243 -854328511
            -1321103334 -1413414750 1072220337</internalNodes>
          <leafValues>
            -5.8139532804489136e-01 5.5555558204650879e-01</leafValues></_>
        <_>
          <internalNodes>
            0 -1 0 1636150767 1643225855 687971540 1166059609 1091576249
            998843323 -394166032 1840089278</internalNodes>
          <leafValues>
            -6.2150663137435913e-01 4.3297195434570313e-01</leafValues></_>
        <_>
          <internalNodes>
            0 -1 64 621088797 -2137926817 805635387 -1983860670
            -123158531 -899610418 -468698006 1376438720</internalNodes>
          <leafValues>
            -5.9856575727462769e-01 4.3364298343658447e-01</leafValues></_>
        <_>
          <internalNodes>
            0 -1 39 -532496266 19137603 1332187 1948844297 696456768
            1143046281 1783499042 -356262363</internalNodes>
          <leafValues>
            -5.2515023946762085e-01 5.1046091318130493e-01</leafValues></_>
        <_>
          <internalNodes>
            0 -1 91 31021191 1230602894 -1593438661 -1608453925
            807443607 -1442806642 -1072690419 -41095572</internalNodes>
          <leafValues>
            -5.5904829502105713e-01 4.9052992463111877e-01</leafValues></_>
        <_>
          <internalNodes>
            0 -1 112 1667170864 -787242941 1796485471 1471453406
            1110556815 -2128035447 -399908210 -2076082136</internalNodes>
          <leafValues>
            -6.7992997169494629e-01 4.3294101953506470e-01</leafValues></_>
        <_>
          <internalNodes>
            0 -1 66 531560412 -1088243044 -278798 -1074266178 -587737099
            -1212743682 -1210090021 -1885359137</internalNodes>
          <leafValues>
            -4.6254274249076843e-01 6.4356112480163574e-01</leafValues></_>
        <_>
          <internalNodes>
            0 -1 53 -536940522 -72454534 -1058372900 -604340497
            -303180155 -454557699 1795027591 -1166746113</internalNodes>
          <leafValues>
            -5.1233869791030884e-01 6.4710509777069092e-01</leafValues></_>
        <_>
          <internalNodes>
            0 -1 131 1075880180 -1249787723 428098865 894128130
            1477790936 -1467870717 -1979610981 17643658</internalNodes>
          <leafValues>
            -6.4203214645385742e-01 4.8755863308906555e-01</leafValues></_>
        <_>
          <internalNodes>
            0 -1 88 -1185840124 -781131619 -2063593331 360710278
            -796085627 -658407036 -2122300766 130813226</internalNodes>
          <leafValues>
            -7.5159496068954468e-01 4.3355029821395874e-01</leafValues></_></weakClassifiers></_>
    <!-- stage 7 -->
    <_>
      <maxWeakCount>8</maxWeakCount>
      <stageThreshold>-5.7706350088119507e-01</stageThreshold>
      <weakClassifiers>
        <_>
          <internalNodes>
            0 -1 118 134284041 -1315897022 -1044299388 -1610032868
            -347160562 -476523518 -1949182510 199214843</internalNodes>
          <leafValues>
            -7.1264368295669556e-01 5.1757186651229858e-01</leafValues></_>
        <_>
          <internalNodes>
            0 -1 144 -1050426708 1359053075 1343232213 -779857777
            -213470312 -2115338234 -608052753 -585576200</internalNodes>
          <leafValues>
            -5.0996762514114380e-01 5.3183209896087646e-01</leafValues></_>
        <_>
          <internalNodes>
            0 -1 49 -114282238 -1872444398 353654580 138741762
            1180874929 -315277184 682414509 83887243</internalNodes>
          <leafValues>
            -6.7533022165298462e-01 3.8292831182479858e-01</leafValues></_>
        <_>
          <internalNodes>
            0 -1 36 -196941820 -700447971 -984838144 -217624029
            861112479 1436614801 -1845444472 891390048</internalNodes>
          <leafValues>
            -6.7080712318420410e-01 3.8243427872657776e-01</leafValues></_>
        <_>
          <internalNodes>
            0 -1 96 396722159 -428138497 -33735 -407109768 -1320681601
            -1216380933 -268470799 -1883251206</internalNodes>
          <leafValues>
            -5.0390702486038208e-01 5.5376845598220825e-01</leafValues></_>
        <_>
          <internalNodes>
            0 -1 74 -461018918 -968720186 53405 -871858166 -532611912
            -510482272 -2012651389 -570326888</internalNodes>
          <leafValues>
            -5.7380735874176025e-01 5.1156729459762573e-01</leafValues></_>
        <_>
          <internalNodes>
            0 -1 23 -85737745 -676020545 -1565622547 -2024792406
            2004815390 1935440510 -1251599328 1399294124</internalNodes>
          <leafValues>
            -5.0037634372711182e-01 5.9711486101150513e-01</leafValues></_>
        <_>
          <internalNodes>
            0 -1 63 -740559221 -310312768 -1497136986 42127934
            -1165121879 1359028392 64845174 854288525</internalNodes>
          <leafValues>
            -6.8101501464843750e-01 4.3961605429649353e-01</leafValues></_></weakClassifiers></_>
    <!-- stage 8 -->
    <_>
      <maxWeakCount>9</maxWeakCount>
      <stageThreshold>-6.4860945940017700e-01</stageThreshold>
      <weakClassifiers>
        <_>
          <internalNodes>
            0 -1 79 1355023372 -260030111 -1321001985 -1155747637
            -1705719913 -1365241822 -1424264282 -611360357</internalNodes>
          <leafValues>
            -7.1919769048690796e-01 5.2038371562957764e-01</leafValues></_>
        <_>
          <internalNodes>
            0 -1 158 -964653525 -893063561 -3 -218169875 1469579189
            1941520253 -1073752065 -70314563</internalNodes>
          <leafValues>
            -5.1614999771118164e-01 5.8337831497192383e-01</leafValues></_>
        <_>
          <internalNodes>
            0 -1 47 -1885446471 -1122925743 -443111823 492506959
            1914712458 -25112157 1288326735 198781336</internalNodes>
          <leafValues>
            -6.2787216901779175e-01 4.3498805165290833e-01</leafValues></_>
        <_>
          <internalNodes>
            0 -1 127 -227829965 1662958654 -16777473 -679630084
            -134368897 -2022228868 -134221508 -1620044104</internalNodes>
          <leafValues>
            -4.9153742194175720e-01 5.6888610124588013e-01</leafValues></_>
        <_>
          <internalNodes>
            0 -1 50 -176235441 348981313 254294783 -385287301 -35811969
            -586216243 -1614897153 -1100269649</internalNodes>
          <leafValues>
            -4.5878428220748901e-01 6.2508851289749146e-01</leafValues></_>
        <_>
          <internalNodes>
            0 -1 113 -736433558 -1655107271 134260754 -719765405
            -66049742 -2138529568 289444032 529022985</internalNodes>
          <leafValues>
            -6.5973752737045288e-01 4.4382527470588684e-01</leafValues></_>
        <_>
          <internalNodes>
            0 -1 59 -1919894529 -1727979508 -2139078571 953210561
            -266327975 1249912840 -1945810933 -321142389</internalNodes>
          <leafValues>
            -5.1246011257171631e-01 5.9059816598892212e-01</leafValues></_>
        <_>
          <internalNodes>
            0 -1 9 -95709 1401069815 -587238982 -912115972 -272743449
            -1250970516 -1837747074 -1359295773</internalNodes>
          <leafValues>
            -5.1113837957382202e-01 6.1137086153030396e-01</leafValues></_>
        <_>
          <internalNodes>
            0 -1 16 -806698219 2101962881 1363267754 185827338 94008897
            1312821248 1346392578 1820565769</internalNodes>
          <leafValues>
            -6.1815983057022095e-01 5.3097635507583618e-01</leafValues></_></weakClassifiers></_>
    <!-- stage 9 -->
    <_>
      <maxWeakCount>9</maxWeakCount>
      <stageThreshold>-5.6616377830505371e-01</stageThreshold>
      <weakClassifiers>
        <_>
          <internalNodes>
            0 -1 8 -379869697 693208435 541098064 28036512 1124074611
            1153507354 27937257 646479891</internalNodes>
          <leafValues>
            -5.7499998807907104e-01 5.2499997615814209e-01</leafValues></_>
        <_>
          <internalNodes>
            0 -1 160 -1398365646 -18317109 -1064185277 -593754111
            -1040138077 -267812704 1929679023 -618626939</internalNodes>
          <leafValues>
            -5.2657806873321533e-01 4.6477758884429932e-01</leafValues></_>
        <_>
          <internalNodes>
            0 -1 101 1677676111 -214 1056210525 -1200385 -1033550747
            -1037740729 379450365 -1672342492</internalNodes>
          <leafValues>
            -4.7639662027359009e-01 5.5167466402053833e-01</leafValues></_>
        <_>
          <internalNodes>
            0 -1 145 -972855454 1530217681 -1660927079 1595343184
            -796684106 -1784414024 352322865 -443496303</internalNodes>
          <leafValues>
            -5.6780529022216797e-01 4.8294937610626221e-01</leafValues></_>
        <_>
          <internalNodes>
            0 -1 110 919520947 -1173553169 -1083277515 -248582385
            -1074139145 -1879113735 2146400125 -536937140</internalNodes>
          <leafValues>
            -4.5830377936363220e-01 6.2336212396621704e-01</leafValues></_>
        <_>
          <internalNodes>
            0 -1 143 -925531393 1209237504 1078010113 -1031339647
            -1056931737 1076142084 -1306946934 -1685393332</internalNodes>
          <leafValues>
            -5.4527419805526733e-01 5.5250245332717896e-01</leafValues></_>
        <_>
          <internalNodes>
            0 -1 34 -492905741 -1851684397 -1073594316 2097414210
            1912726338 1772093462 -654170412 1698974656</internalNodes>
          <leafValues>
            -5.7731550931930542e-01 5.2096766233444214e-01</leafValues></_>
        <_>
          <internalNodes>
            0 -1 159 -55527591 -75910992 -16822497 2012542902 2087964291
            -67403921 -1888268531 2130251531</internalNodes>
          <leafValues>
            -4.8238906264305115e-01 6.1534970998764038e-01</leafValues></_>
        <_>
          <internalNodes>
            0 -1 6 -490215958 1317409073 805666844 496283701 -617455227
            -2038366079 -1069496054 -934448502</internalNodes>
          <leafValues>
            -5.5597066879272461e-01 5.3802901506423950e-01</leafValues></_></weakClassifiers></_>
    <!-- stage 10 -->
    <_>
      <maxWeakCount>11</maxWeakCount>
      <stageThreshold>-6.4637428522109985e-01</stageThreshold>
      <weakClassifiers>
        <_>
          <internalNodes>
            0 -1 92 50911102 1146676436 -2143287211 -1138206561
            2031488723 -1467170804 1280985343 112550067</internalNodes>
          <leafValues>
            -5.7635468244552612e-01 5.3098827600479126e-01</leafValues></_>
        <_>
          <internalNodes>
            0 -1 163 -714932201 1191460949 -2130103751 1513425958
            -532649883 1074737680 -1315946455 -828120886</internalNodes>
          <leafValues>
            -5.5794095993041992e-01 4.3355908989906311e-01</leafValues></_>
        <_>
          <internalNodes>
            0 -1 31 1105182495 1342305817 -738149319 277349385
            -142557537 822674840 1074094891 1100013210</internalNodes>
          <leafValues>
            -5.1456940174102783e-01 4.6411624550819397e-01</leafValues></_>
        <_>
          <internalNodes>
            0 -1 57 -442141261 -39189 1970549863 -1613937593 -1510158900
            -1879736331 -28325050 -907227833</internalNodes>
          <leafValues>
            -3.8423237204551697e-01 6.9811856746673584e-01</leafValues></_>
        <_>
          <internalNodes>
            0 -1 148 -34288984 -805222132 -1862151721 -632670116
            -1744479472 -209713120 33565003 503857335</internalNodes>
          <leafValues>
            -6.9188612699508667e-01 3.7114495038986206e-01</leafValues></_>
        <_>
          <internalNodes>
            0 -1 21 8740479 73662676 336106497 1036026186 -219817901
            178560 -109034414 -2117676094</internalNodes>
          <leafValues>
            -5.1757323741912842e-01 5.2110284566879272e-01</leafValues></_>
        <_>
          <internalNodes>
            0 -1 94 36307055 -784465280 -457141667 961577345 -1373462398
            -1194825728 814338050 181112009</internalNodes>
          <leafValues>
            -7.3669660091400146e-01 3.7876406311988831e-01</leafValues></_>
        <_>
          <internalNodes>
            0 -1 166 -533337 -950970790 -79984238 -1223456078 -42207233
            1945599831 -1086785570 -547491926</internalNodes>
          <leafValues>
            -4.5486190915107727e-01 6.3894093036651611e-01</leafValues></_>
        <_>
          <internalNodes>
            0 -1 97 -552616704 -609456341 -536937168 -1619313066
            -537923634 -6468107 385857530 -837186340</internalNodes>
          <leafValues>
            -4.5509746670722961e-01 6.2595117092132568e-01</leafValues></_>
        <_>
          <internalNodes>
            0 -1 87 -743074505 -424743876 -16642 -545301765 -982010505
            -1896353795 -939538945 -566750021</internalNodes>
          <leafValues>
            -4.8387348651885986e-01 6.4479023218154907e-01</leafValues></_>
        <_>
          <internalNodes>
            0 -1 43 -720293041 194580617 -502189755 151040403
            -1072643919 1662111049 -1039103934 -338522991</internalNodes>
          <leafValues>
            -5.9850150346755981e-01 4.9817404150962830e-01</leafValues></_></weakClassifiers></_>
    <!-- stage 11 -->
    <_>
      <maxWeakCount>9</maxWeakCount>
      <stageThreshold>-6.8705737590789795e-01</stageThreshold>
      <weakClassifiers>
        <_>
          <internalNodes>
            0 -1 121 -1920267904 -933535732 279566584 1359078273
            -415090574 -912207640 419499248 184549581</internalNodes>
          <leafValues>
            -8.4375000000000000e-01 4.5833334326744080e-01</leafValues></_>
        <_>
          <internalNodes>
            0 -1 90 1532200235 287688207 -1877960592 -23887380 858030779
            861278227 50890872 -1089271654</internalNodes>
          <leafValues>
            -5.2524620294570923e-01 4.4928523898124695e-01</leafValues></_>
        <_>
          <internalNodes>
            0 -1 13 -872145401 -532381370 -1449721463 -498273967
            -884440803 1223295215 1952354370 -1022649125</internalNodes>
          <leafValues>
            -5.5277305841445923e-01 4.3912297487258911e-01</leafValues></_>
        <_>
          <internalNodes>
            0 -1 33 872643299 1967133185 -535707518 -1799109347
            1283983591 2036397088 -494847833 -960091324</internalNodes>
          <leafValues>
            -4.9880573153495789e-01 4.8441022634506226e-01</leafValues></_>
        <_>
          <internalNodes>
            0 -1 151 1112776906 1494694799 -1027555301 -678616384
            1560482791 671105216 1355096985 -872138747</internalNodes>
          <leafValues>
            -6.2818294763565063e-01 4.1381508111953735e-01</leafValues></_>
        <_>
          <internalNodes>
            0 -1 169 -226821389 2072981305 -1158743058 -718602958
            -67334683 -94935044 1037514192 -38222418</internalNodes>
          <leafValues>
            -4.2606356739997864e-01 7.2255706787109375e-01</leafValues></_>
        <_>
          <internalNodes>
            0 -1 17 -881514933 -479162220 344055950 320929821
            -1719625525 118882448 -1073190614 -465009955</internalNodes>
          <leafValues>
            -5.1971900463104248e-01 5.5075126886367798e-01</leafValues></_>
        <_>
          <internalNodes>
            0 -1 81 -1980022994 -600840977 -277901317 -1448984581
            -67109139 -1439694851 -2046884098 -458491794</internalNodes>
          <leafValues>
            -4.5361551642417908e-01 6.1565244197845459e-01</leafValues></_>
        <_>
          <internalNodes>
            0 -1 93 -619391986 -609682719 769576044 -1914635857
            -274991158 -1348960394 1744639975 -173648509</internalNodes>
          <leafValues>
            -4.9062803387641907e-01 5.7322758436203003e-01</leafValues></_></weakClassifiers></_>
    <!-- stage 12 -->
    <_>
      <maxWeakCount>10</maxWeakCount>
      <stageThreshold>-5.8936023712158203e-01</stageThreshold>
      <weakClassifiers>
        <_>
          <internalNodes>
            0 -1 134 3311622 -83673072 -41597871 -775649269 -770969599
            -1606369020 -57745332 81562840</internalNodes>
          <leafValues>
            -7.3040753602981567e-01 4.9414518475532532e-01</leafValues></_>
        <_>
          <internalNodes>
            0 -1 161 -905313792 -937950995 -1979297772 1883390043
            -1534602935 -2130706302 17301647 453509865</internalNodes>
          <leafValues>
            -8.0503135919570923e-01 2.9102140665054321e-01</leafValues></_>
        <_>
          <internalNodes>
            0 -1 73 -1923273 -60133633 -1658881 -1074722945 1589028762
            -999425 1610437883 -84375330</internalNodes>
          <leafValues>
            -4.3571320176124573e-01 5.8181035518646240e-01</leafValues></_>
        <_>
          <internalNodes>
            0 -1 149 -354958362 1163243591 -1006592236 5083625
            1351648565 1946223104 -397833628 1984864813</internalNodes>
          <leafValues>
            -6.2867474555969238e-01 4.0602862834930420e-01</leafValues></_>
        <_>
          <internalNodes>
            0 -1 126 -1919777584 -853064669 -1542172213 1166614815
            -1465382824 -2004205308 135020589 -1197913391</internalNodes>
          <leafValues>
            -6.4706569910049438e-01 3.8223046064376831e-01</leafValues></_>
        <_>
          <internalNodes>
            0 -1 44 -978371945 1672130978 536908717 -1551368183
            -2139577877 77562785 1220549022 587170758</internalNodes>
          <leafValues>
            -5.8907872438430786e-01 4.4648551940917969e-01</leafValues></_>
        <_>
          <internalNodes>
            0 -1 56 -1121623885 1852351211 935222895 -1208254593
            -539494402 -524291 1339400011 469725181</internalNodes>
          <leafValues>
            -5.0336247682571411e-01 5.7204592227935791e-01</leafValues></_>
        <_>
          <internalNodes>
            0 -1 24 -1073687480 572955845 -226336752 -1239023597
            -878568171 -1072094845 -390051745 -2080241019</internalNodes>
          <leafValues>
            -6.7395949363708496e-01 4.4727155566215515e-01</leafValues></_>
        <_>
          <internalNodes>
            0 -1 107 -507850843 -605917188 -100680465 -541172047
            134215258 -922910732 2147480820 -878539568</internalNodes>
          <leafValues>
            -4.9392223358154297e-01 6.0864061117172241e-01</leafValues></_>
        <_>
          <internalNodes>
            0 -1 45 -905454165 276911106 -1867971134 575394227 109056196
            119773321 -1196397257 -1398424736</internalNodes>
          <leafValues>
            -5.7017344236373901e-01 5.4884451627731323e-01</leafValues></_></weakClassifiers></_>
    <!-- stage 13 -->
    <_>
      <maxWeakCount>10</maxWeakCount>
      <stageThreshold>-5.1983469724655151e-01</stageThreshold>
      <weakClassifiers>
        <_>
          <internalNodes>
            0 -1 12 50529292 1272717473 -2146399171 -1026522879
            143790282 37900568 -511145307 -896495168</internalNodes>
          <leafValues>
            -6.5625000000000000e-01 4.7656250000000000e-01</leafValues></_>
        <_>
          <internalNodes>
            0 -1 124 -976443521 1359253713 276938816 1394151499
            -1383488063 291504672 530745355 1034164866</internalNodes>
          <leafValues>
            -5.6986409425735474e-01 3.9482632279396057e-01</leafValues></_>
        <_>
          <internalNodes>
            0 -1 106 -764554099 1256717300 1525610939 1904277222
            -1342186945 -570491021 1668609777 -282405640</internalNodes>
          <leafValues>
            -4.3522274494171143e-01 5.3241652250289917e-01</leafValues></_>
        <_>
          <internalNodes>
            0 -1 77 -708488892 293620060 209796255 -484308469
            -1860757694 -1895120896 -2133782392 -782644635</internalNodes>
          <leafValues>
            -6.2501078844070435e-01 3.8162446022033691e-01</leafValues></_>
        <_>
          <internalNodes>
            0 -1 14 -1787608637 446861450 76104209 956186836 -1442657589
            344525976 416022834 987296457</internalNodes>
          <leafValues>
            -6.4951699972152710e-01 3.5904690623283386e-01</leafValues></_>
        <_>
          <internalNodes>
            0 -1 102 -524665627 -178803921 -1196427077 -454821329
            -487074306 -570708481 -827142593 -524385606</internalNodes>
          <leafValues>
            -4.8255172371864319e-01 5.7529932260513306e-01</leafValues></_>
        <_>
          <internalNodes>
            0 -1 153 386205653 508139537 -1664028580 -804415353
            -2109713707 545439828 147075496 -2050234423</internalNodes>
          <leafValues>
            -5.3082495927810669e-01 5.3141486644744873e-01</leafValues></_>
        <_>
          <internalNodes>
            0 -1 100 1079788228 -179207537 520166278 2106032534
            -725245796 -1195687731 -1986958440 157892747</internalNodes>
          <leafValues>
            -6.7201858758926392e-01 4.2135509848594666e-01</leafValues></_>
        <_>
          <internalNodes>
            0 -1 2 1851064269 1912648768 -654245222 940421124
            -1308534137 -1408965376 -393689704 608429864</internalNodes>
          <leafValues>
            -5.2579420804977417e-01 5.3553152084350586e-01</leafValues></_>
        <_>
          <internalNodes>
            0 -1 52 -809532241 -1750365205 670967791 -1916092417
            263975406 -2026946578 601796543 -1026767410</internalNodes>
          <leafValues>
            -4.3285098671913147e-01 6.5819591283798218e-01</leafValues></_></weakClassifiers></_>
    <!-- stage 14 -->
    <_>
      <maxWeakCount>10</maxWeakCount>
      <stageThreshold>-8.6669760942459106e-01</stageThreshold>
      <weakClassifiers>
        <_>
          <internalNodes>
            0 -1 25 93184783 253011351 -1605225455 32837701 294657176
            1350044545 -1606286834 63439305</internalNodes>
          <leafValues>
            -7.5939851999282837e-01 4.5127436518669128e-01</leafValues></_>
        <_>
          <internalNodes>
            0 -1 115 1098847586 -735608127 1896071963 -1504591743
            1228960586 -1073315840 1665704584 1113583621</internalNodes>
          <leafValues>
            -5.3868722915649414e-01 4.1115218400955200e-01</leafValues></_>
        <_>
          <internalNodes>
            0 -1 22 1888734225 537006586 1419104385 536904840 -527923950
            1318621485 -397420302 59308686</internalNodes>
          <leafValues>
            -5.6993252038955688e-01 4.1905543208122253e-01</leafValues></_>
        <_>
          <internalNodes>
            0 -1 86 1952375968 -1723989932 -786921008 -613332840
            2075689153 -1288699888 -197033342 -1927511670</internalNodes>
          <leafValues>
            -6.1105167865753174e-01 3.8419860601425171e-01</leafValues></_>
        <_>
          <internalNodes>
            0 -1 140 1083622126 1884132109 -2071421440 823361738
            1627555984 -1610030968 -2075555836 203950280</internalNodes>
          <leafValues>
            -7.5142526626586914e-01 2.9436042904853821e-01</leafValues></_>
        <_>
          <internalNodes>
            0 -1 7 -872365864 -883566063 18554897 -2087616439 -326395584
            320541312 -841725907 964927755</internalNodes>
          <leafValues>
            -6.5382075309753418e-01 3.5451430082321167e-01</leafValues></_>
        <_>
          <internalNodes>
            0 -1 69 -74523309 -557304293 749239807 -2115229313
            1856428598 483721967 -991132397 -605305</internalNodes>
          <leafValues>
            -4.8362579941749573e-01 5.6240552663803101e-01</leafValues></_>
        <_>
          <internalNodes>
            0 -1 18 -517971126 285225409 285298700 1627553988 977356290
            1652781344 1610617368 1426247193</internalNodes>
          <leafValues>
            -6.8048977851867676e-01 4.2115211486816406e-01</leafValues></_>
        <_>
          <internalNodes>
            0 -1 83 -171720898 -1030613536 1074857223 1853988866
            1476456835 -1743773694 -1056448369 -628973878</internalNodes>
          <leafValues>
            -4.9649837613105774e-01 5.3919398784637451e-01</leafValues></_>
        <_>
          <internalNodes>
            0 -1 170 1578145206 -120089834 16777250 638634823 285360988
            1074267401 -905780027 854583788</internalNodes>
          <leafValues>
            -6.7959219217300415e-01 4.0774309635162354e-01</leafValues></_></weakClassifiers></_>
    <!-- stage 15 -->
    <_>
      <maxWeakCount>9</maxWeakCount>
      <stageThreshold>-4.5522323250770569e-01</stageThreshold>
      <weakClassifiers>
        <_>
          <internalNodes>
            0 -1 117 2163989 -1417502625 -1073195947 -647424889
            -657333243 -994043840 -994033643 636785089</internalNodes>
          <leafValues>
            -5.8791208267211914e-01 4.9676376581192017e-01</leafValues></_>
        <_>
          <internalNodes>
            0 -1 155 -352354323 -285474817 -66834 -72439186 -1409286147
            -805306369 -805309970 -781037072</internalNodes>
          <leafValues>
            -4.1751033067703247e-01 5.3295600414276123e-01</leafValues></_>
        <_>
          <internalNodes>
            0 -1 75 -1291277002 -756501614 -1927763489 -1476063360
            1749586402 -721125248 1095092925 -1581120574</internalNodes>
          <leafValues>
            -5.8719784021377563e-01 4.0254986286163330e-01</leafValues></_>
        <_>
          <internalNodes>
            0 -1 133 -524713465 -1641772322 1082261629 1820656048
            -893300279 143458305 -2130489278 -120629117</internalNodes>
          <leafValues>
            -5.6580972671508789e-01 4.5615413784980774e-01</leafValues></_>
        <_>
          <internalNodes>
            0 -1 136 -1016208217 -1048374178 285278232 -745992108
            1099532298 -360677376 -1458994975 1605161089</internalNodes>
          <leafValues>
            -5.1224774122238159e-01 4.8919811844825745e-01</leafValues></_>
        <_>
          <internalNodes>
            0 -1 175 -704921253 -378943691 -1430308440 -1010698708
            -79733861 919859063 -1914832218 -27928774</internalNodes>
          <leafValues>
            -4.3333461880683899e-01 6.3631176948547363e-01</leafValues></_>
        <_>
          <internalNodes>
            0 -1 42 1878896007 1542054757 1324663295 1585011695
            1140819687 251391849 -816976399 -18016434</internalNodes>
          <leafValues>
            -4.0130424499511719e-01 6.8804055452346802e-01</leafValues></_>
        <_>
          <internalNodes>
            0 -1 114 -138941586 -11866298 -336712020 394199038 -2625682
            2004186999 838833909 -1185475334</internalNodes>
          <leafValues>
            -4.8023551702499390e-01 5.6067073345184326e-01</leafValues></_>
        <_>
          <internalNodes>
            0 -1 68 -934161978 -671510206 2098246680 1910085900
            680540191 978682496 -107822913 460686255</internalNodes>
          <leafValues>
            -5.1652491092681885e-01 5.1218545436859131e-01</leafValues></_></weakClassifiers></_>
    <!-- stage 16 -->
    <_>
      <maxWeakCount>8</maxWeakCount>
      <stageThreshold>-1.1001011133193970e+00</stageThreshold>
      <weakClassifiers>
        <_>
          <internalNodes>
            0 -1 62 630942872 -1718980556 -1854896965 806746293
            1417701520 -2134685680 359745105 500435186</internalNodes>
          <leafValues>
            -6.8456375598907471e-01 4.6390169858932495e-01</leafValues></_>
        <_>
          <internalNodes>
            0 -1 156 -496347145 -128957545 -1006563328 -58175487
            -1725857406 1218478096 -486178805 1100764315</internalNodes>
          <leafValues>
            -4.8189011216163635e-01 4.3716493248939514e-01</leafValues></_>
        <_>
          <internalNodes>
            0 -1 109 558871589 -527957932 553844809 -1388314543
            1343861091 1904378880 -2105505517 -1566441037</internalNodes>
          <leafValues>
            -6.2823778390884399e-01 3.9857241511344910e-01</leafValues></_>
        <_>
          <internalNodes>
            0 -1 78 -1059204201 -978017108 1559101245 -769557522
            -571269729 1207381244 -3385636 -221528833</internalNodes>
          <leafValues>
            -4.1701623797416687e-01 5.7716685533523560e-01</leafValues></_>
        <_>
          <internalNodes>
            0 -1 80 -1296076097 -1074618472 -1342490966 -1825357826
            1321146012 -1672227364 268392138 -1814136881</internalNodes>
          <leafValues>
            -4.6439158916473389e-01 5.0084233283996582e-01</leafValues></_>
        <_>
          <internalNodes>
            0 -1 46 -1001978291 1126927908 16810518 293622024 2051299577
            -1073232607 -406833142 -905074105</internalNodes>
          <leafValues>
            -5.6800228357315063e-01 4.4365727901458740e-01</leafValues></_>
        <_>
          <internalNodes>
            0 -1 146 -23220944 -893468899 -5242883 -232054977 -33554434
            -270598145 -1073807364 -147611780</internalNodes>
          <leafValues>
            -4.4148305058479309e-01 6.2351125478744507e-01</leafValues></_>
        <_>
          <internalNodes>
            0 -1 11 -813402730 -25000051 369426434 491055107 806704526
            2061565954 -801076983 1728135617</internalNodes>
          <leafValues>
            -6.5478622913360596e-01 4.0715709328651428e-01</leafValues></_></weakClassifiers></_>
    <!-- stage 17 -->
    <_>
      <maxWeakCount>10</maxWeakCount>
      <stageThreshold>-6.3529688119888306e-01</stageThreshold>
      <weakClassifiers>
        <_>
          <internalNodes>
            0 -1 82 268699102 -1870654669 -909112645 784347536
            -1451894383 -851357624 675874320 2035433280</internalNodes>
          <leafValues>
            -5.7255935668945313e-01 5.0532352924346924e-01</leafValues></_>
        <_>
          <internalNodes>
            0 -1 139 1552204522 411681984 67109145 -36962304 78003
            -656275326 1091078175 -578650101</internalNodes>
          <leafValues>
            -5.1829457283020020e-01 4.0920057892799377e-01</leafValues></_>
        <_>
          <internalNodes>
            0 -1 55 700799713 361768191 -1260123406 -187427738
            -1400051484 274804761 -1413480284 -1817405167</internalNodes>
          <leafValues>
            -5.6448727846145630e-01 3.9831107854843140e-01</leafValues></_>
        <_>
          <internalNodes>
            0 -1 162 -1422392110 -209717249 1597268828 536834034
            878545086 -234913009 1024465567 -1726075171</internalNodes>
          <leafValues>
            -4.3893170356750488e-01 5.2625513076782227e-01</leafValues></_>
        <_>
          <internalNodes>
            0 -1 95 419552712 -1056423776 -716630413 151081113 8560824
            -887082960 1258299395 1340858537</internalNodes>
          <leafValues>
            -6.9326156377792358e-01 3.4087768197059631e-01</leafValues></_>
        <_>
          <internalNodes>
            0 -1 10 -63943137 310674311 155245258 -238744422 -744957769
            -1270594685 -2094260190 -989810264</internalNodes>
          <leafValues>
            -5.3897416591644287e-01 4.9220737814903259e-01</leafValues></_>
        <_>
          <internalNodes>
            0 -1 19 -1441658868 1934467541 890601478 -666822573
            -154828712 1074991175 1376568320 -1215229184</internalNodes>
          <leafValues>
            -7.8184539079666138e-01 3.4977769851684570e-01</leafValues></_>
        <_>
          <internalNodes>
            0 -1 130 -273569041 -42467514 -1456193028 -45486609
            2130136844 -705265673 -1124098573 1471398499</internalNodes>
          <leafValues>
            -4.9439397454261780e-01 5.4027235507965088e-01</leafValues></_>
        <_>
          <internalNodes>
            0 -1 132 1936158285 1063780111 -332449 2147474807 1954240201
            -118661265 520100954 -1961359561</internalNodes>
          <leafValues>
            -4.7707042098045349e-01 5.7248592376708984e-01</leafValues></_>
        <_>
          <internalNodes>
            0 -1 152 -738004342 -1717403447 572590100 110461363
            1426131089 346079424 -515249575 1440982075</internalNodes>
          <leafValues>
            -7.5333356857299805e-01 3.8846573233604431e-01</leafValues></_></weakClassifiers></_>
    <!-- stage 18 -->
    <_>
      <maxWeakCount>12</maxWeakCount>
      <stageThreshold>-5.4302173852920532e-01</stageThreshold>
      <weakClassifiers>
        <_>
          <internalNodes>
            0 -1 65 285365206 -1866461050 -116338560 101845088
            2082668960 -283074412 -587181933 177879432</internalNodes>
          <leafValues>
            -5.8944278955459595e-01 4.7736299037933350e-01</leafValues></_>
        <_>
          <internalNodes>
            0 -1 158 -888676737 -621285771 -3 -218431507 2006450103
            -1280229379 -1073752067 -544516609</internalNodes>
          <leafValues>
            -3.5914155840873718e-01 5.7635468244552612e-01</leafValues></_>
        <_>
          <internalNodes>
            0 -1 60 1359298060 -1998772987 -921676793 1649369607
            -834518816 -1306521600 -368848351 -656228218</internalNodes>
          <leafValues>
            -5.1319134235382080e-01 4.3322181701660156e-01</leafValues></_>
        <_>
          <internalNodes>
            0 -1 128 1015698976 -1475284782 83970319 -108222167
            2123376930 -325877728 25862155 -1148674039</internalNodes>
          <leafValues>
            -6.2942194938659668e-01 3.5573056340217590e-01</leafValues></_>
        <_>
          <internalNodes>
            0 -1 171 -537458145 -230207471 -1610942566 2015808766
            -134244425 129187823 -135037253 -80482710</internalNodes>
          <leafValues>
            -4.2254042625427246e-01 5.3283852338790894e-01</leafValues></_>
        <_>
          <internalNodes>
            0 -1 99 -775775952 -901426736 -1056896621 -754909183
            -837891112 1208664195 -2138498752 941228171</internalNodes>
          <leafValues>
            -6.0650420188903809e-01 4.0866476297378540e-01</leafValues></_>
        <_>
          <internalNodes>
            0 -1 26 -263344027 1082130468 -2129291263 806895758
            -1437997019 279429224 -458514332 1231280298</internalNodes>
          <leafValues>
            -6.2370973825454712e-01 3.9975437521934509e-01</leafValues></_>
        <_>
          <internalNodes>
            0 -1 150 -1083320481 -302045802 2113785022 1529628207
            926719878 -713187435 -705323583 -541090317</internalNodes>
          <leafValues>
            -4.0731322765350342e-01 6.5187817811965942e-01</leafValues></_>
        <_>
          <internalNodes>
            0 -1 5 -1564408290 501086867 -2143289231 -788426427
            1254148278 1904252145 -992832952 -363806206</internalNodes>
          <leafValues>
            -5.2282255887985229e-01 4.9498060345649719e-01</leafValues></_>
        <_>
          <internalNodes>
            0 -1 173 -1916028616 1363288660 -2146631250 -1613381468
            -1584904057 807961888 1208109061 9065055</internalNodes>
          <leafValues>
            -6.5897482633590698e-01 3.8859313726425171e-01</leafValues></_>
        <_>
          <internalNodes>
            0 -1 89 1932674684 1024231511 -803678136 1843986433 33559351
            -1300159360 184674360 990061585</internalNodes>
          <leafValues>
            -6.7186987400054932e-01 3.7628474831581116e-01</leafValues></_>
        <_>
          <internalNodes>
            0 -1 104 -436942517 -1713006450 -1030707055 1795979977
            -1698627037 1361707616 1649692706 786669643</internalNodes>
          <leafValues>
            -5.2941048145294189e-01 5.0393408536911011e-01</leafValues></_></weakClassifiers></_>
    <!-- stage 19 -->
    <_>
      <maxWeakCount>12</maxWeakCount>
      <stageThreshold>-1.1696790456771851e+00</stageThreshold>
      <weakClassifiers>
        <_>
          <internalNodes>
            0 -1 27 737029089 671032447 -1350621377 -536905729 802119118
            2131765238 -1342181536 1609889654</internalNodes>
          <leafValues>
            -4.4017094373703003e-01 5.3533565998077393e-01</leafValues></_>
        <_>
          <internalNodes>
            0 -1 67 -254445820 357372225 1343578385 603400337
            -1878474552 -1163914207 -796380909 901209</internalNodes>
          <leafValues>
            -6.1647433042526245e-01 3.3718135952949524e-01</leafValues></_>
        <_>
          <internalNodes>
            0 -1 58 1352124745 1187629346 -2092954758 671471915
            748794146 1786773575 580571816 -2143815159</internalNodes>
          <leafValues>
            -4.4691446423530579e-01 4.8871508240699768e-01</leafValues></_>
        <_>
          <internalNodes>
            0 -1 147 -958623616 -262438885 -2130181929 1392615746
            -1866432383 1879081089 1174411416 -873756488</internalNodes>
          <leafValues>
            -4.6829602122306824e-01 4.8100820183753967e-01</leafValues></_>
        <_>
          <internalNodes>
            0 -1 119 -805244374 -184167358 1879577881 463211531
            939621504 -397662560 554296047 -293019192</internalNodes>
          <leafValues>
            -4.8435387015342712e-01 4.9092027544975281e-01</leafValues></_>
        <_>
          <internalNodes>
            0 -1 29 -1406135467 -1329572799 -1047489587 -2112949626
            -2131211059 271119377 -780078400 -641473900</internalNodes>
          <leafValues>
            -5.2636641263961792e-01 4.6139696240425110e-01</leafValues></_>
        <_>
          <internalNodes>
            0 -1 3 -137364613 1904393978 -424247437 1521204900
            1432313622 -179126530 1401694950 -1695736754</internalNodes>
          <leafValues>
            -4.1341316699981689e-01 6.0382199287414551e-01</leafValues></_>
        <_>
          <internalNodes>
            0 -1 142 71942404 -1814527994 -402648825 -1023274994
            -1064729808 -786259967 -1457480568 -1511475190</internalNodes>
          <leafValues>
            -5.9194678068161011e-01 4.3516203761100769e-01</leafValues></_>
        <_>
          <internalNodes>
            0 -1 172 -1660829200 2072772672 201327004 -1957707381
            -402605648 -1870249760 1143229961 555811381</internalNodes>
          <leafValues>
            -5.3930056095123291e-01 4.9234399199485779e-01</leafValues></_>
        <_>
          <internalNodes>
            0 -1 37 344163695 -909851769 280797279 1789224641 907253157
            -1736339391 -368571734 302062372</internalNodes>
          <leafValues>
            -5.7425242662429810e-01 4.5398110151290894e-01</leafValues></_>
        <_>
          <internalNodes>
            0 -1 174 1934875893 1908539421 -787834038 -234795900
            415809728 813933696 -1610563414 -278982390</internalNodes>
          <leafValues>
            -4.9751004576683044e-01 5.4411798715591431e-01</leafValues></_>
        <_>
          <internalNodes>
            0 -1 157 -1665889594 354222726 1762792017 -1542872820
            1929482311 1912672290 -493839994 1380191139</internalNodes>
          <leafValues>
            -5.5892944335937500e-01 4.6854516863822937e-01</leafValues></_></weakClassifiers></_></stages>
  <features>
    <_>
      <rect>
        0 9 12 9</rect></_>
    <_>
      <rect>
        0 14 12 11</rect></_>
    <_>
      <rect>
        0 17 6 5</rect></_>
    <_>
      <rect>
        0 19 6 10</rect></_>
    <_>
      <rect>
        1 2 9 15</rect></_>
    <_>
      <rect>
        2 18 11 5</rect></_>
    <_>
      <rect>
        2 22 4 4</rect></_>
    <_>
      <rect>
        3 5 8 15</rect></_>
    <_>
      <rect>
        3 5 10 11</rect></_>
    <_>
      <rect>
        3 16 6 4</rect></_>
    <_>
      <rect>
        3 17 7 3</rect></_>
    <_>
      <rect>
        3 19 5 6</rect></_>
    <_>
      <rect>
        3 19 11 4</rect></_>
    <_>
      <rect>
        4 4 11 14</rect></_>
    <_>
      <rect>
        4 9 12 6</rect></_>
    <_>
      <rect>
        4 11 9 10</rect></_>
    <_>
      <rect>
        4 17 4 6</rect></_>
    <_>
      <rect>
        4 17 9 3</rect></_>
    <_>
      <rect>
        4 18 5 4</rect></_>
    <_>
      <rect>
        5 8 8 14</rect></_>
    <_>
      <rect>
        5 11 10 12</rect></_>
    <_>
      <rect>
        5 12 6 4</rect></_>
    <_>
      <rect>
        5 15 4 3</rect></_>
    <_>
      <rect>
        5 27 3 5</rect></_>
    <_>
      <rect>
        6 0 8 16</rect></_>
    <_>
      <rect>
        6 11 10 7</rect></_>
    <_>
      <rect>
        6 15 4 3</rect></_>
    <_>
      <rect>
        6 19 9 4</rect></_>
    <_>
      <rect>
        6 25 5 3</rect></_>
    <_>
      <rect>
        7 7 9 12</rect></_>
    <_>
      <rect>
        7 10 11 7</rect></_>
    <_>
      <rect>
        7 15 4 5</rect></_>
    <_>
      <rect>
        7 15 7 4</rect></_>
    <_>
      <rect>
        7 16 7 4</rect></_>
    <_>
      <rect>
        7 23 3 4</rect></_>
    <_>
      <rect>
        7 23 10 7</rect></_>
    <_>
      <rect>
        7 26 5 3</rect></_>
    <_>
      <rect>
        8 0 7 7</rect></_>
    <_>
      <rect>
        8 9 9 9</rect></_>
    <_>
      <rect>
        8 10 5 5</rect></_>
    <_>
      <rect>
        8 12 8 8</rect></_>
    <_>
      <rect>
        9 3 8 15</rect></_>
    <_>
      <rect>
        9 7 5 4</rect></_>
    <_>
      <rect>
        9 8 10 11</rect></_>
    <_>
      <rect>
        9 13 4 5</rect></_>
    <_>
      <rect>
        9 13 8 4</rect></_>
    <_>
      <rect>
        9 15 6 4</rect></_>
    <_>
      <rect>
        9 17 7 4</rect></_>
    <_>
      <rect>
        9 20 3 3</rect></_>
    <_>
      <rect>
        9 22 5 2</rect></_>
    <_>
      <rect>
        10 6 10 13</rect></_>
    <_>
      <rect>
        10 9 8 9</rect></_>
    <_>
      <rect>
        10 10 4 6</rect></_>
    <_>
      <rect>
        10 17 6 2</rect></_>
    <_>
      <rect>
        10 19 4 5</rect></_>
    <_>
      <rect>
        10 19 7 4</rect></_>
    <_>
      <rect>
        10 22 8 4</rect></_>
    <_>
      <rect>
        10 25 9 4</rect></_>
    <_>
      <rect>
        11 2 7 6</rect></_>
    <_>
      <rect>
        11 9 5 7</rect></_>
    <_>
      <rect>
        11 9 5 11</rect></_>
    <_>
      <rect>
        11 12 7 8</rect></_>
    <_>
      <rect>
        11 15 6 5</rect></_>
    <_>
      <rect>
        11 16 6 3</rect></_>
    <_>
      <rect>
        11 17 7 6</rect></_>
    <_>
      <rect>
        11 19 5 3</rect></_>
    <_>
      <rect>
        11 23 5 2</rect></_>
    <_>
      <rect>
        11 27 7 5</rect></_>
    <_>
      <rect>
        11 34 8 5</rect></_>
    <_>
      <rect>
        12 12 3 4</rect></_>
    <_>
      <rect>
        12 12 7 7</rect></_>
    <_>
      <rect>
        12 14 5 3</rect></_>
    <_>
      <rect>
        12 15 5 10</rect></_>
    <_>
      <rect>
        12 17 3 4</rect></_>
    <_>
      <rect>
        12 19 4 2</rect></_>
    <_>
      <rect>
        12 20 3 3</rect></_>
    <_>
      <rect>
        12 21 6 3</rect></_>
    <_>
      <rect>
        12 24 9 7</rect></_>
    <_>
      <rect>
        13 3 6 15</rect></_>
    <_>
      <rect>
        13 13 5 11</rect></_>
    <_>
      <rect>
        13 13 6 5</rect></_>
    <_>
      <rect>
        13 17 5 3</rect></_>
    <_>
      <rect>
        13 17 5 6</rect></_>
    <_>
      <rect>
        13 19 2 3</rect></_>
    <_>
      <rect>
        13 19 9 9</rect></_>
    <_>
      <rect>
        13 20 2 3</rect></_>
    <_>
      <rect>
        13 23 4 2</rect></_>
    <_>
      <rect>
        13 24 3 2</rect></_>
    <_>
      <rect>
        13 24 3 3</rect></_>
    <_>
      <rect>
        13 24 5 2</rect></_>
    <_>
      <rect>
        13 25 4 2</rect></_>
    <_>
      <rect>
        14 12 7 9</rect></_>
    <_>
      <rect>
        14 17 4 4</rect></_>
    <_>
      <rect>
        14 18 2 2</rect></_>
    <_>
      <rect>
        14 21 3 3</rect></_>
    <_>
      <rect>
        14 21 4 2</rect></_>
    <_>
      <rect>
        14 21 4 3</rect></_>
    <_>
      <rect>
        14 22 2 1</rect></_>
    <_>
      <rect>
        14 22 3 3</rect></_>
    <_>
      <rect>
        14 23 2 2</rect></_>
    <_>
      <rect>
        14 28 4 4</rect></_>
    <_>
      <rect>
        14 29 5 2</rect></_>
    <_>
      <rect>
        15 2 6 14</rect></_>
    <_>
      <rect>
        15 6 7 12</rect></_>
    <_>
      <rect>
        15 10 7 11</rect></_>
    <_>
      <rect>
        15 19 3 3</rect></_>
    <_>
      <rect>
        15 21 3 1</rect></_>
    <_>
      <rect>
        15 22 2 1</rect></_>
    <_>
      <rect>
        15 22 5 2</rect></_>
    <_>
      <rect>
        15 24 2 2</rect></_>
    <_>
      <rect>
        15 24 3 1</rect></_>
    <_>
      <rect>
        15 24 3 2</rect></_>
    <_>
      <rect>
        15 25 4 5</rect></_>
    <_>
      <rect>
        15 25 5 2</rect></_>
    <_>
      <rect>
        15 26 3 2</rect></_>
    <_>
      <rect>
        16 13 2 8</rect></_>
    <_>
      <rect>
        16 14 8 7</rect></_>
    <_>
      <rect>
        16 15 3 6</rect></_>
    <_>
      <rect>
        16 17 3 5</rect></_>
    <_>
      <rect>
        16 19 2 2</rect></_>
    <_>
      <rect>
        16 20 3 3</rect></_>
    <_>
      <rect>
        16 20 4 2</rect></_>
    <_>
      <rect>
        16 21 2 2</rect></_>
    <_>
      <rect>
        16 22 2 1</rect></_>
    <_>
      <rect>
        16 22 2 2</rect></_>
    <_>
      <rect>
        16 23 3 2</rect></_>
    <_>
      <rect>
        16 23 6 4</rect></_>
    <_>
      <rect>
        16 24 2 2</rect></_>
    <_>
      <rect>
        16 24 3 1</rect></_>
    <_>
      <rect>
        16 24 3 2</rect></_>
    <_>
      <rect>
        16 24 4 3</rect></_>
    <_>
      <rect>
        16 25 5 3</rect></_>
    <_>
      <rect>
        16 29 6 3</rect></_>
    <_>
      <rect>
        17 11 5 10</rect></_>
    <_>
      <rect>
        17 19 2 4</rect></_>
    <_>
      <rect>
        17 21 3 2</rect></_>
    <_>
      <rect>
        17 23 2 2</rect></_>
    <_>
      <rect>
        17 23 3 2</rect></_>
    <_>
      <rect>
        17 24 2 2</rect></_>
    <_>
      <rect>
        17 24 3 1</rect></_>
    <_>
      <rect>
        17 24 3 2</rect></_>
    <_>
      <rect>
        17 25 2 1</rect></_>
    <_>
      <rect>
        17 28 2 2</rect></_>
    <_>
      <rect>
        18 19 1 2</rect></_>
    <_>
      <rect>
        18 19 2 2</rect></_>
    <_>
      <rect>
        18 23 5 2</rect></_>
    <_>
      <rect>
        18 24 1 1</rect></_>
    <_>
      <rect>
        18 25 1 1</rect></_>
    <_>
      <rect>
        18 25 2 1</rect></_>
    <_>
      <rect>
        19 12 5 3</rect></_>
    <_>
      <rect>
        19 15 3 3</rect></_>
    <_>
      <rect>
        19 16 3 6</rect></_>
    <_>
      <rect>
        19 16 7 3</rect></_>
    <_>
      <rect>
        19 19 5 3</rect></_>
    <_>
      <rect>
        19 21 3 2</rect></_>
    <_>
      <rect>
        19 22 1 1</rect></_>
    <_>
      <rect>
        19 23 1 2</rect></_>
    <_>
      <rect>
        19 23 7 8</rect></_>
    <_>
      <rect>
        19 25 1 1</rect></_>
    <_>
      <rect>
        19 25 6 5</rect></_>
    <_>
      <rect>
        20 24 1 1</rect></_>
    <_>
      <rect>
        20 25 1 1</rect></_>
    <_>
      <rect>
        20 26 4 2</rect></_>
    <_>
      <rect>
        21 12 4 9</rect></_>
    <_>
      <rect>
        22 9 5 5</rect></_>
    <_>
      <rect>
        22 10 6 12</rect></_>
    <_>
      <rect>
        22 14 6 9</rect></_>
    <_>
      <rect>
        22 23 2 2</rect></_>
    <_>
      <rect>
        23 14 5 5</rect></_>
    <_>
      <rect>
        23 21 2 1</rect></_>
    <_>
      <rect>
        24 7 4 7</rect></_>
    <_>
      <rect>
        24 17 4 7</rect></_>
    <_>
      <rect>
        24 21 4 2</rect></_>
    <_>
      <rect>
        24 23 5 3</rect></_>
    <_>
      <rect>
        25 13 5 9</rect></_>
    <_>
      <rect>
        25 18 5 7</rect></_></features></cascade>
</opencv_storage>
